FANN_FLO_2.1
num_layers=12
learning_rate=0.700000
connection_rate=1.000000
network_type=1
learning_momentum=0.000000
training_algorithm=2
train_error_function=0
train_stop_function=0
cascade_output_change_fraction=0.010000
quickprop_decay=-0.000100
quickprop_mu=1.750000
rprop_increase_factor=1.200000
rprop_decrease_factor=0.500000
rprop_delta_min=0.000000
rprop_delta_max=50.000000
rprop_delta_zero=0.100000
cascade_output_stagnation_epochs=12
cascade_candidate_change_fraction=0.010000
cascade_candidate_stagnation_epochs=12
cascade_max_out_epochs=150
cascade_min_out_epochs=15
cascade_max_cand_epochs=150
cascade_min_cand_epochs=15
cascade_num_candidate_groups=2
bit_fail_limit=3.49999994039535520000e-001
cascade_candidate_limit=1.00000000000000000000e+003
cascade_weight_multiplier=4.00000005960464480000e-001
cascade_activation_functions_count=10
cascade_activation_functions=3 5 7 8 10 11 14 15 16 17 
cascade_activation_steepnesses_count=4
cascade_activation_steepnesses=2.50000000000000000000e-001 5.00000000000000000000e-001 7.50000000000000000000e-001 1.00000000000000000000e+000 
layer_sizes=17 1 1 1 1 1 1 1 1 1 1 16 
scale_included=0
neurons (num_inputs, activation_function, activation_steepness)=(0, 0, 0.00000000000000000000e+000) (0, 0, 0.00000000000000000000e+000) (0, 0, 0.00000000000000000000e+000) (0, 0, 0.00000000000000000000e+000) (0, 0, 0.00000000000000000000e+000) (0, 0, 0.00000000000000000000e+000) (0, 0, 0.00000000000000000000e+000) (0, 0, 0.00000000000000000000e+000) (0, 0, 0.00000000000000000000e+000) (0, 0, 0.00000000000000000000e+000) (0, 0, 0.00000000000000000000e+000) (0, 0, 0.00000000000000000000e+000) (0, 0, 0.00000000000000000000e+000) (0, 0, 0.00000000000000000000e+000) (0, 0, 0.00000000000000000000e+000) (0, 0, 0.00000000000000000000e+000) (0, 0, 0.00000000000000000000e+000) (17, 16, 1.00000000000000000000e+000) (18, 14, 5.00000000000000000000e-001) (19, 16, 5.00000000000000000000e-001) (20, 11, 5.00000000000000000000e-001) (21, 11, 5.00000000000000000000e-001) (22, 14, 5.00000000000000000000e-001) (23, 15, 7.50000000000000000000e-001) (24, 14, 7.50000000000000000000e-001) (25, 14, 1.00000000000000000000e+000) (26, 5, 5.00000000000000000000e-001) (27, 5, 5.00000000000000000000e-001) (27, 5, 5.00000000000000000000e-001) (27, 5, 5.00000000000000000000e-001) (27, 5, 5.00000000000000000000e-001) (27, 5, 5.00000000000000000000e-001) (27, 5, 5.00000000000000000000e-001) (27, 5, 5.00000000000000000000e-001) (27, 5, 5.00000000000000000000e-001) (27, 5, 5.00000000000000000000e-001) (27, 5, 5.00000000000000000000e-001) (27, 5, 5.00000000000000000000e-001) (27, 5, 5.00000000000000000000e-001) (27, 5, 5.00000000000000000000e-001) (27, 5, 5.00000000000000000000e-001) (27, 5, 5.00000000000000000000e-001) (27, 5, 5.00000000000000000000e-001) 
connections (connected_to_neuron, weight)=(0, 2.72907376289367680000e-001) (1, 5.38871705532073970000e-001) (2, 2.44240283966064450000e-001) (3, 5.01441419124603270000e-001) (4, 4.48713511228561400000e-001) (5, 4.44153815507888790000e-001) (6, 4.96539026498794560000e-001) (7, 5.15723586082458500000e-001) (8, 2.64586269855499270000e-001) (9, 5.31066477298736570000e-001) (10, 2.93038338422775270000e-001) (11, 2.25981339812278750000e-001) (12, 4.48047012090682980000e-001) (13, 4.66947257518768310000e-001) (14, 3.84225219488143920000e-001) (15, 2.59004443883895870000e-001) (16, -1.95500266551971440000e+000) (0, 1.23403322696685790000e+000) (1, 1.23062551021575930000e+000) (2, 1.23079550266265870000e+000) (3, 1.23519861698150630000e+000) (4, 1.24062395095825200000e+000) (5, 1.24224627017974850000e+000) (6, 1.23935961723327640000e+000) (7, 1.23371195793151860000e+000) (8, 1.23474133014678960000e+000) (9, 1.23478579521179200000e+000) (10, 1.24247717857360840000e+000) (11, 1.23270320892333980000e+000) (12, 1.24073874950408940000e+000) (13, 1.23986685276031490000e+000) (14, 1.24560594558715820000e+000) (15, 1.23544299602508540000e+000) (16, -1.23369443416595460000e+000) (17, 2.14332628250122070000e+000) (0, -6.21881842613220210000e-001) (1, -6.20244801044464110000e-001) (2, -6.29623532295227050000e-001) (3, -6.05503201484680180000e-001) (4, -1.05482232570648190000e+000) (5, -6.09875321388244630000e-001) (6, -5.99489092826843260000e-001) (7, -1.08361303806304930000e+000) (8, -1.08087766170501710000e+000) (9, -6.11399352550506590000e-001) (10, -6.29077374935150150000e-001) (11, -6.12561762332916260000e-001) (12, -1.07121074199676510000e+000) (13, -6.15050375461578370000e-001) (14, -6.27719759941101070000e-001) (15, -1.07751798629760740000e+000) (16, -2.28402829170227050000e+000) (17, -1.08495163917541500000e+000) (18, -1.56827211380004880000e+000) (0, 7.71847188472747800000e-001) (1, 7.70463824272155760000e-001) (2, 7.71201908588409420000e-001) (3, 7.73596167564392090000e-001) (4, 7.75844573974609380000e-001) (5, 7.76702761650085450000e-001) (6, 7.74209737777709960000e-001) (7, 7.71997630596160890000e-001) (8, 7.72976517677307130000e-001) (9, 7.69264280796051030000e-001) (10, 7.74611592292785640000e-001) (11, 7.68428146839141850000e-001) (12, 7.74675905704498290000e-001) (13, 7.75856375694274900000e-001) (14, 7.76213228702545170000e-001) (15, 7.69802868366241460000e-001) (16, -7.79096722602844240000e-001) (17, 1.27032649517059330000e+000) (18, -8.50361958146095280000e-002) (19, -1.50676488876342770000e-001) (0, 1.19245517253875730000e+000) (1, 1.18698453903198240000e+000) (2, 1.19028711318969730000e+000) (3, 1.18961799144744870000e+000) (4, 1.19343280792236330000e+000) (5, 1.19491517543792720000e+000) (6, 1.18682694435119630000e+000) (7, 1.18929469585418700000e+000) (8, 1.18923318386077880000e+000) (9, 1.18470764160156250000e+000) (10, 1.19106805324554440000e+000) (11, 1.18303120136260990000e+000) (12, 1.19414436817169190000e+000) (13, 1.19328093528747560000e+000) (14, 1.19266569614410400000e+000) (15, 1.19151222705841060000e+000) (16, -1.21106982231140140000e+000) (17, 1.41130721569061280000e+000) (18, 1.84829330444335940000e+000) (19, 8.31426799297332760000e-001) (20, 8.87503087520599370000e-001) (0, 1.68001616001129150000e+000) (1, 1.67406892776489260000e+000) (2, 1.67090654373168950000e+000) (3, 1.67260241508483890000e+000) (4, 1.67857360839843750000e+000) (5, 1.68191337585449220000e+000) (6, 1.67826020717620850000e+000) (7, 1.67535698413848880000e+000) (8, 1.67385959625244140000e+000) (9, 1.67649936676025390000e+000) (10, 1.67598211765289310000e+000) (11, 1.67591738700866700000e+000) (12, 1.67773151397705080000e+000) (13, 1.68312954902648930000e+000) (14, 1.68186497688293460000e+000) (15, 1.68215656280517580000e+000) (16, -1.67187333106994630000e+000) (17, 1.12731683254241940000e+000) (18, 1.46843004226684570000e+000) (19, 7.05522179603576660000e-001) (20, 2.37189793586730960000e+000) (21, 8.15492928028106690000e-001) (0, 1.19322216510772710000e+000) (1, 1.18824672698974610000e+000) (2, 1.19108676910400390000e+000) (3, 1.19044327735900880000e+000) (4, 1.19242978096008300000e+000) (5, 1.18357467651367190000e+000) (6, 1.18623864650726320000e+000) (7, 1.18874871730804440000e+000) (8, 1.19182026386260990000e+000) (9, 1.18742656707763670000e+000) (10, 1.18553185462951660000e+000) (11, 1.18917858600616460000e+000) (12, 1.19127404689788820000e+000) (13, 1.18540620803833010000e+000) (14, 1.19002652168273930000e+000) (15, 1.18651700019836430000e+000) (16, 9.02990341186523440000e-001) (17, 7.36298039555549620000e-002) (18, 7.66335308551788330000e-001) (19, 1.71501791477203370000e+000) (20, 6.03022813796997070000e-001) (21, 2.63889813423156740000e+000) (22, 6.01293861865997310000e-001) (0, 1.34014797210693360000e+000) (1, 1.33152043819427490000e+000) (2, 1.33895325660705570000e+000) (3, 1.33804309368133540000e+000) (4, 1.34157502651214600000e+000) (5, 1.33497023582458500000e+000) (6, 1.33040797710418700000e+000) (7, 1.33371448516845700000e+000) (8, 1.33894932270050050000e+000) (9, 1.32974040508270260000e+000) (10, 1.33629059791564940000e+000) (11, 1.33183419704437260000e+000) (12, 1.34410989284515380000e+000) (13, 1.33343076705932620000e+000) (14, 1.34096229076385500000e+000) (15, 1.33237910270690920000e+000) (16, -1.34816086292266850000e+000) (17, 1.63770842552185060000e+000) (18, 6.12008213996887210000e-001) (19, 1.98731529712677000000e+000) (20, 9.40757572650909420000e-001) (21, 7.69519686698913570000e-001) (22, 1.32863616943359370000e+000) (23, 1.06581711769104000000e+000) (0, 1.19646930694580080000e+000) (1, 1.18936848640441890000e+000) (2, 1.19572234153747560000e+000) (3, 1.19467771053314210000e+000) (4, 1.19798934459686280000e+000) (5, 1.18704843521118160000e+000) (6, 1.18621993064880370000e+000) (7, 1.19284558296203610000e+000) (8, 1.19561779499053960000e+000) (9, 1.18753612041473390000e+000) (10, 1.18926596641540530000e+000) (11, 1.18555009365081790000e+000) (12, 1.19804847240448000000e+000) (13, 1.18601155281066890000e+000) (14, 1.19088494777679440000e+000) (15, 1.18819427490234370000e+000) (16, -1.20883154869079590000e+000) (17, 4.49203133583068850000e-001) (18, 1.85192584991455080000e+000) (19, 8.26374053955078130000e-001) (20, 1.24885058403015140000e+000) (21, 5.87049782276153560000e-001) (22, 1.72307658195495610000e+000) (23, 1.37835741043090820000e+000) (24, 1.04566252231597900000e+000) (0, 1.75814759731292720000e+000) (1, 1.74681329727172850000e+000) (2, 1.75386714935302730000e+000) (3, 1.75397944450378420000e+000) (4, 1.75991499423980710000e+000) (5, 1.75754547119140630000e+000) (6, 1.75111043453216550000e+000) (7, 1.74974322319030760000e+000) (8, 1.75010228157043460000e+000) (9, 1.74275183677673340000e+000) (10, 1.75076925754547120000e+000) (11, 1.74228942394256590000e+000) (12, 1.75746035575866700000e+000) (13, 1.75915908813476560000e+000) (14, 1.76312267780303960000e+000) (15, 1.75281786918640140000e+000) (16, -1.77693641185760500000e+000) (17, 2.70611977577209470000e+000) (18, 1.81714379787445070000e+000) (19, 1.97177243232727050000e+000) (20, 2.61394679546356200000e-001) (21, 1.13198125362396240000e+000) (22, 1.35194942355155940000e-001) (23, 9.57265079021453860000e-001) (24, 5.07359147071838380000e-001) (25, 1.89558458328247070000e+000) (0, 7.98175632953643800000e-001) (1, 6.95801317691802980000e-001) (2, 6.14950954914093020000e-001) (3, 6.85229003429412840000e-001) (4, 6.71496391296386720000e-001) (5, 5.86509883403778080000e-001) (6, 8.06923747062683110000e-001) (7, 6.90680086612701420000e-001) (8, 6.80156528949737550000e-001) (9, 6.48424327373504640000e-001) (10, 7.52758324146270750000e-001) (11, 6.75357580184936520000e-001) (12, 6.99707984924316410000e-001) (13, 6.86575472354888920000e-001) (14, 7.17590212821960450000e-001) (15, 7.05157697200775150000e-001) (16, -5.38375616073608400000e-001) (17, -7.96394646167755130000e-001) (18, -4.66078758239746090000e-001) (19, -4.35961037874221800000e-001) (20, 3.15692377090454100000e+000) (21, 2.50160312652587890000e+000) (22, -2.32537373900413510000e-001) (23, 1.72026956081390380000e+000) (24, -2.69452273845672610000e-001) (25, -1.28541871905326840000e-001) (26, -9.10725444555282590000e-004) (0, 9.09053742885589600000e-001) (1, 9.89260911941528320000e-001) (2, 9.35898840427398680000e-001) (3, 8.33489000797271730000e-001) (4, 9.99601006507873540000e-001) (5, 8.53876352310180660000e-001) (6, 9.24983680248260500000e-001) (7, 8.67145478725433350000e-001) (8, 9.67688143253326420000e-001) (9, 9.70580220222473140000e-001) (10, 9.37286317348480220000e-001) (11, 9.43373858928680420000e-001) (12, 8.84645283222198490000e-001) (13, 9.00494515895843510000e-001) (14, 1.00914371013641360000e+000) (15, 9.16815102100372310000e-001) (16, -7.75538980960845950000e-001) (17, -9.94555056095123290000e-001) (18, -7.57769823074340820000e-001) (19, -4.41046208143234250000e-001) (20, 2.89119839668273930000e+000) (21, 3.06002521514892580000e+000) (22, -1.12087666988372800000e-001) (23, 1.65155911445617680000e+000) (24, -4.99904245138168330000e-001) (25, -1.14940060302615170000e-002) (26, -2.40068379789590840000e-002) (0, 3.96253287792205810000e-001) (1, 3.95360738039016720000e-001) (2, 3.69080126285552980000e-001) (3, 3.55806529521942140000e-001) (4, 4.18199688196182250000e-001) (5, 4.02706027030944820000e-001) (6, 4.46324735879898070000e-001) (7, 3.27624291181564330000e-001) (8, 3.58213037252426150000e-001) (9, 3.20867270231246950000e-001) (10, 3.71033728122711180000e-001) (11, 4.00892525911331180000e-001) (12, 3.47121536731719970000e-001) (13, 4.39157634973526000000e-001) (14, 3.94490957260131840000e-001) (15, 4.89348083734512330000e-001) (16, -2.43466645479202270000e-001) (17, -2.67739325761795040000e-001) (18, -2.55455017089843750000e-001) (19, -2.59243488311767580000e-001) (20, 2.92212605476379390000e+000) (21, 2.77615737915039060000e+000) (22, -1.71751007437705990000e-001) (23, 1.64132165908813480000e+000) (24, -1.92934587597846980000e-001) (25, -6.33988305926322940000e-002) (26, -1.43607584759593010000e-002) (0, 5.59792160987854000000e-001) (1, 6.38383090496063230000e-001) (2, 5.84474742412567140000e-001) (3, 5.39994478225708010000e-001) (4, 6.10325753688812260000e-001) (5, 6.17137074470520020000e-001) (6, 5.70671916007995610000e-001) (7, 6.07084751129150390000e-001) (8, 6.19964241981506350000e-001) (9, 5.91301798820495610000e-001) (10, 5.03574848175048830000e-001) (11, 6.17538511753082280000e-001) (12, 5.33362746238708500000e-001) (13, 5.77883422374725340000e-001) (14, 6.85498356819152830000e-001) (15, 5.37466764450073240000e-001) (16, -4.55961078405380250000e-001) (17, -7.48039960861206050000e-001) (18, -2.41634085774421690000e-001) (19, -4.10815954208374020000e-001) (20, 2.81208634376525880000e+000) (21, 2.77155828475952150000e+000) (22, -3.04616391658782960000e-001) (23, 1.76363205909729000000e+000) (24, -1.16466172039508820000e-001) (25, -9.31847095489501950000e-002) (26, -2.41429414600133900000e-002) (0, 5.95016837120056150000e-001) (1, 6.45869851112365720000e-001) (2, 6.47476136684417720000e-001) (3, 7.35140204429626460000e-001) (4, 6.86594605445861820000e-001) (5, 6.26015424728393550000e-001) (6, 6.08577370643615720000e-001) (7, 6.15551352500915530000e-001) (8, 5.82203388214111330000e-001) (9, 6.25428497791290280000e-001) (10, 5.94423592090606690000e-001) (11, 5.71286976337432860000e-001) (12, 6.80959701538085940000e-001) (13, 6.36914849281311040000e-001) (14, 7.21151471138000490000e-001) (15, 6.85120403766632080000e-001) (16, -4.71172630786895750000e-001) (17, -3.54435265064239500000e-001) (18, 1.34936586022377010000e-001) (19, -3.86683911085128780000e-001) (20, 2.99797224998474120000e+000) (21, 2.53071570396423340000e+000) (22, -1.67454741895198820000e-002) (23, 1.61404311656951900000e+000) (24, -1.56660731881856920000e-002) (25, -9.64119448326528070000e-004) (26, 3.17803025245666500000e-003) (0, 1.60071396827697750000e+000) (1, 1.70958828926086430000e+000) (2, 1.62917923927307130000e+000) (3, 1.49876868724823000000e+000) (4, 1.57448947429656980000e+000) (5, 1.54567110538482670000e+000) (6, 1.55907368659973140000e+000) (7, 1.62924301624298100000e+000) (8, 1.58616721630096440000e+000) (9, 1.55557882785797120000e+000) (10, 1.54542660713195800000e+000) (11, 1.53025674819946290000e+000) (12, 1.52022349834442140000e+000) (13, 1.58984351158142090000e+000) (14, 1.61940455436706540000e+000) (15, 1.66715085506439210000e+000) (16, -1.44137454032897950000e+000) (17, -1.84541153907775880000e+000) (18, -1.09895892441272740000e-001) (19, -9.47037696838378910000e-001) (20, 3.40349102020263670000e+000) (21, 2.85292696952819820000e+000) (22, -1.56498417258262630000e-001) (23, 1.61261916160583500000e+000) (24, -5.38283120840787890000e-003) (25, -5.35691808909177780000e-003) (26, -2.06811935640871520000e-003) (0, 1.03205680847167970000e+000) (1, 8.76787662506103520000e-001) (2, 9.01914238929748540000e-001) (3, 1.00698316097259520000e+000) (4, 9.52566027641296390000e-001) (5, 9.02276813983917240000e-001) (6, 9.13885891437530520000e-001) (7, 9.18817341327667240000e-001) (8, 8.93033027648925780000e-001) (9, 9.09377992153167720000e-001) (10, 9.84447836875915530000e-001) (11, 9.62769448757171630000e-001) (12, 1.04140031337738040000e+000) (13, 8.69095444679260250000e-001) (14, 8.48209738731384280000e-001) (15, 9.10011708736419680000e-001) (16, -7.97128260135650630000e-001) (17, -1.17482340335845950000e+000) (18, -6.65575027465820310000e-001) (19, -3.52942377328872680000e-001) (20, 3.66211175918579100000e+000) (21, 2.45224237442016600000e+000) (22, -1.48659244179725650000e-001) (23, 1.71302187442779540000e+000) (24, -1.59027814865112300000e-001) (25, -3.12717482447624210000e-002) (26, -6.11702853348106150000e-005) (0, 9.10121321678161620000e-001) (1, 8.81946921348571780000e-001) (2, 9.33338999748229980000e-001) (3, 1.07048392295837400000e+000) (4, 9.86811935901641850000e-001) (5, 1.05189037322998050000e+000) (6, 9.77418124675750730000e-001) (7, 1.04672074317932130000e+000) (8, 9.48952317237854000000e-001) (9, 9.13914799690246580000e-001) (10, 9.90745127201080320000e-001) (11, 1.04689180850982670000e+000) (12, 9.38040077686309810000e-001) (13, 9.03505861759185790000e-001) (14, 8.82815778255462650000e-001) (15, 9.42658722400665280000e-001) (16, -8.31556081771850590000e-001) (17, -5.47327220439910890000e-001) (18, -5.62307476997375490000e-001) (19, -3.30428719520568850000e-001) (20, 3.56307053565979000000e+000) (21, 2.48106193542480470000e+000) (22, -2.98234075307846070000e-001) (23, 1.62023234367370610000e+000) (24, -1.37399971485137940000e-001) (25, -1.22502334415912630000e-001) (26, -2.61604413390159610000e-003) (0, 3.99464726448059080000e-001) (1, 3.18506389856338500000e-001) (2, 2.94183909893035890000e-001) (3, 3.74218285083770750000e-001) (4, 3.90866547822952270000e-001) (5, 3.87867957353591920000e-001) (6, 3.10622274875640870000e-001) (7, 3.47934216260910030000e-001) (8, 3.30458134412765500000e-001) (9, 3.25393408536911010000e-001) (10, 2.98128396272659300000e-001) (11, 3.49425613880157470000e-001) (12, 2.75018364191055300000e-001) (13, 3.15013438463211060000e-001) (14, 2.97054767608642580000e-001) (15, 3.29886436462402340000e-001) (16, -1.78092151880264280000e-001) (17, 6.60258829593658450000e-001) (18, -2.07303360104560850000e-001) (19, 2.63981342315673830000e-001) (20, 2.67438459396362300000e+000) (21, 2.40399074554443360000e+000) (22, 6.56616613268852230000e-002) (23, 1.57329773902893070000e+000) (24, -5.65985850989818570000e-002) (25, -2.62798741459846500000e-002) (26, 1.75949297845363620000e-002) (0, 8.12577903270721440000e-001) (1, 8.38818073272705080000e-001) (2, 7.84602880477905270000e-001) (3, 8.28935801982879640000e-001) (4, 7.71707534790039060000e-001) (5, 9.31689083576202390000e-001) (6, 7.98463463783264160000e-001) (7, 8.02463114261627200000e-001) (8, 7.53727495670318600000e-001) (9, 7.91916847229003910000e-001) (10, 8.13996016979217530000e-001) (11, 8.71242940425872800000e-001) (12, 1.03835666179656980000e+000) (13, 8.05316269397735600000e-001) (14, 8.62173497676849370000e-001) (15, 8.20930182933807370000e-001) (16, -6.81927382946014400000e-001) (17, -5.60501337051391600000e-001) (18, -6.16202354431152340000e-001) (19, -4.85240668058395390000e-001) (20, 3.13089966773986820000e+000) (21, 2.63703918457031250000e+000) (22, -2.23061233758926390000e-001) (23, 1.86898016929626460000e+000) (24, -4.24384549260139470000e-002) (25, -1.11759282648563390000e-001) (26, -1.17828525602817540000e-001) (0, 1.09457457065582280000e+000) (1, 1.17357659339904790000e+000) (2, 1.19567406177520750000e+000) (3, 1.16086256504058840000e+000) (4, 1.12467062473297120000e+000) (5, 1.14657938480377200000e+000) (6, 1.19369423389434810000e+000) (7, 1.29579234123229980000e+000) (8, 1.10998737812042240000e+000) (9, 1.12734091281890870000e+000) (10, 1.11734521389007570000e+000) (11, 1.18271887302398680000e+000) (12, 1.11876595020294190000e+000) (13, 1.23922955989837650000e+000) (14, 1.14269125461578370000e+000) (15, 1.21002686023712160000e+000) (16, -9.96457636356353760000e-001) (17, -1.26714420318603520000e+000) (18, -1.03997659683227540000e+000) (19, -7.55385696887969970000e-001) (20, 3.42892146110534670000e+000) (21, 4.49752712249755860000e+000) (22, -7.94121861457824710000e-001) (23, 3.17710566520690920000e+000) (24, -2.74066001176834110000e-001) (25, -1.87901198863983150000e-001) (26, -1.36669138446450230000e-002) (0, 6.20014131069183350000e-001) (1, 6.73105180263519290000e-001) (2, 7.51807510852813720000e-001) (3, 6.62507414817810060000e-001) (4, 6.05462253093719480000e-001) (5, 5.64904630184173580000e-001) (6, 6.02966070175170900000e-001) (7, 6.04492247104644780000e-001) (8, 7.74613738059997560000e-001) (9, 8.72980773448944090000e-001) (10, 7.59229004383087160000e-001) (11, 7.06349730491638180000e-001) (12, 6.49659276008605960000e-001) (13, 6.14034116268157960000e-001) (14, 6.70894324779510500000e-001) (15, 5.43613076210021970000e-001) (16, -5.12848436832427980000e-001) (17, -6.37609302997589110000e-001) (18, -1.11470401287078860000e+000) (19, -4.05455380678176880000e-001) (20, 3.03696918487548830000e+000) (21, 2.69248533248901370000e+000) (22, -3.58008563518524170000e-001) (23, 1.81669652462005620000e+000) (24, -1.15404531359672550000e-001) (25, -1.31480246782302860000e-001) (26, 5.64782647415995600000e-004) (0, 9.21586096286773680000e-001) (1, 9.48400557041168210000e-001) (2, 9.99668002128601070000e-001) (3, 9.63482320308685300000e-001) (4, 9.28193569183349610000e-001) (5, 9.22762870788574220000e-001) (6, 9.34096455574035640000e-001) (7, 9.05874788761138920000e-001) (8, 1.02895438671112060000e+000) (9, 1.01005935668945310000e+000) (10, 9.49928700923919680000e-001) (11, 1.03472983837127690000e+000) (12, 1.11638033390045170000e+000) (13, 9.65753972530364990000e-001) (14, 8.42839181423187260000e-001) (15, 9.84412312507629390000e-001) (16, -8.14150333404541020000e-001) (17, -8.68862926959991460000e-001) (18, -1.01373434066772460000e+000) (19, -2.60639786720275880000e-001) (20, 3.11909103393554690000e+000) (21, 2.60716366767883300000e+000) (22, -4.05411899089813230000e-001) (23, 1.79135346412658690000e+000) (24, -1.60300090909004210000e-001) (25, -1.60700634121894840000e-001) (26, 1.20233841240406040000e-001) (0, 8.10672521591186520000e-001) (1, 5.75559556484222410000e-001) (2, 6.27791464328765870000e-001) (3, 7.02902078628540040000e-001) (4, 6.36754572391510010000e-001) (5, 6.87709331512451170000e-001) (6, 7.31868147850036620000e-001) (7, 6.45014345645904540000e-001) (8, 6.89855039119720460000e-001) (9, 7.69901156425476070000e-001) (10, 7.94577419757843020000e-001) (11, 6.07635915279388430000e-001) (12, 6.31851315498352050000e-001) (13, 6.98412001132965090000e-001) (14, 7.04745829105377200000e-001) (15, 6.07336103916168210000e-001) (16, -5.26375353336334230000e-001) (17, -4.81840968132019040000e-001) (18, -4.01359200477600100000e-001) (19, -5.92011690139770510000e-001) (20, 3.04587984085083010000e+000) (21, 2.63398075103759770000e+000) (22, -1.19782343506813050000e-001) (23, 1.67301702499389650000e+000) (24, -1.10666930675506590000e-001) (25, -1.14732518792152400000e-001) (26, -1.19643241167068480000e-001) (0, 5.28234839439392090000e-001) (1, 5.26876151561737060000e-001) (2, 5.00223517417907710000e-001) (3, 5.22345423698425290000e-001) (4, 5.01448631286621090000e-001) (5, 5.64383804798126220000e-001) (6, 4.91450339555740360000e-001) (7, 5.28465747833251950000e-001) (8, 4.40050601959228520000e-001) (9, 5.09318053722381590000e-001) (10, 4.20846134424209590000e-001) (11, 4.55326288938522340000e-001) (12, 4.52575981616973880000e-001) (13, 5.69287478923797610000e-001) (14, 4.74769204854965210000e-001) (15, 5.39996147155761720000e-001) (16, -3.40892136096954350000e-001) (17, -4.34294551610946660000e-001) (18, -4.28822129964828490000e-001) (19, -3.66965264081954960000e-001) (20, 4.09201288223266600000e+000) (21, 3.75582408905029300000e+000) (22, -3.73449772596359250000e-001) (23, 1.75833356380462650000e+000) (24, -9.78187769651412960000e-002) (25, -1.20598159730434420000e-001) (26, -1.13634385168552400000e-001) (0, 1.22164344787597660000e+000) (1, 1.27253699302673340000e+000) (2, 1.35133874416351320000e+000) (3, 1.19675326347351070000e+000) (4, 1.27670192718505860000e+000) (5, 1.27945816516876220000e+000) (6, 1.29069840908050540000e+000) (7, 1.32663381099700930000e+000) (8, 1.40145242214202880000e+000) (9, 1.28055238723754880000e+000) (10, 1.27692067623138430000e+000) (11, 1.30615544319152830000e+000) (12, 1.22360503673553470000e+000) (13, 1.29271066188812260000e+000) (14, 1.29942798614501950000e+000) (15, 1.31035709381103520000e+000) (16, -1.13682651519775390000e+000) (17, -1.82503908872604370000e-001) (18, -1.22746539115905760000e+000) (19, -9.13869678974151610000e-001) (20, 3.49666833877563480000e+000) (21, 2.50617933273315430000e+000) (22, -3.65854233503341670000e-001) (23, 1.78910422325134280000e+000) (24, -4.21154916286468510000e-001) (25, -2.32494086027145390000e-001) (26, -1.33313730359077450000e-001) 
