FANN_FLO_2.1
num_layers=12
learning_rate=0.700000
connection_rate=1.000000
network_type=1
learning_momentum=0.000000
training_algorithm=2
train_error_function=0
train_stop_function=0
cascade_output_change_fraction=0.010000
quickprop_decay=-0.000100
quickprop_mu=1.750000
rprop_increase_factor=1.200000
rprop_decrease_factor=0.500000
rprop_delta_min=0.000000
rprop_delta_max=50.000000
rprop_delta_zero=0.100000
cascade_output_stagnation_epochs=12
cascade_candidate_change_fraction=0.010000
cascade_candidate_stagnation_epochs=12
cascade_max_out_epochs=150
cascade_min_out_epochs=15
cascade_max_cand_epochs=150
cascade_min_cand_epochs=15
cascade_num_candidate_groups=2
bit_fail_limit=3.49999994039535520000e-001
cascade_candidate_limit=1.00000000000000000000e+003
cascade_weight_multiplier=4.00000005960464480000e-001
cascade_activation_functions_count=10
cascade_activation_functions=3 5 7 8 10 11 14 15 16 17 
cascade_activation_steepnesses_count=4
cascade_activation_steepnesses=2.50000000000000000000e-001 5.00000000000000000000e-001 7.50000000000000000000e-001 1.00000000000000000000e+000 
layer_sizes=17 1 1 1 1 1 1 1 1 1 1 16 
scale_included=0
neurons (num_inputs, activation_function, activation_steepness)=(0, 0, 0.00000000000000000000e+000) (0, 0, 0.00000000000000000000e+000) (0, 0, 0.00000000000000000000e+000) (0, 0, 0.00000000000000000000e+000) (0, 0, 0.00000000000000000000e+000) (0, 0, 0.00000000000000000000e+000) (0, 0, 0.00000000000000000000e+000) (0, 0, 0.00000000000000000000e+000) (0, 0, 0.00000000000000000000e+000) (0, 0, 0.00000000000000000000e+000) (0, 0, 0.00000000000000000000e+000) (0, 0, 0.00000000000000000000e+000) (0, 0, 0.00000000000000000000e+000) (0, 0, 0.00000000000000000000e+000) (0, 0, 0.00000000000000000000e+000) (0, 0, 0.00000000000000000000e+000) (0, 0, 0.00000000000000000000e+000) (17, 14, 5.00000000000000000000e-001) (18, 8, 5.00000000000000000000e-001) (19, 15, 7.50000000000000000000e-001) (20, 8, 5.00000000000000000000e-001) (21, 5, 1.00000000000000000000e+000) (22, 10, 2.50000000000000000000e-001) (23, 3, 7.50000000000000000000e-001) (24, 14, 1.00000000000000000000e+000) (25, 10, 1.00000000000000000000e+000) (26, 15, 7.50000000000000000000e-001) (27, 5, 5.00000000000000000000e-001) (27, 5, 5.00000000000000000000e-001) (27, 5, 5.00000000000000000000e-001) (27, 5, 5.00000000000000000000e-001) (27, 5, 5.00000000000000000000e-001) (27, 5, 5.00000000000000000000e-001) (27, 5, 5.00000000000000000000e-001) (27, 5, 5.00000000000000000000e-001) (27, 5, 5.00000000000000000000e-001) (27, 5, 5.00000000000000000000e-001) (27, 5, 5.00000000000000000000e-001) (27, 5, 5.00000000000000000000e-001) (27, 5, 5.00000000000000000000e-001) (27, 5, 5.00000000000000000000e-001) (27, 5, 5.00000000000000000000e-001) (27, 5, 5.00000000000000000000e-001) 
connections (connected_to_neuron, weight)=(0, 7.80196726322174070000e-001) (1, 7.84823179244995120000e-001) (2, 7.56236553192138670000e-001) (3, 7.55360782146453860000e-001) (4, 7.70851910114288330000e-001) (5, 7.66759395599365230000e-001) (6, 7.58780002593994140000e-001) (7, 7.59607017040252690000e-001) (8, 7.64557182788848880000e-001) (9, 7.79186666011810300000e-001) (10, 7.41163492202758790000e-001) (11, 7.27043271064758300000e-001) (12, 7.69928336143493650000e-001) (13, 7.75302410125732420000e-001) (14, 7.25060641765594480000e-001) (15, 7.66409456729888920000e-001) (16, -7.49857068061828610000e-001) (0, 1.24055874347686770000e+000) (1, 1.24111711978912350000e+000) (2, 1.25253653526306150000e+000) (3, 1.25252068042755130000e+000) (4, 1.23558735847473140000e+000) (5, 1.24223220348358150000e+000) (6, 1.24656176567077640000e+000) (7, 1.23685133457183840000e+000) (8, 1.24135172367095950000e+000) (9, 1.24311053752899170000e+000) (10, 1.24663794040679930000e+000) (11, 1.25923991203308110000e+000) (12, 1.23976695537567140000e+000) (13, 1.23718953132629390000e+000) (14, 1.26261031627655030000e+000) (15, 1.24351882934570310000e+000) (16, 4.26871806383132930000e-001) (17, 7.66782402992248540000e-001) (0, 2.54364085197448730000e+000) (1, 2.54396867752075200000e+000) (2, 2.57750487327575680000e+000) (3, -1.59508585929870610000e+000) (4, 2.53893518447875980000e+000) (5, -1.61526715755462650000e+000) (6, -1.60545825958251950000e+000) (7, 2.54612684249877930000e+000) (8, -1.61810302734375000000e+000) (9, 2.54772162437438960000e+000) (10, 2.57187652587890620000e+000) (11, 2.60186672210693360000e+000) (12, 2.54600667953491210000e+000) (13, 2.53881669044494630000e+000) (14, -1.56092035770416260000e+000) (15, 2.55600953102111820000e+000) (16, -4.69044685363769530000e-001) (17, 2.41011500358581540000e+000) (18, 2.22104716300964360000e+000) (0, 2.68157172203063960000e+000) (1, -6.39329075813293460000e-001) (2, -6.19047403335571290000e-001) (3, -6.14281892776489260000e-001) (4, 2.68220520019531250000e+000) (5, 2.68670582771301270000e+000) (6, -6.24891757965087890000e-001) (7, 2.68441438674926760000e+000) (8, -6.27692937850952150000e-001) (9, -6.36299431324005130000e-001) (10, 2.69460439682006840000e+000) (11, -6.05880618095397950000e-001) (12, -6.41203463077545170000e-001) (13, 2.68148660659790040000e+000) (14, 2.71759533882141110000e+000) (15, 2.68959879875183110000e+000) (16, -1.04356741905212400000e+000) (17, 1.22699320316314700000e+000) (18, 7.70785689353942870000e-001) (19, 1.76102244853973390000e+000) (0, 4.32028442621231080000e-001) (1, 4.37616229057312010000e-001) (2, 4.28681999444961550000e-001) (3, 4.32868957519531250000e-001) (4, 4.07523751258850100000e-001) (5, 4.15613979101181030000e-001) (6, 4.16228383779525760000e-001) (7, 3.97464275360107420000e-001) (8, 4.18693482875823970000e-001) (9, 4.37002807855606080000e-001) (10, 3.98533582687377930000e-001) (11, 4.08397555351257320000e-001) (12, 4.14043337106704710000e-001) (13, 4.16247814893722530000e-001) (14, 4.16390925645828250000e-001) (15, 4.18257385492324830000e-001) (16, -4.02324914932250980000e-001) (17, -6.23300194740295410000e-001) (18, 2.60082006454467770000e+000) (19, 1.17802906036376950000e+000) (20, -3.29946309328079220000e-001) (0, -2.28353195190429690000e+001) (1, -2.09046630859375000000e+002) (2, -4.31466865539550780000e+001) (3, -1.50000000000000000000e+003) (4, -2.17506164550781250000e+002) (5, 9.56817054748535160000e+000) (6, -1.37998840332031250000e+002) (7, -1.50000000000000000000e+003) (8, -6.80068588256835940000e+001) (9, -6.87201232910156250000e+001) (10, -3.07825042724609370000e+002) (11, -2.22722656250000000000e+002) (12, -6.02383880615234380000e+001) (13, -2.75129432678222660000e+001) (14, 2.24701004028320310000e+001) (15, -2.35385543823242190000e+002) (16, -2.75328216552734370000e+002) (17, 7.29680633544921880000e+001) (18, 3.15156402587890630000e+002) (19, -2.74900085449218750000e+002) (20, -2.99814086914062500000e+002) (21, 4.14889221191406250000e+002) (0, -1.13575005531311040000e+000) (1, -1.15253055095672610000e+000) (2, -1.37695705890655520000e+000) (3, -1.35342943668365480000e+000) (4, -1.18809163570404050000e+000) (5, -1.33736217021942140000e+000) (6, -1.18028676509857180000e+000) (7, -1.27857589721679690000e+000) (8, -1.39764392375946040000e+000) (9, -1.25118839740753170000e+000) (10, -1.34430205821990970000e+000) (11, -1.38715898990631100000e+000) (12, -1.25865423679351810000e+000) (13, -1.33654904365539550000e+000) (14, -1.31888580322265630000e+000) (15, -1.34682035446166990000e+000) (16, -3.83431911468505860000e+000) (17, -4.06245660781860350000e+000) (18, 7.39084625244140620000e+000) (19, -2.48227715492248540000e+000) (20, -2.55378651618957520000e+000) (21, 8.40560722351074220000e+000) (22, -2.48126602172851560000e+000) (0, 1.57236814498901370000e+000) (1, 1.58516430854797360000e+000) (2, 1.60226678848266600000e+000) (3, 1.60539650917053220000e+000) (4, 1.58687150478363040000e+000) (5, 1.58493280410766600000e+000) (6, 1.60335981845855710000e+000) (7, -1.55450737476348880000e+000) (8, 1.57498764991760250000e+000) (9, 1.57218825817108150000e+000) (10, 1.60480904579162600000e+000) (11, 1.62366223335266110000e+000) (12, 1.58835124969482420000e+000) (13, 1.57683587074279790000e+000) (14, 1.62406826019287110000e+000) (15, 1.60104310512542720000e+000) (16, 1.54155814647674560000e+000) (17, 1.75810706615448000000e+000) (18, 1.12071061134338380000e+000) (19, 7.74661004543304440000e-001) (20, 1.37890601158142090000e+000) (21, 2.49180340766906740000e+000) (22, 2.42369914054870610000e+000) (23, 2.14804339408874510000e+000) (0, 5.82668273925781250000e+002) (1, 5.66230895996093750000e+002) (2, 5.94504333496093750000e+002) (3, 4.34199951171875000000e+002) (4, 5.68546875000000000000e+002) (5, 5.87391906738281250000e+002) (6, 5.95817504882812500000e+002) (7, -1.50000000000000000000e+003) (8, 6.01937316894531250000e+002) (9, 5.81515808105468750000e+002) (10, 2.84199951171875000000e+002) (11, 5.98976684570312500000e+002) (12, 5.93818420410156250000e+002) (13, 5.67093566894531250000e+002) (14, 5.73130493164062500000e+002) (15, 6.03075744628906250000e+002) (16, -6.74552368164062500000e+002) (17, 9.22223892211914060000e+001) (18, 6.13386535644531250000e+002) (19, -9.45999221801757810000e+001) (20, -1.33747973632812500000e+003) (21, 6.00709838867187500000e+002) (22, 7.19431610107421880000e+001) (23, -7.32524658203125000000e+002) (24, 1.03791491699218750000e+003) (0, 1.37990355491638180000e+000) (1, 1.39808773994445800000e+000) (2, 1.39116871356964110000e+000) (3, 1.39117610454559330000e+000) (4, 1.38524603843688960000e+000) (5, 1.37807130813598630000e+000) (6, 1.39515960216522220000e+000) (7, 1.38108551502227780000e+000) (8, 1.36605453491210940000e+000) (9, 1.37820529937744140000e+000) (10, 1.37519109249114990000e+000) (11, 1.38876616954803470000e+000) (12, 1.38740622997283940000e+000) (13, 1.37896728515625000000e+000) (14, 1.39458489418029790000e+000) (15, 1.39639222621917720000e+000) (16, 7.06156432628631590000e-001) (17, 3.10979187488555910000e-001) (18, 1.51180648803710940000e+000) (19, 1.78085196018218990000e+000) (20, 2.16811704635620120000e+000) (21, 2.68996763229370120000e+000) (22, 2.02681469917297360000e+000) (23, 2.82351002097129820000e-002) (24, 7.68169701099395750000e-001) (25, 9.35904324054718020000e-001) (0, 1.68508028984069820000e+000) (1, 1.61142647266387940000e+000) (2, 1.59919691085815430000e+000) (3, 1.70686876773834230000e+000) (4, 1.61599075794219970000e+000) (5, 1.56938076019287110000e+000) (6, 1.93076384067535400000e+000) (7, 1.64745628833770750000e+000) (8, 1.66658747196197510000e+000) (9, 1.64349055290222170000e+000) (10, 1.64580762386322020000e+000) (11, 1.66305053234100340000e+000) (12, 1.66024756431579590000e+000) (13, 1.63580012321472170000e+000) (14, 1.70671021938323970000e+000) (15, 1.69825184345245360000e+000) (16, -1.46913683414459230000e+000) (17, 1.87419176101684570000e-001) (18, 3.65652751922607420000e+000) (19, -3.68692219257354740000e-001) (20, -2.42420449852943420000e-001) (21, 2.38846635818481450000e+000) (22, -2.29625627398490910000e-001) (23, -6.10612750053405760000e-001) (24, 1.03155314922332760000e+000) (25, -2.56270140409469600000e-001) (26, 4.95217680931091310000e-001) (0, 1.07866418361663820000e+000) (1, 1.26247227191925050000e+000) (2, 1.15782010555267330000e+000) (3, 1.03057658672332760000e+000) (4, 1.25163567066192630000e+000) (5, 1.03198683261871340000e+000) (6, 1.10495328903198240000e+000) (7, 1.00125980377197270000e+000) (8, 1.16681337356567380000e+000) (9, 1.22295498847961430000e+000) (10, 1.08936893939971920000e+000) (11, 1.14276134967803960000e+000) (12, 1.07558667659759520000e+000) (13, 1.10204052925109860000e+000) (14, 1.22806227207183840000e+000) (15, 1.07694780826568600000e+000) (16, -9.06970560550689700000e-001) (17, -1.01730895042419430000e+000) (18, 3.84926009178161620000e+000) (19, -2.78501003980636600000e-001) (20, -7.01108038425445560000e-001) (21, 2.52051305770874020000e+000) (22, -1.17818176746368410000e+000) (23, -2.28120610117912290000e-001) (24, 1.41028630733489990000e+000) (25, -9.38690125942230220000e-001) (26, 3.59333068132400510000e-001) (0, 5.42462229728698730000e-001) (1, 6.57646656036376950000e-001) (2, 6.25530183315277100000e-001) (3, 5.86290061473846440000e-001) (4, 5.47993421554565430000e-001) (5, 5.88400483131408690000e-001) (6, 6.31046175956726070000e-001) (7, 4.26580518484115600000e-001) (8, 5.14974772930145260000e-001) (9, 4.67207610607147220000e-001) (10, 5.17327606678009030000e-001) (11, 5.74311554431915280000e-001) (12, 4.98362302780151370000e-001) (13, 6.48040831089019780000e-001) (14, 5.36068856716156010000e-001) (15, 5.88322401046752930000e-001) (16, -3.85968357324600220000e-001) (17, -7.00816154479980470000e-001) (18, 3.70761871337890630000e+000) (19, -2.85758316516876220000e-001) (20, -7.23283961415290830000e-002) (21, 3.04101347923278810000e+000) (22, -3.95243048667907710000e-001) (23, -2.64453887939453130000e-001) (24, 1.50165176391601560000e+000) (25, -1.32287293672561650000e-001) (26, 4.07631039619445800000e-001) (0, 8.65480780601501460000e-001) (1, 9.07981395721435550000e-001) (2, 8.46598386764526370000e-001) (3, 7.74932563304901120000e-001) (4, 8.48556458950042720000e-001) (5, 8.12176525592803960000e-001) (6, 7.85517930984497070000e-001) (7, 8.79442989826202390000e-001) (8, 9.02927041053771970000e-001) (9, 9.02145802974700930000e-001) (10, 7.21896827220916750000e-001) (11, 7.83986091613769530000e-001) (12, 8.12356472015380860000e-001) (13, 8.81541907787323000000e-001) (14, 9.90797281265258790000e-001) (15, 7.75162160396575930000e-001) (16, -6.33379578590393070000e-001) (17, -1.98705816268920900000e+000) (18, 5.16918706893920900000e+000) (19, -8.48840534687042240000e-001) (20, -8.88857305049896240000e-001) (21, 2.23314380645751950000e+000) (22, -1.74307182431221010000e-001) (23, 9.57733094692230220000e-002) (24, 9.43289756774902340000e-001) (25, 1.19492143392562870000e-001) (26, 9.29051160812377930000e-001) (0, 1.25488400459289550000e+000) (1, 1.26356422901153560000e+000) (2, 1.39039766788482670000e+000) (3, 1.47435629367828370000e+000) (4, 1.39405953884124760000e+000) (5, 1.25420928001403810000e+000) (6, 1.28678405284881590000e+000) (7, 1.23074460029602050000e+000) (8, 1.26335954666137700000e+000) (9, 1.29090774059295650000e+000) (10, 1.27082586288452150000e+000) (11, 1.24523830413818360000e+000) (12, 1.39396369457244870000e+000) (13, 1.31758630275726320000e+000) (14, 1.37162899971008300000e+000) (15, 1.38152599334716800000e+000) (16, -1.08867216110229490000e+000) (17, -7.23759710788726810000e-001) (18, 4.51725578308105470000e+000) (19, -5.98141014575958250000e-001) (20, -3.82814228534698490000e-001) (21, 3.08664894104003910000e+000) (22, -1.80938526988029480000e-001) (23, -1.39540731906890870000e-001) (24, 1.25928711891174320000e+000) (25, -2.98624299466609950000e-002) (26, 3.38975876569747920000e-001) (0, 1.69099903106689450000e+000) (1, 1.79789495468139650000e+000) (2, 1.62635934352874760000e+000) (3, 1.55591893196105960000e+000) (4, 1.58768761157989500000e+000) (5, 1.58352458477020260000e+000) (6, 1.56990349292755130000e+000) (7, 1.57363808155059810000e+000) (8, 1.55774128437042240000e+000) (9, 1.57425439357757570000e+000) (10, 1.53061664104461670000e+000) (11, 1.60340523719787600000e+000) (12, 1.53489625453948970000e+000) (13, 1.64284646511077880000e+000) (14, 1.68552553653717040000e+000) (15, 1.71539080142974850000e+000) (16, -1.43276417255401610000e+000) (17, 5.23510634899139400000e-001) (18, 4.00422286987304690000e+000) (19, -3.89865458011627200000e-001) (20, -8.41301381587982180000e-001) (21, 3.65911054611206050000e+000) (22, 5.19714832305908200000e-001) (23, -1.41462826728820800000e+000) (24, 1.42608010768890380000e+000) (25, -2.23494067788124080000e-001) (26, 4.61650907993316650000e-001) (0, 9.67624008655548100000e-001) (1, 7.79357731342315670000e-001) (2, 7.21978962421417240000e-001) (3, 9.64636743068695070000e-001) (4, 7.79904305934906010000e-001) (5, 7.36255705356597900000e-001) (6, 7.06320703029632570000e-001) (7, 7.62560427188873290000e-001) (8, 7.15890824794769290000e-001) (9, 7.01209366321563720000e-001) (10, 8.13983261585235600000e-001) (11, 7.95644819736480710000e-001) (12, 8.72940659523010250000e-001) (13, 7.21665143966674800000e-001) (14, 7.59570598602294920000e-001) (15, 8.25914919376373290000e-001) (16, -6.31586611270904540000e-001) (17, 5.12731611728668210000e-001) (18, 4.34454441070556640000e+000) (19, -3.35622519254684450000e-001) (20, -1.58354535698890690000e-001) (21, 2.67802667617797850000e+000) (22, -1.61621645092964170000e-001) (23, -1.39425173401832580000e-001) (24, 1.31084048748016360000e+000) (25, -1.24185435473918910000e-001) (26, 4.75992828607559200000e-001) (0, 4.22889858484268190000e-001) (1, 4.69901114702224730000e-001) (2, 5.32250404357910160000e-001) (3, 5.48677206039428710000e-001) (4, 5.39289891719818120000e-001) (5, 6.35291576385498050000e-001) (6, 6.42546117305755620000e-001) (7, 6.31686091423034670000e-001) (8, 5.15540719032287600000e-001) (9, 4.62465435266494750000e-001) (10, 5.25689542293548580000e-001) (11, 5.35244405269622800000e-001) (12, 5.02098917961120610000e-001) (13, 4.86872166395187380000e-001) (14, 4.56071555614471440000e-001) (15, 5.02720594406127930000e-001) (16, -3.56362104415893550000e-001) (17, -4.89521086215972900000e-001) (18, 3.56539177894592290000e+000) (19, -1.91780656576156620000e-001) (20, -1.38368368148803710000e-001) (21, 1.96940565109252930000e+000) (22, -1.55627682805061340000e-001) (23, -1.26685351133346560000e-001) (24, 1.24408161640167240000e+000) (25, -1.36615365743637080000e-001) (26, 1.37651339173316960000e-001) (0, 1.28304088115692140000e+000) (1, 1.24243843555450440000e+000) (2, 1.20998239517211910000e+000) (3, 1.26406002044677730000e+000) (4, 1.27677559852600100000e+000) (5, 1.21584045886993410000e+000) (6, 1.15006804466247560000e+000) (7, 1.15277671813964840000e+000) (8, 1.14664041996002200000e+000) (9, 1.27658021450042720000e+000) (10, 1.20150279998779300000e+000) (11, 1.30426287651062010000e+000) (12, 1.16952872276306150000e+000) (13, 1.15388393402099610000e+000) (14, 1.18059670925140380000e+000) (15, 1.25616168975830080000e+000) (16, -1.01301836967468260000e+000) (17, 5.79960644245147710000e-002) (18, 3.99835491180419920000e+000) (19, -7.36583530902862550000e-001) (20, -6.32242739200592040000e-001) (21, 2.55316805839538570000e+000) (22, -4.62499886751174930000e-001) (23, -6.39715611934661870000e-001) (24, 1.63657629489898680000e+000) (25, -2.52192616462707520000e-001) (26, 4.79663282632827760000e-001) (0, 1.33858704566955570000e+000) (1, 1.30524075031280520000e+000) (2, 1.39051091670989990000e+000) (3, 1.30588293075561520000e+000) (4, 1.30128800868988040000e+000) (5, 1.52804362773895260000e+000) (6, 1.39106404781341550000e+000) (7, 1.32762384414672850000e+000) (8, 1.19671010971069340000e+000) (9, 1.29989159107208250000e+000) (10, 1.32475483417510990000e+000) (11, 1.42743825912475590000e+000) (12, 1.58344733715057370000e+000) (13, 1.32444143295288090000e+000) (14, 1.38519322872161870000e+000) (15, 1.38711261749267580000e+000) (16, -1.12863004207611080000e+000) (17, -3.36020559072494510000e-001) (18, 4.43285131454467770000e+000) (19, -1.31613123416900630000e+000) (20, -6.95756614208221440000e-001) (21, 3.06329393386840820000e+000) (22, -6.63713693618774410000e-001) (23, -5.97736001014709470000e-001) (24, 1.58912289142608640000e+000) (25, -2.97592699527740480000e-001) (26, 1.58188775181770320000e-001) (0, 7.15062260627746580000e-001) (1, 8.46804738044738770000e-001) (2, 9.47895765304565430000e-001) (3, 7.19970524311065670000e-001) (4, 7.32543408870697020000e-001) (5, 8.12799751758575440000e-001) (6, 7.91588366031646730000e-001) (7, 9.18872654438018800000e-001) (8, 7.69081592559814450000e-001) (9, 7.55840063095092770000e-001) (10, 7.37102031707763670000e-001) (11, 8.28039944171905520000e-001) (12, 7.23274290561676030000e-001) (13, 8.80167365074157710000e-001) (14, 6.26126587390899660000e-001) (15, 8.55733454227447510000e-001) (16, -5.59949815273284910000e-001) (17, -3.65571618080139160000e+000) (18, 6.23822116851806640000e+000) (19, -5.06452798843383790000e-001) (20, -3.76805424690246580000e-001) (21, 3.63205313682556150000e+000) (22, -3.70522826910018920000e-001) (23, -3.12584221363067630000e-001) (24, 1.03635382652282710000e+000) (25, -2.51662749797105790000e-002) (26, 3.43946546316146850000e-001) (0, 1.51547908782958980000e+000) (1, 1.55147528648376460000e+000) (2, 1.56564605236053470000e+000) (3, 1.48375320434570310000e+000) (4, 1.41465938091278080000e+000) (5, 1.43672609329223630000e+000) (6, 1.40226840972900390000e+000) (7, 1.41505718231201170000e+000) (8, 1.64993059635162350000e+000) (9, 1.80875217914581300000e+000) (10, 1.69335675239562990000e+000) (11, 1.52415108680725100000e+000) (12, 1.43273878097534180000e+000) (13, 1.38647222518920900000e+000) (14, 1.56456136703491210000e+000) (15, 1.40105545520782470000e+000) (16, -1.32124924659729000000e+000) (17, -2.21100881695747380000e-001) (18, 3.61915469169616700000e+000) (19, -1.05730020999908450000e+000) (20, -7.49664604663848880000e-001) (21, 2.64540362358093260000e+000) (22, -5.37351250648498540000e-001) (23, -4.41949069499969480000e-001) (24, 1.39512395858764650000e+000) (25, -1.67668044567108150000e-001) (26, 4.79143530130386350000e-001) (0, 1.03427255153656010000e+000) (1, 1.07312417030334470000e+000) (2, 1.12710320949554440000e+000) (3, 1.07365572452545170000e+000) (4, 9.24289464950561520000e-001) (5, 9.50330972671508790000e-001) (6, 1.02365136146545410000e+000) (7, 9.15280938148498540000e-001) (8, 9.62607860565185550000e-001) (9, 1.06628191471099850000e+000) (10, 9.11877214908599850000e-001) (11, 9.75087583065032960000e-001) (12, 1.27533483505249020000e+000) (13, 1.05841875076293950000e+000) (14, 8.98619592189788820000e-001) (15, 1.03604304790496830000e+000) (16, -8.12094509601593020000e-001) (17, -1.10685908794403080000e+000) (18, 4.28816699981689450000e+000) (19, -8.06304156780242920000e-001) (20, -6.78859829902648930000e-001) (21, 3.46270108222961430000e+000) (22, -1.48774611949920650000e+000) (23, -2.13264182209968570000e-001) (24, 1.44053542613983150000e+000) (25, -1.45081460475921630000e-001) (26, 3.34233850240707400000e-001) (0, 1.00982475280761720000e+000) (1, 7.11313247680664060000e-001) (2, 8.66567492485046390000e-001) (3, 9.09401416778564450000e-001) (4, 8.14754962921142580000e-001) (5, 8.24240326881408690000e-001) (6, 9.82734203338623050000e-001) (7, 7.07636952400207520000e-001) (8, 7.49635994434356690000e-001) (9, 9.21326696872711180000e-001) (10, 8.45160007476806640000e-001) (11, 7.35182762145996090000e-001) (12, 7.30872809886932370000e-001) (13, 7.62745499610900880000e-001) (14, 8.61823081970214840000e-001) (15, 7.42834985256195070000e-001) (16, -6.07550740242004390000e-001) (17, -4.23809945583343510000e-001) (18, 4.24706983566284180000e+000) (19, -7.77559757232666020000e-001) (20, -6.74165606498718260000e-001) (21, 3.64563083648681640000e+000) (22, -7.12901532649993900000e-001) (23, -6.38660073280334470000e-001) (24, 1.37797367572784420000e+000) (25, -2.64937043190002440000e-001) (26, 5.50244331359863280000e-001) (0, 9.03538405895233150000e-001) (1, 9.77729976177215580000e-001) (2, 8.50740790367126460000e-001) (3, 8.71005058288574220000e-001) (4, 9.00840997695922850000e-001) (5, 1.04418015480041500000e+000) (6, 8.41651976108551030000e-001) (7, 9.41895127296447750000e-001) (8, 8.39952230453491210000e-001) (9, 9.01162385940551760000e-001) (10, 7.96794712543487550000e-001) (11, 8.62440764904022220000e-001) (12, 8.64288806915283200000e-001) (13, 1.04719352722167970000e+000) (14, 8.65805029869079590000e-001) (15, 9.49602246284484860000e-001) (16, -7.07701981067657470000e-001) (17, -3.95127803087234500000e-001) (18, 4.13215780258178710000e+000) (19, -4.57220822572708130000e-001) (20, -4.06721740961074830000e-001) (21, 2.31974244117736820000e+000) (22, -4.35628622770309450000e-001) (23, -3.60505044460296630000e-001) (24, 1.35505270957946780000e+000) (25, -2.02883332967758180000e-001) (26, 5.49685597419738770000e-001) (0, 1.13828361034393310000e+000) (1, 1.18305063247680660000e+000) (2, 1.16447246074676510000e+000) (3, 1.08824670314788820000e+000) (4, 1.09912371635437010000e+000) (5, 1.22139680385589600000e+000) (6, 1.16235423088073730000e+000) (7, 1.20309615135192870000e+000) (8, 1.37400853633880620000e+000) (9, 1.21074748039245610000e+000) (10, 1.13680565357208250000e+000) (11, 1.19094252586364750000e+000) (12, 1.03673601150512700000e+000) (13, 1.11949503421783450000e+000) (14, 1.14662754535675050000e+000) (15, 1.21819114685058590000e+000) (16, -9.43633019924163820000e-001) (17, -1.70016443729400630000e+000) (18, 4.63291215896606450000e+000) (19, -1.38174271583557130000e+000) (20, -1.16367769241333010000e+000) (21, 3.59716343879699710000e+000) (22, -2.66363203525543210000e-001) (23, -3.27404141426086430000e-001) (24, 1.25059580802917480000e+000) (25, -2.60812073945999150000e-001) (26, 2.97954261302948000000e-001) 
