FANN_FLO_2.1
num_layers=12
learning_rate=0.700000
connection_rate=1.000000
network_type=1
learning_momentum=0.000000
training_algorithm=2
train_error_function=0
train_stop_function=0
cascade_output_change_fraction=0.010000
quickprop_decay=-0.000100
quickprop_mu=1.750000
rprop_increase_factor=1.200000
rprop_decrease_factor=0.500000
rprop_delta_min=0.000000
rprop_delta_max=50.000000
rprop_delta_zero=0.100000
cascade_output_stagnation_epochs=12
cascade_candidate_change_fraction=0.010000
cascade_candidate_stagnation_epochs=12
cascade_max_out_epochs=150
cascade_min_out_epochs=15
cascade_max_cand_epochs=150
cascade_min_cand_epochs=15
cascade_num_candidate_groups=2
bit_fail_limit=3.49999994039535520000e-001
cascade_candidate_limit=1.00000000000000000000e+003
cascade_weight_multiplier=4.00000005960464480000e-001
cascade_activation_functions_count=10
cascade_activation_functions=3 5 7 8 10 11 14 15 16 17 
cascade_activation_steepnesses_count=4
cascade_activation_steepnesses=2.50000000000000000000e-001 5.00000000000000000000e-001 7.50000000000000000000e-001 1.00000000000000000000e+000 
layer_sizes=17 1 1 1 1 1 1 1 1 1 1 16 
scale_included=0
neurons (num_inputs, activation_function, activation_steepness)=(0, 0, 0.00000000000000000000e+000) (0, 0, 0.00000000000000000000e+000) (0, 0, 0.00000000000000000000e+000) (0, 0, 0.00000000000000000000e+000) (0, 0, 0.00000000000000000000e+000) (0, 0, 0.00000000000000000000e+000) (0, 0, 0.00000000000000000000e+000) (0, 0, 0.00000000000000000000e+000) (0, 0, 0.00000000000000000000e+000) (0, 0, 0.00000000000000000000e+000) (0, 0, 0.00000000000000000000e+000) (0, 0, 0.00000000000000000000e+000) (0, 0, 0.00000000000000000000e+000) (0, 0, 0.00000000000000000000e+000) (0, 0, 0.00000000000000000000e+000) (0, 0, 0.00000000000000000000e+000) (0, 0, 0.00000000000000000000e+000) (17, 15, 5.00000000000000000000e-001) (18, 5, 5.00000000000000000000e-001) (19, 14, 1.00000000000000000000e+000) (20, 16, 2.50000000000000000000e-001) (21, 14, 1.00000000000000000000e+000) (22, 5, 1.00000000000000000000e+000) (23, 11, 5.00000000000000000000e-001) (24, 8, 1.00000000000000000000e+000) (25, 5, 1.00000000000000000000e+000) (26, 10, 1.00000000000000000000e+000) (27, 5, 5.00000000000000000000e-001) (27, 5, 5.00000000000000000000e-001) (27, 5, 5.00000000000000000000e-001) (27, 5, 5.00000000000000000000e-001) (27, 5, 5.00000000000000000000e-001) (27, 5, 5.00000000000000000000e-001) (27, 5, 5.00000000000000000000e-001) (27, 5, 5.00000000000000000000e-001) (27, 5, 5.00000000000000000000e-001) (27, 5, 5.00000000000000000000e-001) (27, 5, 5.00000000000000000000e-001) (27, 5, 5.00000000000000000000e-001) (27, 5, 5.00000000000000000000e-001) (27, 5, 5.00000000000000000000e-001) (27, 5, 5.00000000000000000000e-001) (27, 5, 5.00000000000000000000e-001) 
connections (connected_to_neuron, weight)=(0, 1.89353835582733150000e+000) (1, 1.89590382575988770000e+000) (2, 1.94559550285339360000e+000) (3, 1.92813766002655030000e+000) (4, 1.88648509979248050000e+000) (5, 1.92897212505340580000e+000) (6, 1.94014048576354980000e+000) (7, 1.88969397544860840000e+000) (8, 1.92152845859527590000e+000) (9, 1.91808795928955080000e+000) (10, 1.93301618099212650000e+000) (11, 1.93113625049591060000e+000) (12, 1.90672743320465090000e+000) (13, 1.90996241569519040000e+000) (14, 1.91762161254882810000e+000) (15, 1.89136433601379390000e+000) (16, 1.21740031242370610000e+000) (0, 1.16807723045349120000e+000) (1, 1.16858744621276860000e+000) (2, 1.19092893600463870000e+000) (3, 1.18339025974273680000e+000) (4, 1.16445541381835940000e+000) (5, 1.18349421024322510000e+000) (6, 1.18767762184143070000e+000) (7, 1.16713047027587890000e+000) (8, 1.17976772785186770000e+000) (9, 1.17827069759368900000e+000) (10, 1.18422234058380130000e+000) (11, 1.18462646007537840000e+000) (12, 1.17278766632080080000e+000) (13, 1.17557048797607420000e+000) (14, 1.17800927162170410000e+000) (15, 1.16597270965576170000e+000) (16, -1.18617784976959230000e+000) (17, 8.70486199855804440000e-001) (0, 1.26273524761199950000e+000) (1, 1.26546669006347660000e+000) (2, 1.34245383739471440000e+000) (3, 1.31627726554870610000e+000) (4, 1.25168538093566890000e+000) (5, 1.31810057163238530000e+000) (6, 1.33589839935302730000e+000) (7, 1.25628137588500980000e+000) (8, 1.30638384819030760000e+000) (9, 1.30189108848571780000e+000) (10, 1.32467877864837650000e+000) (11, 1.32212066650390630000e+000) (12, 1.28341042995452880000e+000) (13, 1.28763890266418460000e+000) (14, 1.30075156688690190000e+000) (15, 1.25967693328857420000e+000) (16, 1.84004044532775880000e+000) (17, 3.15461397171020510000e+000) (18, 1.29919707775115970000e+000) (0, -2.88029408454895020000e+000) (1, -2.93159723281860350000e+000) (2, -3.87733292579650880000e+000) (3, -3.03018474578857420000e+000) (4, -2.89396500587463380000e+000) (5, -3.80978417396545410000e+000) (6, -3.81917738914489750000e+000) (7, -2.89142107963562010000e+000) (8, -3.80831956863403320000e+000) (9, -2.97555541992187500000e+000) (10, -3.83926725387573240000e+000) (11, -3.85079765319824220000e+000) (12, -3.78699135780334470000e+000) (13, -3.80210113525390620000e+000) (14, -3.79643940925598140000e+000) (15, -3.72608137130737300000e+000) (16, -2.76826834678649900000e+000) (17, -5.03085422515869140000e+000) (18, 1.17024984359741210000e+001) (19, 1.22343235015869140000e+001) (0, 9.68307614326477050000e-001) (1, 9.68100368976593020000e-001) (2, 9.85810339450836180000e-001) (3, 9.79454159736633300000e-001) (4, 9.66130197048187260000e-001) (5, 9.81706261634826660000e-001) (6, 9.86794710159301760000e-001) (7, 9.66417014598846440000e-001) (8, 9.77843225002288820000e-001) (9, 9.79230940341949460000e-001) (10, 9.84038770198822020000e-001) (11, 9.82638180255889890000e-001) (12, 9.73227024078369140000e-001) (13, 9.72870171070098880000e-001) (14, 9.78535413742065430000e-001) (15, 9.68926131725311280000e-001) (16, -9.75988090038299560000e-001) (17, 7.35521972179412840000e-001) (18, 1.41927731037139890000e+000) (19, 1.32641994953155520000e+000) (20, 1.53448832035064700000e+000) (0, -3.98630172014236450000e-001) (1, -4.00563597679138180000e-001) (2, -4.08422261476516720000e-001) (3, -3.97948473691940310000e-001) (4, -3.99640738964080810000e-001) (5, -3.97237956523895260000e-001) (6, -4.00801599025726320000e-001) (7, -3.96469086408615110000e-001) (8, -3.95857959985733030000e-001) (9, -3.98793607950210570000e-001) (10, -3.98528695106506350000e-001) (11, -4.00358319282531740000e-001) (12, -3.98857355117797850000e-001) (13, -4.02403175830841060000e-001) (14, -3.97973179817199710000e-001) (15, -3.97082298994064330000e-001) (16, 4.32954519987106320000e-001) (17, 1.01601116359233860000e-001) (18, 2.83607006072998050000e+000) (19, 3.43309879302978520000e+000) (20, -1.07561755180358890000e+000) (21, 3.04965305328369140000e+000) (0, 3.37745338678359990000e-001) (1, 3.32428961992263790000e-001) (2, 3.75743865966796880000e-001) (3, 3.64373236894607540000e-001) (4, 3.40827345848083500000e-001) (5, 3.57864201068878170000e-001) (6, 3.71763229370117190000e-001) (7, 3.31624805927276610000e-001) (8, 3.54108035564422610000e-001) (9, 3.57019037008285520000e-001) (10, 3.48435252904891970000e-001) (11, 3.79602819681167600000e-001) (12, 3.51228296756744380000e-001) (13, 3.62878590822219850000e-001) (14, 3.46419781446456910000e-001) (15, 3.28462600708007810000e-001) (16, -2.99273490905761720000e-001) (17, 1.37948310375213620000e+000) (18, 3.72347283363342290000e+000) (19, 3.95700407028198240000e+000) (20, -7.92321205139160160000e-001) (21, 3.06569361686706540000e+000) (22, 3.57786512374877930000e+000) (0, 7.94150888919830320000e-001) (1, 7.88723468780517580000e-001) (2, 8.41289579868316650000e-001) (3, 8.27628970146179200000e-001) (4, 7.80759930610656740000e-001) (5, 8.17947924137115480000e-001) (6, 8.36989820003509520000e-001) (7, 7.78559625148773190000e-001) (8, 8.17512512207031250000e-001) (9, 8.13065111637115480000e-001) (10, 8.18589389324188230000e-001) (11, 8.41342031955718990000e-001) (12, 7.97650992870330810000e-001) (13, 8.15297067165374760000e-001) (14, 8.08977186679840090000e-001) (15, 7.84669458866119380000e-001) (16, 8.54374766349792480000e-002) (17, 1.87334048748016360000e+000) (18, 3.68216276168823240000e+000) (19, 2.77037739753723140000e+000) (20, 3.70484501123428340000e-001) (21, 1.56356751918792720000e+000) (22, 2.99702763557434080000e+000) (23, 3.02617192268371580000e+000) (0, 1.18539154529571530000e+000) (1, 1.17581307888031010000e+000) (2, 1.16964292526245120000e+000) (3, 1.17350876331329350000e+000) (4, 1.17053246498107910000e+000) (5, 1.16622245311737060000e+000) (6, 1.17102038860321040000e+000) (7, 1.17627882957458500000e+000) (8, 1.17223191261291500000e+000) (9, 1.17383766174316410000e+000) (10, 1.15579509735107420000e+000) (11, 1.18474745750427250000e+000) (12, 1.16667473316192630000e+000) (13, 1.18557429313659670000e+000) (14, 1.16610074043273930000e+000) (15, 1.17627048492431640000e+000) (16, -1.07380187511444090000e+000) (17, -5.45302867889404300000e-001) (18, 1.33839619159698490000e+000) (19, 3.14199948310852050000e+000) (20, -5.40406942367553710000e-001) (21, 2.27090907096862790000e+000) (22, 3.22163629531860350000e+000) (23, 2.51665401458740230000e+000) (24, 3.21297764778137210000e+000) (0, -1.50000000000000000000e+003) (1, 3.22568786621093750000e+002) (2, 2.54598983764648440000e+002) (3, 3.18307983398437500000e+002) (4, 3.31812225341796870000e+002) (5, 2.68330108642578120000e+002) (6, 2.69232055664062500000e+002) (7, 2.81876159667968750000e+002) (8, 3.25007141113281250000e+002) (9, 3.12442657470703120000e+002) (10, 2.79346466064453130000e+002) (11, 3.13230041503906250000e+002) (12, 2.82026062011718750000e+002) (13, 3.01069458007812500000e+002) (14, 2.73711486816406250000e+002) (15, 3.20256072998046870000e+002) (16, -3.80576538085937500000e+002) (17, -9.04762268066406250000e+002) (18, 5.82254028320312500000e+002) (19, 5.84195556640625000000e+002) (20, -3.92938140869140630000e+002) (21, 4.43255889892578120000e+002) (22, 3.32980133056640620000e+002) (23, 5.60467956542968750000e+002) (24, 7.45028503417968750000e+002) (25, -3.79498748779296870000e+002) (0, 6.57584786415100100000e-001) (1, 4.86461520195007320000e-001) (2, 4.89514142274856570000e-001) (3, 4.84468430280685420000e-001) (4, 5.36031842231750490000e-001) (5, 4.77005630731582640000e-001) (6, 9.95058298110961910000e-001) (7, 6.72797977924346920000e-001) (8, 6.45444631576538090000e-001) (9, 5.28354585170745850000e-001) (10, 3.97970378398895260000e-001) (11, 5.43072998523712160000e-001) (12, 4.15242195129394530000e-001) (13, 5.63508212566375730000e-001) (14, 6.87650084495544430000e-001) (15, 6.10495567321777340000e-001) (16, -3.37888479232788090000e-001) (17, -8.28954875469207760000e-001) (18, 3.75602126121521000000e+000) (19, 3.40878796577453610000e+000) (20, -3.62758636474609380000e-001) (21, 2.61234998703002930000e+000) (22, 2.42304515838623050000e+000) (23, 1.64373970031738280000e+000) (24, 1.12598848342895510000e+000) (25, 6.06188401579856870000e-002) (26, 2.60424334555864330000e-002) (0, 5.29273808002471920000e-001) (1, 6.65995597839355470000e-001) (2, 5.47175109386444090000e-001) (3, 5.37763178348541260000e-001) (4, 6.90341353416442870000e-001) (5, 5.31802237033843990000e-001) (6, 5.59187948703765870000e-001) (7, 5.49228668212890630000e-001) (8, 6.20239198207855220000e-001) (9, 5.79730212688446040000e-001) (10, 6.21752083301544190000e-001) (11, 6.56457245349884030000e-001) (12, 5.41094958782196040000e-001) (13, 6.80174291133880620000e-001) (14, 6.69466733932495120000e-001) (15, 5.29785156250000000000e-001) (16, -3.97027730941772460000e-001) (17, -2.90635913610458370000e-001) (18, 3.63095974922180180000e+000) (19, 3.31271791458129880000e+000) (20, -1.83223128318786620000e-001) (21, 2.48199939727783200000e+000) (22, 1.96217584609985350000e+000) (23, 1.44825124740600590000e+000) (24, 1.08352673053741460000e+000) (25, 2.56981831043958660000e-002) (26, 2.65953969210386280000e-002) (0, 4.90732222795486450000e-001) (1, 5.70555984973907470000e-001) (2, 5.38890480995178220000e-001) (3, 4.42049860954284670000e-001) (4, 4.82800334692001340000e-001) (5, 4.36123341321945190000e-001) (6, 5.59459149837493900000e-001) (7, 3.69800359010696410000e-001) (8, 3.70457530021667480000e-001) (9, 3.69762063026428220000e-001) (10, 5.26705205440521240000e-001) (11, 5.60441017150878910000e-001) (12, 4.45306777954101560000e-001) (13, 4.45381969213485720000e-001) (14, 4.35357987880706790000e-001) (15, 4.97377753257751460000e-001) (16, -3.00621867179870610000e-001) (17, -2.91061252355575560000e-001) (18, 4.33263063430786130000e+000) (19, 3.17161846160888670000e+000) (20, -1.25867441296577450000e-001) (21, 2.43769502639770510000e+000) (22, 1.89569759368896480000e+000) (23, 1.50196647644042970000e+000) (24, 1.08296549320220950000e+000) (25, 3.20608690381050110000e-002) (26, -2.33556833118200300000e-002) (0, 1.02662670612335210000e+000) (1, 1.16194665431976320000e+000) (2, 1.11496376991271970000e+000) (3, 1.02398824691772460000e+000) (4, 1.13340973854064940000e+000) (5, 1.08897936344146730000e+000) (6, 9.46273267269134520000e-001) (7, 1.04717862606048580000e+000) (8, 1.03097844123840330000e+000) (9, 1.06913042068481450000e+000) (10, 1.02191972732543950000e+000) (11, 1.08165621757507320000e+000) (12, 1.03348875045776370000e+000) (13, 1.03380465507507320000e+000) (14, 1.37068116664886470000e+000) (15, 9.65050518512725830000e-001) (16, -8.78589093685150150000e-001) (17, -9.23657655715942380000e-001) (18, 3.96977353096008300000e+000) (19, 3.53492522239685060000e+000) (20, -2.05617338418960570000e-001) (21, 2.61495947837829590000e+000) (22, 2.13329267501831050000e+000) (23, 1.61205732822418210000e+000) (24, 1.18172252178192140000e+000) (25, 1.48369288071990010000e-002) (26, 1.32838659919798370000e-003) (0, 3.48539948463439940000e-001) (1, 3.58762025833129880000e-001) (2, 4.60260003805160520000e-001) (3, 5.00621855258941650000e-001) (4, 5.09318888187408450000e-001) (5, 2.74334609508514400000e-001) (6, 3.94050180912017820000e-001) (7, 3.09684395790100100000e-001) (8, 4.46178764104843140000e-001) (9, 2.70976781845092770000e-001) (10, 2.77771800756454470000e-001) (11, 2.20650315284729000000e-001) (12, 4.48644936084747310000e-001) (13, 4.36710625886917110000e-001) (14, 2.78638273477554320000e-001) (15, 4.79418426752090450000e-001) (16, -1.23343162238597870000e-001) (17, -1.25219988822937010000e+000) (18, 4.35014724731445310000e+000) (19, 3.12223052978515620000e+000) (20, -7.08506345748901370000e-001) (21, 3.33304524421691890000e+000) (22, 2.76561999320983890000e+000) (23, 2.47351050376892090000e+000) (24, 1.41057145595550540000e+000) (25, -1.56140372157096860000e-001) (26, 3.81346704671159390000e-004) (0, 6.75094306468963620000e-001) (1, 7.08199203014373780000e-001) (2, 5.44785141944885250000e-001) (3, 5.27488529682159420000e-001) (4, 5.48813879489898680000e-001) (5, 5.21604835987091060000e-001) (6, 5.54056406021118160000e-001) (7, 6.04250192642211910000e-001) (8, 5.29090285301208500000e-001) (9, 5.64440190792083740000e-001) (10, 5.29660522937774660000e-001) (11, 5.25688052177429200000e-001) (12, 5.20150899887084960000e-001) (13, 5.92051327228546140000e-001) (14, 5.84420025348663330000e-001) (15, 5.64791262149810790000e-001) (16, -3.85822385549545290000e-001) (17, 6.17123961448669430000e-001) (18, 3.53371429443359370000e+000) (19, 3.13330793380737300000e+000) (20, 1.33644700050354000000e-001) (21, 2.45102381706237790000e+000) (22, 2.03115463256835940000e+000) (23, 1.55785834789276120000e+000) (24, 1.01776278018951420000e+000) (25, 3.64077719859778880000e-003) (26, 5.99407777190208440000e-003) (0, 7.32562184333801270000e-001) (1, 4.37404781579971310000e-001) (2, 4.38600391149520870000e-001) (3, 5.85799694061279300000e-001) (4, 5.48985302448272710000e-001) (5, 5.07344186305999760000e-001) (6, 4.41472738981246950000e-001) (7, 6.03912472724914550000e-001) (8, 4.41130191087722780000e-001) (9, 4.40089970827102660000e-001) (10, 5.97163379192352290000e-001) (11, 5.73503196239471440000e-001) (12, 5.90804278850555420000e-001) (13, 4.47486668825149540000e-001) (14, 5.04979550838470460000e-001) (15, 5.63943684101104740000e-001) (16, -3.63994628190994260000e-001) (17, -6.68621286749839780000e-002) (18, 3.81145858764648440000e+000) (19, 3.46950078010559080000e+000) (20, -4.55148339271545410000e-001) (21, 2.63487792015075680000e+000) (22, 2.26451468467712400000e+000) (23, 1.77286469936370850000e+000) (24, 1.29636323451995850000e+000) (25, 3.24884206056594850000e-002) (26, -6.26918394118547440000e-004) (0, 5.92938005924224850000e-001) (1, 5.85470616817474370000e-001) (2, 7.58428215980529790000e-001) (3, 8.04833054542541500000e-001) (4, 6.40807747840881350000e-001) (5, 7.97393381595611570000e-001) (6, 6.82735502719879150000e-001) (7, 8.36005806922912600000e-001) (8, 7.42486834526062010000e-001) (9, 6.44638001918792720000e-001) (10, 7.42819249629974370000e-001) (11, 6.59543633460998540000e-001) (12, 7.37455070018768310000e-001) (13, 6.64353728294372560000e-001) (14, 6.51264071464538570000e-001) (15, 6.49387359619140630000e-001) (16, -5.01538693904876710000e-001) (17, -1.55785202980041500000e-001) (18, 4.08950090408325200000e+000) (19, 3.64256596565246580000e+000) (20, -6.00680410861968990000e-001) (21, 2.87359881401062010000e+000) (22, 2.43490099906921390000e+000) (23, 1.92946255207061770000e+000) (24, 1.53715980052948000000e+000) (25, -2.71479398012161250000e-001) (26, -1.17436014115810390000e-001) (0, 5.46408832073211670000e-001) (1, 5.56815564632415770000e-001) (2, 4.22715365886688230000e-001) (3, 5.69394588470458980000e-001) (4, 6.44804894924163820000e-001) (5, 4.89690482616424560000e-001) (6, 4.24887210130691530000e-001) (7, 5.05369126796722410000e-001) (8, 4.25094842910766600000e-001) (9, 7.11362183094024660000e-001) (10, 4.94742244482040410000e-001) (11, 6.20010912418365480000e-001) (12, 4.96461421251297000000e-001) (13, 5.02766013145446780000e-001) (14, 5.57331502437591550000e-001) (15, 4.87105607986450200000e-001) (16, -3.37285608053207400000e-001) (17, -2.40814179182052610000e-001) (18, 3.65006017684936520000e+000) (19, 3.31539583206176760000e+000) (20, -1.48506119847297670000e-001) (21, 2.60358762741088870000e+000) (22, 2.80991601943969730000e+000) (23, 2.48311734199523930000e+000) (24, 1.95864665508270260000e+000) (25, 3.86472009122371670000e-002) (26, -2.10704803466796880000e-002) (0, 7.49013602733612060000e-001) (1, 7.52899229526519780000e-001) (2, 8.86348724365234380000e-001) (3, 8.51451039314270020000e-001) (4, 7.37882792949676510000e-001) (5, 1.13784503936767580000e+000) (6, 9.03865098953247070000e-001) (7, 7.66391217708587650000e-001) (8, 7.03667521476745610000e-001) (9, 8.14824283123016360000e-001) (10, 6.99309766292572020000e-001) (11, 9.61577892303466800000e-001) (12, 1.08120977878570560000e+000) (13, 8.40856254100799560000e-001) (14, 8.34881126880645750000e-001) (15, 9.36771929264068600000e-001) (16, -6.30281507968902590000e-001) (17, 9.96546328067779540000e-001) (18, 3.95858836174011230000e+000) (19, 3.61759519577026370000e+000) (20, -6.56088769435882570000e-001) (21, 2.87319254875183110000e+000) (22, 1.92641675472259520000e+000) (23, 1.60737502574920650000e+000) (24, 1.03257822990417480000e+000) (25, 7.98211153596639630000e-003) (26, 2.50080786645412450000e-003) (0, 7.93171107769012450000e-001) (1, 9.87231791019439700000e-001) (2, 9.56567645072937010000e-001) (3, 8.59615027904510500000e-001) (4, 8.44347119331359860000e-001) (5, 9.24118518829345700000e-001) (6, 8.80355060100555420000e-001) (7, 9.53513383865356450000e-001) (8, 9.41293478012084960000e-001) (9, 7.85966515541076660000e-001) (10, 8.57416808605194090000e-001) (11, 9.78326857089996340000e-001) (12, 8.62064540386199950000e-001) (13, 9.33529257774353030000e-001) (14, 7.81801462173461910000e-001) (15, 9.76044297218322750000e-001) (16, -7.15947985649108890000e-001) (17, -3.23515176773071290000e-001) (18, 3.72414994239807130000e+000) (19, 2.99381351470947270000e+000) (20, 1.85973063111305240000e-001) (21, 2.93967080116271970000e+000) (22, 2.30335783958435060000e+000) (23, 1.42230618000030520000e+000) (24, 1.15494751930236820000e+000) (25, 1.87021102756261830000e-002) (26, 1.11235762014985080000e-002) (0, 1.03784978389739990000e+000) (1, 1.11776173114776610000e+000) (2, 1.17631196975708010000e+000) (3, 9.89566743373870850000e-001) (4, 9.71268594264984130000e-001) (5, 9.14315044879913330000e-001) (6, 9.17851328849792480000e-001) (7, 1.00070965290069580000e+000) (8, 1.30728101730346680000e+000) (9, 1.32373094558715820000e+000) (10, 1.41906666755676270000e+000) (11, 1.04649412631988530000e+000) (12, 9.91863787174224850000e-001) (13, 9.23976659774780270000e-001) (14, 9.82958793640136720000e-001) (15, 9.19144511222839360000e-001) (16, -8.44505846500396730000e-001) (17, -2.05941542983055110000e-001) (18, 4.17671775817871090000e+000) (19, 3.20630073547363280000e+000) (20, 1.43568426370620730000e-001) (21, 2.35769724845886230000e+000) (22, 1.88489627838134770000e+000) (23, 1.40775012969970700000e+000) (24, 1.66634178161621090000e+000) (25, -5.19814610481262210000e-001) (26, 2.55066931247711180000e-001) (0, 6.12500369548797610000e-001) (1, 4.32253420352935790000e-001) (2, 4.88774627447128300000e-001) (3, 6.31572425365448000000e-001) (4, 4.93751198053359990000e-001) (5, 4.09962236881256100000e-001) (6, 5.99220454692840580000e-001) (7, 4.35681521892547610000e-001) (8, 4.96479332447052000000e-001) (9, 5.92775821685791020000e-001) (10, 4.02127236127853390000e-001) (11, 5.44862449169158940000e-001) (12, 8.94525766372680660000e-001) (13, 5.70479273796081540000e-001) (14, 4.17249858379364010000e-001) (15, 6.24611377716064450000e-001) (16, -3.45431715250015260000e-001) (17, -1.32572138309478760000e+000) (18, 3.79123020172119140000e+000) (19, 3.36517143249511720000e+000) (20, -1.65283858776092530000e-001) (21, 2.33649587631225590000e+000) (22, 2.06968235969543460000e+000) (23, 1.62380814552307130000e+000) (24, 1.27804660797119140000e+000) (25, 9.17814392596483230000e-003) (26, 6.10543997026979920000e-004) (0, 1.03409886360168460000e+000) (1, 6.83076083660125730000e-001) (2, 8.92115056514739990000e-001) (3, 9.97893810272216800000e-001) (4, 8.43494534492492680000e-001) (5, 7.75736808776855470000e-001) (6, 8.12128424644470210000e-001) (7, 7.61080801486968990000e-001) (8, 7.04382717609405520000e-001) (9, 9.30085957050323490000e-001) (10, 8.68748366832733150000e-001) (11, 7.81045615673065190000e-001) (12, 6.89121961593627930000e-001) (13, 7.70843863487243650000e-001) (14, 9.03698265552520750000e-001) (15, 6.81275606155395510000e-001) (16, -6.31963372230529790000e-001) (17, 1.31099951267242430000e+000) (18, 3.74717855453491210000e+000) (19, 3.12497544288635250000e+000) (20, -2.78321117162704470000e-001) (21, 2.57891988754272460000e+000) (22, 2.08167004585266110000e+000) (23, 1.67345130443573000000e+000) (24, 1.30041766166687010000e+000) (25, -1.17063693702220920000e-001) (26, -1.23350001871585850000e-001) (0, 5.34608900547027590000e-001) (1, 6.72069966793060300000e-001) (2, 4.86334502696990970000e-001) (3, 5.56761920452117920000e-001) (4, 6.36904656887054440000e-001) (5, 6.94400966167449950000e-001) (6, 5.82996547222137450000e-001) (7, 6.36227786540985110000e-001) (8, 5.58896720409393310000e-001) (9, 5.37359774112701420000e-001) (10, 5.58614373207092290000e-001) (11, 6.16181194782257080000e-001) (12, 5.50901710987091060000e-001) (13, 9.04759109020233150000e-001) (14, 4.76414650678634640000e-001) (15, 6.59614026546478270000e-001) (16, -4.13297235965728760000e-001) (17, 4.82802212238311770000e-001) (18, 3.66516566276550290000e+000) (19, 3.24474072456359860000e+000) (20, 1.64078891277313230000e-001) (21, 2.35652065277099610000e+000) (22, 2.11722970008850100000e+000) (23, 1.61070406436920170000e+000) (24, 1.08270394802093510000e+000) (25, -2.09863614290952680000e-002) (26, -8.70833289809525010000e-004) (0, 9.84372079372406010000e-001) (1, 1.05439937114715580000e+000) (2, 1.02120256423950200000e+000) (3, 9.35395419597625730000e-001) (4, 9.73023593425750730000e-001) (5, 1.21665370464324950000e+000) (6, 1.03174388408660890000e+000) (7, 1.17040789127349850000e+000) (8, 1.32170343399047850000e+000) (9, 1.10174012184143070000e+000) (10, 1.09123063087463380000e+000) (11, 1.06554889678955080000e+000) (12, 9.22114431858062740000e-001) (13, 1.07220840454101560000e+000) (14, 1.06338810920715330000e+000) (15, 1.10906767845153810000e+000) (16, -8.50483000278472900000e-001) (17, 5.09360730648040770000e-001) (18, 3.59633755683898930000e+000) (19, 3.74198889732360840000e+000) (20, -7.50611484050750730000e-001) (21, 3.01948070526123050000e+000) (22, 2.01066589355468750000e+000) (23, 1.79279100894927980000e+000) (24, 1.42223095893859860000e+000) (25, -2.94646114110946660000e-001) (26, -1.38541921973228450000e-001) 
