FANN_FLO_2.1
num_layers=12
learning_rate=0.700000
connection_rate=1.000000
network_type=1
learning_momentum=0.000000
training_algorithm=2
train_error_function=0
train_stop_function=0
cascade_output_change_fraction=0.010000
quickprop_decay=-0.000100
quickprop_mu=1.750000
rprop_increase_factor=1.200000
rprop_decrease_factor=0.500000
rprop_delta_min=0.000000
rprop_delta_max=50.000000
rprop_delta_zero=0.100000
cascade_output_stagnation_epochs=12
cascade_candidate_change_fraction=0.010000
cascade_candidate_stagnation_epochs=12
cascade_max_out_epochs=150
cascade_min_out_epochs=15
cascade_max_cand_epochs=150
cascade_min_cand_epochs=15
cascade_num_candidate_groups=2
bit_fail_limit=3.49999994039535520000e-001
cascade_candidate_limit=1.00000000000000000000e+003
cascade_weight_multiplier=4.00000005960464480000e-001
cascade_activation_functions_count=10
cascade_activation_functions=3 5 7 8 10 11 14 15 16 17 
cascade_activation_steepnesses_count=4
cascade_activation_steepnesses=2.50000000000000000000e-001 5.00000000000000000000e-001 7.50000000000000000000e-001 1.00000000000000000000e+000 
layer_sizes=17 1 1 1 1 1 1 1 1 1 1 16 
scale_included=0
neurons (num_inputs, activation_function, activation_steepness)=(0, 0, 0.00000000000000000000e+000) (0, 0, 0.00000000000000000000e+000) (0, 0, 0.00000000000000000000e+000) (0, 0, 0.00000000000000000000e+000) (0, 0, 0.00000000000000000000e+000) (0, 0, 0.00000000000000000000e+000) (0, 0, 0.00000000000000000000e+000) (0, 0, 0.00000000000000000000e+000) (0, 0, 0.00000000000000000000e+000) (0, 0, 0.00000000000000000000e+000) (0, 0, 0.00000000000000000000e+000) (0, 0, 0.00000000000000000000e+000) (0, 0, 0.00000000000000000000e+000) (0, 0, 0.00000000000000000000e+000) (0, 0, 0.00000000000000000000e+000) (0, 0, 0.00000000000000000000e+000) (0, 0, 0.00000000000000000000e+000) (17, 17, 1.00000000000000000000e+000) (18, 11, 1.00000000000000000000e+000) (19, 10, 1.00000000000000000000e+000) (20, 5, 5.00000000000000000000e-001) (21, 8, 7.50000000000000000000e-001) (22, 17, 5.00000000000000000000e-001) (23, 8, 5.00000000000000000000e-001) (24, 15, 2.50000000000000000000e-001) (25, 5, 7.50000000000000000000e-001) (26, 10, 5.00000000000000000000e-001) (27, 5, 5.00000000000000000000e-001) (27, 5, 5.00000000000000000000e-001) (27, 5, 5.00000000000000000000e-001) (27, 5, 5.00000000000000000000e-001) (27, 5, 5.00000000000000000000e-001) (27, 5, 5.00000000000000000000e-001) (27, 5, 5.00000000000000000000e-001) (27, 5, 5.00000000000000000000e-001) (27, 5, 5.00000000000000000000e-001) (27, 5, 5.00000000000000000000e-001) (27, 5, 5.00000000000000000000e-001) (27, 5, 5.00000000000000000000e-001) (27, 5, 5.00000000000000000000e-001) (27, 5, 5.00000000000000000000e-001) (27, 5, 5.00000000000000000000e-001) (27, 5, 5.00000000000000000000e-001) 
connections (connected_to_neuron, weight)=(0, 1.83156991004943850000e+000) (1, 2.00909829139709470000e+000) (2, 2.02902388572692870000e+000) (3, 1.75500941276550290000e+000) (4, 2.02715754508972170000e+000) (5, 1.78705108165740970000e+000) (6, 1.73842537403106690000e+000) (7, 2.05788540840148930000e+000) (8, 1.96741795539855960000e+000) (9, 1.74667966365814210000e+000) (10, 1.76713693141937260000e+000) (11, 1.75823032855987550000e+000) (12, 2.02647542953491210000e+000) (13, 1.99051582813262940000e+000) (14, 1.71655416488647460000e+000) (15, 1.79882669448852540000e+000) (16, 1.25235998630523680000e+000) (0, 5.51634967327117920000e-001) (1, 5.49475491046905520000e-001) (2, 5.50657570362091060000e-001) (3, 5.52407026290893550000e-001) (4, 5.51608979701995850000e-001) (5, 5.50497770309448240000e-001) (6, 5.50216436386108400000e-001) (7, 5.49069762229919430000e-001) (8, 5.51365733146667480000e-001) (9, 5.50720930099487300000e-001) (10, 5.51848530769348140000e-001) (11, 5.52301347255706790000e-001) (12, 5.48578143119812010000e-001) (13, 5.52095115184783940000e-001) (14, 5.48975646495819090000e-001) (15, 5.52373230457305910000e-001) (16, -5.46427607536315920000e-001) (17, 2.68893659114837650000e-001) (0, -1.50000000000000000000e+003) (1, 5.44133728027343750000e+002) (2, 5.05644958496093750000e+002) (3, 4.97599914550781250000e+002) (4, 5.30706787109375000000e+002) (5, 5.33601196289062500000e+002) (6, 5.32026000976562500000e+002) (7, 5.33469665527343750000e+002) (8, 5.36053283691406250000e+002) (9, 5.34428466796875000000e+002) (10, 5.41044128417968750000e+002) (11, 4.93590026855468750000e+002) (12, 5.46206115722656250000e+002) (13, -1.50000000000000000000e+003) (14, 5.01444610595703120000e+002) (15, 5.48259704589843750000e+002) (16, -6.17314392089843750000e+002) (17, -4.58941009521484370000e+002) (18, -1.49589733886718750000e+003) (0, 1.69783234596252440000e-001) (1, 1.72758698463439940000e-001) (2, 1.72584414482116700000e-001) (3, 1.60751149058341980000e-001) (4, 1.68831348419189450000e-001) (5, 1.62570163607597350000e-001) (6, 1.71377778053283690000e-001) (7, 1.72270283102989200000e-001) (8, 1.67556673288345340000e-001) (9, 1.61152079701423650000e-001) (10, 1.75839886069297790000e-001) (11, 1.70986309647560120000e-001) (12, 1.73323765397071840000e-001) (13, 1.63463160395622250000e-001) (14, 1.62684187293052670000e-001) (15, 1.67462423443794250000e-001) (16, -1.47564962506294250000e-001) (17, -8.92554447054862980000e-002) (18, -3.27956289052963260000e-001) (19, -2.77003675699234010000e-001) (0, 1.04501008987426760000e+000) (1, 1.03924822807312010000e+000) (2, 1.03727638721466060000e+000) (3, 1.03685843944549560000e+000) (4, 1.03684973716735840000e+000) (5, 1.04097819328308110000e+000) (6, 1.03548169136047360000e+000) (7, 1.03449320793151860000e+000) (8, 1.04372835159301760000e+000) (9, 1.03599321842193600000e+000) (10, 1.03820919990539550000e+000) (11, 1.03710317611694340000e+000) (12, 1.03894126415252690000e+000) (13, 1.04129254817962650000e+000) (14, 1.03422379493713380000e+000) (15, 1.04126691818237300000e+000) (16, 6.25114738941192630000e-002) (17, 1.67327868938446040000e+000) (18, 7.87828207015991210000e-001) (19, 1.72765120863914490000e-001) (20, 2.77806352823972700000e-002) (0, -2.97633481025695800000e+000) (1, -3.48081016540527340000e+000) (2, 8.87700176239013670000e+000) (3, 8.88906383514404300000e+000) (4, -3.70522117614746090000e+000) (5, -3.68355894088745120000e+000) (6, 8.85913562774658200000e+000) (7, -2.96918559074401860000e+000) (8, 9.39540767669677730000e+000) (9, -2.96602702140808110000e+000) (10, 9.58667087554931640000e+000) (11, -3.29396843910217290000e+000) (12, -2.99949169158935550000e+000) (13, -2.96658444404602050000e+000) (14, 9.44218826293945310000e+000) (15, -2.97459554672241210000e+000) (16, -2.93482232093811040000e+000) (17, 1.47007691860198970000e+000) (18, 1.69416502118110660000e-001) (19, 6.14877581596374510000e-001) (20, 2.96246737241745000000e-001) (21, 1.54531621932983400000e+000) (0, 1.31319069862365720000e+000) (1, 1.31457829475402830000e+000) (2, 1.30541861057281490000e+000) (3, 1.32044291496276860000e+000) (4, 1.30874097347259520000e+000) (5, 1.31796264648437500000e+000) (6, 1.30401325225830080000e+000) (7, 1.30364632606506350000e+000) (8, 1.32580542564392090000e+000) (9, 1.31339240074157710000e+000) (10, 1.30056571960449220000e+000) (11, 1.31594336032867430000e+000) (12, 1.30658864974975590000e+000) (13, 1.31659102439880370000e+000) (14, 1.32180428504943850000e+000) (15, 1.31235885620117190000e+000) (16, 3.25517714023590090000e-001) (17, 1.01080048084259030000e+000) (18, 1.38462162017822270000e+000) (19, 3.63893657922744750000e-001) (20, 2.26150155067443850000e+000) (21, 2.21308755874633790000e+000) (22, 1.44537508487701420000e+000) (0, -8.24975776672363280000e+000) (1, 4.41077375411987300000e+000) (2, -8.29144573211669920000e+000) (3, 4.41688251495361330000e+000) (4, 4.40018749237060550000e+000) (5, -8.25679111480712890000e+000) (6, 4.39177846908569340000e+000) (7, -8.29625797271728520000e+000) (8, 4.45173168182373050000e+000) (9, 4.41668272018432620000e+000) (10, 4.38703441619873050000e+000) (11, -8.26114845275878910000e+000) (12, -8.28251361846923830000e+000) (13, 4.42439174652099610000e+000) (14, 4.41890907287597660000e+000) (15, -8.27057075500488280000e+000) (16, 1.83958148956298830000e+000) (17, 4.66195487976074220000e+000) (18, 3.12184476852416990000e+000) (19, 4.81888103485107420000e+000) (20, 3.42292499542236330000e+000) (21, 6.58219754695892330000e-001) (22, 1.72681462764739990000e+000) (23, 1.41036152839660640000e+000) (0, 3.77243310213088990000e-001) (1, 3.70462417602539060000e-001) (2, 3.83330941200256350000e-001) (3, 3.66859257221221920000e-001) (4, 3.75796258449554440000e-001) (5, 3.72593730688095090000e-001) (6, 3.62770646810531620000e-001) (7, 3.71397852897644040000e-001) (8, 4.02479767799377440000e-001) (9, 3.77424359321594240000e-001) (10, 3.75996857881546020000e-001) (11, 3.69889974594116210000e-001) (12, 3.72548937797546390000e-001) (13, 3.72676700353622440000e-001) (14, 3.73474389314651490000e-001) (15, 3.82434219121932980000e-001) (16, -2.67859965562820430000e-001) (17, 8.33168089389801030000e-001) (18, 1.81822821497917180000e-001) (19, -3.25790613889694210000e-001) (20, -3.19545239210128780000e-001) (21, 4.33882856369018550000e+000) (22, 7.01388567686080930000e-002) (23, 2.38439583778381350000e+000) (24, 3.87340831756591800000e+000) (0, 5.02056060791015620000e+002) (1, 4.94211120605468750000e+002) (2, 5.80656494140625000000e+002) (3, 5.58507385253906250000e+002) (4, 5.63172485351562500000e+002) (5, -1.50000000000000000000e+003) (6, 5.84946228027343750000e+002) (7, 5.49877380371093750000e+002) (8, 5.48641723632812500000e+002) (9, 5.23449645996093750000e+002) (10, 5.70634155273437500000e+002) (11, 4.88895477294921870000e+002) (12, -9.30282470703125000000e+002) (13, 4.83037872314453120000e+002) (14, 5.70821350097656250000e+002) (15, 5.55276916503906250000e+002) (16, -7.09419250488281250000e+002) (17, -2.60524353027343750000e+002) (18, -6.39232299804687500000e+002) (19, -7.16270446777343750000e+002) (20, -6.59811645507812500000e+002) (21, 8.55412353515625000000e+002) (22, -6.59954895019531250000e+002) (23, 8.50811523437500000000e+002) (24, 8.88940795898437500000e+002) (25, -1.19619213867187500000e+003) (0, 6.49889171123504640000e-001) (1, 5.56847214698791500000e-001) (2, 4.89606708288192750000e-001) (3, 5.80996811389923100000e-001) (4, 5.45834183692932130000e-001) (5, 4.56947147846221920000e-001) (6, 6.80523872375488280000e-001) (7, 5.58722257614135740000e-001) (8, 5.58880984783172610000e-001) (9, 5.10785937309265140000e-001) (10, 6.23886466026306150000e-001) (11, 5.32755255699157710000e-001) (12, 6.04591012001037600000e-001) (13, 5.75578451156616210000e-001) (14, 5.81534028053283690000e-001) (15, 5.60638308525085450000e-001) (16, -3.84574651718139650000e-001) (17, -4.39070761203765870000e-001) (18, -4.00910764932632450000e-001) (19, -4.05589640140533450000e-001) (20, -4.65347737073898320000e-001) (21, 2.70469594001770020000e+000) (22, 1.92442893981933590000e-001) (23, 1.78921759128570560000e+000) (24, 1.31989884376525880000e+000) (25, -1.43325790762901310000e-001) (26, -1.49504467844963070000e-001) (0, 7.20564842224121090000e-001) (1, 7.94293224811553960000e-001) (2, 7.56709456443786620000e-001) (3, 6.55665516853332520000e-001) (4, 8.25852036476135250000e-001) (5, 6.75460278987884520000e-001) (6, 7.33841180801391600000e-001) (7, 7.21011698246002200000e-001) (8, 7.92038917541503910000e-001) (9, 7.81851410865783690000e-001) (10, 7.90437221527099610000e-001) (11, 7.70056724548339840000e-001) (12, 6.98326826095581050000e-001) (13, 7.20502853393554690000e-001) (14, 8.21968078613281250000e-001) (15, 7.51570045948028560000e-001) (16, -5.76380431652069090000e-001) (17, -7.84601807594299320000e-001) (18, -4.37808066606521610000e-001) (19, -2.02617153525352480000e-001) (20, -1.18847124278545380000e-001) (21, 2.52243733406066890000e+000) (22, -2.00971707701683040000e-001) (23, 1.67841172218322750000e+000) (24, 1.34044587612152100000e+000) (25, -1.36746153235435490000e-001) (26, -1.17218509316444400000e-001) (0, 5.75072765350341800000e-001) (1, 5.51072955131530760000e-001) (2, 5.39484322071075440000e-001) (3, 5.17034232616424560000e-001) (4, 5.89430272579193120000e-001) (5, 5.61417818069458010000e-001) (6, 5.98070144653320310000e-001) (7, 5.02830505371093750000e-001) (8, 5.27929127216339110000e-001) (9, 4.85066860914230350000e-001) (10, 5.32541096210479740000e-001) (11, 5.48232555389404300000e-001) (12, 5.10243296623229980000e-001) (13, 5.96001863479614260000e-001) (14, 5.76459050178527830000e-001) (15, 6.84528291225433350000e-001) (16, -3.65528434514999390000e-001) (17, -1.12189590930938720000e+000) (18, -2.73659408092498780000e-001) (19, -1.08510053157806400000e+000) (20, -9.91205751895904540000e-001) (21, 2.64247155189514160000e+000) (22, -8.11833739280700680000e-001) (23, 1.83619534969329830000e+000) (24, 1.30154132843017580000e+000) (25, -1.93699151277542110000e-001) (26, -1.18267767131328580000e-001) (0, 7.53034114837646480000e-001) (1, 8.52097034454345700000e-001) (2, 7.89585113525390630000e-001) (3, 7.35593855381011960000e-001) (4, 8.15806567668914790000e-001) (5, 8.09109449386596680000e-001) (6, 7.64362215995788570000e-001) (7, 8.10855627059936520000e-001) (8, 8.47967445850372310000e-001) (9, 7.82537698745727540000e-001) (10, 7.35305845737457280000e-001) (11, 8.00649881362915040000e-001) (12, 7.34518587589263920000e-001) (13, 7.73263514041900630000e-001) (14, 8.73633086681365970000e-001) (15, 7.34032750129699710000e-001) (16, -6.12015962600708010000e-001) (17, -8.92502844333648680000e-001) (18, -5.71856200695037840000e-001) (19, -9.73104238510131840000e-001) (20, -1.34575951099395750000e+000) (21, 2.83617305755615230000e+000) (22, -4.08784598112106320000e-001) (23, 1.86237227916717530000e+000) (24, 1.45568811893463130000e+000) (25, -1.10537104308605190000e-001) (26, -1.15780808031558990000e-001) (0, 1.07391023635864260000e+000) (1, 1.12541294097900390000e+000) (2, 1.13898396492004390000e+000) (3, 1.21547448635101320000e+000) (4, 1.18246364593505860000e+000) (5, 1.11055409908294680000e+000) (6, 1.09170317649841310000e+000) (7, 1.11044549942016600000e+000) (8, 1.07651877403259280000e+000) (9, 1.11204624176025390000e+000) (10, 1.07886552810668950000e+000) (11, 1.05008590221405030000e+000) (12, 1.15382039546966550000e+000) (13, 1.12051725387573240000e+000) (14, 1.20171451568603520000e+000) (15, 1.15646553039550780000e+000) (16, -9.19614136219024660000e-001) (17, -1.53711128234863280000e+000) (18, -1.83941066265106200000e-001) (19, -7.24790811538696290000e-001) (20, -6.34739816188812260000e-001) (21, 2.28115177154541020000e+000) (22, -5.08076965808868410000e-001) (23, 1.77110135555267330000e+000) (24, 1.33484923839569090000e+000) (25, -2.60249674320220950000e-001) (26, -1.79117202758789060000e-001) (0, 5.93685984611511230000e-001) (1, 7.18899011611938480000e-001) (2, 6.30418598651885990000e-001) (3, 5.04038751125335690000e-001) (4, 5.85744261741638180000e-001) (5, 5.79281151294708250000e-001) (6, 5.54596722126007080000e-001) (7, 6.28627479076385500000e-001) (8, 5.95791637897491460000e-001) (9, 5.52844583988189700000e-001) (10, 5.45635104179382320000e-001) (11, 5.21645247936248780000e-001) (12, 5.47323584556579590000e-001) (13, 5.92935442924499510000e-001) (14, 6.21727108955383300000e-001) (15, 6.74810469150543210000e-001) (16, -4.29817467927932740000e-001) (17, -5.97943305969238280000e-001) (18, -3.21555584669113160000e-001) (19, -1.23783811926841740000e-001) (20, -1.32566899061203000000e-001) (21, 2.36836075782775880000e+000) (22, -1.06089763343334200000e-001) (23, 1.59762215614318850000e+000) (24, 1.25496411323547360000e+000) (25, -1.51497557759284970000e-001) (26, 9.87393036484718320000e-003) (0, 7.57723212242126460000e-001) (1, 6.09950721263885500000e-001) (2, 6.45809769630432130000e-001) (3, 7.42476940155029300000e-001) (4, 6.99246227741241460000e-001) (5, 6.70045077800750730000e-001) (6, 6.45335853099823000000e-001) (7, 6.60352408885955810000e-001) (8, 6.43462479114532470000e-001) (9, 6.95415675640106200000e-001) (10, 7.31216967105865480000e-001) (11, 6.85028374195098880000e-001) (12, 7.59528934955596920000e-001) (13, 6.14134430885314940000e-001) (14, 6.38857483863830570000e-001) (15, 6.92730307579040530000e-001) (16, -5.13483524322509770000e-001) (17, -3.88142228126525880000e-001) (18, -5.27927160263061520000e-001) (19, -1.88209161162376400000e-001) (20, -2.26308509707450870000e-001) (21, 2.65805077552795410000e+000) (22, -2.66995102167129520000e-001) (23, 1.82425224781036380000e+000) (24, 1.45962560176849370000e+000) (25, -1.35521352291107180000e-001) (26, -2.00201161205768590000e-002) (0, 1.04758846759796140000e+000) (1, 9.98920202255249020000e-001) (2, 1.05931663513183590000e+000) (3, 1.18403851985931400000e+000) (4, 1.11303925514221190000e+000) (5, 1.16263568401336670000e+000) (6, 1.11479115486145020000e+000) (7, 1.16538274288177490000e+000) (8, 1.07766568660736080000e+000) (9, 1.03174400329589840000e+000) (10, 1.12200689315795900000e+000) (11, 1.14691686630249020000e+000) (12, 1.05221080780029300000e+000) (13, 1.04768168926239010000e+000) (14, 1.00458467006683350000e+000) (15, 1.05581235885620120000e+000) (16, -9.14742350578308110000e-001) (17, -1.09914553165435790000e+000) (18, -8.22185993194580080000e-001) (19, -1.00701987743377690000e+000) (20, -4.20224547386169430000e-001) (21, 2.65929341316223140000e+000) (22, -2.41792649030685420000e-001) (23, 1.77855253219604490000e+000) (24, 1.50595402717590330000e+000) (25, -1.78802534937858580000e-001) (26, -1.51152104139328000000e-001) (0, 6.18570685386657710000e-001) (1, 5.46444654464721680000e-001) (2, 5.32524704933166500000e-001) (3, 6.02934956550598140000e-001) (4, 6.26916170120239260000e-001) (5, 6.12223505973815920000e-001) (6, 5.35175085067749020000e-001) (7, 6.12044394016265870000e-001) (8, 5.70815742015838620000e-001) (9, 5.55884063243865970000e-001) (10, 5.22940874099731450000e-001) (11, 5.70934116840362550000e-001) (12, 5.24485290050506590000e-001) (13, 5.44992983341217040000e-001) (14, 5.24190068244934080000e-001) (15, 5.78366398811340330000e-001) (16, -3.76067936420440670000e-001) (17, -5.03833651542663570000e-001) (18, -3.95864009857177730000e-001) (19, -4.24949377775192260000e-001) (20, -3.95222723484039310000e-001) (21, 2.61653161048889160000e+000) (22, -2.42336809635162350000e-001) (23, 1.60007143020629880000e+000) (24, 1.25403344631195070000e+000) (25, -1.52965620160102840000e-001) (26, -1.55612647533416750000e-001) (0, 7.03214287757873540000e-001) (1, 7.28303611278533940000e-001) (2, 6.89138770103454590000e-001) (3, 7.54120051860809330000e-001) (4, 6.74638330936431880000e-001) (5, 8.20372402667999270000e-001) (6, 7.17774510383605960000e-001) (7, 7.06096172332763670000e-001) (8, 6.63295745849609380000e-001) (9, 6.85913801193237300000e-001) (10, 7.03426301479339600000e-001) (11, 7.51283407211303710000e-001) (12, 9.26724374294281010000e-001) (13, 7.26012945175170900000e-001) (14, 7.54704475402832030000e-001) (15, 7.08949327468872070000e-001) (16, -5.59926211833953860000e-001) (17, -6.45567655563354490000e-001) (18, -5.24588339030742650000e-002) (19, -6.14705085754394530000e-001) (20, -3.82271766662597660000e-001) (21, 2.48128056526184080000e+000) (22, -2.50349640846252440000e-001) (23, 1.80205345153808590000e+000) (24, 1.45927786827087400000e+000) (25, 1.85364469885826110000e-001) (26, -1.56190872192382810000e-001) (0, 6.42514407634735110000e-001) (1, 6.43271982669830320000e-001) (2, 7.04793453216552730000e-001) (3, 6.73508644104003910000e-001) (4, 6.13352298736572270000e-001) (5, 6.56733214855194090000e-001) (6, 6.59560859203338620000e-001) (7, 7.99554288387298580000e-001) (8, 6.00912511348724370000e-001) (9, 6.29562139511108400000e-001) (10, 6.40659749507904050000e-001) (11, 6.44314229488372800000e-001) (12, 5.96385717391967770000e-001) (13, 7.38412678241729740000e-001) (14, 6.24426901340484620000e-001) (15, 6.99671745300292970000e-001) (16, -4.83764469623565670000e-001) (17, -6.94626212120056150000e-001) (18, -4.12786304950714110000e-001) (19, -2.96898990869522090000e-001) (20, 2.45393827557563780000e-001) (21, 2.39779114723205570000e+000) (22, -8.66837725043296810000e-002) (23, 1.63456284999847410000e+000) (24, 1.25498402118682860000e+000) (25, 3.44997690990567210000e-003) (26, -4.09125955775380130000e-003) (0, 9.05704498291015630000e-001) (1, 9.58386301994323730000e-001) (2, 1.04569160938262940000e+000) (3, 9.53239142894744870000e-001) (4, 9.04968976974487300000e-001) (5, 8.59519422054290770000e-001) (6, 8.91981661319732670000e-001) (7, 9.06953394412994380000e-001) (8, 1.07093608379364010000e+000) (9, 1.14929044246673580000e+000) (10, 1.04931402206420900000e+000) (11, 1.00591111183166500000e+000) (12, 9.86933827400207520000e-001) (13, 9.29543018341064450000e-001) (14, 9.87398624420166020000e-001) (15, 8.37756752967834470000e-001) (16, -7.82175481319427490000e-001) (17, -1.64883565902709960000e+000) (18, 2.17656046152114870000e-001) (19, -5.69404900074005130000e-001) (20, -4.57058638334274290000e-001) (21, 2.73333144187927250000e+000) (22, -1.42069861292839050000e-001) (23, 1.90510272979736330000e+000) (24, 1.41727352142333980000e+000) (25, -1.50513440370559690000e-001) (26, 2.53144055604934690000e-001) (0, 7.09277272224426270000e-001) (1, 7.33413159847259520000e-001) (2, 7.68938064575195310000e-001) (3, 7.30768561363220210000e-001) (4, 7.02334940433502200000e-001) (5, 7.17391252517700200000e-001) (6, 7.21461892127990720000e-001) (7, 6.78552389144897460000e-001) (8, 8.25028717517852780000e-001) (9, 7.67471134662628170000e-001) (10, 7.55125939846038820000e-001) (11, 7.82838821411132810000e-001) (12, 8.81330549716949460000e-001) (13, 7.55534946918487550000e-001) (14, 6.38913273811340330000e-001) (15, 7.39133119583129880000e-001) (16, -5.70815622806549070000e-001) (17, -4.67617750167846680000e-001) (18, -3.43812227249145510000e-001) (19, -3.15902501344680790000e-001) (20, -2.96696841716766360000e-001) (21, 2.59165096282958980000e+000) (22, -1.15630201995372770000e-001) (23, 1.52920019626617430000e+000) (24, 1.11576628684997560000e+000) (25, 8.70725419372320180000e-003) (26, 3.30615811981260780000e-003) (0, 9.15845632553100590000e-001) (1, 7.43134558200836180000e-001) (2, 7.81001567840576170000e-001) (3, 8.24124991893768310000e-001) (4, 7.63246536254882810000e-001) (5, 8.04926037788391110000e-001) (6, 8.66430640220642090000e-001) (7, 7.70858287811279300000e-001) (8, 8.21507632732391360000e-001) (9, 9.07328069210052490000e-001) (10, 9.09459710121154790000e-001) (11, 7.20825791358947750000e-001) (12, 7.45576441287994380000e-001) (13, 8.19533288478851320000e-001) (14, 8.21551978588104250000e-001) (15, 7.26354122161865230000e-001) (16, -6.33283615112304690000e-001) (17, -1.65157854557037350000e-001) (18, -5.12449324131011960000e-001) (19, 1.10585778951644900000e-001) (20, -1.73515900969505310000e-002) (21, 2.52681899070739750000e+000) (22, -2.03348398208618160000e-001) (23, 1.85537123680114750000e+000) (24, 1.45480048656463620000e+000) (25, 3.52129817008972170000e-001) (26, -6.14589214324951170000e-001) (0, 7.13488996028900150000e-001) (1, 7.20597326755523680000e-001) (2, 7.07624018192291260000e-001) (3, 7.20593035221099850000e-001) (4, 7.08987593650817870000e-001) (5, 7.57555305957794190000e-001) (6, 6.86086535453796390000e-001) (7, 7.65656232833862300000e-001) (8, 6.71957612037658690000e-001) (9, 7.04058706760406490000e-001) (10, 6.24532938003540040000e-001) (11, 6.46849632263183590000e-001) (12, 6.99263036251068120000e-001) (13, 7.60709464550018310000e-001) (14, 6.76524698734283450000e-001) (15, 7.48043119907379150000e-001) (16, -5.16099154949188230000e-001) (17, -1.92704880237579350000e+000) (18, -4.33023333549499510000e-001) (19, -7.66523659229278560000e-001) (20, -6.77842974662780760000e-001) (21, 2.53200483322143550000e+000) (22, -9.00856554508209230000e-002) (23, 1.73921740055084230000e+000) (24, 1.40241229534149170000e+000) (25, 2.07001157104969020000e-002) (26, 5.96632016822695730000e-003) (0, 4.16469961404800420000e-001) (1, 4.58892107009887700000e-001) (2, 5.98658859729766850000e-001) (3, 3.95114541053771970000e-001) (4, 4.77410972118377690000e-001) (5, 4.70839947462081910000e-001) (6, 5.29256999492645260000e-001) (7, 5.22106707096099850000e-001) (8, 5.99754214286804200000e-001) (9, 4.70375269651412960000e-001) (10, 4.85966950654983520000e-001) (11, 5.81059396266937260000e-001) (12, 4.16726946830749510000e-001) (13, 4.86478537321090700000e-001) (14, 4.85809475183486940000e-001) (15, 4.94022130966186520000e-001) (16, -3.18664580583572390000e-001) (17, -1.89736455678939820000e-001) (18, -2.06682085990905760000e-001) (19, -3.31425845623016360000e-001) (20, -2.89229452610015870000e-001) (21, 2.68418383598327640000e+000) (22, -6.52136802673339840000e-001) (23, 1.74727928638458250000e+000) (24, 1.21188759803771970000e+000) (25, -1.78513452410697940000e-002) (26, 1.16708390414714810000e-002) 
