FANN_FLO_2.1
num_layers=12
learning_rate=0.700000
connection_rate=1.000000
network_type=1
learning_momentum=0.000000
training_algorithm=2
train_error_function=0
train_stop_function=0
cascade_output_change_fraction=0.010000
quickprop_decay=-0.000100
quickprop_mu=1.750000
rprop_increase_factor=1.200000
rprop_decrease_factor=0.500000
rprop_delta_min=0.000000
rprop_delta_max=50.000000
rprop_delta_zero=0.100000
cascade_output_stagnation_epochs=12
cascade_candidate_change_fraction=0.010000
cascade_candidate_stagnation_epochs=12
cascade_max_out_epochs=150
cascade_min_out_epochs=15
cascade_max_cand_epochs=150
cascade_min_cand_epochs=15
cascade_num_candidate_groups=2
bit_fail_limit=3.49999994039535520000e-001
cascade_candidate_limit=1.00000000000000000000e+003
cascade_weight_multiplier=4.00000005960464480000e-001
cascade_activation_functions_count=10
cascade_activation_functions=3 5 7 8 10 11 14 15 16 17 
cascade_activation_steepnesses_count=4
cascade_activation_steepnesses=2.50000000000000000000e-001 5.00000000000000000000e-001 7.50000000000000000000e-001 1.00000000000000000000e+000 
layer_sizes=17 1 1 1 1 1 1 1 1 1 1 16 
scale_included=0
neurons (num_inputs, activation_function, activation_steepness)=(0, 0, 0.00000000000000000000e+000) (0, 0, 0.00000000000000000000e+000) (0, 0, 0.00000000000000000000e+000) (0, 0, 0.00000000000000000000e+000) (0, 0, 0.00000000000000000000e+000) (0, 0, 0.00000000000000000000e+000) (0, 0, 0.00000000000000000000e+000) (0, 0, 0.00000000000000000000e+000) (0, 0, 0.00000000000000000000e+000) (0, 0, 0.00000000000000000000e+000) (0, 0, 0.00000000000000000000e+000) (0, 0, 0.00000000000000000000e+000) (0, 0, 0.00000000000000000000e+000) (0, 0, 0.00000000000000000000e+000) (0, 0, 0.00000000000000000000e+000) (0, 0, 0.00000000000000000000e+000) (0, 0, 0.00000000000000000000e+000) (17, 14, 2.50000000000000000000e-001) (18, 14, 1.00000000000000000000e+000) (19, 8, 7.50000000000000000000e-001) (20, 8, 1.00000000000000000000e+000) (21, 8, 1.00000000000000000000e+000) (22, 8, 7.50000000000000000000e-001) (23, 5, 7.50000000000000000000e-001) (24, 8, 5.00000000000000000000e-001) (25, 8, 7.50000000000000000000e-001) (26, 8, 5.00000000000000000000e-001) (27, 5, 5.00000000000000000000e-001) (27, 5, 5.00000000000000000000e-001) (27, 5, 5.00000000000000000000e-001) (27, 5, 5.00000000000000000000e-001) (27, 5, 5.00000000000000000000e-001) (27, 5, 5.00000000000000000000e-001) (27, 5, 5.00000000000000000000e-001) (27, 5, 5.00000000000000000000e-001) (27, 5, 5.00000000000000000000e-001) (27, 5, 5.00000000000000000000e-001) (27, 5, 5.00000000000000000000e-001) (27, 5, 5.00000000000000000000e-001) (27, 5, 5.00000000000000000000e-001) (27, 5, 5.00000000000000000000e-001) (27, 5, 5.00000000000000000000e-001) (27, 5, 5.00000000000000000000e-001) 
connections (connected_to_neuron, weight)=(0, 1.48338568210601810000e+000) (1, 1.48833227157592770000e+000) (2, 1.38270723819732670000e+000) (3, 1.39837288856506350000e+000) (4, 1.37775027751922610000e+000) (5, 1.41522943973541260000e+000) (6, 1.41993451118469240000e+000) (7, 1.41822123527526860000e+000) (8, 1.42852568626403810000e+000) (9, 1.41525220870971680000e+000) (10, 1.45888459682464600000e+000) (11, 1.43375504016876220000e+000) (12, 1.39218831062316890000e+000) (13, 1.40656304359436040000e+000) (14, 1.37574493885040280000e+000) (15, 1.41546475887298580000e+000) (16, -1.40886998176574710000e+000) (0, 1.20491576194763180000e+000) (1, 1.19961297512054440000e+000) (2, 1.28617036342620850000e+000) (3, 1.27387881278991700000e+000) (4, 1.29290223121643070000e+000) (5, 1.26075863838195800000e+000) (6, 1.25794923305511470000e+000) (7, 1.25587463378906250000e+000) (8, 1.24973821640014650000e+000) (9, 1.26008164882659910000e+000) (10, 1.22405946254730220000e+000) (11, 1.24496364593505860000e+000) (12, 1.28006052970886230000e+000) (13, 1.26577198505401610000e+000) (14, 1.29344856739044190000e+000) (15, 1.25922083854675290000e+000) (16, 1.87911581993103030000e+000) (17, 3.33622646331787110000e+000) (0, -7.22358822822570800000e-002) (1, -7.75074437260627750000e-002) (2, -5.91606497764587400000e-002) (3, -5.61973676085472110000e-002) (4, -5.08069172501564030000e-002) (5, -5.59320077300071720000e-002) (6, -5.67988455295562740000e-002) (7, -6.72612637281417850000e-002) (8, -6.34234622120857240000e-002) (9, -6.28066211938858030000e-002) (10, -6.99740573763847350000e-002) (11, -6.80381283164024350000e-002) (12, -5.51438294351100920000e-002) (13, -6.16993531584739690000e-002) (14, -5.06732612848281860000e-002) (15, -6.04434199631214140000e-002) (16, 1.19126689434051510000e+000) (17, 8.14318001270294190000e-001) (18, 2.63667941093444820000e+000) (0, -1.45321199670434000000e-002) (1, 1.64090549945831300000e+000) (2, -2.14942488819360730000e-002) (3, 1.64535176753997800000e+000) (4, 1.63908505439758300000e+000) (5, 1.64775574207305910000e+000) (6, 1.64663434028625490000e+000) (7, -1.84136535972356800000e-002) (8, 1.64117312431335450000e+000) (9, 1.63937604427337650000e+000) (10, 1.64362311363220210000e+000) (11, 1.63780748844146730000e+000) (12, -1.72136873006820680000e-002) (13, -1.53572997078299520000e-002) (14, 1.64323997497558590000e+000) (15, 1.64542543888092040000e+000) (16, -7.89079368114471440000e-001) (17, -1.29935398697853090000e-001) (18, 1.17852687835693360000e+000) (19, 1.20861411094665530000e+000) (0, 4.89183396100997920000e-001) (1, 4.86490428447723390000e-001) (2, 4.76800292730331420000e-001) (3, 4.89182144403457640000e-001) (4, 4.75124359130859380000e-001) (5, 4.92021411657333370000e-001) (6, 4.89672303199768070000e-001) (7, 4.80007052421569820000e-001) (8, 4.81173098087310790000e-001) (9, 4.79777276515960690000e-001) (10, 4.88070696592330930000e-001) (11, 4.77077066898345950000e-001) (12, 4.81711953878402710000e-001) (13, 4.86350864171981810000e-001) (14, 4.83686298131942750000e-001) (15, 4.91398960351943970000e-001) (16, 3.88949602842330930000e-001) (17, -4.91303592920303340000e-001) (18, 1.11536705493927000000e+000) (19, 2.25757265090942380000e+000) (20, 9.53370988368988040000e-001) (0, 7.08096250891685490000e-002) (1, 7.00522437691688540000e-002) (2, 9.55063775181770320000e-002) (3, 1.04473084211349490000e-001) (4, 9.79512110352516170000e-002) (5, 9.86587926745414730000e-002) (6, 9.53067168593406680000e-002) (7, 8.81940871477127080000e-002) (8, 7.98800364136695860000e-002) (9, 8.96050781011581420000e-002) (10, 7.93456807732582090000e-002) (11, 7.25827589631080630000e-002) (12, 9.62242335081100460000e-002) (13, 9.58096906542778020000e-002) (14, 1.07307560741901400000e-001) (15, 1.01942501962184910000e-001) (16, 1.09511017799377440000e+000) (17, 7.15377867221832280000e-001) (18, 2.28758406639099120000e+000) (19, 3.04345965385437010000e+000) (20, 2.09389731287956240000e-001) (21, 2.21062541007995610000e+000) (0, 1.79719460010528560000e+000) (1, 1.78955638408660890000e+000) (2, 1.84315967559814450000e+000) (3, 1.84853804111480710000e+000) (4, 1.84608983993530270000e+000) (5, 1.83280301094055180000e+000) (6, 1.83401048183441160000e+000) (7, 1.82557654380798340000e+000) (8, 1.81512546539306640000e+000) (9, 1.83146846294403080000e+000) (10, 1.81184124946594240000e+000) (11, 1.80509793758392330000e+000) (12, 1.84110593795776370000e+000) (13, 1.83582091331481930000e+000) (14, 1.85575020313262940000e+000) (15, 1.83667099475860600000e+000) (16, -1.77756607532501220000e+000) (17, 1.70582580566406250000e+000) (18, 2.31299519538879390000e+000) (19, 1.82296621799468990000e+000) (20, 1.24109911918640140000e+000) (21, 1.41239047050476070000e+000) (22, 2.64032793045043950000e+000) (0, 2.76800084114074710000e+000) (1, -5.51567018032073970000e-001) (2, 2.78989696502685550000e+000) (3, -5.24173259735107420000e-001) (4, 2.78206396102905270000e+000) (5, 2.78166198730468750000e+000) (6, -5.26155292987823490000e-001) (7, -5.34977912902832030000e-001) (8, -5.44590115547180180000e-001) (9, -5.34596025943756100000e-001) (10, -5.41273713111877440000e-001) (11, 2.76500868797302250000e+000) (12, 2.78721070289611820000e+000) (13, 2.78477740287780760000e+000) (14, 2.79125905036926270000e+000) (15, 2.78883552551269530000e+000) (16, -1.05727028846740720000e+000) (17, 5.01284182071685790000e-001) (18, 1.98710906505584720000e+000) (19, 1.78671646118164060000e+000) (20, 1.34196162223815920000e+000) (21, 2.00570964813232420000e+000) (22, 1.74991190433502200000e+000) (23, 2.96586179733276370000e+000) (0, 1.92964982986450200000e+000) (1, 1.92849123477935790000e+000) (2, 2.02951097488403320000e+000) (3, 2.01849937438964840000e+000) (4, -2.02178463339805600000e-001) (5, 1.99604141712188720000e+000) (6, 2.00004744529724120000e+000) (7, 1.99690592288970950000e+000) (8, 1.97468447685241700000e+000) (9, 2.00044202804565430000e+000) (10, 1.95860731601715090000e+000) (11, -2.60166436433792110000e-001) (12, 2.01718997955322270000e+000) (13, -2.20392405986785890000e-001) (14, 2.03621792793273930000e+000) (15, -2.20841825008392330000e-001) (16, -8.09570670127868650000e-001) (17, 3.29707026481628420000e+000) (18, 1.60781240463256840000e+000) (19, 2.21228647232055660000e+000) (20, 6.00545346736907960000e-001) (21, 3.28909778594970700000e+000) (22, 1.60084247589111330000e+000) (23, 2.50860595703125000000e+000) (24, 6.75385653972625730000e-001) (0, 4.48159980773925780000e+000) (1, 1.13062477111816410000e+000) (2, 1.17896318435668950000e+000) (3, 1.18324244022369380000e+000) (4, 1.18575799465179440000e+000) (5, 1.17366313934326170000e+000) (6, 1.17995655536651610000e+000) (7, 1.16501867771148680000e+000) (8, 1.15405786037445070000e+000) (9, 1.17296743392944340000e+000) (10, 1.15305173397064210000e+000) (11, 1.13733398914337160000e+000) (12, 4.51529741287231450000e+000) (13, 1.17025709152221680000e+000) (14, 1.18937337398529050000e+000) (15, 1.17497885227203370000e+000) (16, -2.74305772781372070000e+000) (17, 1.36681091785430910000e+000) (18, 3.04341316223144530000e+000) (19, 2.10174965858459470000e+000) (20, 3.89916449785232540000e-001) (21, 1.85778748989105220000e+000) (22, 3.06441235542297360000e+000) (23, 2.96264982223510740000e+000) (24, 8.15884053707122800000e-001) (25, 2.68780565261840820000e+000) (0, 6.44156217575073240000e-001) (1, 4.62938904762268070000e-001) (2, 6.50102853775024410000e-001) (3, 5.17481982707977290000e-001) (4, 6.75522387027740480000e-001) (5, 6.15741968154907230000e-001) (6, 9.44729804992675780000e-001) (7, 7.31685161590576170000e-001) (8, 7.21167922019958500000e-001) (9, 6.47542059421539310000e-001) (10, 4.82210367918014530000e-001) (11, 6.13622009754180910000e-001) (12, 5.08237838745117190000e-001) (13, 7.28221714496612550000e-001) (14, 8.26364934444427490000e-001) (15, 6.01898968219757080000e-001) (16, -3.91479134559631350000e-001) (17, 1.34503424167633060000e+000) (18, 3.81579875946044920000e+000) (19, 3.49916720390319820000e+000) (20, -8.52599553763866420000e-003) (21, 2.22695350646972660000e+000) (22, 1.86823129653930660000e+000) (23, 1.53666388988494870000e+000) (24, -1.04714871849864720000e-003) (25, 6.98427021503448490000e-001) (26, 3.55968624353408810000e-001) (0, 6.04766547679901120000e-001) (1, 6.32804214954376220000e-001) (2, 5.11187374591827390000e-001) (3, 6.70043468475341800000e-001) (4, 6.77385032176971440000e-001) (5, 5.25762856006622310000e-001) (6, 6.71589672565460210000e-001) (7, 6.34000182151794430000e-001) (8, 6.25260829925537110000e-001) (9, 6.66751801967620850000e-001) (10, 8.29756081104278560000e-001) (11, 7.10904896259307860000e-001) (12, 5.14912784099578860000e-001) (13, 5.18112123012542720000e-001) (14, 6.23653531074523930000e-001) (15, 6.19356691837310790000e-001) (16, -3.97500127553939820000e-001) (17, -5.40641605854034420000e-001) (18, 3.80146336555480960000e+000) (19, 3.35234880447387700000e+000) (20, -3.65157246589660640000e-001) (21, 2.75616502761840820000e+000) (22, 2.19584846496582030000e+000) (23, 1.87864220142364500000e+000) (24, -1.26157507300376890000e-001) (25, 8.23982238769531250000e-001) (26, 4.31360721588134770000e-001) (0, 9.03068542480468750000e-001) (1, 9.59918916225433350000e-001) (2, 1.03890395164489750000e+000) (3, 7.63117134571075440000e-001) (4, 7.59972155094146730000e-001) (5, 7.58431196212768550000e-001) (6, 9.01299715042114260000e-001) (7, 7.45122253894805910000e-001) (8, 7.35874593257904050000e-001) (9, 7.48501420021057130000e-001) (10, 8.91142904758453370000e-001) (11, 9.37860846519470210000e-001) (12, 7.53697693347930910000e-001) (13, 8.63153040409088130000e-001) (14, 7.67129182815551760000e-001) (15, 9.41567182540893550000e-001) (16, -6.38865053653717040000e-001) (17, 7.46534824371337890000e-001) (18, 3.96040511131286620000e+000) (19, 3.36434078216552730000e+000) (20, -3.24867993593215940000e-001) (21, 2.35212874412536620000e+000) (22, 1.86740052700042720000e+000) (23, 1.52311301231384280000e+000) (24, -7.69963264465332030000e-002) (25, 6.83005869388580320000e-001) (26, 3.03234875202178960000e-001) (0, 8.69003236293792720000e-001) (1, 7.77449131011962890000e-001) (2, 1.07265031337738040000e+000) (3, 7.99556910991668700000e-001) (4, 1.03251147270202640000e+000) (5, 7.97734498977661130000e-001) (6, 7.98683464527130130000e-001) (7, 7.86102056503295900000e-001) (8, 8.95684182643890380000e-001) (9, 8.62244725227355960000e-001) (10, 7.85818696022033690000e-001) (11, 9.09203171730041500000e-001) (12, 9.06146764755249020000e-001) (13, 7.90518641471862790000e-001) (14, 1.10082542896270750000e+000) (15, 7.98965930938720700000e-001) (16, -6.78710997104644780000e-001) (17, -5.95379061996936800000e-002) (18, 3.55922365188598630000e+000) (19, 3.27770113945007320000e+000) (20, -2.18163847923278810000e-001) (21, 2.29703903198242190000e+000) (22, 1.93420624732971190000e+000) (23, 1.53590083122253420000e+000) (24, -7.82938525080680850000e-002) (25, 8.19760978221893310000e-001) (26, 5.23906469345092770000e-001) (0, 3.40316146612167360000e-001) (1, 2.81055510044097900000e-001) (2, 4.69879359006881710000e-001) (3, 4.80585575103759770000e-001) (4, 4.31037783622741700000e-001) (5, 2.91782617568969730000e-001) (6, 3.32723140716552730000e-001) (7, 2.97174572944641110000e-001) (8, 5.24009764194488530000e-001) (9, 2.56996423006057740000e-001) (10, 1.72936856746673580000e-001) (11, 1.55359193682670590000e-001) (12, 3.00907254219055180000e-001) (13, 4.04790490865707400000e-001) (14, 2.95410275459289550000e-001) (15, 5.57971477508544920000e-001) (16, -6.44686073064804080000e-002) (17, 3.32249104976654050000e-001) (18, 3.99554085731506350000e+000) (19, 2.99841523170471190000e+000) (20, -5.22228837013244630000e-001) (21, 2.98181343078613280000e+000) (22, 2.50992751121521000000e+000) (23, 1.61408638954162600000e+000) (24, -8.86188596487045290000e-002) (25, 8.18911194801330570000e-001) (26, 2.94541299343109130000e-001) (0, 4.85881149768829350000e-001) (1, 8.74067425727844240000e-001) (2, 5.41228175163269040000e-001) (3, 5.56608676910400390000e-001) (4, 4.84683901071548460000e-001) (5, 4.11571741104125980000e-001) (6, 5.56722998619079590000e-001) (7, 6.37020349502563480000e-001) (8, 5.10287880897521970000e-001) (9, 4.77231740951538090000e-001) (10, 4.02031451463699340000e-001) (11, 4.51646715402603150000e-001) (12, 4.02048856019973750000e-001) (13, 6.27252578735351560000e-001) (14, 6.12111091613769530000e-001) (15, 5.04224717617034910000e-001) (16, -2.88620650768280030000e-001) (17, -2.25896924734115600000e-001) (18, 3.76614141464233400000e+000) (19, 3.29776692390441890000e+000) (20, -2.10743516683578490000e-001) (21, 2.40642213821411130000e+000) (22, 2.19000911712646480000e+000) (23, 1.76342666149139400000e+000) (24, -1.41036793589591980000e-001) (25, 7.55675315856933590000e-001) (26, 3.36159646511077880000e-001) (0, 9.32000994682312010000e-001) (1, 5.76027870178222660000e-001) (2, 5.82088351249694820000e-001) (3, 7.40464091300964360000e-001) (4, 5.88504970073699950000e-001) (5, 5.95222830772399900000e-001) (6, 5.97240984439849850000e-001) (7, 8.19994151592254640000e-001) (8, 5.75216650962829590000e-001) (9, 5.86020052433013920000e-001) (10, 7.38340258598327640000e-001) (11, 7.06225037574768070000e-001) (12, 7.03488707542419430000e-001) (13, 5.87725877761840820000e-001) (14, 6.96060359477996830000e-001) (15, 7.79189646244049070000e-001) (16, -4.71167176961898800000e-001) (17, -1.29735976457595830000e-001) (18, 3.78133654594421390000e+000) (19, 3.35844182968139650000e+000) (20, -1.47716611623764040000e-001) (21, 2.44985580444335940000e+000) (22, 2.10593461990356450000e+000) (23, 1.74238753318786620000e+000) (24, -1.13512575626373290000e-001) (25, 9.20618534088134770000e-001) (26, 4.27756816148757930000e-001) (0, 4.48749125003814700000e-001) (1, 4.43882107734680180000e-001) (2, 6.06539845466613770000e-001) (3, 7.63834536075592040000e-001) (4, 5.49983024597167970000e-001) (5, 7.90651500225067140000e-001) (6, 4.72586333751678470000e-001) (7, 6.96009397506713870000e-001) (8, 5.69136321544647220000e-001) (9, 5.37132143974304200000e-001) (10, 6.09839558601379390000e-001) (11, 4.38839763402938840000e-001) (12, 7.02252507209777830000e-001) (13, 5.76860845088958740000e-001) (14, 5.77903926372528080000e-001) (15, 5.64025044441223140000e-001) (16, -3.57182443141937260000e-001) (17, 4.13605839014053340000e-001) (18, 3.69970226287841800000e+000) (19, 3.24643850326538090000e+000) (20, -9.42640677094459530000e-002) (21, 2.27749562263488770000e+000) (22, 1.92624616622924800000e+000) (23, 1.43908143043518070000e+000) (24, -3.28690948663279410000e-004) (25, 6.72533273696899410000e-001) (26, 3.66408854722976680000e-001) (0, 9.17896747589111330000e-001) (1, 1.03359866142272950000e+000) (2, 8.78554642200469970000e-001) (3, 1.18900835514068600000e+000) (4, 1.20703530311584470000e+000) (5, 1.01097786426544190000e+000) (6, 9.09491240978240970000e-001) (7, 1.01308524608612060000e+000) (8, 8.89665067195892330000e-001) (9, 1.19499075412750240000e+000) (10, 9.11678731441497800000e-001) (11, 1.02156460285186770000e+000) (12, 8.86183857917785640000e-001) (13, 1.00513398647308350000e+000) (14, 9.90525901317596440000e-001) (15, 9.07773613929748540000e-001) (16, -7.65146255493164060000e-001) (17, -1.81001794338226320000e+000) (18, 4.16846990585327150000e+000) (19, 3.63679146766662600000e+000) (20, -3.59993457794189450000e-001) (21, 2.81444239616394040000e+000) (22, 2.37674212455749510000e+000) (23, 1.90961742401123050000e+000) (24, -2.74678945541381840000e-001) (25, 9.26329612731933590000e-001) (26, 4.33286130428314210000e-001) (0, 9.88640785217285160000e-001) (1, 8.93782973289489750000e-001) (2, 1.06726098060607910000e+000) (3, 1.22837233543396000000e+000) (4, 9.31981384754180910000e-001) (5, 1.47277033329010010000e+000) (6, 1.22306203842163090000e+000) (7, 1.03699767589569090000e+000) (8, 9.06166076660156250000e-001) (9, 1.07092046737670900000e+000) (10, 9.11885499954223630000e-001) (11, 1.17636966705322270000e+000) (12, 1.40625703334808350000e+000) (13, 9.27399158477783200000e-001) (14, 1.14287424087524410000e+000) (15, 1.21013116836547850000e+000) (16, -7.82067537307739260000e-001) (17, 6.54203832149505620000e-001) (18, 4.25783300399780270000e+000) (19, 4.16749000549316410000e+000) (20, -1.34391520987264810000e-004) (21, 2.77680897712707520000e+000) (22, 2.92746305465698240000e+000) (23, 2.35461831092834470000e+000) (24, -2.76197552680969240000e-001) (25, 9.69331443309783940000e-001) (26, 4.67088371515274050000e-001) (0, 1.18691515922546390000e+000) (1, 1.53862833976745610000e+000) (2, 1.34503591060638430000e+000) (3, 1.21725070476531980000e+000) (4, 1.29521536827087400000e+000) (5, 1.42542433738708500000e+000) (6, 1.21372044086456300000e+000) (7, 1.20022594928741460000e+000) (8, 1.18944513797760010000e+000) (9, 1.20372533798217770000e+000) (10, 1.19324254989624020000e+000) (11, 1.24546110630035400000e+000) (12, 1.32336711883544920000e+000) (13, 1.42781138420104980000e+000) (14, 1.22035956382751460000e+000) (15, 1.39676988124847410000e+000) (16, -1.06650161743164060000e+000) (17, 4.23810184001922610000e-001) (18, 4.87950086593627930000e+000) (19, 3.76728272438049320000e+000) (20, -1.11693060398101810000e+000) (21, 2.83043766021728520000e+000) (22, 2.41419386863708500000e+000) (23, 1.89330732822418210000e+000) (24, -3.02276581525802610000e-001) (25, 8.61217737197875980000e-001) (26, 5.00139951705932620000e-001) (0, 6.31918728351593020000e-001) (1, 6.88766241073608400000e-001) (2, 7.68508553504943850000e-001) (3, 6.36331081390380860000e-001) (4, 5.69880604743957520000e-001) (5, 4.87401872873306270000e-001) (6, 4.88012075424194340000e-001) (7, 4.75275874137878420000e-001) (8, 1.07022953033447270000e+000) (9, 8.53429555892944340000e-001) (10, 1.46508312225341800000e+000) (11, 5.92926323413848880000e-001) (12, 6.00493609905242920000e-001) (13, 4.81366336345672610000e-001) (14, 5.97119152545928960000e-001) (15, 4.89089608192443850000e-001) (16, -3.57534646987915040000e-001) (17, 7.13632643222808840000e-001) (18, 4.12231874465942380000e+000) (19, 3.48580002784729000000e+000) (20, -4.65978831052780150000e-001) (21, 2.62254881858825680000e+000) (22, 2.30532073974609370000e+000) (23, 1.73208141326904300000e+000) (24, -1.32053971290588380000e-001) (25, 6.96852266788482670000e-001) (26, 4.13518965244293210000e-001) (0, 1.01400589942932130000e+000) (1, 7.44615077972412110000e-001) (2, 7.88012862205505370000e-001) (3, 9.43368434906005860000e-001) (4, 8.77568840980529790000e-001) (5, 7.93567955493927000000e-001) (6, 1.07910442352294920000e+000) (7, 7.78309345245361330000e-001) (8, 7.66032874584198000000e-001) (9, 9.29286897182464600000e-001) (10, 7.64017224311828610000e-001) (11, 8.93300294876098630000e-001) (12, 1.39534604549407960000e+000) (13, 7.87729203701019290000e-001) (14, 8.06405901908874510000e-001) (15, 8.84808480739593510000e-001) (16, -6.61376416683197020000e-001) (17, 1.28016316890716550000e+000) (18, 3.68281149864196780000e+000) (19, 3.78883481025695800000e+000) (20, -3.19937020540237430000e-001) (21, 2.35120463371276860000e+000) (22, 2.05299878120422360000e+000) (23, 1.76133203506469730000e+000) (24, -2.27071776986122130000e-001) (25, 9.74108576774597170000e-001) (26, 4.67466294765472410000e-001) (0, 1.02775871753692630000e+000) (1, 8.48430514335632320000e-001) (2, 8.69242310523986820000e-001) (3, 8.81930530071258540000e-001) (4, 1.11801850795745850000e+000) (5, 9.83804404735565190000e-001) (6, 1.02143168449401860000e+000) (7, 9.82814788818359380000e-001) (8, 8.57138812541961670000e-001) (9, 1.16714847087860110000e+000) (10, 1.01426947116851810000e+000) (11, 9.16080474853515630000e-001) (12, 8.72164666652679440000e-001) (13, 9.82683837413787840000e-001) (14, 1.18627917766571040000e+000) (15, 8.79134893417358400000e-001) (16, -7.62444734573364260000e-001) (17, 4.82631772756576540000e-001) (18, 3.84209561347961430000e+000) (19, 3.29013800621032710000e+000) (20, -2.09375679492950440000e-001) (21, 2.28686237335205080000e+000) (22, 1.77855730056762700000e+000) (23, 1.43904578685760500000e+000) (24, 1.25694982707500460000e-002) (25, 6.76511287689208980000e-001) (26, 3.38277280330657960000e-001) (0, 7.91328072547912600000e-001) (1, 8.13851416110992430000e-001) (2, 6.97662532329559330000e-001) (3, 8.62422168254852290000e-001) (4, 9.48639512062072750000e-001) (5, 1.04048502445220950000e+000) (6, 8.64300370216369630000e-001) (7, 8.18955361843109130000e-001) (8, 8.12834382057189940000e-001) (9, 7.77940988540649410000e-001) (10, 7.05789446830749510000e-001) (11, 7.51812160015106200000e-001) (12, 8.22115957736968990000e-001) (13, 1.16068565845489500000e+000) (14, 7.17691838741302490000e-001) (15, 8.10541093349456790000e-001) (16, -5.70583701133728030000e-001) (17, -2.71174401044845580000e-001) (18, 4.83303928375244140000e+000) (19, 4.34352540969848630000e+000) (20, -1.92935004830360410000e-001) (21, 2.42584228515625000000e+000) (22, 1.90546393394470210000e+000) (23, 1.43093979358673100000e+000) (24, 9.79806482791900630000e-002) (25, 1.39358305931091310000e+000) (26, 1.09479260444641110000e+000) (0, 1.07827508449554440000e+000) (1, 1.22267723083496090000e+000) (2, 1.14577817916870120000e+000) (3, 1.01624262332916260000e+000) (4, 1.01025903224945070000e+000) (5, 1.22355568408966060000e+000) (6, 1.15722763538360600000e+000) (7, 1.35734105110168460000e+000) (8, 1.22741878032684330000e+000) (9, 1.07756924629211430000e+000) (10, 1.15119838714599610000e+000) (11, 1.12150621414184570000e+000) (12, 1.00540447235107420000e+000) (13, 1.22848761081695560000e+000) (14, 1.11733675003051760000e+000) (15, 1.28820443153381350000e+000) (16, -8.86273145675659180000e-001) (17, 2.59993523359298710000e-001) (18, 4.01897954940795900000e+000) (19, 3.32729434967041020000e+000) (20, -2.00106322765350340000e-001) (21, 2.55726814270019530000e+000) (22, 2.19441437721252440000e+000) (23, 1.74037921428680420000e+000) (24, -2.42797419428825380000e-001) (25, 9.11916017532348630000e-001) (26, 5.21438777446746830000e-001) 
