FANN_FLO_2.1
num_layers=12
learning_rate=0.700000
connection_rate=1.000000
network_type=1
learning_momentum=0.000000
training_algorithm=2
train_error_function=0
train_stop_function=0
cascade_output_change_fraction=0.010000
quickprop_decay=-0.000100
quickprop_mu=1.750000
rprop_increase_factor=1.200000
rprop_decrease_factor=0.500000
rprop_delta_min=0.000000
rprop_delta_max=50.000000
rprop_delta_zero=0.100000
cascade_output_stagnation_epochs=12
cascade_candidate_change_fraction=0.010000
cascade_candidate_stagnation_epochs=12
cascade_max_out_epochs=150
cascade_min_out_epochs=15
cascade_max_cand_epochs=150
cascade_min_cand_epochs=15
cascade_num_candidate_groups=2
bit_fail_limit=3.49999994039535520000e-001
cascade_candidate_limit=1.00000000000000000000e+003
cascade_weight_multiplier=4.00000005960464480000e-001
cascade_activation_functions_count=10
cascade_activation_functions=3 5 7 8 10 11 14 15 16 17 
cascade_activation_steepnesses_count=4
cascade_activation_steepnesses=2.50000000000000000000e-001 5.00000000000000000000e-001 7.50000000000000000000e-001 1.00000000000000000000e+000 
layer_sizes=34 1 1 1 1 1 1 1 1 1 1 33 
scale_included=0
neurons (num_inputs, activation_function, activation_steepness)=(0, 0, 0.00000000000000000000e+000) (0, 0, 0.00000000000000000000e+000) (0, 0, 0.00000000000000000000e+000) (0, 0, 0.00000000000000000000e+000) (0, 0, 0.00000000000000000000e+000) (0, 0, 0.00000000000000000000e+000) (0, 0, 0.00000000000000000000e+000) (0, 0, 0.00000000000000000000e+000) (0, 0, 0.00000000000000000000e+000) (0, 0, 0.00000000000000000000e+000) (0, 0, 0.00000000000000000000e+000) (0, 0, 0.00000000000000000000e+000) (0, 0, 0.00000000000000000000e+000) (0, 0, 0.00000000000000000000e+000) (0, 0, 0.00000000000000000000e+000) (0, 0, 0.00000000000000000000e+000) (0, 0, 0.00000000000000000000e+000) (0, 0, 0.00000000000000000000e+000) (0, 0, 0.00000000000000000000e+000) (0, 0, 0.00000000000000000000e+000) (0, 0, 0.00000000000000000000e+000) (0, 0, 0.00000000000000000000e+000) (0, 0, 0.00000000000000000000e+000) (0, 0, 0.00000000000000000000e+000) (0, 0, 0.00000000000000000000e+000) (0, 0, 0.00000000000000000000e+000) (0, 0, 0.00000000000000000000e+000) (0, 0, 0.00000000000000000000e+000) (0, 0, 0.00000000000000000000e+000) (0, 0, 0.00000000000000000000e+000) (0, 0, 0.00000000000000000000e+000) (0, 0, 0.00000000000000000000e+000) (0, 0, 0.00000000000000000000e+000) (0, 0, 0.00000000000000000000e+000) (34, 15, 1.00000000000000000000e+000) (35, 8, 7.50000000000000000000e-001) (36, 14, 7.50000000000000000000e-001) (37, 8, 1.00000000000000000000e+000) (38, 14, 7.50000000000000000000e-001) (39, 14, 7.50000000000000000000e-001) (40, 14, 2.50000000000000000000e-001) (41, 15, 1.00000000000000000000e+000) (42, 15, 1.00000000000000000000e+000) (43, 14, 2.50000000000000000000e-001) (44, 5, 5.00000000000000000000e-001) (44, 5, 5.00000000000000000000e-001) (44, 5, 5.00000000000000000000e-001) (44, 5, 5.00000000000000000000e-001) (44, 5, 5.00000000000000000000e-001) (44, 5, 5.00000000000000000000e-001) (44, 5, 5.00000000000000000000e-001) (44, 5, 5.00000000000000000000e-001) (44, 5, 5.00000000000000000000e-001) (44, 5, 5.00000000000000000000e-001) (44, 5, 5.00000000000000000000e-001) (44, 5, 5.00000000000000000000e-001) (44, 5, 5.00000000000000000000e-001) (44, 5, 5.00000000000000000000e-001) (44, 5, 5.00000000000000000000e-001) (44, 5, 5.00000000000000000000e-001) (44, 5, 5.00000000000000000000e-001) (44, 5, 5.00000000000000000000e-001) (44, 5, 5.00000000000000000000e-001) (44, 5, 5.00000000000000000000e-001) (44, 5, 5.00000000000000000000e-001) (44, 5, 5.00000000000000000000e-001) (44, 5, 5.00000000000000000000e-001) (44, 5, 5.00000000000000000000e-001) (44, 5, 5.00000000000000000000e-001) (44, 5, 5.00000000000000000000e-001) (44, 5, 5.00000000000000000000e-001) (44, 5, 5.00000000000000000000e-001) (44, 5, 5.00000000000000000000e-001) (44, 5, 5.00000000000000000000e-001) (44, 5, 5.00000000000000000000e-001) (44, 5, 5.00000000000000000000e-001) (44, 5, 5.00000000000000000000e-001) 
connections (connected_to_neuron, weight)=(0, -2.12039500474929810000e-001) (1, 1.24678993225097660000e+000) (2, 3.13475036621093750000e+000) (3, 1.72298419475555420000e+000) (4, 3.05036592483520510000e+000) (5, 2.04217624664306640000e+000) (6, -2.32278442382812500000e+000) (7, 1.53166675567626950000e+000) (8, 2.15657210350036620000e+000) (9, 3.35630202293396000000e+000) (10, 1.65235245227813720000e+000) (11, 2.20188474655151370000e+000) (12, 1.17282164096832280000e+000) (13, 6.51385784149169920000e-001) (14, -1.19295762851834300000e-002) (15, 1.85903167724609370000e+000) (16, 2.93915987014770510000e+000) (17, 7.99058154225349430000e-002) (18, 2.87624073028564450000e+000) (19, 2.25464999675750730000e-001) (20, 2.01305270195007320000e+000) (21, 1.42483866214752200000e+000) (22, -7.51508951187133790000e-001) (23, 5.94071328639984130000e-001) (24, 3.28411966562271120000e-001) (25, 1.17469444870948790000e-001) (26, 7.95437872409820560000e-001) (27, 1.90771484375000000000e+000) (28, 2.50486159324646000000e+000) (29, -1.07745552062988280000e+000) (30, 3.66961866617202760000e-001) (31, 2.11793375015258790000e+000) (32, 3.00134944915771480000e+000) (33, -5.05084879696369170000e-002) (0, -5.44939935207366940000e-001) (1, 1.21095013618469240000e+000) (2, 2.64580041170120240000e-001) (3, -5.56813359260559080000e-001) (4, 1.15040290355682370000e+000) (5, -7.70400241017341610000e-002) (6, 5.56918568909168240000e-002) (7, -7.53594756126403810000e-001) (8, -5.59103667736053470000e-001) (9, -4.40785706043243410000e-001) (10, 1.13186486065387730000e-001) (11, 6.46073698997497560000e-001) (12, 1.16651475429534910000e+000) (13, -8.41681599617004390000e-001) (14, 7.32554256916046140000e-001) (15, 4.30828146636486050000e-002) (16, 3.71751673519611360000e-002) (17, 2.81050745397806170000e-002) (18, 1.60089135169982910000e+000) (19, 7.86479175090789790000e-001) (20, 1.37405663728713990000e-001) (21, -7.70155340433120730000e-002) (22, 3.88805389404296880000e-001) (23, -1.51390063762664790000e+000) (24, 6.82052493095397950000e-001) (25, -4.90166008472442630000e-001) (26, 2.02182817459106450000e+000) (27, -6.54260694980621340000e-001) (28, -6.25388503074646000000e-001) (29, 1.09780633449554440000e+000) (30, -1.30718210712075230000e-002) (31, 4.10420864820480350000e-001) (32, -4.98543411493301390000e-001) (33, -6.71528041362762450000e-001) (34, 1.14331281185150150000e+000) (0, 1.48627138137817380000e+000) (1, -3.92518192529678340000e-001) (2, 1.06793212890625000000e+000) (3, 5.09673655033111570000e-001) (4, 1.44463443756103520000e+000) (5, 1.60310781002044680000e+000) (6, 1.60564029216766360000e+000) (7, -1.59273162484169010000e-001) (8, 5.62031221389770510000e+000) (9, -5.17230689525604250000e-001) (10, 8.79370152950286870000e-001) (11, 1.48955619335174560000e+000) (12, 1.10969555377960210000e+000) (13, 8.94637525081634520000e-001) (14, -6.90014809370040890000e-002) (15, 1.33859884738922120000e+000) (16, 2.05343008041381840000e+000) (17, 4.21680331230163570000e-001) (18, 8.27436566352844240000e-001) (19, 1.79388904571533200000e+000) (20, -1.08838188648223880000e+000) (21, 1.92427802085876460000e+000) (22, 1.32824957370758060000e+000) (23, 1.77655005455017090000e+000) (24, -1.46625912189483640000e+000) (25, 7.37371921539306640000e-001) (26, 3.67939424514770510000e+000) (27, 1.27606093883514400000e+000) (28, 1.91441297531127930000e+000) (29, 8.18451166152954100000e-001) (30, -8.20295274257659910000e-001) (31, 1.22440814971923830000e-001) (32, 1.65567016601562500000e+000) (33, 1.85898911952972410000e+000) (34, 3.44285082817077640000e+000) (35, -1.41397891566157340000e-002) (0, 6.17677986621856690000e-001) (1, 3.96853446960449220000e-001) (2, -7.20669150352478030000e-001) (3, -1.12610816955566410000e+000) (4, 8.38152825832366940000e-001) (5, -5.23114502429962160000e-002) (6, 5.91508746147155760000e-001) (7, 5.10702468454837800000e-002) (8, 3.12017947435379030000e-001) (9, 7.16206371784210210000e-001) (10, -3.20255935192108150000e-001) (11, -4.82856899499893190000e-001) (12, 4.77972716093063350000e-001) (13, 2.32032388448715210000e-001) (14, 4.45867538452148440000e-001) (15, 4.26729738712310790000e-001) (16, 1.15533746778965000000e-001) (17, 5.27068972587585450000e-001) (18, 5.98002731800079350000e-001) (19, 5.80962121486663820000e-001) (20, 2.62859072536230090000e-002) (21, 4.60827797651290890000e-001) (22, -3.80286455154418950000e-001) (23, 8.94573628902435300000e-001) (24, 1.40863549709320070000e+000) (25, -4.59759175777435300000e-001) (26, 1.58412849903106690000e+000) (27, 3.87111514806747440000e-001) (28, 1.08877646923065190000e+000) (29, 3.99628311395645140000e-001) (30, -7.42272496223449710000e-001) (31, -1.36665627360343930000e-001) (32, 3.35969835519790650000e-001) (33, -1.72500443458557130000e+000) (34, 5.79417273402214050000e-002) (35, 4.65609520673751830000e-001) (36, 8.50024104118347170000e-001) (0, 7.77254819869995120000e-001) (1, 7.52691030502319340000e-001) (2, -9.68595445156097410000e-001) (3, 9.04512763023376460000e-001) (4, 3.06493616104125980000e+000) (5, -1.78957238793373110000e-001) (6, 1.27661955356597900000e+000) (7, -4.37018722295761110000e-001) (8, 3.43913912773132320000e-001) (9, 2.04865813255310060000e+000) (10, -8.05367708206176760000e-001) (11, 1.76326501369476320000e+000) (12, 1.21359452605247500000e-001) (13, 1.24378907680511470000e+000) (14, 6.34615182876586910000e-001) (15, 2.70630455017089840000e+000) (16, 1.74334019422531130000e-001) (17, 1.07342231273651120000e+000) (18, 1.38577967882156370000e-001) (19, 1.84308552742004390000e+000) (20, 7.19678044319152830000e-001) (21, 1.43689775466918950000e+000) (22, -2.59166844189167020000e-002) (23, 1.72628867626190190000e+000) (24, 3.62264394760131840000e+000) (25, 2.31568068265914920000e-001) (26, 7.33755469322204590000e-001) (27, -2.03442430496215820000e+000) (28, 2.21218466758728030000e+000) (29, 1.24735474586486820000e+000) (30, 2.89415049552917480000e+000) (31, 1.67447948455810550000e+000) (32, 2.07708406448364260000e+000) (33, 6.28169715404510500000e-001) (34, 2.38392138481140140000e+000) (35, 6.44049465656280520000e-001) (36, 8.67958486080169680000e-001) (37, 1.60639309883117680000e+000) (0, 1.21001148223876950000e+000) (1, 1.13792769610881810000e-001) (2, -1.55447983741760250000e+000) (3, -4.01591032743453980000e-001) (4, 2.43796634674072270000e+000) (5, 5.15565037727355960000e-001) (6, 1.58065676689147950000e+000) (7, -8.81682693958282470000e-001) (8, 2.27507472038269040000e+000) (9, 3.72648060321807860000e-001) (10, 4.69117164611816410000e-001) (11, 3.31570339202880860000e+000) (12, 1.79707109928131100000e+000) (13, 2.13765144348144530000e+000) (14, -7.84288287162780760000e-001) (15, 1.51297831535339360000e+000) (16, -9.51574385166168210000e-001) (17, 8.99115145206451420000e-001) (18, 2.32740497589111330000e+000) (19, 1.32710862159729000000e+000) (20, -5.69579899311065670000e-001) (21, 2.13148593902587890000e+000) (22, 1.70428812503814700000e+000) (23, 8.43326508998870850000e-001) (24, 1.88985690474510190000e-001) (25, 2.43049407005310060000e+000) (26, 2.00609207153320310000e+000) (27, 4.42825889587402340000e+000) (28, -1.58150172233581540000e+000) (29, 1.39638757705688480000e+000) (30, 2.25332045555114750000e+000) (31, -5.98329126834869380000e-001) (32, 2.24894255399703980000e-001) (33, -1.92766547203063960000e+000) (34, 6.99876368045806880000e-001) (35, 3.08093142509460450000e+000) (36, 3.37658286094665530000e-001) (37, 1.34391620755195620000e-001) (38, 1.77111268043518070000e+000) (0, -2.31937098503112790000e+000) (1, 3.27543568611145020000e+000) (2, -4.94600713253021240000e-001) (3, -4.26706932485103610000e-002) (4, 3.69627857208251950000e+000) (5, 8.69744300842285160000e+000) (6, -1.94797027111053470000e+000) (7, -1.19332790374755860000e+001) (8, -6.55234384536743160000e+000) (9, 5.13745546340942380000e+000) (10, -2.41914916038513180000e+000) (11, 1.71458446979522710000e+000) (12, -1.68081772327423100000e+000) (13, -6.25233709812164310000e-001) (14, -2.24425244331359860000e+000) (15, 9.09236049652099610000e+000) (16, -5.24477910995483400000e+000) (17, 6.12215518951416020000e+000) (18, 3.43421578407287600000e+000) (19, -1.92476224899291990000e+000) (20, 2.67416691780090330000e+000) (21, -4.06857442855834960000e+000) (22, -1.05284814834594730000e+001) (23, -3.22347760200500490000e-001) (24, 5.45023918151855470000e+000) (25, 8.03945064544677730000e+000) (26, 1.83376789093017580000e+000) (27, 7.53743743896484370000e+000) (28, 5.55520725250244140000e+000) (29, 6.53915882110595700000e+000) (30, 1.33677089214324950000e+000) (31, 4.97102499008178710000e+000) (32, 5.11043596267700200000e+000) (33, 1.51629114151000980000e+000) (34, 8.08549225330352780000e-001) (35, 3.37936997413635250000e+000) (36, 5.28507947921752930000e+000) (37, -1.52190494537353520000e+000) (38, 2.96604573726654050000e-001) (39, 4.55874824523925780000e+000) (0, 1.89626812934875490000e-001) (1, 1.13203883171081540000e+000) (2, 2.33224892616271970000e+000) (3, 1.01607286930084230000e+000) (4, -1.51783286128193140000e-004) (5, 2.43688583374023440000e+000) (6, 1.26126432418823240000e+000) (7, 1.69886660575866700000e+000) (8, -4.33572158217430110000e-002) (9, 1.65030944347381590000e+000) (10, 1.53042185306549070000e+000) (11, 4.61453825235366820000e-001) (12, 1.88940837979316710000e-001) (13, 1.04136908054351810000e+000) (14, 1.60227310657501220000e+000) (15, 3.30348825454711910000e+000) (16, 2.09443807601928710000e+000) (17, -9.65510368347167970000e-001) (18, 1.96665108203887940000e+000) (19, 2.07000565528869630000e+000) (20, -5.52590250968933110000e-001) (21, -1.36701917648315430000e+000) (22, 4.66992855072021480000e-001) (23, 1.95853602886199950000e+000) (24, 1.96129655838012700000e+000) (25, -2.50147271156311040000e+000) (26, -1.96819961071014400000e-001) (27, -1.09935617446899410000e+000) (28, 2.36486577987670900000e+000) (29, 1.14703047275543210000e+000) (30, 1.61238646507263180000e+000) (31, 8.71902108192443850000e-001) (32, 2.68688488006591800000e+000) (33, -2.79714465141296390000e-001) (34, 1.12612140178680420000e+000) (35, 1.79314839839935300000e+000) (36, 7.61825919151306150000e-001) (37, 9.86370444297790530000e-001) (38, 8.58023643493652340000e-001) (39, 1.07769763469696040000e+000) (40, 1.32503664493560790000e+000) (0, 4.01194751262664790000e-001) (1, -4.75509941577911380000e-001) (2, 2.90701532363891600000e+000) (3, -8.18108469247817990000e-002) (4, 2.62526178359985350000e+000) (5, 8.75119984149932860000e-001) (6, 1.34968602657318120000e+000) (7, 1.90298092365264890000e+000) (8, -1.87002107501029970000e-001) (9, 2.97836709022521970000e+000) (10, 6.06372773647308350000e-001) (11, 1.28517222404479980000e+000) (12, 1.61193922162055970000e-001) (13, 1.99084126949310300000e+000) (14, 2.05227088928222660000e+000) (15, 1.29216086864471440000e+000) (16, 2.37996768951416020000e+000) (17, -1.28145948052406310000e-001) (18, 9.21920061111450200000e-001) (19, 2.19601345062255860000e+000) (20, -1.15898177027702330000e-001) (21, 5.20555794239044190000e-001) (22, 3.51712316274642940000e-001) (23, 1.21045315265655520000e+000) (24, -1.06004691123962400000e+000) (25, 3.90379667282104490000e-001) (26, -2.27610066533088680000e-001) (27, -4.66488860547542570000e-002) (28, -4.38051432371139530000e-001) (29, 1.29267919063568120000e+000) (30, 7.80728280544281010000e-001) (31, 5.27641832828521730000e-001) (32, -6.09659031033515930000e-003) (33, 3.59127014875411990000e-001) (34, 2.45938611030578610000e+000) (35, 4.30496297776699070000e-002) (36, 2.34226775169372560000e+000) (37, 1.34997653961181640000e+000) (38, -2.88199335336685180000e-002) (39, 2.00303673744201660000e+000) (40, -7.22197771072387700000e-001) (41, 7.73385107517242430000e-001) (0, 6.23196649551391600000e+000) (1, -9.81049716472625730000e-001) (2, -2.70044422149658200000e+000) (3, -3.75052762031555180000e+000) (4, 2.48080775141716000000e-001) (5, 1.83275616168975830000e+000) (6, 5.36866426467895510000e+000) (7, -2.00443601608276370000e+000) (8, -4.19643908739089970000e-001) (9, -2.06599250435829160000e-001) (10, 6.85586118698120120000e+000) (11, 8.37244987487792970000e+000) (12, 2.82290863990783690000e+000) (13, -1.01693570613861080000e+000) (14, -8.22176361083984370000e+000) (15, 6.26883745193481450000e-001) (16, 5.90883398056030270000e+000) (17, -1.68974828720092770000e+000) (18, 6.83717966079711910000e+000) (19, 1.83056020736694340000e+000) (20, 8.78383827209472660000e+000) (21, 6.60942029953002930000e+000) (22, 2.73915410041809080000e+000) (23, -6.58024311065673830000e+000) (24, 2.18278264999389650000e+000) (25, 2.28714656829833980000e+000) (26, -1.05578553676605220000e+000) (27, -2.83375048637390140000e+000) (28, -1.11346833407878880000e-001) (29, 4.43558979034423830000e+000) (30, -8.53666841983795170000e-001) (31, -1.21431791782379150000e+000) (32, -1.68631207942962650000e+000) (33, -1.17746853828430180000e+000) (34, 9.72412824630737300000e-001) (35, 3.16811251640319820000e+000) (36, -1.74363052845001220000e+000) (37, 4.84976196289062500000e+000) (38, 6.61974096298217770000e+000) (39, 3.27057480812072750000e+000) (40, 1.51861798763275150000e+000) (41, 3.45604419708251950000e+000) (42, 6.60069406032562260000e-001) (0, -7.47838318347930910000e-002) (1, -8.84265378117561340000e-002) (2, 7.29240998625755310000e-002) (3, -9.38475951552391050000e-002) (4, 1.93705167621374130000e-002) (5, -1.25130698084831240000e-001) (6, -6.63808584213256840000e-002) (7, -4.93693798780441280000e-002) (8, 4.34402972459793090000e-002) (9, 2.86389905959367750000e-002) (10, -1.66917413473129270000e-001) (11, -4.45113517343997960000e-002) (12, -1.00219525396823880000e-001) (13, -1.41537627205252650000e-002) (14, -9.77898687124252320000e-002) (15, -1.49437278509140010000e-001) (16, -1.11556544899940490000e-001) (17, 1.59195344895124440000e-002) (18, 2.18771938234567640000e-002) (19, -3.65187563002109530000e-002) (20, -1.54199004173278810000e-001) (21, -1.01370416581630710000e-001) (22, -8.16720947623252870000e-002) (23, -2.95035559684038160000e-002) (24, -4.31189984083175660000e-002) (25, 3.81361730396747590000e-002) (26, -2.67769303172826770000e-002) (27, -6.85084089636802670000e-002) (28, -1.38353243470191960000e-001) (29, 6.14775903522968290000e-002) (30, -9.65915322303771970000e-002) (31, -3.27869914472103120000e-002) (32, -2.44451258331537250000e-002) (33, 7.22803473472595210000e-001) (34, 1.45728867501020430000e-002) (35, 1.17191381752491000000e-001) (36, 2.86957528442144390000e-002) (37, -4.58563715219497680000e-002) (38, -2.06580981612205510000e-001) (39, 1.92137341946363450000e-002) (40, -3.52522805333137510000e-002) (41, -1.20749875903129580000e-001) (42, -1.08987264335155490000e-001) (43, -4.27407138049602510000e-002) (0, 1.43707290291786190000e-001) (1, 6.87084347009658810000e-002) (2, 6.95855244994163510000e-002) (3, 1.68289288878440860000e-001) (4, 8.20047259330749510000e-002) (5, 1.51801511645317080000e-001) (6, 7.52386748790740970000e-002) (7, 8.78575071692466740000e-002) (8, 8.44894722104072570000e-002) (9, -1.06584746390581130000e-003) (10, 4.76204268634319310000e-002) (11, 1.64964228868484500000e-001) (12, 3.78130264580249790000e-002) (13, 1.94287002086639400000e-001) (14, 6.91304504871368410000e-002) (15, 1.81059420108795170000e-001) (16, 9.35435742139816280000e-002) (17, 8.58851149678230290000e-002) (18, -1.47893400862813000000e-002) (19, 1.41364112496376040000e-001) (20, 1.06411397457122800000e-001) (21, 7.55559802055358890000e-002) (22, 8.79685953259468080000e-002) (23, 7.92734846472740170000e-002) (24, 1.32165476679801940000e-001) (25, -4.87653464078903200000e-002) (26, 3.28360088169574740000e-002) (27, -2.77962312102317810000e-002) (28, 3.47654409706592560000e-002) (29, 1.03080123662948610000e-001) (30, 6.31679445505142210000e-002) (31, 6.11076429486274720000e-002) (32, -3.79117876291275020000e-002) (33, -1.34057939052581790000e-001) (34, 2.75477580726146700000e-002) (35, -8.21216776967048650000e-002) (36, 1.91822759807109830000e-002) (37, 1.04550108313560490000e-001) (38, 6.87048733234405520000e-002) (39, 2.72249169647693630000e-002) (40, 3.09630464762449260000e-002) (41, 1.40603482723236080000e-001) (42, 8.91223922371864320000e-002) (43, 7.73365376517176630000e-003) (0, 8.39506015181541440000e-002) (1, 1.29408583045005800000e-001) (2, 5.23466505110263820000e-002) (3, 4.32163588702678680000e-002) (4, 9.88501012325286870000e-002) (5, 9.81353893876075740000e-002) (6, 1.48316368460655210000e-001) (7, 2.08360508084297180000e-001) (8, 1.32775947451591490000e-001) (9, 9.24977138638496400000e-002) (10, 1.30715429782867430000e-001) (11, 1.14910878241062160000e-001) (12, 1.27377927303314210000e-001) (13, 1.10724061727523800000e-001) (14, 1.89436048269271850000e-001) (15, 2.57175534963607790000e-001) (16, 1.40646830201148990000e-001) (17, 1.35375171899795530000e-001) (18, 9.73839834332466130000e-002) (19, 6.38844892382621770000e-002) (20, 9.68357026576995850000e-002) (21, 7.02820494771003720000e-002) (22, 7.12108537554740910000e-002) (23, 1.98719874024391170000e-001) (24, 1.79186835885047910000e-001) (25, 1.39278322458267210000e-001) (26, 1.87764450907707210000e-001) (27, 1.18608348071575160000e-001) (28, 9.21264663338661190000e-002) (29, 7.24727213382720950000e-002) (30, 2.82104332000017170000e-002) (31, 1.05978831648826600000e-001) (32, 1.59337192773818970000e-001) (33, -3.09647679328918460000e-001) (34, 3.69846001267433170000e-002) (35, -5.19352853298187260000e-002) (36, -5.30267655849456790000e-002) (37, -1.72946993261575700000e-002) (38, 1.05335585772991180000e-001) (39, -2.63366699218750000000e-002) (40, -2.00895920395851140000e-001) (41, 1.16985559463500980000e-001) (42, -3.14488112926483150000e-002) (43, -9.21435281634330750000e-003) (0, 1.75813108682632450000e-001) (1, 9.79948565363883970000e-002) (2, 1.13181531429290770000e-001) (3, 1.72010719776153560000e-001) (4, 1.15005284547805790000e-001) (5, 1.79219111800193790000e-001) (6, 1.63341999053955080000e-001) (7, 1.01277217268943790000e-001) (8, 1.98541820049285890000e-001) (9, 1.63766145706176760000e-001) (10, 1.73492491245269780000e-001) (11, 1.58495485782623290000e-001) (12, 1.76614955067634580000e-001) (13, 2.58094131946563720000e-001) (14, 2.98817493021488190000e-002) (15, 1.47036239504814150000e-001) (16, 1.34633645415306090000e-001) (17, 1.31588757038116460000e-001) (18, 2.77509391307830810000e-002) (19, 9.86768603324890140000e-002) (20, 1.60344287753105160000e-001) (21, 1.83714747428894040000e-001) (22, 1.30658075213432310000e-001) (23, 1.41215905547142030000e-001) (24, 1.06477878987789150000e-001) (25, 2.27806970477104190000e-001) (26, 1.27836912870407100000e-001) (27, 1.42025798559188840000e-001) (28, 3.86316532967612150000e-004) (29, 1.74379289150238040000e-001) (30, 9.88552346825599670000e-002) (31, 6.10516555607318880000e-002) (32, 1.08501128852367400000e-001) (33, -4.41181838512420650000e-001) (34, 9.50611382722854610000e-002) (35, -9.94983687996864320000e-002) (36, -1.11781381070613860000e-001) (37, 8.35611745715141300000e-002) (38, -3.60954701900482180000e-002) (39, -3.37140485644340520000e-002) (40, 9.23218727111816410000e-002) (41, -1.19274564087390900000e-001) (42, -9.78156104683876040000e-002) (43, 8.84221866726875310000e-002) (0, 1.08259826898574830000e-001) (1, 2.47411318123340610000e-002) (2, 3.86199839413166050000e-002) (3, 1.36624410748481750000e-001) (4, 1.44260033965110780000e-001) (5, 3.69961112737655640000e-002) (6, 9.50576812028884890000e-002) (7, 4.71378080546855930000e-002) (8, 7.04064667224884030000e-002) (9, 1.57938629388809200000e-001) (10, -1.76112055778503420000e-002) (11, 1.77503034472465520000e-001) (12, 7.88049325346946720000e-002) (13, 9.15326029062271120000e-002) (14, 1.18354884907603260000e-002) (15, 4.25128713250160220000e-002) (16, 1.66143506765365600000e-001) (17, 1.01052954792976380000e-001) (18, 1.38694122433662410000e-001) (19, 6.81131035089492800000e-002) (20, 1.38681933283805850000e-001) (21, 4.88784387707710270000e-002) (22, 4.75202836096286770000e-002) (23, 1.04661881923675540000e-001) (24, 5.75336292386054990000e-002) (25, 1.01893939077854160000e-001) (26, 2.03942686319351200000e-001) (27, 9.41115170717239380000e-002) (28, 1.29214495420455930000e-001) (29, 7.68546909093856810000e-002) (30, 9.55997630953788760000e-002) (31, 5.71671547368168830000e-003) (32, 2.19058960676193240000e-001) (33, -1.86734437942504880000e-001) (34, -7.25840553641319270000e-002) (35, 9.35234129428863530000e-003) (36, 1.10332947224378590000e-002) (37, 3.75035032629966740000e-003) (38, 8.49460158497095110000e-003) (39, 7.77835100889205930000e-002) (40, 5.74200339615345000000e-002) (41, 8.33233296871185300000e-002) (42, 1.72113701701164250000e-002) (43, -7.84211233258247380000e-002) (0, 2.84443516284227370000e-002) (1, 5.25786727666854860000e-002) (2, 8.44174772500991820000e-002) (3, 2.72149965167045590000e-002) (4, 8.70902016758918760000e-002) (5, 1.93338409066200260000e-001) (6, 1.57854184508323670000e-002) (7, 2.05663487315177920000e-001) (8, 1.35954931378364560000e-001) (9, 1.23949155211448670000e-001) (10, 6.39880523085594180000e-002) (11, 1.29014611244201660000e-001) (12, 7.38494247198104860000e-002) (13, 5.34289591014385220000e-002) (14, 3.58771644532680510000e-002) (15, 2.27269187569618230000e-001) (16, 6.31025061011314390000e-002) (17, 5.13407811522483830000e-002) (18, 6.77447840571403500000e-002) (19, 1.02052241563797000000e-001) (20, 9.50704142451286320000e-002) (21, 1.45079717040061950000e-001) (22, -2.20228545367717740000e-002) (23, -5.75221655890345570000e-003) (24, 1.86684742569923400000e-001) (25, 1.08694948256015780000e-001) (26, 6.51308968663215640000e-002) (27, 1.62443295121192930000e-002) (28, 1.10882379114627840000e-001) (29, 1.19911842048168180000e-001) (30, 1.85921743512153630000e-001) (31, 7.33865704387426380000e-003) (32, 3.61710116267204280000e-002) (33, -1.66721120476722720000e-001) (34, 8.93994420766830440000e-002) (35, -7.03237892594188450000e-004) (36, 8.70765149593353270000e-002) (37, 4.37527000904083250000e-002) (38, 6.86961114406585690000e-002) (39, 9.83005240559577940000e-002) (40, 1.12015135586261750000e-001) (41, -1.94105446338653560000e-001) (42, -9.16655138134956360000e-002) (43, -4.38807047903537750000e-002) (0, 1.16835482418537140000e-001) (1, 5.39095886051654820000e-002) (2, 1.19812116026878360000e-001) (3, 6.26376047730445860000e-002) (4, 2.31357328593730930000e-002) (5, 5.01044876873493190000e-002) (6, -3.97071387851610780000e-004) (7, 1.02031283080577850000e-001) (8, 1.57371938228607180000e-001) (9, 1.10174790024757390000e-001) (10, 1.29619970917701720000e-001) (11, 3.60669940710067750000e-002) (12, -4.27941009402275090000e-002) (13, 1.22012227773666380000e-001) (14, 2.20383420586586000000e-001) (15, 9.49233770370483400000e-002) (16, -1.02639412507414820000e-002) (17, 6.02657049894332890000e-002) (18, 5.24960905313491820000e-002) (19, 7.05099105834960940000e-003) (20, 1.68580234050750730000e-001) (21, -3.02025005221366880000e-002) (22, -2.57699172943830490000e-002) (23, 5.25661818683147430000e-002) (24, 1.65130525827407840000e-001) (25, 6.00983314216136930000e-002) (26, 1.66801318526268010000e-001) (27, 1.39832999557256700000e-002) (28, 3.51496562361717220000e-002) (29, -7.23115876317024230000e-002) (30, -2.09857616573572160000e-003) (31, 4.79123145341873170000e-002) (32, -3.50152440369129180000e-002) (33, 3.12506780028343200000e-002) (34, -4.19385097920894620000e-002) (35, -2.66648791730403900000e-002) (36, -2.01959796249866490000e-002) (37, 7.92055875062942500000e-002) (38, 4.77183703333139420000e-003) (39, -3.46504561603069310000e-002) (40, -4.80213500559329990000e-002) (41, -6.29209205508232120000e-002) (42, 7.21400752663612370000e-002) (43, 3.83192598819732670000e-002) (0, 1.48189306259155270000e-001) (1, 5.80701828002929690000e-002) (2, 1.19998753070831300000e-001) (3, 8.66330116987228390000e-002) (4, 1.28420107066631320000e-002) (5, 6.18335418403148650000e-002) (6, 1.18921846151351930000e-001) (7, 4.90807667374610900000e-002) (8, 4.12719026207923890000e-002) (9, 4.28897561505436900000e-003) (10, 1.08823351562023160000e-001) (11, 1.51355266571044920000e-001) (12, 4.48142662644386290000e-002) (13, 1.59893065690994260000e-001) (14, 1.20922751724720000000e-001) (15, 5.58378249406814580000e-002) (16, 7.38124223425984380000e-003) (17, 5.56869655847549440000e-002) (18, 8.99558812379837040000e-002) (19, 1.77187830209732060000e-001) (20, 1.37658551335334780000e-001) (21, 1.26783862709999080000e-001) (22, 9.67388004064559940000e-002) (23, 1.11736923456192020000e-001) (24, -4.30423729121685030000e-002) (25, 8.73761475086212160000e-002) (26, 9.85641032457351680000e-002) (27, 9.91023704409599300000e-002) (28, 7.21721425652503970000e-002) (29, 7.62456804513931270000e-002) (30, 1.27468302845954900000e-001) (31, 8.43440070748329160000e-002) (32, 1.34173929691314700000e-001) (33, -1.50627061724662780000e-001) (34, 7.98981189727783200000e-002) (35, -3.17603722214698790000e-002) (36, -1.94309023208916190000e-003) (37, -1.23627416789531710000e-001) (38, -1.47327274084091190000e-001) (39, 5.13222180306911470000e-002) (40, -2.77227908372879030000e-002) (41, -9.99645218253135680000e-002) (42, -7.16322138905525210000e-002) (43, -5.60346320271492000000e-002) (0, 1.14813402295112610000e-001) (1, 5.96886016428470610000e-002) (2, 5.09026385843753810000e-002) (3, 5.76193518936634060000e-002) (4, 9.78481397032737730000e-002) (5, 3.80797013640403750000e-002) (6, 4.58449497818946840000e-002) (7, 3.29156704246997830000e-002) (8, -6.70887380838394170000e-002) (9, 1.18130467832088470000e-001) (10, 7.47219100594520570000e-002) (11, -6.73759579658508300000e-002) (12, 4.91959936916828160000e-002) (13, 1.93591430783271790000e-001) (14, 1.32693380117416380000e-001) (15, 1.98484510183334350000e-002) (16, 6.45429864525794980000e-002) (17, 1.43478125333786010000e-001) (18, 2.11277846246957780000e-002) (19, 1.33991753682494160000e-002) (20, 4.60653901100158690000e-002) (21, 9.69278290867805480000e-002) (22, 1.05907976627349850000e-001) (23, 1.13478727638721470000e-001) (24, -4.71053123474121090000e-002) (25, 3.96262742578983310000e-002) (26, 5.44421449303627010000e-002) (27, 6.28058612346649170000e-002) (28, 1.42297372221946720000e-002) (29, -9.79610085487365720000e-002) (30, 5.28662502765655520000e-002) (31, 8.91099572181701660000e-002) (32, 1.24581396579742430000e-001) (33, 3.04664688883349300000e-004) (34, -1.02809496223926540000e-001) (35, -4.79336231946945190000e-002) (36, -3.85031290352344510000e-002) (37, -3.67644838988780980000e-002) (38, 5.57935014367103580000e-002) (39, -1.16102043539285660000e-002) (40, -2.57173292338848110000e-002) (41, 2.14237838983535770000e-001) (42, -1.16381362080574040000e-001) (43, 4.24298420548439030000e-002) (0, 7.09102749824523930000e-002) (1, -5.72078302502632140000e-002) (2, 5.31279891729354860000e-002) (3, -7.54765868186950680000e-002) (4, 1.26601085066795350000e-001) (5, 7.91066139936447140000e-003) (6, 8.80244150757789610000e-002) (7, 3.46567891538143160000e-002) (8, -6.82245753705501560000e-003) (9, -1.52395889163017270000e-002) (10, 1.84386715292930600000e-001) (11, 7.90062099695205690000e-002) (12, 4.75771576166152950000e-002) (13, -1.49755673483014110000e-002) (14, 2.32062954455614090000e-002) (15, 1.10961139202117920000e-001) (16, 1.11870400607585910000e-001) (17, -3.95565410144627090000e-004) (18, 6.89317937940359120000e-004) (19, 2.42647472769021990000e-002) (20, 1.70150741934776310000e-001) (21, 1.40209987759590150000e-001) (22, 4.77567240595817570000e-002) (23, 1.19508087635040280000e-001) (24, 1.10828958451747890000e-001) (25, 5.38023672997951510000e-002) (26, 1.06660015881061550000e-001) (27, 3.52551229298114780000e-002) (28, 1.14984750747680660000e-001) (29, 3.29059660434722900000e-002) (30, 1.04010500013828280000e-001) (31, 3.23497876524925230000e-002) (32, 1.43343433737754820000e-001) (33, -3.40265873819589610000e-003) (34, -1.03105932474136350000e-001) (35, -9.13969278335571290000e-002) (36, -3.35686355829238890000e-002) (37, -1.94128658622503280000e-002) (38, 8.53987038135528560000e-002) (39, 3.94567400217056270000e-002) (40, -8.76702088862657550000e-003) (41, -4.15820218622684480000e-002) (42, 1.53864786028862000000e-001) (43, 1.62098780274391170000e-002) (0, 7.05621838569641110000e-002) (1, 1.54708340764045720000e-001) (2, 8.07607397437095640000e-002) (3, 1.69095546007156370000e-001) (4, 1.13748550415039060000e-001) (5, -1.39317559078335760000e-002) (6, -4.03483472764492030000e-002) (7, 1.82165682315826420000e-001) (8, 7.10045918822288510000e-002) (9, 4.74185235798358920000e-002) (10, 1.53084278106689450000e-001) (11, 7.22171142697334290000e-002) (12, 1.94820433855056760000e-001) (13, 7.61366076767444610000e-003) (14, -5.12589048594236370000e-003) (15, 6.68165981769561770000e-002) (16, 6.63258880376815800000e-002) (17, 4.54673692584037780000e-002) (18, 6.49072304368019100000e-002) (19, 8.91299992799758910000e-002) (20, 1.16261139512062070000e-001) (21, 1.19449228048324580000e-001) (22, 2.17785313725471500000e-001) (23, 7.53444135189056400000e-002) (24, 8.92155691981315610000e-002) (25, -6.16417415440082550000e-002) (26, 2.57217362523078920000e-002) (27, 3.69614847004413600000e-002) (28, 1.34101182222366330000e-001) (29, 7.81246870756149290000e-002) (30, 1.15090556442737580000e-001) (31, 1.44032165408134460000e-002) (32, 2.72996686398983000000e-002) (33, -6.88449740409851070000e-002) (34, -1.51100540533661840000e-002) (35, 1.90624088048934940000e-001) (36, 4.40597310662269590000e-002) (37, 1.24053038656711580000e-001) (38, 2.21820566803216930000e-002) (39, -2.80386582016944890000e-002) (40, -1.76099196076393130000e-001) (41, -8.46427492797374730000e-003) (42, -5.84291890263557430000e-002) (43, 9.19354520738124850000e-003) (0, -9.62201729416847230000e-002) (1, 1.10679484903812410000e-001) (2, 2.90014315396547320000e-002) (3, 1.45248770713806150000e-001) (4, 7.78158474713563920000e-003) (5, 9.96609777212142940000e-002) (6, 8.30724239349365230000e-002) (7, -4.25469316542148590000e-002) (8, 1.47999823093414310000e-001) (9, -1.24148139730095860000e-002) (10, 5.26141189038753510000e-002) (11, -3.87635976076126100000e-002) (12, 2.80109681189060210000e-002) (13, -1.86208430677652360000e-002) (14, 1.17238007485866550000e-001) (15, -3.34922075271606450000e-002) (16, -2.84541770815849300000e-002) (17, 4.31454665958881380000e-002) (18, -9.55272018909454350000e-002) (19, 1.03141590952873230000e-001) (20, 1.12880049273371700000e-002) (21, -1.04149736464023590000e-001) (22, 2.07034088671207430000e-002) (23, -3.77698466181755070000e-002) (24, 5.49267828464508060000e-002) (25, 3.39994020760059360000e-002) (26, -6.23625032603740690000e-002) (27, 1.71423450112342830000e-001) (28, 5.32324053347110750000e-002) (29, -1.76297146826982500000e-002) (30, -3.58443930745124820000e-002) (31, 1.30894437432289120000e-001) (32, -1.41970962285995480000e-001) (33, 2.30409145355224610000e-001) (34, -1.93763058632612230000e-002) (35, -1.00980743765830990000e-001) (36, 2.29525879025459290000e-001) (37, 1.15106038749217990000e-001) (38, -1.17714405059814450000e-001) (39, -8.31082537770271300000e-002) (40, 9.07371938228607180000e-002) (41, 8.17112922668457030000e-002) (42, -7.91523903608322140000e-002) (43, -1.54222264885902400000e-001) (0, 4.41603735089302060000e-002) (1, 4.41383682191371920000e-002) (2, 2.81015094369649890000e-002) (3, -6.19614683091640470000e-002) (4, -1.67526341974735260000e-002) (5, -1.13911628723144530000e-001) (6, 8.67303758859634400000e-002) (7, 1.81947518140077590000e-002) (8, -2.55648735910654070000e-002) (9, 9.19475108385086060000e-002) (10, 3.22780981659889220000e-002) (11, -2.39868257194757460000e-002) (12, -3.79502936266362670000e-003) (13, 9.20008122920989990000e-002) (14, 7.58413374423980710000e-002) (15, -6.92473873496055600000e-002) (16, -4.72195185720920560000e-002) (17, 3.90520878136157990000e-002) (18, 6.03704564273357390000e-002) (19, 6.11904226243495940000e-002) (20, -4.81349602341651920000e-002) (21, 1.75722111016511920000e-002) (22, -1.86262317001819610000e-002) (23, 1.31951704621315000000e-001) (24, -6.58257678151130680000e-002) (25, 5.74452839791774750000e-002) (26, 7.33836889266967770000e-002) (27, -2.99253500998020170000e-002) (28, 1.31528601050376890000e-001) (29, 1.43063149880617860000e-003) (30, 1.11504159867763520000e-001) (31, 8.58535021543502810000e-002) (32, -1.44689250737428670000e-002) (33, 2.42873698472976680000e-001) (34, 1.16504020988941190000e-001) (35, 7.85016939043998720000e-002) (36, 1.17099076509475710000e-001) (37, 1.88779179006814960000e-002) (38, -2.38877553492784500000e-002) (39, 2.83784475177526470000e-002) (40, -1.03535450994968410000e-001) (41, -1.39196559786796570000e-001) (42, 8.57032909989356990000e-002) (43, 5.75089268386363980000e-002) (0, 9.06511172652244570000e-002) (1, 1.39730498194694520000e-001) (2, 1.38532564043998720000e-001) (3, 1.99970856308937070000e-001) (4, 9.55334771424531940000e-003) (5, 5.09518273174762730000e-002) (6, 9.92744509130716320000e-003) (7, 1.32597414776682850000e-002) (8, 7.34198912978172300000e-002) (9, 9.91143360733985900000e-002) (10, 7.64672383666038510000e-002) (11, 3.04973800666630270000e-003) (12, 1.17655545473098750000e-002) (13, 1.86449810862541200000e-002) (14, 7.48026445508003230000e-002) (15, 5.76172433793544770000e-002) (16, 7.33314678072929380000e-002) (17, 2.01148539781570430000e-002) (18, 1.11941255629062650000e-001) (19, 6.39429464936256410000e-002) (20, 3.72120970860123630000e-003) (21, 7.93216228485107420000e-002) (22, 7.83084239810705180000e-003) (23, 1.72662168741226200000e-001) (24, 7.31199905276298520000e-002) (25, 3.46482591703534130000e-003) (26, -8.91474112868309020000e-002) (27, 2.54091981332749130000e-004) (28, 1.06033543124794960000e-002) (29, -2.32205074280500410000e-002) (30, 9.91035550832748410000e-002) (31, 7.21662044525146480000e-002) (32, 1.18437692523002620000e-001) (33, 3.85454110801219940000e-002) (34, 6.58726543188095090000e-002) (35, -1.62599101662635800000e-001) (36, 1.18061788380146030000e-002) (37, 2.30146646499633790000e-002) (38, -1.01423077285289760000e-001) (39, -1.18801817297935490000e-001) (40, 1.20337069034576420000e-001) (41, -8.59593898057937620000e-002) (42, -3.87732870876789090000e-003) (43, -4.70838099718093870000e-002) (0, 4.49153073132038120000e-002) (1, 6.66490197181701660000e-002) (2, -5.27468100190162660000e-002) (3, 8.20624977350234990000e-002) (4, 1.03305794298648830000e-001) (5, 7.66385719180107120000e-002) (6, 2.02560122124850750000e-003) (7, 8.99642482399940490000e-002) (8, 6.86369836330413820000e-002) (9, 8.57262611389160160000e-002) (10, -4.32328246533870700000e-002) (11, 6.70896619558334350000e-002) (12, 3.05114053189754490000e-002) (13, -4.11535939201712610000e-003) (14, -4.67119812965393070000e-002) (15, 1.58001467585563660000e-001) (16, 4.24835272133350370000e-002) (17, 9.20549482107162480000e-002) (18, 1.09348833560943600000e-001) (19, 3.24256010353565220000e-002) (20, 3.08568812906742100000e-002) (21, 1.26906186342239380000e-001) (22, 2.95114815235137940000e-002) (23, 5.57496026158332820000e-003) (24, -4.55858446657657620000e-002) (25, 1.17662392556667330000e-001) (26, 2.27533895522356030000e-002) (27, 1.29898905754089360000e-001) (28, 1.25073894858360290000e-001) (29, 5.23547120392322540000e-002) (30, 2.28891894221305850000e-002) (31, 1.54404476284980770000e-001) (32, 4.28135022521018980000e-002) (33, -1.84695310890674590000e-002) (34, 8.58605839312076570000e-003) (35, -5.59977032244205470000e-002) (36, 2.95858774334192280000e-002) (37, -4.48813736438751220000e-002) (38, -6.60873353481292720000e-002) (39, -1.06116503477096560000e-001) (40, 8.35702382028102870000e-003) (41, -5.57823851704597470000e-002) (42, 1.66516736149787900000e-001) (43, -1.81379318237304690000e-001) (0, 2.17652563005685810000e-002) (1, 7.10452049970626830000e-002) (2, 1.76389694213867190000e-001) (3, -3.77345085144042970000e-002) (4, -2.10709404200315480000e-002) (5, 8.90419557690620420000e-002) (6, 8.46717432141304020000e-002) (7, 3.02828755229711530000e-002) (8, 4.17607352137565610000e-002) (9, -4.23999363556504250000e-003) (10, 3.09360977262258530000e-002) (11, 8.59844535589218140000e-002) (12, 5.85163384675979610000e-002) (13, -5.61187677085399630000e-002) (14, 2.28758007287979130000e-001) (15, 7.40034654736518860000e-002) (16, -3.49941407330334190000e-003) (17, 4.58329170942306520000e-002) (18, 5.89374229311943050000e-002) (19, -5.29676601290702820000e-002) (20, 5.55381923913955690000e-002) (21, 1.58071771264076230000e-001) (22, -6.72444188967347150000e-003) (23, 3.18566635251045230000e-002) (24, 1.06635056436061860000e-001) (25, 1.01669028401374820000e-001) (26, 1.54282122850418090000e-001) (27, 7.10138157010078430000e-002) (28, 2.19912361353635790000e-002) (29, -3.15178325399756430000e-003) (30, 2.67318319529294970000e-002) (31, 4.76107671856880190000e-002) (32, -3.28850336372852330000e-002) (33, 9.40773263573646550000e-002) (34, 3.25482450425624850000e-002) (35, 1.35088324546813960000e-001) (36, -5.26776872575283050000e-002) (37, -8.50239321589469910000e-002) (38, 5.44736795127391820000e-002) (39, 2.80557982623577120000e-002) (40, 2.32379380613565440000e-002) (41, 9.01903733611106870000e-002) (42, -7.39128515124320980000e-002) (43, 2.67543811351060870000e-002) (0, -4.95276078581810000000e-002) (1, 1.83978125452995300000e-001) (2, 1.10397152602672580000e-001) (3, 8.63538458943367000000e-002) (4, 5.05988262593746190000e-002) (5, 1.17079727351665500000e-001) (6, 4.78195101022720340000e-002) (7, 1.56573474407196040000e-001) (8, 7.86978080868721010000e-002) (9, 6.00919313728809360000e-002) (10, 9.02872383594512940000e-002) (11, 9.98457670211791990000e-002) (12, 1.46079912781715390000e-001) (13, 1.44093021750450130000e-001) (14, 7.27796703577041630000e-002) (15, 4.88617084920406340000e-002) (16, -5.19126793369650840000e-003) (17, 4.74589467048645020000e-002) (18, 1.26033455133438110000e-001) (19, 4.96390163898468020000e-002) (20, 8.81974250078201290000e-002) (21, 1.21679179370403290000e-001) (22, 1.78553998470306400000e-001) (23, 1.33161351084709170000e-001) (24, 1.04491105303168300000e-002) (25, 2.10621133446693420000e-002) (26, 1.56758978962898250000e-001) (27, 7.42406249046325680000e-002) (28, 1.42543271183967590000e-001) (29, 6.28189891576766970000e-002) (30, 1.39853522181510930000e-001) (31, 1.60609498620033260000e-001) (32, 1.61699473857879640000e-001) (33, -1.60004690289497380000e-001) (34, 4.30140877142548560000e-003) (35, 4.71729151904582980000e-002) (36, -8.29756706953048710000e-002) (37, 6.52904659509658810000e-002) (38, 8.58842767775058750000e-003) (39, 4.91298399865627290000e-002) (40, 7.75213586166501050000e-003) (41, 2.75997929275035860000e-002) (42, -1.23228859156370160000e-002) (43, -2.10019685328006740000e-002) (0, 8.83887633681297300000e-002) (1, 7.21192061901092530000e-002) (2, 3.38122472167015080000e-002) (3, 1.03037729859352110000e-001) (4, 3.46474573016166690000e-002) (5, 3.32539267838001250000e-002) (6, 1.12860731780529020000e-001) (7, 5.86132518947124480000e-002) (8, 7.77114182710647580000e-002) (9, 4.75793741643428800000e-002) (10, 1.16829097270965580000e-001) (11, 4.66466583311557770000e-002) (12, -4.25806716084480290000e-002) (13, 6.65120854973793030000e-002) (14, 1.14947065711021420000e-001) (15, 1.36652877554297450000e-002) (16, 1.19228042662143710000e-001) (17, 1.23447671532630920000e-001) (18, -1.85324903577566150000e-002) (19, 1.50835037231445310000e-001) (20, 1.16968698799610140000e-001) (21, -4.03802376240491870000e-003) (22, 1.30763277411460880000e-001) (23, 1.12770780920982360000e-001) (24, 1.76590859889984130000e-001) (25, 4.99621368944644930000e-002) (26, 1.00300304591655730000e-001) (27, 3.22489365935325620000e-002) (28, 1.92157447338104250000e-001) (29, 8.83771106600761410000e-002) (30, -4.98660691082477570000e-002) (31, 4.76690158247947690000e-002) (32, -3.17501239478588100000e-002) (33, -7.14611634612083440000e-003) (34, -5.55527359247207640000e-002) (35, 1.33532434701919560000e-001) (36, 4.35323938727378850000e-002) (37, -1.42780721187591550000e-001) (38, -3.22071723639965060000e-002) (39, 2.19833001494407650000e-001) (40, 4.07347790896892550000e-002) (41, 6.50761136785149570000e-003) (42, -6.13080859184265140000e-002) (43, 9.65845957398414610000e-002) (0, 1.12681016325950620000e-002) (1, 3.09910457581281660000e-002) (2, 8.27656686305999760000e-002) (3, 8.29427540302276610000e-002) (4, 4.65031862258911130000e-002) (5, 5.65445683896541600000e-002) (6, 7.39786997437477110000e-002) (7, 4.81433607637882230000e-002) (8, -1.97954457253217700000e-002) (9, 9.13680791854858400000e-002) (10, 1.04279756546020510000e-001) (11, 1.11265733838081360000e-001) (12, 1.59264400601387020000e-001) (13, -1.15874465554952620000e-002) (14, 1.69771984219551090000e-002) (15, 1.05458065867424010000e-001) (16, 1.73589318990707400000e-001) (17, -5.04534132778644560000e-002) (18, 5.53291663527488710000e-002) (19, 9.06293615698814390000e-002) (20, -9.80549491941928860000e-003) (21, 5.91097883880138400000e-002) (22, 3.17090228199958800000e-002) (23, 4.06629126518964770000e-003) (24, 8.08923020958900450000e-002) (25, -5.34900911152362820000e-002) (26, 1.23798564076423650000e-001) (27, 1.37031480669975280000e-001) (28, 5.74807487428188320000e-002) (29, 8.79594013094902040000e-002) (30, 7.26253017783164980000e-002) (31, 9.28609445691108700000e-002) (32, 7.60859809815883640000e-004) (33, -1.95154245011508460000e-003) (34, -1.35033741593360900000e-001) (35, -3.96735295653343200000e-002) (36, 1.28479421138763430000e-001) (37, 8.84144604206085210000e-002) (38, 3.61513234674930570000e-002) (39, -2.07170862704515460000e-002) (40, -1.08726173639297490000e-001) (41, -1.21985282748937610000e-002) (42, -3.85655760765075680000e-002) (43, 2.26372340694069860000e-003) (0, 1.06597721576690670000e-001) (1, -1.88219677656888960000e-002) (2, -2.09686607122421260000e-002) (3, 3.79944965243339540000e-003) (4, 4.42669317126274110000e-002) (5, 2.59482692927122120000e-002) (6, -1.46481916308403020000e-002) (7, 8.90897884964942930000e-002) (8, 4.20682542026042940000e-002) (9, 2.79158987104892730000e-002) (10, -6.25557750463485720000e-002) (11, -2.72652488201856610000e-002) (12, 7.45593383908271790000e-002) (13, 3.21553871035575870000e-002) (14, 4.97342145536094900000e-004) (15, 3.56538109481334690000e-002) (16, -2.24433112889528270000e-002) (17, -1.34278479963541030000e-002) (18, -7.94241297990083690000e-003) (19, 5.47586567699909210000e-002) (20, -4.55002076923847200000e-002) (21, 5.00460453331470490000e-002) (22, 4.45087738335132600000e-002) (23, -5.41390664875507350000e-002) (24, -1.30847737193107600000e-001) (25, -2.57568228989839550000e-002) (26, -3.09447571635246280000e-002) (27, 3.51587161421775820000e-002) (28, 7.51276537775993350000e-002) (29, 7.33782574534416200000e-002) (30, 7.19442144036293030000e-002) (31, 1.23462691903114320000e-001) (32, 2.26740934886038300000e-003) (33, 2.68939703702926640000e-001) (34, -4.86887507140636440000e-002) (35, -5.43056540191173550000e-002) (36, 8.43857601284980770000e-002) (37, -9.11216214299201970000e-002) (38, 4.84283342957496640000e-002) (39, -1.00517988204956050000e-001) (40, -6.94923698902130130000e-002) (41, 1.27352744340896610000e-001) (42, -1.42298892140388490000e-001) (43, 5.00839091837406160000e-002) (0, 4.43779025226831440000e-003) (1, 7.92381837964057920000e-002) (2, -3.98929826915264130000e-002) (3, 8.91615003347396850000e-002) (4, 1.19366481900215150000e-001) (5, 1.17023013532161710000e-001) (6, 8.20674225687980650000e-002) (7, 8.96221548318862920000e-002) (8, 1.38918206095695500000e-001) (9, 2.10822969675064090000e-001) (10, 1.90677419304847720000e-001) (11, 2.00555026531219480000e-001) (12, 2.10127651691436770000e-001) (13, 7.36593902111053470000e-002) (14, 2.07757011055946350000e-001) (15, 1.93106099963188170000e-001) (16, 1.14877648651599880000e-001) (17, 1.47342115640640260000e-001) (18, 1.32131844758987430000e-001) (19, 5.76569437980651860000e-002) (20, 2.63369113206863400000e-001) (21, 5.07299043238162990000e-002) (22, 1.82856589555740360000e-001) (23, 1.19897492229938510000e-001) (24, 2.04976394772529600000e-001) (25, 2.35840946435928340000e-001) (26, 5.72907924652099610000e-002) (27, 1.85031250119209290000e-001) (28, 2.45246067643165590000e-001) (29, 1.86087265610694890000e-001) (30, 2.04057440161705020000e-001) (31, 1.08135387301445010000e-001) (32, 1.64668455719947810000e-001) (33, -4.53451395034790040000e-001) (34, -7.07894265651702880000e-002) (35, 3.16087119281291960000e-002) (36, 9.58942323923110960000e-002) (37, 1.99485477060079570000e-002) (38, 3.43803949654102330000e-002) (39, -9.08944383263587950000e-002) (40, 4.90588583052158360000e-002) (41, -3.87687049806118010000e-003) (42, 4.70590665936470030000e-002) (43, -4.35637719929218290000e-002) (0, 3.29117514193058010000e-002) (1, -1.33720636367797850000e-001) (2, 2.52894088625907900000e-002) (3, -1.13320089876651760000e-001) (4, -1.29778742790222170000e-001) (5, -2.05528177320957180000e-003) (6, -1.20004303753376010000e-001) (7, -7.08454474806785580000e-002) (8, -8.90264753252267840000e-003) (9, -6.80380538105964660000e-002) (10, -2.89027523249387740000e-002) (11, -9.64821651577949520000e-002) (12, -8.57274606823921200000e-002) (13, -1.18449687957763670000e-001) (14, -2.50944960862398150000e-002) (15, -2.09259882569313050000e-001) (16, -8.50923638790845870000e-003) (17, -6.74792602658271790000e-002) (18, -7.00902789831161500000e-002) (19, -1.07332199811935420000e-001) (20, -1.65911987423896790000e-001) (21, 6.11017011106014250000e-002) (22, -8.56759175658226010000e-002) (23, -2.00448617339134220000e-001) (24, -5.78693263232707980000e-002) (25, 5.05480132997035980000e-002) (26, -7.04431533813476560000e-002) (27, -9.10451263189315800000e-002) (28, -2.03982647508382800000e-002) (29, -9.00247618556022640000e-002) (30, -8.48461687564849850000e-002) (31, -1.14259235560894010000e-001) (32, -9.29755792021751400000e-002) (33, 8.01094949245452880000e-001) (34, 9.33550745248794560000e-002) (35, 3.14617529511451720000e-002) (36, -4.00514602661132810000e-002) (37, -7.74614214897155760000e-002) (38, -5.56766465306282040000e-002) (39, 7.65920523554086690000e-003) (40, 1.58116951584815980000e-001) (41, 1.30702510476112370000e-001) (42, -7.04535320401191710000e-002) (43, 7.21517503261566160000e-002) (0, 5.83514897152781490000e-003) (1, 1.32939636707305910000e-001) (2, 1.82346589863300320000e-002) (3, -8.46085604280233380000e-003) (4, 3.70475575327873230000e-002) (5, 1.11658193171024320000e-001) (6, 2.13018506765365600000e-001) (7, 6.27099648118019100000e-002) (8, -7.66699984669685360000e-002) (9, 3.53230349719524380000e-002) (10, 1.40091776847839360000e-001) (11, -1.08048552647233010000e-002) (12, 1.20128788053989410000e-001) (13, 7.67513141036033630000e-002) (14, 3.37621048092842100000e-002) (15, 2.77144070714712140000e-002) (16, 2.23426803946495060000e-001) (17, 1.55162900686264040000e-001) (18, 5.37510216236114500000e-002) (19, 4.00196798145771030000e-002) (20, 6.92938566207885740000e-002) (21, 6.90490230917930600000e-002) (22, 3.64450961351394650000e-002) (23, 1.06048457324504850000e-001) (24, 4.65452261269092560000e-002) (25, 2.04897373914718630000e-001) (26, 1.16381697356700900000e-001) (27, 3.02753020077943800000e-002) (28, -1.93680636584758760000e-002) (29, 1.03082403540611270000e-001) (30, 7.02803954482078550000e-002) (31, -1.69871672987937930000e-002) (32, 5.47836534678936000000e-002) (33, -6.90058022737503050000e-002) (34, -1.03921964764595030000e-002) (35, 8.15112963318824770000e-002) (36, 4.45130877196788790000e-002) (37, -1.26073628664016720000e-001) (38, -1.86806879937648770000e-002) (39, 3.02032325416803360000e-002) (40, 8.96151959896087650000e-002) (41, -1.30678340792655940000e-001) (42, -8.53763055056333540000e-003) (43, 1.06224589049816130000e-001) (0, 1.06825731694698330000e-001) (1, 2.27137282490730290000e-002) (2, 5.64818941056728360000e-002) (3, 4.09071967005729680000e-002) (4, 3.09165250509977340000e-002) (5, -1.37681486085057260000e-002) (6, 4.82337847352027890000e-002) (7, 6.89316093921661380000e-002) (8, 9.23206508159637450000e-002) (9, 1.03679880499839780000e-001) (10, -2.79435189440846440000e-003) (11, 8.29308107495307920000e-002) (12, 6.96974173188209530000e-002) (13, -6.08845520764589310000e-003) (14, 9.29007455706596370000e-002) (15, 5.30295167118310930000e-003) (16, 7.88568034768104550000e-002) (17, 2.90243756026029590000e-002) (18, 1.15762248635292050000e-001) (19, 4.76254485547542570000e-002) (20, 3.51565107703208920000e-002) (21, 4.22035306692123410000e-002) (22, 2.35792975872755050000e-002) (23, -3.83385084569454190000e-002) (24, 9.59121957421302800000e-002) (25, 1.35856466367840770000e-002) (26, 9.48131270706653590000e-003) (27, -4.72339801490306850000e-002) (28, 7.58828446269035340000e-002) (29, 6.31970837712287900000e-002) (30, 1.36582955718040470000e-001) (31, 4.43147914484143260000e-003) (32, 1.44236862659454350000e-001) (33, 2.12301164865493770000e-002) (34, -1.30458883941173550000e-002) (35, -2.55643520504236220000e-002) (36, 2.07194145768880840000e-002) (37, -2.05646883696317670000e-002) (38, -1.92376244813203810000e-002) (39, 1.24590452760457990000e-002) (40, -1.57440826296806340000e-001) (41, 5.33497519791126250000e-002) (42, 4.52140644192695620000e-002) (43, -5.93439526855945590000e-002) (0, -7.57227316498756410000e-002) (1, -9.94757935404777530000e-002) (2, -1.08892500400543210000e-001) (3, 2.72478517144918440000e-002) (4, -4.40091406926512720000e-003) (5, -1.82889122515916820000e-002) (6, -1.91900786012411120000e-002) (7, -3.38205769658088680000e-002) (8, -1.23289972543716430000e-001) (9, -3.12588103115558620000e-002) (10, 2.42981920018792150000e-003) (11, -8.35890024900436400000e-002) (12, -3.46891842782497410000e-002) (13, -1.70633569359779360000e-002) (14, -1.43943488597869870000e-001) (15, 1.98450125753879550000e-002) (16, 3.23236510157585140000e-002) (17, -6.66451305150985720000e-002) (18, 4.34477627277374270000e-002) (19, -3.70083265006542210000e-002) (20, -7.26562812924385070000e-002) (21, -1.47190928459167480000e-001) (22, -1.02136053144931790000e-001) (23, -8.36287960410118100000e-002) (24, -8.62845927476882930000e-002) (25, -1.08726590871810910000e-001) (26, -1.63195863366127010000e-001) (27, -2.50632930546998980000e-002) (28, 4.84230229631066320000e-003) (29, -6.75037577748298650000e-002) (30, 1.35345645248889920000e-002) (31, 8.35764035582542420000e-002) (32, -1.72924827784299850000e-002) (33, 6.38605356216430660000e-001) (34, -5.46090230345726010000e-002) (35, -2.14945562183856960000e-002) (36, 4.03350684791803360000e-003) (37, 1.56081030145287510000e-002) (38, 1.02796927094459530000e-001) (39, 2.47364602982997890000e-002) (40, 7.80270397663116460000e-002) (41, -6.04401379823684690000e-002) (42, -4.43006902933120730000e-002) (43, -3.84602136909961700000e-002) (0, 8.37827995419502260000e-002) (1, -2.91669019497931000000e-003) (2, -2.61159576475620270000e-002) (3, -5.92201799154281620000e-002) (4, -8.62323865294456480000e-003) (5, -2.31034718453884120000e-002) (6, 3.37390676140785220000e-002) (7, -1.02049574255943300000e-001) (8, -1.10463257879018780000e-002) (9, 4.12405468523502350000e-002) (10, -1.67499065399169920000e-001) (11, 6.45838975906372070000e-002) (12, 4.67306077480316160000e-002) (13, -8.74604955315589900000e-002) (14, -8.06231945753097530000e-002) (15, -2.05831974744796750000e-002) (16, 5.56063093245029450000e-002) (17, 3.24401371181011200000e-002) (18, -3.93690243363380430000e-002) (19, -1.17207221686840060000e-001) (20, -2.36456319689750670000e-002) (21, 5.65478838980197910000e-002) (22, 3.48943658173084260000e-002) (23, 4.54479120671749110000e-002) (24, 3.09950932860374450000e-002) (25, -5.20472861826419830000e-002) (26, 1.77196756005287170000e-001) (27, -3.38827930390834810000e-002) (28, -8.25093239545822140000e-002) (29, 1.23026482760906220000e-001) (30, 4.16400376707315440000e-003) (31, 4.12771031260490420000e-002) (32, 5.51661364734172820000e-002) (33, 4.23640519380569460000e-001) (34, -3.73499654233455660000e-002) (35, 6.04832209646701810000e-002) (36, -7.76485428214073180000e-002) (37, 2.73047806695103650000e-003) (38, 1.79120134562253950000e-002) (39, 8.78211334347724910000e-002) (40, -4.72218729555606840000e-002) (41, 8.72805714607238770000e-002) (42, -5.63022382557392120000e-002) (43, 1.95434674620628360000e-001) (0, 1.43686935305595400000e-001) (1, 1.44715085625648500000e-001) (2, 1.53559803962707520000e-001) (3, 1.00330524146556850000e-001) (4, 2.78401166200637820000e-001) (5, 2.34164685010910030000e-001) (6, 8.38690400123596190000e-002) (7, 1.51145726442337040000e-001) (8, 1.26178368926048280000e-001) (9, 2.63552051037549970000e-002) (10, 1.47925943136215210000e-001) (11, 7.44972452521324160000e-002) (12, 1.20421424508094790000e-001) (13, 1.21367856860160830000e-001) (14, 1.30194902420043950000e-001) (15, 1.60697344690561290000e-002) (16, 7.07199648022651670000e-002) (17, 1.61526322364807130000e-001) (18, 1.83403804898262020000e-001) (19, 1.70191675424575810000e-001) (20, 1.59960202872753140000e-002) (21, 1.63173288106918330000e-001) (22, 2.12169364094734190000e-001) (23, 1.60919755697250370000e-001) (24, 1.75075486302375790000e-001) (25, 9.55741405487060550000e-002) (26, 6.66555687785148620000e-002) (27, 1.87831923365592960000e-001) (28, 1.40582010149955750000e-001) (29, 2.45984047651290890000e-001) (30, 1.02176293730735780000e-001) (31, 1.22631415724754330000e-001) (32, 2.05504208803176880000e-001) (33, -4.43145483732223510000e-001) (34, -1.98894478380680080000e-002) (35, 2.37938668578863140000e-002) (36, -1.42711043357849120000e-001) (37, -3.38053591549396510000e-002) (38, 1.79834529757499690000e-001) (39, 2.90027894079685210000e-002) (40, -3.22316326200962070000e-002) (41, 6.74333944916725160000e-002) (42, 6.22519887983798980000e-002) (43, 5.57096749544143680000e-002) (0, 3.85366193950176240000e-002) (1, -2.23557688295841220000e-002) (2, 8.80976542830467220000e-002) (3, -4.61589591577649120000e-003) (4, -9.24369134008884430000e-003) (5, -2.13356520980596540000e-002) (6, 1.94078050553798680000e-002) (7, -1.94751881062984470000e-002) (8, 8.16340651363134380000e-003) (9, -1.13989468663930890000e-002) (10, 2.88109108805656430000e-002) (11, -1.66108645498752590000e-002) (12, -1.11291799694299700000e-002) (13, 2.44584865868091580000e-002) (14, 6.69310614466667180000e-002) (15, 3.95436026155948640000e-002) (16, -7.86929354071617130000e-002) (17, 7.62274712324142460000e-002) (18, -1.29090286791324620000e-002) (19, -6.37793913483619690000e-003) (20, -4.44103479385375980000e-002) (21, -6.92459717392921450000e-002) (22, 4.69554774463176730000e-002) (23, 7.09472894668579100000e-002) (24, -1.30832828581333160000e-002) (25, -7.36576830968260770000e-003) (26, -4.44802418351173400000e-002) (27, 1.41197860240936280000e-001) (28, -2.22767703235149380000e-002) (29, -2.19985954463481900000e-002) (30, -3.73856760561466220000e-002) (31, -4.12651747465133670000e-002) (32, -1.70246884226799010000e-002) (33, 3.13346207141876220000e-001) (34, -2.85542141646146770000e-002) (35, 5.68530522286891940000e-002) (36, -5.28602860867977140000e-002) (37, -4.81620170176029210000e-002) (38, -8.39003920555114750000e-002) (39, 4.51934896409511570000e-002) (40, -8.99702012538909910000e-002) (41, 1.35703403502702710000e-002) (42, 8.54543894529342650000e-002) (43, 2.99507379531860350000e-002) (0, -5.56480558589100840000e-003) (1, 8.02140533924102780000e-002) (2, 8.71343612670898440000e-002) (3, 1.37829020619392400000e-001) (4, 7.40060210227966310000e-002) (5, 5.74128590524196620000e-002) (6, 1.44973443821072580000e-002) (7, 1.11165177077054980000e-002) (8, 6.80064111948013310000e-002) (9, 5.03522232174873350000e-002) (10, 1.39204844832420350000e-001) (11, 6.47672489285469060000e-002) (12, 1.42376944422721860000e-002) (13, 2.91580446064472200000e-002) (14, -5.16376420855522160000e-002) (15, 1.23948581516742710000e-001) (16, 3.03720552474260330000e-002) (17, -8.25472269207239150000e-003) (18, 1.41929492354393010000e-001) (19, 7.12408050894737240000e-002) (20, 1.64636954665184020000e-001) (21, -4.59467098116874690000e-002) (22, 8.91786366701126100000e-002) (23, -2.43465155363082890000e-002) (24, 3.22474278509616850000e-002) (25, 6.61529153585433960000e-002) (26, 1.14209689199924470000e-001) (27, -7.92736634612083440000e-002) (28, 7.59747028350830080000e-002) (29, -6.76193332765251400000e-004) (30, -5.40148504078388210000e-002) (31, 6.02296106517314910000e-002) (32, 1.05435453355312350000e-001) (33, 9.05562192201614380000e-002) (34, 9.85102504491806030000e-002) (35, 9.57091376185417180000e-002) (36, -1.21630132198333740000e-001) (37, 6.65459334850311280000e-002) (38, 9.45260822772979740000e-002) (39, -1.57371480017900470000e-002) (40, -1.76163669675588610000e-002) (41, -8.63895751535892490000e-003) (42, 1.07127584517002110000e-001) (43, -1.81227058172225950000e-001) (0, 1.57525926828384400000e-001) (1, 1.84688597917556760000e-001) (2, 3.68264541029930110000e-002) (3, 9.49801579117774960000e-002) (4, 9.26172360777854920000e-002) (5, 1.90378621220588680000e-001) (6, 1.59266456961631770000e-001) (7, 1.52661219239234920000e-001) (8, 1.15883514285087590000e-001) (9, 8.17004144191741940000e-002) (10, 1.14505253732204440000e-001) (11, 6.22071847319602970000e-002) (12, 1.21941147372126580000e-002) (13, 1.67075708508491520000e-001) (14, 8.83371010422706600000e-002) (15, 1.23329952359199520000e-001) (16, 1.13140732049942020000e-001) (17, 3.24239395558834080000e-002) (18, 1.62879005074501040000e-001) (19, 1.59303963184356690000e-001) (20, 3.92673946917057040000e-002) (21, -2.32639517635107040000e-002) (22, 1.34037688374519350000e-001) (23, 9.46128591895103450000e-002) (24, 1.41426339745521550000e-001) (25, 1.02562025189399720000e-001) (26, 1.82017296552658080000e-001) (27, 7.48952031135559080000e-002) (28, 1.61348786205053330000e-002) (29, 7.87786021828651430000e-002) (30, -2.03908551484346390000e-002) (31, 1.73521861433982850000e-001) (32, 6.54457509517669680000e-002) (33, -2.13193550705909730000e-001) (34, 2.10495844483375550000e-001) (35, -2.59779132902622220000e-002) (36, -5.01954182982444760000e-002) (37, -8.13250616192817690000e-002) (38, -8.47616642713546750000e-002) (39, -1.22159123420715330000e-001) (40, 7.77188092470169070000e-002) (41, 4.59777610376477240000e-003) (42, 2.01175823807716370000e-001) (43, 8.95053148269653320000e-002) (0, 1.68827325105667110000e-001) (1, 2.43607103824615480000e-001) (2, 1.40912920236587520000e-001) (3, 1.77744865417480470000e-001) (4, 2.83161342144012450000e-001) (5, 2.41769388318061830000e-001) (6, 1.95564329624176030000e-001) (7, 1.45102784037590030000e-001) (8, 2.17154756188392640000e-001) (9, 2.34857708215713500000e-001) (10, 1.27262979745864870000e-001) (11, 2.45529294013977050000e-001) (12, 3.66933256387710570000e-001) (13, 2.14560151100158690000e-001) (14, 2.06069186329841610000e-001) (15, 2.77919143438339230000e-001) (16, 2.16732427477836610000e-001) (17, 1.42921850085258480000e-001) (18, 2.70723432302474980000e-001) (19, 2.04809501767158510000e-001) (20, 2.74683564901351930000e-001) (21, 3.64465236663818360000e-001) (22, 2.08921566605567930000e-001) (23, 2.65229701995849610000e-001) (24, 2.49188244342803960000e-001) (25, 1.81115537881851200000e-001) (26, 1.30334019660949710000e-001) (27, 2.89729416370391850000e-001) (28, 9.99235138297080990000e-002) (29, 2.17479676008224490000e-001) (30, 2.68568277359008790000e-001) (31, 2.02118456363677980000e-001) (32, 2.39705607295036320000e-001) (33, -9.40885961055755620000e-001) (34, -1.02336220443248750000e-001) (35, -3.56827490031719210000e-002) (36, -1.20689466595649720000e-001) (37, 1.95687919855117800000e-001) (38, 5.19124604761600490000e-003) (39, -2.24820852279663090000e-001) (40, -1.41166830435395240000e-002) (41, -3.06399222463369370000e-002) (42, -7.68225118517875670000e-002) (43, 1.55252143740653990000e-002) (0, -5.67897129803895950000e-003) (1, 1.25822916626930240000e-001) (2, 9.31076854467391970000e-002) (3, 5.07133677601814270000e-002) (4, -3.76595072448253630000e-002) (5, 7.45795294642448430000e-002) (6, 7.32407942414283750000e-002) (7, 7.30147212743759160000e-002) (8, 1.01923972368240360000e-001) (9, 7.55463317036628720000e-002) (10, 1.67971346527338030000e-002) (11, 7.49051943421363830000e-002) (12, 5.91342039406299590000e-002) (13, 1.26723304390907290000e-001) (14, 3.15658785402774810000e-002) (15, -6.81966617703437810000e-002) (16, 5.60894906520843510000e-002) (17, 1.33176386356353760000e-001) (18, 1.37080922722816470000e-001) (19, 1.47037744522094730000e-001) (20, 1.26995190978050230000e-001) (21, 2.06991303712129590000e-002) (22, 6.30133971571922300000e-002) (23, 7.01475143432617190000e-002) (24, 6.95483908057212830000e-002) (25, 1.49658307433128360000e-001) (26, 4.97122146189212800000e-002) (27, 1.94611102342605590000e-001) (28, 4.07821126282215120000e-002) (29, 4.52919378876686100000e-002) (30, 7.39571154117584230000e-002) (31, 6.14452585577964780000e-002) (32, 6.04326650500297550000e-002) (33, -4.15006801486015320000e-002) (34, -8.92806425690650940000e-002) (35, -7.38485828042030330000e-002) (36, 2.63534039258956910000e-002) (37, 1.38316052034497260000e-002) (38, 9.45966094732284550000e-002) (39, 1.63864567875862120000e-001) (40, 1.01375356316566470000e-001) (41, -2.36736051738262180000e-002) (42, 1.00758276879787450000e-001) (43, -1.28772720694541930000e-001) (0, 1.39433607459068300000e-001) (1, 2.02310252934694290000e-002) (2, 1.08634665608406070000e-001) (3, 1.31622880697250370000e-001) (4, 1.15556403994560240000e-001) (5, -2.85734627395868300000e-002) (6, 1.07957780361175540000e-001) (7, 4.42698188126087190000e-002) (8, 3.09187844395637510000e-002) (9, -3.49496304988861080000e-002) (10, 3.37547846138477330000e-002) (11, 6.37483745813369750000e-002) (12, -2.48789079487323760000e-002) (13, 9.65751800686120990000e-003) (14, 1.03819653391838070000e-001) (15, 4.32902835309505460000e-002) (16, 9.58137959241867070000e-002) (17, 1.03654116392135620000e-001) (18, -7.68902897834777830000e-002) (19, 9.79507938027381900000e-002) (20, 7.22222477197647090000e-002) (21, 1.10481940209865570000e-001) (22, 8.23261663317680360000e-002) (23, -2.10845284163951870000e-002) (24, -1.36531563475728030000e-002) (25, 4.28084805607795720000e-002) (26, -9.43012461066246030000e-002) (27, 5.40543608367443080000e-002) (28, 3.77071499824523930000e-002) (29, 1.60031288862228390000e-001) (30, 1.11709170043468480000e-001) (31, -3.85702736675739290000e-002) (32, 1.11590549349784850000e-001) (33, -1.44271599128842350000e-002) (34, 6.44411519169807430000e-002) (35, -5.40267266333103180000e-002) (36, -4.05694060027599330000e-002) (37, -7.13796988129615780000e-002) (38, -9.53829810023307800000e-002) (39, -2.92271412909030910000e-002) (40, 2.58045196533203130000e-002) (41, -4.75421063601970670000e-002) (42, 9.70984250307083130000e-003) (43, 7.22501948475837710000e-002) 
