FANN_FLO_2.1
num_layers=12
learning_rate=0.700000
connection_rate=1.000000
network_type=1
learning_momentum=0.000000
training_algorithm=2
train_error_function=0
train_stop_function=0
cascade_output_change_fraction=0.010000
quickprop_decay=-0.000100
quickprop_mu=1.750000
rprop_increase_factor=1.200000
rprop_decrease_factor=0.500000
rprop_delta_min=0.000000
rprop_delta_max=50.000000
rprop_delta_zero=0.100000
cascade_output_stagnation_epochs=12
cascade_candidate_change_fraction=0.010000
cascade_candidate_stagnation_epochs=12
cascade_max_out_epochs=150
cascade_min_out_epochs=15
cascade_max_cand_epochs=150
cascade_min_cand_epochs=15
cascade_num_candidate_groups=2
bit_fail_limit=3.49999994039535520000e-001
cascade_candidate_limit=1.00000000000000000000e+003
cascade_weight_multiplier=4.00000005960464480000e-001
cascade_activation_functions_count=10
cascade_activation_functions=3 5 7 8 10 11 14 15 16 17 
cascade_activation_steepnesses_count=4
cascade_activation_steepnesses=2.50000000000000000000e-001 5.00000000000000000000e-001 7.50000000000000000000e-001 1.00000000000000000000e+000 
layer_sizes=34 1 1 1 1 1 1 1 1 1 1 33 
scale_included=0
neurons (num_inputs, activation_function, activation_steepness)=(0, 0, 0.00000000000000000000e+000) (0, 0, 0.00000000000000000000e+000) (0, 0, 0.00000000000000000000e+000) (0, 0, 0.00000000000000000000e+000) (0, 0, 0.00000000000000000000e+000) (0, 0, 0.00000000000000000000e+000) (0, 0, 0.00000000000000000000e+000) (0, 0, 0.00000000000000000000e+000) (0, 0, 0.00000000000000000000e+000) (0, 0, 0.00000000000000000000e+000) (0, 0, 0.00000000000000000000e+000) (0, 0, 0.00000000000000000000e+000) (0, 0, 0.00000000000000000000e+000) (0, 0, 0.00000000000000000000e+000) (0, 0, 0.00000000000000000000e+000) (0, 0, 0.00000000000000000000e+000) (0, 0, 0.00000000000000000000e+000) (0, 0, 0.00000000000000000000e+000) (0, 0, 0.00000000000000000000e+000) (0, 0, 0.00000000000000000000e+000) (0, 0, 0.00000000000000000000e+000) (0, 0, 0.00000000000000000000e+000) (0, 0, 0.00000000000000000000e+000) (0, 0, 0.00000000000000000000e+000) (0, 0, 0.00000000000000000000e+000) (0, 0, 0.00000000000000000000e+000) (0, 0, 0.00000000000000000000e+000) (0, 0, 0.00000000000000000000e+000) (0, 0, 0.00000000000000000000e+000) (0, 0, 0.00000000000000000000e+000) (0, 0, 0.00000000000000000000e+000) (0, 0, 0.00000000000000000000e+000) (0, 0, 0.00000000000000000000e+000) (0, 0, 0.00000000000000000000e+000) (34, 14, 1.00000000000000000000e+000) (35, 14, 1.00000000000000000000e+000) (36, 15, 5.00000000000000000000e-001) (37, 15, 1.00000000000000000000e+000) (38, 14, 1.00000000000000000000e+000) (39, 14, 2.50000000000000000000e-001) (40, 15, 7.50000000000000000000e-001) (41, 15, 7.50000000000000000000e-001) (42, 14, 1.00000000000000000000e+000) (43, 14, 7.50000000000000000000e-001) (44, 5, 5.00000000000000000000e-001) (44, 5, 5.00000000000000000000e-001) (44, 5, 5.00000000000000000000e-001) (44, 5, 5.00000000000000000000e-001) (44, 5, 5.00000000000000000000e-001) (44, 5, 5.00000000000000000000e-001) (44, 5, 5.00000000000000000000e-001) (44, 5, 5.00000000000000000000e-001) (44, 5, 5.00000000000000000000e-001) (44, 5, 5.00000000000000000000e-001) (44, 5, 5.00000000000000000000e-001) (44, 5, 5.00000000000000000000e-001) (44, 5, 5.00000000000000000000e-001) (44, 5, 5.00000000000000000000e-001) (44, 5, 5.00000000000000000000e-001) (44, 5, 5.00000000000000000000e-001) (44, 5, 5.00000000000000000000e-001) (44, 5, 5.00000000000000000000e-001) (44, 5, 5.00000000000000000000e-001) (44, 5, 5.00000000000000000000e-001) (44, 5, 5.00000000000000000000e-001) (44, 5, 5.00000000000000000000e-001) (44, 5, 5.00000000000000000000e-001) (44, 5, 5.00000000000000000000e-001) (44, 5, 5.00000000000000000000e-001) (44, 5, 5.00000000000000000000e-001) (44, 5, 5.00000000000000000000e-001) (44, 5, 5.00000000000000000000e-001) (44, 5, 5.00000000000000000000e-001) (44, 5, 5.00000000000000000000e-001) (44, 5, 5.00000000000000000000e-001) (44, 5, 5.00000000000000000000e-001) (44, 5, 5.00000000000000000000e-001) 
connections (connected_to_neuron, weight)=(0, 1.41121923923492430000e+000) (1, -1.34465992450714110000e+000) (2, 1.80904805660247800000e+000) (3, 5.61146855354309080000e-001) (4, 1.19596731662750240000e+000) (5, 4.31951642036437990000e-001) (6, 2.31885623931884770000e+000) (7, 1.57212710380554200000e+000) (8, 4.70189154148101810000e-001) (9, -8.37244927883148190000e-001) (10, -1.08362603187561040000e+000) (11, -6.53105556964874270000e-001) (12, 1.55894184112548830000e+000) (13, -3.01593601703643800000e-001) (14, -1.73090374469757080000e+000) (15, 3.08652901649475100000e+000) (16, 1.07458996772766110000e+000) (17, 1.30560278892517090000e+000) (18, -6.83707952499389650000e-001) (19, 9.70871627330780030000e-001) (20, 1.34914481639862060000e+000) (21, 3.21146345138549800000e+000) (22, 1.02342438697814940000e+000) (23, 2.40233016014099120000e+000) (24, 1.85125693678855900000e-001) (25, 1.99498176574707030000e+000) (26, 2.08432960510253910000e+000) (27, 7.64933347702026370000e-001) (28, 1.77947974205017090000e+000) (29, -1.47427463531494140000e+000) (30, 7.15364590287208560000e-002) (31, 2.92731809616088870000e+000) (32, 2.80233120918273930000e+000) (33, -1.39599394798278810000e+000) (0, 1.74266368150711060000e-001) (1, 2.49388408660888670000e+000) (2, 5.09297430515289310000e-001) (3, 1.01170778274536130000e+000) (4, 1.35718747973442080000e-001) (5, -5.14105916023254390000e-001) (6, 3.18481516838073730000e+000) (7, -6.50122985243797300000e-002) (8, -1.93325653672218320000e-001) (9, 9.39686954021453860000e-001) (10, 4.19693410396575930000e-001) (11, 1.77698695659637450000e+000) (12, 9.16219294071197510000e-001) (13, 6.69495522975921630000e-001) (14, 8.22089135646820070000e-001) (15, 8.35310444235801700000e-002) (16, -1.30213677883148190000e-001) (17, 1.05341899394989010000e+000) (18, 2.52728629112243650000e+000) (19, -1.65420842170715330000e+000) (20, 1.03628242015838620000e+000) (21, -1.94982275366783140000e-001) (22, 3.25349599123001100000e-001) (23, 6.62279009819030760000e-001) (24, 1.26467895507812500000e+000) (25, 1.28832042217254640000e-001) (26, -2.18933850526809690000e-001) (27, 2.55918765068054200000e+000) (28, 9.02040600776672360000e-001) (29, 2.62215113639831540000e+000) (30, 2.13937854766845700000e+000) (31, 1.98754370212554930000e+000) (32, 4.43380177021026610000e-001) (33, -8.91802906990051270000e-001) (34, 1.02058720588684080000e+000) (0, 1.68359589576721190000e+000) (1, -3.31135487556457520000e+000) (2, 2.80800670385360720000e-001) (3, 1.39593958854675290000e+000) (4, 1.49936807155609130000e+000) (5, 3.51503878831863400000e-001) (6, 1.08111366629600520000e-001) (7, -2.55075287818908690000e+000) (8, -2.69758820533752440000e-001) (9, -1.86539340019226070000e+000) (10, 5.00960445404052730000e+000) (11, 2.66815853118896480000e+000) (12, 1.16319823265075680000e+000) (13, 6.58985233306884770000e+000) (14, 3.61373782157897950000e-001) (15, -8.73901605606079100000e-001) (16, 1.68699133396148680000e+000) (17, 4.66078102588653560000e-001) (18, 3.90668964385986330000e+000) (19, 1.01737761497497560000e+000) (20, 3.82233142852783200000e+000) (21, -4.92261499166488650000e-001) (22, -1.48386704921722410000e+000) (23, 6.68625414371490480000e-001) (24, 2.37702846527099610000e+000) (25, -1.70611143112182620000e+000) (26, 4.60539388656616210000e+000) (27, -4.49113577604293820000e-001) (28, 1.22467434406280520000e+000) (29, 6.99048995971679690000e-001) (30, -1.06776082515716550000e+000) (31, -6.28779649734497070000e-001) (32, 1.23679196834564210000e+000) (33, -9.60380434989929200000e-001) (34, 2.08475756645202640000e+000) (35, -1.74429023265838620000e+000) (0, 1.10133481025695800000e+000) (1, 3.12865161895751950000e+000) (2, 1.30930364131927490000e+000) (3, 1.99516487121582030000e+000) (4, 1.96546956896781920000e-001) (5, 6.33268594741821290000e-001) (6, 2.01365441083908080000e-001) (7, 1.18383876979351040000e-001) (8, 1.96994686126708980000e+000) (9, 1.64636492729187010000e+000) (10, 6.45734131336212160000e-001) (11, 1.88405203819274900000e+000) (12, -3.59615087509155270000e-001) (13, 1.10058677196502690000e+000) (14, 2.60503959655761720000e+000) (15, -1.15835718810558320000e-001) (16, 1.85996198654174800000e+000) (17, 1.94037473201751710000e+000) (18, -1.14942085742950440000e+000) (19, 3.48380148410797120000e-001) (20, -2.51359462738037110000e-001) (21, 1.95403480529785160000e+000) (22, 1.47386848926544190000e+000) (23, 3.41073393821716310000e-001) (24, 1.61465287208557130000e-001) (25, 3.35304164886474610000e+000) (26, -2.06266450881958010000e+000) (27, 2.09772443771362300000e+000) (28, 1.07606875896453860000e+000) (29, -4.85056608915328980000e-001) (30, 2.46120333671569820000e+000) (31, 1.08498740196228030000e+000) (32, 1.01471543312072750000e+000) (33, 3.19805592298507690000e-001) (34, 6.14274621009826660000e-001) (35, 2.22702717781066890000e+000) (36, -1.06350272893905640000e-001) (0, 1.09642660617828370000e+000) (1, -1.66021192073822020000e+000) (2, 7.27471172809600830000e-001) (3, -3.16070228815078740000e-001) (4, 1.14646208286285400000e+000) (5, 8.65856528282165530000e-001) (6, 2.89019155502319340000e+000) (7, 2.33412337303161620000e+000) (8, 1.70614814758300780000e+000) (9, 2.11920118331909180000e+000) (10, 1.50592017173767090000e+000) (11, 1.94190478324890140000e+000) (12, 1.43900740146636960000e+000) (13, 1.33650255203247070000e+000) (14, -2.61483401060104370000e-001) (15, 1.48425173759460450000e+000) (16, -1.09337127208709720000e+000) (17, 2.66635566949844360000e-001) (18, 3.28976893424987790000e+000) (19, 1.17748522758483890000e+000) (20, 2.66601705551147460000e+000) (21, 7.86036133766174320000e-001) (22, 1.34486794471740720000e+000) (23, -1.72291040420532230000e+000) (24, 2.35758996009826660000e+000) (25, 1.05310857295989990000e+000) (26, 7.45941922068595890000e-002) (27, 1.73022365570068360000e+000) (28, 1.18969273567199710000e+000) (29, 1.99046301841735840000e+000) (30, 2.05406212806701660000e+000) (31, 2.87987136840820310000e+000) (32, 1.21335041522979740000e+000) (33, 4.68898952007293700000e-001) (34, 1.60632765293121340000e+000) (35, 2.45551419258117680000e+000) (36, 1.11115074157714840000e+000) (37, 3.59432816505432130000e-001) (0, -5.05124449729919430000e-001) (1, 6.39261484146118160000e+000) (2, -1.20496368408203130000e+000) (3, 3.66651356220245360000e-001) (4, 2.94141674041748050000e+000) (5, -6.78399515151977540000e+000) (6, 8.36096954345703120000e+000) (7, 1.44908082485198970000e+000) (8, -1.91356003284454350000e-001) (9, 5.35926485061645510000e+000) (10, 2.92198389768600460000e-001) (11, 2.50628900527954100000e+000) (12, -1.62491750717163090000e+000) (13, 1.81104326248168950000e+000) (14, -6.62007904052734370000e+000) (15, 3.83775448799133300000e+000) (16, 5.11766338348388670000e+000) (17, 5.65676748752593990000e-001) (18, 6.74923896789550780000e-001) (19, -1.13358569145202640000e+000) (20, -3.21619081497192380000e+000) (21, 7.96538877487182620000e+000) (22, 6.33709955215454100000e+000) (23, 4.85199213027954100000e-001) (24, -1.91273897886276250000e-001) (25, 7.44882762432098390000e-001) (26, 3.53516012430191040000e-001) (27, 6.33835363388061520000e+000) (28, 2.58069187402725220000e-001) (29, -1.87325012683868410000e+000) (30, 6.81625747680664060000e+000) (31, -6.62725090980529790000e-001) (32, 9.48146402835845950000e-001) (33, -3.44463515281677250000e+000) (34, 4.39829301834106450000e+000) (35, 2.69549250602722170000e+000) (36, 1.57693457603454590000e+000) (37, 9.84618663787841800000e+000) (38, 1.73034763336181640000e+000) (0, -2.44551134109497070000e+000) (1, -5.16691327095031740000e-001) (2, 4.09274244308471680000e+000) (3, 1.77283108234405520000e+000) (4, 1.36009407043457030000e+000) (5, -1.57669997215271000000e+000) (6, 3.11875939369201660000e+000) (7, 8.55664849281311040000e-001) (8, 3.06884098052978520000e+000) (9, 2.17133617401123050000e+000) (10, 1.49064266681671140000e+000) (11, 9.35312032699584960000e-001) (12, 3.62489759922027590000e-001) (13, -8.95900726318359380000e-002) (14, 3.91969680786132810000e-001) (15, -6.53655752539634700000e-002) (16, -8.80230605602264400000e-001) (17, 2.79327899217605590000e-001) (18, 2.59474587440490720000e+000) (19, 5.42600393295288090000e-001) (20, 1.55264890193939210000e+000) (21, 8.45531225204467770000e-001) (22, -1.14787840843200680000e+000) (23, 2.28012394905090330000e+000) (24, 1.25661039352416990000e+000) (25, 1.56512641906738280000e+000) (26, 1.38865280151367190000e+000) (27, -4.01874333620071410000e-001) (28, 9.63602125644683840000e-001) (29, 5.21288871765136720000e+000) (30, 4.83337640762329100000e-001) (31, 1.99718856811523440000e+000) (32, -1.02796292304992680000e+000) (33, -6.80918693542480470000e-001) (34, 1.86740708351135250000e+000) (35, 7.89737641811370850000e-001) (36, 6.46795213222503660000e-001) (37, 2.70958561450243000000e-002) (38, -7.27178335189819340000e-001) (39, 6.37003958225250240000e-001) (0, 2.51419591903686520000e+000) (1, 1.03704988956451420000e+000) (2, 6.44971728324890140000e-001) (3, 1.93835687637329100000e+000) (4, 2.06200766563415530000e+000) (5, 1.89433348178863530000e+000) (6, 2.36752343177795410000e+000) (7, 1.01025557518005370000e+000) (8, 2.25444269180297850000e+000) (9, 3.51708602905273440000e+000) (10, -8.18178236484527590000e-001) (11, 2.00033187866210940000e+000) (12, -3.90322506427764890000e-001) (13, 9.21135365962982180000e-001) (14, -5.90200960636138920000e-001) (15, 3.17240524291992190000e+000) (16, -3.99433851242065430000e-001) (17, 6.90398275852203370000e-001) (18, -3.25661927461624150000e-001) (19, -1.65209785103797910000e-001) (20, 8.44454526901245120000e-001) (21, 1.31041288375854490000e+000) (22, 8.57058584690093990000e-001) (23, -5.04303932189941410000e-001) (24, -7.20365226268768310000e-001) (25, 8.77827048301696780000e-001) (26, 9.75743472576141360000e-001) (27, 2.12627696990966800000e+000) (28, 2.65311121940612790000e+000) (29, -1.13915361464023590000e-001) (30, 4.71816003322601320000e-001) (31, -8.27911257743835450000e-001) (32, 1.18239927291870120000e+000) (33, -1.13583207130432130000e+000) (34, 7.85871148109436040000e-002) (35, 4.29429680109024050000e-001) (36, 7.06716775894165040000e-001) (37, 3.98675948381423950000e-001) (38, -8.47523361444473270000e-002) (39, 1.61488187313079830000e+000) (40, 9.01642680168151860000e-001) (0, 1.77307915687561040000e+000) (1, 9.53844308853149410000e-001) (2, 1.75577439367771150000e-002) (3, 9.59147632122039790000e-001) (4, 1.36518788337707520000e+000) (5, 1.09919321537017820000e+000) (6, -1.13072015345096590000e-001) (7, 8.02091181278228760000e-001) (8, -2.79393754899501800000e-002) (9, 1.38107967376708980000e+000) (10, 1.19365453720092770000e-001) (11, 9.62726533412933350000e-001) (12, 3.61479848623275760000e-001) (13, 2.04015612602233890000e+000) (14, 1.24099504947662350000e+000) (15, 8.49053859710693360000e-001) (16, 6.17014408111572270000e-001) (17, 8.20424556732177730000e-001) (18, 9.45782124996185300000e-001) (19, 2.35402131080627440000e+000) (20, 1.85327255725860600000e+000) (21, 1.19873297214508060000e+000) (22, -2.48083591461181640000e-001) (23, 1.12181556224823000000e+000) (24, 2.22123312950134280000e+000) (25, 1.47351896762847900000e+000) (26, 2.28457307815551760000e+000) (27, 2.33527374267578130000e+000) (28, -2.11250877380371090000e+000) (29, 1.79515886306762700000e+000) (30, 4.19997543096542360000e-001) (31, 8.69205296039581300000e-001) (32, 1.50309894233942030000e-002) (33, -1.02880668640136720000e+000) (34, 6.68628275394439700000e-001) (35, 2.15412402153015140000e+000) (36, 1.34996914863586430000e+000) (37, -2.91906714439392090000e-001) (38, 7.33452677726745610000e-001) (39, 1.77256715297698970000e+000) (40, 1.54442608356475830000e+000) (41, 1.50808787345886230000e+000) (0, -1.98232606053352360000e-001) (1, -8.29567313194274900000e-002) (2, 7.80855178833007810000e-001) (3, 6.77660852670669560000e-002) (4, 1.43033087253570560000e+000) (5, 4.29845839738845830000e-001) (6, 8.43039751052856450000e-001) (7, 1.86847257614135740000e+000) (8, 1.55165314674377440000e+000) (9, 2.44661927223205570000e+000) (10, -9.38550829887390140000e-002) (11, 1.68699586391448970000e+000) (12, 1.22294139862060550000e+000) (13, 9.74930763244628910000e-001) (14, 2.48576688766479490000e+000) (15, 2.60915780067443850000e+000) (16, 2.51179742813110350000e+000) (17, 2.49254655838012700000e+000) (18, -1.70814716815948490000e+000) (19, 1.77754867076873780000e+000) (20, 2.73541498184204100000e+000) (21, -5.33576071262359620000e-001) (22, 1.55306851863861080000e+000) (23, 1.73583316802978520000e+000) (24, 1.17510080337524410000e+000) (25, -1.64893543720245360000e+000) (26, 2.35260963439941410000e+000) (27, -1.09881508350372310000e+000) (28, -5.98173856735229490000e-001) (29, 2.53127145767211910000e+000) (30, 5.28912782669067380000e-001) (31, 6.69432878494262700000e-001) (32, 1.41699182987213130000e+000) (33, -1.69965475797653200000e-001) (34, 3.11711490154266360000e-001) (35, 5.27891337871551510000e-001) (36, 1.68315219879150390000e+000) (37, 5.74747085571289060000e-001) (38, 1.41251906752586360000e-001) (39, 4.10591393709182740000e-001) (40, 1.92970287799835210000e+000) (41, 2.31452965736389160000e+000) (42, 1.73723801970481870000e-001) (0, -5.54708298295736310000e-003) (1, 1.07533976435661320000e-001) (2, 2.54106163978576660000e-001) (3, -1.42167925834655760000e-001) (4, 2.41121817380189900000e-002) (5, -2.07404777407646180000e-001) (6, 1.79251912049949170000e-003) (7, 1.50240221992135050000e-002) (8, 9.40464586019515990000e-002) (9, 1.18384078145027160000e-001) (10, -1.08617275953292850000e-001) (11, -2.82304473221302030000e-002) (12, -1.02270260453224180000e-001) (13, 2.12759207934141160000e-002) (14, 1.19514629244804380000e-001) (15, -1.33020326495170590000e-001) (16, 1.37693598866462710000e-001) (17, 2.59607732295989990000e-001) (18, -3.80739271640777590000e-002) (19, 1.86886355280876160000e-001) (20, 9.17966826818883420000e-004) (21, 1.00107766687870030000e-001) (22, -2.94813513755798340000e-002) (23, 1.53021842241287230000e-001) (24, 4.65242974460124970000e-002) (25, 2.94154044240713120000e-002) (26, -1.37754932045936580000e-001) (27, 2.92461067438125610000e-001) (28, -2.42270767688751220000e-001) (29, 2.42230311036109920000e-001) (30, 7.94287398457527160000e-003) (31, -1.33437141776084900000e-001) (32, 1.81781187653541560000e-001) (33, 2.79487788677215580000e-001) (34, -4.34489222243428230000e-003) (35, -2.49837145209312440000e-001) (36, -3.95102769136428830000e-001) (37, 1.46719679236412050000e-001) (38, -9.77578833699226380000e-002) (39, -2.03210890293121340000e-001) (40, -2.15143725275993350000e-001) (41, 3.11102658510208130000e-001) (42, 3.52601319551467900000e-001) (43, -1.97688546031713490000e-002) (0, 7.89514929056167600000e-002) (1, 1.14509150385856630000e-001) (2, 1.27881973981857300000e-001) (3, 1.09556891024112700000e-001) (4, -1.29152491688728330000e-001) (5, -2.89176404476165770000e-002) (6, 2.09948703646659850000e-001) (7, 8.43742117285728450000e-002) (8, 2.00298458337783810000e-001) (9, 5.75488246977329250000e-002) (10, -1.08186990022659300000e-001) (11, 2.93713629245758060000e-001) (12, 2.97368969768285750000e-002) (13, 4.14775907993316650000e-001) (14, 3.26586931943893430000e-001) (15, 2.32352867722511290000e-001) (16, 2.14712917804718020000e-001) (17, 2.52385735511779790000e-001) (18, -2.96021811664104460000e-003) (19, 2.42686420679092410000e-001) (20, 8.62079486250877380000e-002) (21, 1.89918175339698790000e-001) (22, 2.40920320153236390000e-001) (23, -1.08937196433544160000e-001) (24, 2.77830988168716430000e-001) (25, -1.45865455269813540000e-001) (26, 1.52736604213714600000e-002) (27, 7.37124457955360410000e-002) (28, 1.94943636655807500000e-001) (29, 4.80800308287143710000e-002) (30, 4.59253728389739990000e-001) (31, -3.39030288159847260000e-003) (32, -1.78957693278789520000e-002) (33, -2.76953816413879390000e-001) (34, 2.18403935432434080000e-002) (35, 1.08625791966915130000e-001) (36, -2.87967085838317870000e-001) (37, -4.75683845579624180000e-002) (38, -2.39911824464797970000e-001) (39, 9.31258872151374820000e-002) (40, 3.60091626644134520000e-001) (41, -2.03697588294744490000e-002) (42, -2.31959059834480290000e-001) (43, 1.21386498212814330000e-001) (0, -1.03373542428016660000e-001) (1, 3.68084371089935300000e-001) (2, 1.09004676342010500000e-001) (3, -7.67805427312850950000e-002) (4, 1.07744336128234860000e-001) (5, 1.39686569571495060000e-001) (6, -1.76076870411634450000e-002) (7, 2.92326360940933230000e-001) (8, 1.82624459266662600000e-001) (9, -1.58855598419904710000e-002) (10, 7.40470737218856810000e-002) (11, 9.80425477027893070000e-002) (12, 2.43557795882225040000e-001) (13, 1.44859328866004940000e-001) (14, 1.45894020795822140000e-001) (15, 3.92879396677017210000e-002) (16, 1.55677720904350280000e-001) (17, 2.26240962743759160000e-001) (18, 2.51269102096557620000e-001) (19, 1.25735640525817870000e-001) (20, 1.11417658627033230000e-001) (21, 5.46252448111772540000e-003) (22, 8.27375575900077820000e-002) (23, 1.01698942482471470000e-001) (24, 6.66810646653175350000e-002) (25, 2.56468877196311950000e-002) (26, 1.84825524687767030000e-001) (27, 7.95278325676918030000e-002) (28, 2.99544692039489750000e-001) (29, 1.96838360279798510000e-002) (30, 1.92743539810180660000e-002) (31, -3.61310355365276340000e-002) (32, 3.79463024437427520000e-002) (33, -2.02109932899475100000e-001) (34, -1.75006568431854250000e-001) (35, -2.87217646837234500000e-001) (36, 1.23329021036624910000e-001) (37, 3.34429830312728880000e-001) (38, 7.13338777422904970000e-002) (39, 9.79253724217414860000e-002) (40, 9.46125388145446780000e-002) (41, 4.93208229541778560000e-001) (42, -2.08950623869895940000e-001) (43, 1.16403453052043910000e-001) (0, 1.54699329286813740000e-002) (1, -1.97179868817329410000e-001) (2, -5.32737039029598240000e-002) (3, 2.99133006483316420000e-002) (4, 4.10589501261711120000e-002) (5, -1.78080588579177860000e-001) (6, -8.23087394237518310000e-002) (7, -7.59864747524261470000e-002) (8, -4.16032560169696810000e-002) (9, -1.07467040419578550000e-001) (10, 6.20766505599021910000e-002) (11, -4.53553721308708190000e-002) (12, -8.34908634424209590000e-002) (13, -1.20495468378067020000e-001) (14, -1.36984258890151980000e-001) (15, -5.76559789478778840000e-002) (16, -9.37335714697837830000e-002) (17, -3.12795154750347140000e-002) (18, -4.66428883373737340000e-002) (19, -2.27788798511028290000e-002) (20, -1.72023195773363110000e-002) (21, -9.35430079698562620000e-002) (22, -1.31845057010650630000e-001) (23, -6.37545213103294370000e-002) (24, -1.19571611285209660000e-002) (25, 1.50174275040626530000e-001) (26, 1.13471731543540950000e-001) (27, 5.18464520573616030000e-002) (28, -1.02506853640079500000e-001) (29, -4.24253158271312710000e-002) (30, -1.23246937990188600000e-001) (31, -1.35310292243957520000e-001) (32, -5.89794814586639400000e-002) (33, 6.83329701423645020000e-001) (34, 5.86168579757213590000e-002) (35, 2.20476046204566960000e-001) (36, 1.59283563494682310000e-001) (37, -2.72247791290283200000e-001) (38, -3.38754733093082900000e-003) (39, 1.93166747689247130000e-001) (40, 8.11711177229881290000e-002) (41, 1.71311050653457640000e-001) (42, 4.10207390785217290000e-001) (43, -1.23060099780559540000e-001) (0, 3.41141194105148320000e-001) (1, 1.52825921773910520000e-001) (2, 3.96570302546024320000e-002) (3, -9.72178205847740170000e-002) (4, 6.18081428110599520000e-002) (5, 1.55360832810401920000e-001) (6, 7.90297091007232670000e-002) (7, 1.47394046187400820000e-001) (8, 2.39615011960268020000e-002) (9, 2.39913880825042720000e-001) (10, 4.00173589587211610000e-002) (11, 1.83136060833930970000e-001) (12, 2.00774565339088440000e-001) (13, -1.21585123240947720000e-001) (14, -7.40205869078636170000e-002) (15, 1.72505214810371400000e-001) (16, 2.03071191906929020000e-001) (17, 1.02009892463684080000e-001) (18, -1.81297548115253450000e-002) (19, -1.01011898368597030000e-002) (20, 2.19217836856842040000e-001) (21, 1.33913382887840270000e-001) (22, 3.67645546793937680000e-002) (23, 2.03848078846931460000e-001) (24, 2.98961579799652100000e-001) (25, 7.34983757138252260000e-002) (26, 1.89075261354446410000e-001) (27, 1.97039127349853520000e-001) (28, 1.59172490239143370000e-001) (29, 3.29965382814407350000e-001) (30, 1.43202483654022220000e-001) (31, 4.42893971921876070000e-004) (32, 4.67796400189399720000e-002) (33, -4.19584214687347410000e-001) (34, 9.82664898037910460000e-003) (35, -9.71158742904663090000e-002) (36, 1.93416759371757510000e-001) (37, -9.54152550548315050000e-003) (38, 5.77463544905185700000e-002) (39, 3.61454159021377560000e-001) (40, -1.35223910212516780000e-001) (41, 1.29337191581726070000e-001) (42, -2.17617526650428770000e-002) (43, 3.59144657850265500000e-002) (0, -2.56572425365448000000e-001) (1, -4.59380298852920530000e-002) (2, -7.11090415716171260000e-002) (3, 1.38710448518395420000e-002) (4, 1.41112292185425760000e-002) (5, -9.04550775885581970000e-002) (6, -1.24697715044021610000e-001) (7, -1.04706780984997750000e-003) (8, 1.12620055675506590000e-001) (9, 1.51810482144355770000e-001) (10, 2.33783666044473650000e-002) (11, 6.90327957272529600000e-003) (12, -1.70827314257621770000e-001) (13, -1.60962060093879700000e-001) (14, -1.02540152147412300000e-002) (15, 1.33349478244781490000e-001) (16, -1.24065868556499480000e-001) (17, -1.48064032196998600000e-001) (18, -1.30537003278732300000e-001) (19, 9.68077629804611210000e-002) (20, 4.11647669970989230000e-002) (21, 6.99238479137420650000e-002) (22, 7.99853634089231490000e-003) (23, -1.45909205079078670000e-001) (24, 1.96702897548675540000e-001) (25, -1.34753167629241940000e-001) (26, -4.78518679738044740000e-002) (27, -1.10916309058666230000e-001) (28, 6.41985163092613220000e-002) (29, 7.35182762145996090000e-002) (30, 1.17801450192928310000e-001) (31, -1.30354523658752440000e-001) (32, -2.73707062005996700000e-001) (33, 5.67495763301849370000e-001) (34, -1.06346338987350460000e-001) (35, -6.09746575355529790000e-002) (36, -1.57342538237571720000e-001) (37, -2.53068149089813230000e-001) (38, 3.45660224556922910000e-002) (39, -1.84157602488994600000e-002) (40, -9.60532352328300480000e-002) (41, 2.14312717318534850000e-001) (42, -1.17252416908741000000e-001) (43, -3.29074971377849580000e-002) (0, 7.40948989987373350000e-002) (1, -3.06946504861116410000e-002) (2, 2.75687277317047120000e-001) (3, 1.77085641771554950000e-002) (4, -2.66451593488454820000e-002) (5, 3.37168663740158080000e-001) (6, 6.88795223832130430000e-002) (7, 1.55145168304443360000e-001) (8, 7.90029317140579220000e-002) (9, 1.92522257566452030000e-001) (10, 8.96487608551979060000e-002) (11, 1.20110988616943360000e-001) (12, 2.57427035830914970000e-003) (13, 3.58523845672607420000e-001) (14, 4.17275071144104000000e-001) (15, 2.01532825827598570000e-001) (16, 1.84768706560134890000e-001) (17, 2.45305210351943970000e-001) (18, 2.94588088989257810000e-001) (19, 9.62255746126174930000e-002) (20, 2.66491740942001340000e-001) (21, 1.54049441218376160000e-001) (22, 1.75923764705657960000e-001) (23, 3.64221066236495970000e-001) (24, 3.90549689531326290000e-001) (25, 3.77649903297424320000e-001) (26, 2.75789499282836910000e-001) (27, 7.58576914668083190000e-002) (28, 1.39085307717323300000e-001) (29, -8.36473479866981510000e-002) (30, 1.14263534545898440000e-001) (31, 3.07843565940856930000e-001) (32, 2.38598704338073730000e-001) (33, -7.08556532859802250000e-001) (34, -2.22249791026115420000e-001) (35, -1.27546742558479310000e-001) (36, -1.26376837491989140000e-001) (37, 5.09169958531856540000e-002) (38, -5.65466322004795070000e-002) (39, 4.42722626030445100000e-002) (40, -1.87261924147605900000e-001) (41, -1.72936290502548220000e-001) (42, -1.53158847242593770000e-002) (43, 8.93917828798294070000e-002) (0, 1.73214823007583620000e-001) (1, -2.11418300867080690000e-001) (2, -6.69824406504631040000e-002) (3, -2.16061025857925420000e-001) (4, 1.62106454372406010000e-001) (5, -2.54480279982090000000e-002) (6, 3.33301760256290440000e-002) (7, 1.23847156763076780000e-001) (8, 1.67691409587860110000e-002) (9, 5.79325594007968900000e-002) (10, 1.48358598351478580000e-001) (11, 1.23479187488555910000e-001) (12, 4.72488962113857270000e-002) (13, -8.68448428809642790000e-003) (14, 1.96250937879085540000e-002) (15, -3.55216152966022490000e-002) (16, -1.19943227618932720000e-002) (17, 9.22400802373886110000e-002) (18, -9.29840207099914550000e-002) (19, 2.20080390572547910000e-001) (20, -1.43900830298662190000e-002) (21, 1.09339810907840730000e-001) (22, -1.08765251934528350000e-002) (23, 1.60927727818489070000e-001) (24, -2.43932142853736880000e-001) (25, 6.48120939731597900000e-002) (26, -7.23401755094528200000e-002) (27, 1.09256707131862640000e-001) (28, -1.24205768108367920000e-001) (29, 6.50836452841758730000e-002) (30, -1.96686070412397380000e-002) (31, 1.54331237077713010000e-001) (32, -1.08628585934638980000e-001) (33, 3.15582185983657840000e-001) (34, 2.00200974941253660000e-001) (35, -3.60235720872879030000e-001) (36, 2.04410254955291750000e-002) (37, -1.95755839347839360000e-001) (38, -1.22809574007987980000e-001) (39, -1.52529589831829070000e-002) (40, 1.33382111787796020000e-001) (41, -1.44544988870620730000e-001) (42, -1.68802231550216670000e-001) (43, 3.23256924748420720000e-002) (0, 1.17697857320308690000e-001) (1, 2.50242769718170170000e-001) (2, 1.15197584033012390000e-001) (3, 3.52055430412292480000e-001) (4, 3.09487015008926390000e-001) (5, 1.28287643194198610000e-001) (6, 1.15780405700206760000e-001) (7, 7.03422203660011290000e-002) (8, -1.53617225587368010000e-002) (9, 2.16911509633064270000e-001) (10, 2.54546344280242920000e-001) (11, 6.27920627593994140000e-002) (12, 1.56642958521842960000e-001) (13, 3.48322749137878420000e-001) (14, 1.02237209677696230000e-001) (15, 2.49573126435279850000e-001) (16, 1.03739589452743530000e-001) (17, 2.62478977441787720000e-001) (18, 1.82196438312530520000e-001) (19, -2.86787431687116620000e-002) (20, 2.70845085382461550000e-001) (21, 1.15176089107990260000e-001) (22, 2.13169142603874210000e-001) (23, 2.14278385043144230000e-001) (24, -3.87767851352691650000e-002) (25, 2.00539678335189820000e-001) (26, 3.90713214874267580000e-002) (27, -1.06804515235126020000e-003) (28, 2.46802434325218200000e-001) (29, 7.39613026380538940000e-002) (30, -1.25052463263273240000e-002) (31, 2.71181195974349980000e-001) (32, 1.18631370365619660000e-001) (33, -6.14691793918609620000e-001) (34, 5.46561218798160550000e-002) (35, 3.20883333683013920000e-001) (36, -9.37324017286300660000e-002) (37, 1.52210339903831480000e-001) (38, -3.12165226787328720000e-002) (39, 4.41979914903640750000e-002) (40, -1.70330256223678590000e-001) (41, 1.97207316756248470000e-001) (42, 1.01813912391662600000e-001) (43, -1.08513701707124710000e-002) (0, 1.52307555079460140000e-001) (1, -1.26051558181643490000e-002) (2, 9.28991939872503280000e-003) (3, 2.09368377923965450000e-001) (4, 1.84855371713638310000e-001) (5, 5.11715933680534360000e-003) (6, 1.41236796975135800000e-001) (7, 1.66435241699218750000e-001) (8, 1.14602677524089810000e-001) (9, 3.20115871727466580000e-002) (10, 3.74882489442825320000e-001) (11, 6.77800849080085750000e-002) (12, 2.54614323377609250000e-001) (13, 1.24325200915336610000e-001) (14, 2.38207086920738220000e-001) (15, 3.80717545747756960000e-001) (16, 5.26492968201637270000e-002) (17, 6.97245076298713680000e-003) (18, 1.67401492595672610000e-001) (19, 7.31533244252204900000e-002) (20, 5.85533022880554200000e-001) (21, 3.22502255439758300000e-001) (22, 3.94024610519409180000e-001) (23, 1.94505989551544190000e-001) (24, 8.59207808971405030000e-002) (25, 1.05782754719257350000e-001) (26, 2.46283218264579770000e-001) (27, 1.95473581552505490000e-001) (28, 1.55045971274375920000e-001) (29, 1.02157779037952420000e-001) (30, 3.07953357696533200000e-001) (31, 2.79718816280364990000e-001) (32, 3.71622055768966670000e-001) (33, -7.00774252414703370000e-001) (34, -1.71141713857650760000e-001) (35, 1.40292048454284670000e-001) (36, 1.35718494653701780000e-001) (37, 1.38443946838378910000e-001) (38, -2.78032988309860230000e-001) (39, 1.10959969460964200000e-001) (40, -3.34920547902584080000e-002) (41, 8.50864723324775700000e-002) (42, -1.96617338806390760000e-002) (43, 7.25971311330795290000e-002) (0, 1.46108716726303100000e-001) (1, 2.03685127198696140000e-002) (2, 2.29959651827812190000e-001) (3, 1.68595254421234130000e-001) (4, 3.74176800251007080000e-002) (5, -7.96318650245666500000e-002) (6, -6.05858042836189270000e-002) (7, 4.60625290870666500000e-002) (8, -6.69826939702034000000e-002) (9, 2.86119610071182250000e-001) (10, 1.03417828679084780000e-001) (11, 1.42588630318641660000e-001) (12, -3.24560590088367460000e-002) (13, -1.38460434973239900000e-002) (14, -3.92307937145233150000e-002) (15, 2.64496076852083210000e-003) (16, -5.23264408111572270000e-002) (17, 8.08521360158920290000e-002) (18, 1.73947259783744810000e-001) (19, 8.28935354948043820000e-002) (20, 6.72219246625900270000e-002) (21, 1.43182769417762760000e-001) (22, 7.60461241006851200000e-002) (23, 1.07913464307785030000e-002) (24, 5.20660541951656340000e-002) (25, 5.93901388347148900000e-002) (26, -5.29135093092918400000e-002) (27, 2.20802985131740570000e-002) (28, 2.65043348073959350000e-001) (29, -3.79937216639518740000e-002) (30, -2.53654848784208300000e-002) (31, 3.01429070532321930000e-002) (32, 7.11090713739395140000e-002) (33, -3.49264517426490780000e-002) (34, -1.15295603871345520000e-001) (35, 9.41360816359519960000e-002) (36, -1.33228972554206850000e-001) (37, 1.05927020311355590000e-001) (38, -1.10160876065492630000e-002) (39, -7.71302208304405210000e-002) (40, -2.46948227286338810000e-001) (41, -2.19195634126663210000e-001) (42, 1.31299763917922970000e-001) (43, 7.88957178592681880000e-002) (0, 2.42665894329547880000e-002) (1, 2.60889947414398190000e-001) (2, 1.23263351619243620000e-001) (3, 4.11810785531997680000e-001) (4, 8.29707160592079160000e-002) (5, 2.77825891971588130000e-001) (6, 5.88991716504096980000e-002) (7, 7.12039098143577580000e-002) (8, 4.18246269226074220000e-001) (9, -9.05535966157913210000e-002) (10, 2.46112480759620670000e-001) (11, -1.00871790200471880000e-002) (12, 2.13054269552230830000e-001) (13, 1.02560743689537050000e-002) (14, 3.20119321346282960000e-001) (15, 1.64331570267677310000e-001) (16, 3.48802246153354640000e-002) (17, 1.49736791849136350000e-001) (18, -1.48345395922660830000e-001) (19, 1.05957128107547760000e-001) (20, 1.41005173325538640000e-001) (21, -1.00202850997447970000e-001) (22, -5.89435510337352750000e-002) (23, 1.99660211801528930000e-001) (24, 1.17209814488887790000e-001) (25, 8.89268442988395690000e-002) (26, 2.13506165891885760000e-003) (27, 3.05723160505294800000e-001) (28, 1.22108682990074160000e-001) (29, 6.51137977838516240000e-002) (30, 1.39766111969947810000e-001) (31, 1.97334110736846920000e-001) (32, 2.98740446567535400000e-001) (33, -3.80763769149780270000e-001) (34, 2.87731643766164780000e-002) (35, -7.60259926319122310000e-002) (36, -1.60496443510055540000e-001) (37, -8.73431190848350520000e-002) (38, -2.47519820928573610000e-001) (39, 8.20956751704216000000e-003) (40, -3.84053736925125120000e-001) (41, -3.97182591259479520000e-002) (42, -2.07289159297943120000e-002) (43, 1.52264349162578580000e-002) (0, -5.23079484701156620000e-002) (1, -1.39103801921010020000e-002) (2, -3.86121273040771480000e-002) (3, -3.39685469865798950000e-001) (4, -8.09282809495925900000e-002) (5, 8.49759653210639950000e-002) (6, 4.97992336750030520000e-002) (7, 2.68744140863418580000e-001) (8, -7.71419033408164980000e-002) (9, 2.98907101154327390000e-001) (10, 4.72254827618598940000e-002) (11, -4.94142323732376100000e-002) (12, 2.09774196147918700000e-001) (13, 7.43972435593605040000e-002) (14, 2.85758934915065770000e-002) (15, -1.05071380734443660000e-001) (16, 2.03184947371482850000e-001) (17, -1.88700363039970400000e-001) (18, 8.69234185665845870000e-003) (19, -6.84697404503822330000e-002) (20, 1.04363404214382170000e-001) (21, 8.22242274880409240000e-002) (22, 1.95253863930702210000e-002) (23, 2.78447479009628300000e-001) (24, -1.42206117510795590000e-001) (25, 1.02430775761604310000e-001) (26, 8.51431414484977720000e-002) (27, -7.92127773165702820000e-002) (28, 2.20342919230461120000e-001) (29, 7.15790223330259320000e-003) (30, 7.53587484359741210000e-002) (31, -6.13982453942298890000e-002) (32, -1.48420125246047970000e-001) (33, 2.82910943031311040000e-001) (34, 7.55157768726348880000e-002) (35, -2.02181145548820500000e-001) (36, 4.03817534446716310000e-001) (37, 5.35267591476440430000e-002) (38, -1.46510660648345950000e-001) (39, 1.03312559425830840000e-001) (40, -5.77775351703166960000e-002) (41, -1.25882938504219060000e-001) (42, 6.68929517269134520000e-002) (43, 1.01409666240215300000e-001) (0, -1.27473637461662290000e-001) (1, 8.20744261145591740000e-002) (2, 3.87652039527893070000e-001) (3, 1.12058967351913450000e-001) (4, 7.87559300661087040000e-002) (5, 8.19665938615798950000e-002) (6, -8.03344696760177610000e-002) (7, 5.43003343045711520000e-002) (8, 1.35734543204307560000e-001) (9, 1.85064136981964110000e-001) (10, 2.33815088868141170000e-001) (11, 2.71191686391830440000e-001) (12, 6.26658424735069270000e-002) (13, 1.11657828092575070000e-001) (14, -6.20078481733798980000e-002) (15, 8.34658741950988770000e-002) (16, 1.94060385227203370000e-001) (17, 1.52751579880714420000e-001) (18, 5.13370558619499210000e-002) (19, -1.25200882554054260000e-001) (20, -1.54472127556800840000e-001) (21, 3.15041899681091310000e-001) (22, 3.54725450277328490000e-001) (23, 1.19220703840255740000e-001) (24, 7.48950168490409850000e-002) (25, -7.79821425676345830000e-002) (26, -1.28048762679100040000e-001) (27, 1.97902113199234010000e-001) (28, 2.43113309144973750000e-001) (29, 3.10493130236864090000e-002) (30, 2.78879493474960330000e-001) (31, -1.03100270032882690000e-001) (32, 4.43209074437618260000e-002) (33, -1.81473806500434880000e-001) (34, 1.39316335320472720000e-001) (35, -6.60060867667198180000e-002) (36, -1.43615081906318660000e-001) (37, -2.67028838396072390000e-001) (38, 2.85486668348312380000e-001) (39, 1.05351060628890990000e-001) (40, -4.43728938698768620000e-002) (41, -1.05599813163280490000e-001) (42, -2.12980285286903380000e-001) (43, 1.91783621907234190000e-001) (0, 1.80904418230056760000e-001) (1, 1.81779384613037110000e-001) (2, -1.72802463173866270000e-001) (3, 1.24919757246971130000e-001) (4, 2.18185007572174070000e-001) (5, 1.31716355681419370000e-001) (6, -1.97591230273246770000e-001) (7, 1.52079090476036070000e-001) (8, 1.81245371699333190000e-001) (9, -5.63772246241569520000e-002) (10, -1.63400903344154360000e-001) (11, -6.60217925906181340000e-002) (12, -7.81997442245483400000e-002) (13, -2.00649470090866090000e-001) (14, -9.27584841847419740000e-002) (15, 1.13404393196105960000e-001) (16, 2.42134481668472290000e-002) (17, 1.10710866749286650000e-001) (18, 5.58460541069507600000e-002) (19, 1.36176450178027150000e-002) (20, 1.28274723887443540000e-001) (21, 9.39935594797134400000e-002) (22, -7.55892544984817500000e-002) (23, 1.18667475879192350000e-001) (24, 6.91347941756248470000e-002) (25, 7.39791244268417360000e-002) (26, -7.72892162203788760000e-002) (27, 5.33289052546024320000e-002) (28, 1.00766137242317200000e-001) (29, 1.13306440412998200000e-001) (30, 6.89611136913299560000e-002) (31, 1.64911761879920960000e-001) (32, -1.72730181366205220000e-002) (33, 4.66082617640495300000e-002) (34, -3.13820801675319670000e-002) (35, -1.80903539061546330000e-001) (36, 9.88872200250625610000e-002) (37, -2.34585821628570560000e-001) (38, -1.58807963132858280000e-001) (39, 1.49978518486022950000e-001) (40, -5.24006560444831850000e-002) (41, 2.37439814954996110000e-002) (42, -6.35397657752037050000e-002) (43, -1.52169734239578250000e-001) (0, 2.17849668115377430000e-002) (1, 1.29009366035461430000e-001) (2, 3.20774853229522710000e-001) (3, -7.17617338523268700000e-003) (4, 1.73246413469314580000e-001) (5, 2.63331681489944460000e-001) (6, 2.35170185565948490000e-001) (7, 6.94763734936714170000e-002) (8, 3.26659232378005980000e-002) (9, -1.19635798037052150000e-002) (10, 9.00741964578628540000e-002) (11, 8.12823995947837830000e-002) (12, 2.59835310280323030000e-002) (13, 2.84703165292739870000e-001) (14, 2.63050734996795650000e-001) (15, 1.03320561349391940000e-001) (16, -2.78032068163156510000e-002) (17, 2.04320922493934630000e-001) (18, 1.40313670039176940000e-001) (19, -2.03653618693351750000e-001) (20, 8.31916406750679020000e-002) (21, 3.93121451139450070000e-001) (22, 1.65753823239356280000e-003) (23, 1.64156675338745120000e-001) (24, 2.35831677913665770000e-001) (25, 2.07856118679046630000e-001) (26, 2.52877771854400630000e-001) (27, 6.34278953075408940000e-002) (28, 1.34093269705772400000e-001) (29, -4.92239790037274360000e-003) (30, 1.40039101243019100000e-001) (31, -4.11452129483222960000e-002) (32, 2.74884738028049470000e-002) (33, -3.44304621219635010000e-001) (34, 1.79488673806190490000e-001) (35, -5.83917787298560140000e-003) (36, -1.03371843695640560000e-001) (37, 1.73821613192558290000e-001) (38, 1.57653793692588810000e-001) (39, -1.03404767811298370000e-001) (40, 8.45986753702163700000e-002) (41, 9.66441705822944640000e-002) (42, 3.49706150591373440000e-002) (43, -3.03782850503921510000e-001) (0, 1.06718637049198150000e-001) (1, 1.94885298609733580000e-001) (2, 1.73420667648315430000e-001) (3, 1.51144657284021380000e-002) (4, 1.61990940570831300000e-001) (5, 1.65521785616874690000e-001) (6, 2.58991774171590810000e-002) (7, 8.46282690763473510000e-002) (8, 1.22903235256671910000e-001) (9, -7.15647265315055850000e-002) (10, 1.93151667714118960000e-001) (11, 1.93889081478118900000e-001) (12, 1.30583092570304870000e-001) (13, 1.58132746815681460000e-001) (14, -2.97908615320920940000e-002) (15, 3.06204289197921750000e-001) (16, 3.73788066208362580000e-002) (17, 3.23221124708652500000e-002) (18, 9.47828888893127440000e-002) (19, 7.58168473839759830000e-002) (20, -4.28488440811634060000e-002) (21, -8.34090337157249450000e-002) (22, 6.78877830505371090000e-002) (23, 9.26458612084388730000e-002) (24, 4.29279953241348270000e-002) (25, 1.25974893569946290000e-001) (26, 8.32849815487861630000e-002) (27, 2.14584603905677800000e-001) (28, 5.20282685756683350000e-002) (29, 9.87210124731063840000e-002) (30, 2.69970417022705080000e-001) (31, 1.80126234889030460000e-001) (32, 1.39371111989021300000e-001) (33, -2.26987555623054500000e-001) (34, 3.83054822683334350000e-001) (35, 1.98176369071006770000e-001) (36, -1.04476541280746460000e-001) (37, 2.02744185924530030000e-001) (38, 2.96449422836303710000e-001) (39, 4.22599278390407560000e-002) (40, -1.97431325912475590000e-001) (41, -4.40832879394292830000e-003) (42, 1.04463122785091400000e-001) (43, -3.04435491561889650000e-001) (0, 4.13171947002410890000e-001) (1, 2.39528357982635500000e-001) (2, -1.57291367650032040000e-001) (3, 1.32510587573051450000e-001) (4, 2.24479511380195620000e-002) (5, 1.98834449052810670000e-001) (6, 3.17126929759979250000e-001) (7, 1.31939202547073360000e-001) (8, 1.24480977654457090000e-001) (9, 4.81563284993171690000e-002) (10, 5.39388805627822880000e-002) (11, 1.60786017775535580000e-001) (12, 1.56312242150306700000e-001) (13, -2.64309998601675030000e-002) (14, 7.00691118836402890000e-002) (15, 1.23026676476001740000e-001) (16, 1.98703661561012270000e-001) (17, 8.15875902771949770000e-002) (18, 8.51944610476493840000e-002) (19, 4.21021819114685060000e-001) (20, -1.59840530250221490000e-003) (21, 1.19916513562202450000e-001) (22, 2.62198507785797120000e-001) (23, 4.06044930219650270000e-001) (24, 2.45084866881370540000e-001) (25, 2.34126299619674680000e-001) (26, 1.89316093921661380000e-001) (27, 2.24817454814910890000e-001) (28, 1.39380032196640970000e-002) (29, 1.41574606299400330000e-001) (30, 1.01332403719425200000e-002) (31, -6.98447003960609440000e-002) (32, 9.67537239193916320000e-002) (33, -4.89298850297927860000e-001) (34, 1.08205936849117280000e-001) (35, -8.92461016774177550000e-002) (36, 1.62259656935930250000e-002) (37, 2.16141685843467710000e-001) (38, -2.41237610578536990000e-001) (39, -1.94282650947570800000e-001) (40, -7.68609941005706790000e-002) (41, -1.86820607632398610000e-002) (42, -1.48337319493293760000e-001) (43, -1.26559972763061520000e-001) (0, 1.49235978722572330000e-001) (1, -1.72423332929611210000e-001) (2, -6.32588267326354980000e-002) (3, 2.54330158233642580000e-001) (4, -7.14087337255477910000e-002) (5, -3.71380150318145750000e-002) (6, 1.73590168356895450000e-001) (7, 3.01330024376511570000e-003) (8, -3.53474430739879610000e-002) (9, -1.15198381245136260000e-002) (10, 3.11881164088845250000e-003) (11, -1.01502072066068650000e-002) (12, 1.23697817325592040000e-001) (13, -1.04175291955471040000e-001) (14, 2.32491502538323400000e-003) (15, -1.30983337759971620000e-001) (16, 1.53415286913514140000e-002) (17, -7.40834847092628480000e-002) (18, 4.88066114485263820000e-002) (19, -1.77507996559143070000e-002) (20, -6.80581247434020040000e-003) (21, -1.00764341652393340000e-001) (22, 8.40348228812217710000e-002) (23, -4.21991832554340360000e-002) (24, 3.98959070444107060000e-002) (25, -1.77504554390907290000e-001) (26, 1.28395900130271910000e-001) (27, -1.40943810343742370000e-001) (28, -1.01833164691925050000e-001) (29, 6.11546412110328670000e-002) (30, 1.38361100107431410000e-002) (31, 3.60383123159408570000e-001) (32, -1.77649512887001040000e-001) (33, 3.62992942333221440000e-001) (34, 2.16027498245239260000e-001) (35, 8.93254131078720090000e-002) (36, 1.25948980450630190000e-001) (37, 7.49467387795448300000e-002) (38, 3.45536693930625920000e-003) (39, 2.10736125707626340000e-001) (40, 9.33207273483276370000e-002) (41, 3.20493951439857480000e-002) (42, 4.07190710306167600000e-001) (43, 1.45841330289840700000e-001) (0, 2.76876240968704220000e-001) (1, -6.73461407423019410000e-002) (2, 1.30951423197984700000e-002) (3, 2.56692677736282350000e-001) (4, 1.39928758144378660000e-001) (5, 9.29771289229393010000e-002) (6, -5.12510277330875400000e-002) (7, 1.91680133342742920000e-001) (8, -9.29258391261100770000e-002) (9, 2.25007999688386920000e-003) (10, -5.95405325293540950000e-002) (11, 1.86665102839469910000e-001) (12, 2.54798054695129390000e-001) (13, 1.84398353099823000000e-001) (14, 4.83687855303287510000e-002) (15, 1.92574858665466310000e-002) (16, 1.01580899208784100000e-002) (17, -2.97809299081563950000e-002) (18, 2.31406405568122860000e-001) (19, 2.10143044590950010000e-001) (20, 1.37847781181335450000e-001) (21, 3.70335485786199570000e-003) (22, 2.81351804733276370000e-001) (23, -1.81872639805078510000e-002) (24, 1.52597978711128230000e-001) (25, 2.22071245312690730000e-001) (26, 4.92166653275489810000e-002) (27, -2.20809224992990490000e-002) (28, 1.76474705338478090000e-001) (29, 1.62192344665527340000e-001) (30, 2.64491379261016850000e-001) (31, 3.45180146396160130000e-002) (32, 1.92621592432260510000e-002) (33, -3.12654167413711550000e-001) (34, -2.22734674811363220000e-001) (35, 1.24342247843742370000e-001) (36, 1.02436855435371400000e-001) (37, 1.29112705588340760000e-001) (38, 3.06830465793609620000e-001) (39, 1.12014159560203550000e-001) (40, 1.63587316870689390000e-001) (41, -2.96376384794712070000e-002) (42, 2.19866610132157800000e-003) (43, 1.01444264873862270000e-002) (0, 1.60054609179496770000e-001) (1, 2.44188994169235230000e-001) (2, -2.88140214979648590000e-003) (3, 1.24814175069332120000e-001) (4, 1.28412852063775060000e-002) (5, 8.91583710908889770000e-002) (6, 3.81268888711929320000e-001) (7, 8.27310830354690550000e-002) (8, 1.68432563543319700000e-001) (9, 1.94782540202140810000e-001) (10, 1.69372394680976870000e-001) (11, 2.05729633569717410000e-001) (12, 4.20739799737930300000e-001) (13, 1.80943310260772710000e-001) (14, -5.15855811536312100000e-002) (15, 1.10171250998973850000e-001) (16, 3.21644917130470280000e-002) (17, 8.52658227086067200000e-002) (18, 2.19547718763351440000e-001) (19, -7.61776790022850040000e-002) (20, 2.36046001315116880000e-001) (21, -4.16671186685562130000e-002) (22, 1.21925817802548410000e-002) (23, -1.36480117216706280000e-002) (24, 3.49350981414318080000e-002) (25, 1.38399586081504820000e-001) (26, 1.22219495475292210000e-001) (27, 2.04517140984535220000e-001) (28, 4.52546253800392150000e-002) (29, -2.06840988248586650000e-002) (30, 1.16788424551486970000e-001) (31, 2.82862871885299680000e-001) (32, 2.33740329742431640000e-001) (33, -3.86800140142440800000e-001) (34, -1.70809164643287660000e-001) (35, 1.99214294552803040000e-001) (36, -5.80269955098629000000e-002) (37, 1.21207945048809050000e-001) (38, 1.13107580691576000000e-002) (39, 4.45431619882583620000e-002) (40, -1.43730878829956050000e-001) (41, 2.88243126124143600000e-002) (42, -5.30978217720985410000e-002) (43, 2.38496109843254090000e-001) (0, 4.29032817482948300000e-002) (1, -7.89833739399909970000e-002) (2, 6.64686411619186400000e-002) (3, 3.51299569010734560000e-002) (4, -2.32402160763740540000e-002) (5, 1.50169193744659420000e-001) (6, -2.64441743493080140000e-002) (7, 6.19439594447612760000e-002) (8, -4.27433662116527560000e-002) (9, -1.01702950894832610000e-001) (10, 7.76936262845993040000e-002) (11, -2.34353281557559970000e-002) (12, -8.95889401435852050000e-002) (13, -1.62953779101371770000e-001) (14, -7.36664384603500370000e-002) (15, -4.08179759979248050000e-001) (16, 1.27508148550987240000e-001) (17, 1.93752124905586240000e-002) (18, -1.44545435905456540000e-001) (19, 3.72635025996714830000e-004) (20, -1.20782800018787380000e-001) (21, -1.45382910966873170000e-001) (22, -2.17597812414169310000e-001) (23, -2.50570893287658690000e-001) (24, -2.28434562683105470000e-001) (25, 1.80824264883995060000e-001) (26, 8.86649563908576970000e-002) (27, -4.05046977102756500000e-002) (28, 2.65251677483320240000e-002) (29, -4.55233566462993620000e-002) (30, -1.05699270963668820000e-001) (31, -1.05658426880836490000e-001) (32, -2.13463947176933290000e-001) (33, 6.70238375663757320000e-001) (34, -1.98302432894706730000e-001) (35, 6.07531964778900150000e-002) (36, -1.21160194277763370000e-001) (37, -1.79758638143539430000e-001) (38, 2.95207947492599490000e-001) (39, 9.15139913558959960000e-002) (40, 1.86543419957160950000e-001) (41, 9.68175530433654790000e-002) (42, -1.33610606193542480000e-001) (43, -9.81821194291114810000e-002) (0, -6.35107979178428650000e-002) (1, 8.02552793174982070000e-003) (2, 4.13094498217105870000e-002) (3, -4.49451841413974760000e-002) (4, -2.00009301304817200000e-001) (5, -5.45074529945850370000e-002) (6, 5.81041239202022550000e-002) (7, -1.40070868656039240000e-002) (8, -1.80902108550071720000e-001) (9, 1.75519943237304690000e-001) (10, -6.33053258061409000000e-002) (11, 2.68163774162530900000e-002) (12, 8.77338200807571410000e-002) (13, 2.57966905832290650000e-001) (14, -1.02719075977802280000e-001) (15, -9.12596210837364200000e-002) (16, 2.10832551121711730000e-001) (17, -1.18203394114971160000e-001) (18, -2.26182088255882260000e-001) (19, 8.21372866630554200000e-002) (20, -6.61658868193626400000e-002) (21, 9.37328934669494630000e-002) (22, -9.68583151698112490000e-002) (23, -2.52960085868835450000e-001) (24, 2.10435464978218080000e-002) (25, -2.92683411389589310000e-002) (26, 8.03151801228523250000e-002) (27, -1.43175542354583740000e-001) (28, -7.78468027710914610000e-002) (29, 9.85091775655746460000e-002) (30, -1.90067559480667110000e-001) (31, -6.16856068372726440000e-002) (32, 2.46284380555152890000e-002) (33, 5.19209444522857670000e-001) (34, -2.48494789004325870000e-001) (35, 2.45407433249056340000e-003) (36, 3.27516905963420870000e-002) (37, -1.98483821004629140000e-002) (38, -1.47631451487541200000e-001) (39, -1.70187190175056460000e-001) (40, -2.81042568385601040000e-002) (41, -1.81815624237060550000e-001) (42, 1.06516696512699130000e-001) (43, 8.44885036349296570000e-003) (0, 2.83142536878585820000e-001) (1, -5.13209737837314610000e-002) (2, 2.29015424847602840000e-001) (3, 7.14278072118759160000e-002) (4, -3.10954339802265170000e-002) (5, 6.93428665399551390000e-002) (6, 1.58588200807571410000e-001) (7, 4.98083001002669330000e-003) (8, 1.17595016956329350000e-001) (9, 3.55474859476089480000e-001) (10, -6.60806000232696530000e-002) (11, 1.64582759141922000000e-001) (12, 1.63583606481552120000e-001) (13, 5.79793229699134830000e-002) (14, 5.67012012004852290000e-001) (15, 8.74503236263990400000e-003) (16, 3.11709910631179810000e-001) (17, 2.44154423475265500000e-001) (18, 4.47121620178222660000e-001) (19, 4.39686775207519530000e-001) (20, -1.08383566141128540000e-001) (21, 7.33866244554519650000e-002) (22, 1.11401446163654330000e-001) (23, 1.46454289555549620000e-001) (24, 3.02452892065048220000e-001) (25, -3.14010158181190490000e-002) (26, -1.40679031610488890000e-002) (27, 1.50658097118139270000e-002) (28, 1.59426510334014890000e-001) (29, 2.02877237461507320000e-003) (30, 1.84923931956291200000e-001) (31, 1.92130148410797120000e-001) (32, 2.52603232860565190000e-001) (33, -4.50790464878082280000e-001) (34, -1.64697900414466860000e-001) (35, 1.04814819991588590000e-001) (36, -1.03558257222175600000e-001) (37, 2.58000344038009640000e-001) (38, -5.77999278903007510000e-002) (39, 1.38355001807212830000e-001) (40, 1.86100393533706670000e-001) (41, -1.56330719590187070000e-001) (42, 4.67349961400032040000e-002) (43, -2.12711006402969360000e-001) (0, -5.25485798716545100000e-002) (1, 6.13495819270610810000e-002) (2, 1.03824920952320100000e-001) (3, -1.92444212734699250000e-002) (4, 3.28170359134674070000e-001) (5, 7.55584836006164550000e-002) (6, 2.57889896631240840000e-001) (7, 1.94806084036827090000e-001) (8, 1.30593711510300640000e-002) (9, 1.61932244896888730000e-001) (10, 1.76241099834442140000e-001) (11, 3.50452065467834470000e-002) (12, -3.09366192668676380000e-002) (13, 5.42773418128490450000e-002) (14, 2.29439465329051020000e-003) (15, 1.93392455577850340000e-001) (16, 2.04335808753967290000e-001) (17, 8.83584171533584590000e-002) (18, -3.77376079559326170000e-002) (19, 6.92541822791099550000e-002) (20, 1.32790639996528630000e-001) (21, 5.63290268182754520000e-002) (22, 1.36771485209465030000e-001) (23, 2.08498209714889530000e-001) (24, 1.43543183803558350000e-001) (25, -6.59814924001693730000e-002) (26, -9.42139327526092530000e-002) (27, 2.50457853078842160000e-001) (28, 1.90508052706718440000e-001) (29, 2.22041323781013490000e-001) (30, 1.67649790644645690000e-001) (31, 1.12190283834934230000e-001) (32, -2.59329266846179960000e-002) (33, -1.53599649667739870000e-001) (34, 2.86296367645263670000e-001) (35, -5.42796887457370760000e-002) (36, -4.20286171138286590000e-002) (37, -1.96943983435630800000e-001) (38, 1.38428464531898500000e-001) (39, 4.63443808257579800000e-002) (40, 1.22128657996654510000e-001) (41, -5.01614548265933990000e-002) (42, 1.17339015007019040000e-001) (43, 3.41878980398178100000e-001) (0, 1.91362082958221440000e-001) (1, 1.40436038374900820000e-001) (2, -6.51742368936538700000e-002) (3, 2.51311838626861570000e-001) (4, -5.36144115030765530000e-002) (5, 1.79674148559570310000e-001) (6, 4.06457483768463130000e-002) (7, -7.98122510313987730000e-002) (8, 1.22517999261617660000e-002) (9, 2.07115858793258670000e-001) (10, -1.42642289400100710000e-001) (11, -1.55476946383714680000e-002) (12, 1.25163123011589050000e-001) (13, -1.23226828873157500000e-003) (14, -6.13915314897894860000e-003) (15, 1.88988462090492250000e-001) (16, 2.82985828816890720000e-002) (17, -2.96711325645446780000e-002) (18, 2.33887001872062680000e-001) (19, -3.53609263896942140000e-001) (20, 2.79480338096618650000e-001) (21, 2.56129115819931030000e-001) (22, 2.17062726616859440000e-001) (23, -2.62459404766559600000e-002) (24, -1.13587506115436550000e-001) (25, -1.38287926092743870000e-002) (26, 1.96591421961784360000e-001) (27, -2.98788249492645260000e-001) (28, -8.43092352151870730000e-002) (29, 1.70531049370765690000e-001) (30, 9.49689671397209170000e-002) (31, 1.23865731060504910000e-001) (32, 2.09909841418266300000e-001) (33, 9.75954532623291020000e-002) (34, -4.01869080960750580000e-002) (35, 2.43053868412971500000e-001) (36, 3.14494520425796510000e-001) (37, -2.29547098278999330000e-001) (38, -4.35831956565380100000e-002) (39, 6.83942958712577820000e-002) (40, -5.65279796719551090000e-002) (41, 1.28957936540246010000e-002) (42, -3.56253892183303830000e-001) (43, -3.55468034744262700000e-001) (0, 6.92055150866508480000e-002) (1, 4.36643399298191070000e-002) (2, 9.40018594264984130000e-002) (3, 5.67266047000885010000e-002) (4, 4.16320525109767910000e-002) (5, 8.14803913235664370000e-002) (6, 2.01938077807426450000e-001) (7, 6.34386315941810610000e-002) (8, 1.21167369186878200000e-001) (9, -1.71061605215072630000e-002) (10, 4.02277894318103790000e-002) (11, -1.96726351976394650000e-001) (12, 1.35288372635841370000e-001) (13, 2.68994659185409550000e-001) (14, 8.24554637074470520000e-003) (15, -1.70336470007896420000e-001) (16, 6.95523479953408240000e-003) (17, 1.87676429748535160000e-001) (18, -1.22053585946559910000e-002) (19, 8.55612158775329590000e-002) (20, -2.07523629069328310000e-001) (21, 1.23550996184349060000e-001) (22, 1.52771472930908200000e-001) (23, 3.64554412662982940000e-002) (24, -3.75152491033077240000e-002) (25, 5.51134496927261350000e-002) (26, 1.85316428542137150000e-001) (27, 1.42166130244731900000e-002) (28, 2.39074274897575380000e-001) (29, 3.19055020809173580000e-001) (30, 8.33230465650558470000e-003) (31, 2.41954058408737180000e-001) (32, 4.22625541687011720000e-001) (33, -9.38427150249481200000e-002) (34, -2.43106529116630550000e-001) (35, -2.02378332614898680000e-001) (36, 1.95309281349182130000e-001) (37, 1.20963700115680690000e-001) (38, 1.08315840363502500000e-001) (39, -3.92680585384368900000e-001) (40, 1.17463096976280210000e-001) (41, -1.09982207417488100000e-001) (42, -2.98486696556210520000e-003) (43, 6.60112649202346800000e-002) (0, 2.95232564210891720000e-001) (1, 1.73848882317543030000e-001) (2, 2.96641111373901370000e-001) (3, -7.83849880099296570000e-002) (4, 1.01522222161293030000e-001) (5, 3.21348935365676880000e-001) (6, 2.55327016115188600000e-001) (7, -3.39662283658981320000e-002) (8, 2.02231511473655700000e-001) (9, 1.08281604945659640000e-001) (10, 2.64024198055267330000e-001) (11, 1.11720293760299680000e-001) (12, -4.22594100236892700000e-002) (13, 1.60260155797004700000e-001) (14, -1.55257601290941240000e-002) (15, 1.70449510216712950000e-001) (16, 2.01150365173816680000e-002) (17, 1.04361757636070250000e-001) (18, 5.18957301974296570000e-002) (19, 2.03091576695442200000e-001) (20, 1.12276025116443630000e-001) (21, -1.33928343653678890000e-001) (22, -9.52513143420219420000e-002) (23, 9.12242829799652100000e-002) (24, 1.78365305066108700000e-001) (25, 1.16273902356624600000e-001) (26, 1.75754904747009280000e-001) (27, 3.28233689069747920000e-001) (28, -5.51148615777492520000e-002) (29, 1.18581622838974000000e-001) (30, -1.44664809107780460000e-001) (31, -9.76651906967163090000e-002) (32, 1.45591676235198970000e-001) (33, -2.94997900724411010000e-001) (34, 1.51914414018392560000e-002) (35, -5.66529743373394010000e-002) (36, 1.29939302802085880000e-001) (37, -1.68187767267227170000e-001) (38, -6.56672194600105290000e-002) (39, -2.55331173539161680000e-002) (40, 1.10138013958930970000e-001) (41, -1.10167283564805980000e-002) (42, 1.67435631155967710000e-001) (43, -5.72989396750926970000e-002) (0, -1.01087652146816250000e-001) (1, 1.06990732252597810000e-001) (2, 4.31606452912092210000e-003) (3, 1.35256856679916380000e-001) (4, 2.10139647126197810000e-001) (5, 5.28825297951698300000e-002) (6, 2.32051312923431400000e-001) (7, 2.05296725034713750000e-001) (8, 2.00415432453155520000e-001) (9, -1.88464626669883730000e-001) (10, 2.64270037412643430000e-001) (11, 1.21674694120883940000e-001) (12, 6.95352558977901940000e-004) (13, -2.30359241366386410000e-001) (14, 9.10852998495101930000e-002) (15, 1.19661308825016020000e-001) (16, -2.02692039310932160000e-002) (17, 1.41522258520126340000e-001) (18, 2.10615143179893490000e-001) (19, 8.80165845155715940000e-002) (20, 1.69333502650260930000e-001) (21, 1.04374177753925320000e-002) (22, -3.35876010358333590000e-002) (23, 9.84699949622154240000e-002) (24, 9.99346897006034850000e-002) (25, 1.64825227111577990000e-002) (26, 2.02037736773490910000e-001) (27, -9.74998697638511660000e-002) (28, 3.23193185031414030000e-002) (29, -9.25834253430366520000e-002) (30, -6.18598749861121180000e-003) (31, 4.64474558830261230000e-002) (32, -3.80746908485889430000e-002) (33, -1.69916525483131410000e-002) (34, 1.53795257210731510000e-001) (35, 1.46452754735946660000e-001) (36, -4.14588786661624910000e-002) (37, 6.36510029435157780000e-002) (38, -4.77777682244777680000e-002) (39, -1.14928402006626130000e-001) (40, 3.08392196893692020000e-001) (41, 1.26715581864118580000e-002) (42, -6.83462023735046390000e-002) (43, -2.98592627048492430000e-001) (0, 1.06371119618415830000e-001) (1, 1.43254995346069340000e-001) (2, -2.35784098505973820000e-001) (3, -5.61275519430637360000e-002) (4, 1.95836558938026430000e-001) (5, 1.19807742536067960000e-001) (6, -5.30138686299324040000e-002) (7, 6.36658370494842530000e-002) (8, -1.15084342658519740000e-001) (9, -1.54741238802671430000e-002) (10, -6.75982087850570680000e-002) (11, -6.10161013901233670000e-002) (12, -1.34613722562789920000e-001) (13, -7.73400962352752690000e-002) (14, -3.20956297218799590000e-002) (15, 1.12352013587951660000e-001) (16, 5.22260554134845730000e-002) (17, -7.24311843514442440000e-002) (18, 3.13378758728504180000e-002) (19, 8.47379192709922790000e-002) (20, 4.98099587857723240000e-002) (21, -6.00028187036514280000e-002) (22, -1.01254008710384370000e-001) (23, -1.43592417240142820000e-001) (24, -2.43206191807985310000e-002) (25, -4.73167560994625090000e-002) (26, 1.22721970081329350000e-001) (27, 1.63962915539741520000e-001) (28, -1.04937329888343810000e-001) (29, -1.61122873425483700000e-001) (30, -8.24159085750579830000e-002) (31, 4.91557382047176360000e-002) (32, 1.04116043075919150000e-002) (33, 4.42573100328445430000e-001) (34, 5.83089850842952730000e-002) (35, -2.78527975082397460000e-001) (36, -2.38000284880399700000e-002) (37, -2.18842342495918270000e-001) (38, -1.79933860898017880000e-001) (39, -1.35000750422477720000e-001) (40, 1.34783387184143070000e-001) (41, -1.21936649084091190000e-001) (42, -7.77364224195480350000e-002) (43, -1.16250388324260710000e-001) (0, 5.24866953492164610000e-003) (1, 2.51852452754974370000e-001) (2, 2.02982826158404350000e-003) (3, 1.23618923127651210000e-001) (4, 3.74555110931396480000e-001) (5, -4.34237197041511540000e-002) (6, -4.14394214749336240000e-002) (7, 6.53826892375946040000e-002) (8, 1.50708779692649840000e-001) (9, 5.75196668505668640000e-002) (10, -6.04239180684089660000e-002) (11, 1.48012578487396240000e-001) (12, 3.00257444381713870000e-001) (13, 4.01989936828613280000e-001) (14, 1.37456178665161130000e-001) (15, 6.73436075448989870000e-002) (16, 2.41278618574142460000e-001) (17, 1.00687285885214810000e-002) (18, 2.72478669881820680000e-001) (19, -1.70223712921142580000e-001) (20, 9.79547109454870220000e-003) (21, 2.81071007251739500000e-001) (22, 2.98894017934799190000e-001) (23, 2.78153121471405030000e-001) (24, 1.45443379878997800000e-001) (25, 2.37515032291412350000e-001) (26, 1.95918202400207520000e-001) (27, -3.08117084205150600000e-002) (28, 1.21913693845272060000e-001) (29, 3.75723540782928470000e-002) (30, 2.64535754919052120000e-001) (31, 1.34025514125823970000e-001) (32, 1.52651235461235050000e-001) (33, -4.69225734472274780000e-001) (34, -1.04863204061985020000e-001) (35, 4.32867333292961120000e-002) (36, 4.63618114590644840000e-002) (37, 1.94557636976242070000e-001) (38, 2.77219593524932860000e-001) (39, -4.08813089132308960000e-001) (40, -1.00781247019767760000e-001) (41, -1.37071788311004640000e-001) (42, -1.15779757499694820000e-001) (43, 1.83150440454483030000e-001) (0, -2.44517803192138670000e-001) (1, 1.34003475308418270000e-001) (2, 2.95266747474670410000e-001) (3, 1.44060075283050540000e-001) (4, 1.15005396306514740000e-001) (5, -5.97681701183319090000e-002) (6, 2.76569109410047530000e-002) (7, -1.03670172393321990000e-001) (8, 1.71404644846916200000e-001) (9, -2.35893726348876950000e-002) (10, 2.54066944122314450000e-001) (11, 1.37885734438896180000e-001) (12, -1.97267532348632810000e-002) (13, 3.59750986099243160000e-002) (14, 3.15593592822551730000e-002) (15, 7.80571028590202330000e-002) (16, -1.20205663144588470000e-001) (17, -2.15814765542745590000e-002) (18, 9.21683609485626220000e-002) (19, 1.09872780740261080000e-001) (20, 4.16780300438404080000e-002) (21, -2.90245890617370610000e-001) (22, 1.42475441098213200000e-001) (23, -2.76055820286273960000e-002) (24, 1.34129717946052550000e-001) (25, 1.01964674890041350000e-001) (26, -5.02718053758144380000e-002) (27, 3.31415116786956790000e-001) (28, -2.66393907368183140000e-002) (29, 1.47389054298400880000e-001) (30, -4.08463738858699800000e-003) (31, 3.83232794702053070000e-002) (32, 2.25705057382583620000e-001) (33, 5.67447394132614140000e-002) (34, 2.91241891682147980000e-002) (35, 1.10239736735820770000e-001) (36, -1.15670673549175260000e-001) (37, 2.09400942549109460000e-003) (38, 1.56196877360343930000e-001) (39, -7.24577382206916810000e-002) (40, -7.75093659758567810000e-002) (41, -2.21284702420234680000e-001) (42, 8.70281159877777100000e-002) (43, 2.05990210175514220000e-001) (0, -7.52648785710334780000e-002) (1, -7.03400224447250370000e-002) (2, 1.17751941084861760000e-001) (3, 2.51792043447494510000e-001) (4, -9.93803665041923520000e-002) (5, 8.48007500171661380000e-002) (6, 8.91894623637199400000e-002) (7, -9.98974367976188660000e-002) (8, 1.02798089385032650000e-001) (9, 9.01088714599609380000e-002) (10, -1.97418108582496640000e-002) (11, 1.15995686501264570000e-002) (12, -3.08401808142662050000e-002) (13, 1.19691789150238040000e-002) (14, 2.69055962562561040000e-001) (15, 2.09731072187423710000e-001) (16, -1.31596531718969350000e-002) (17, 1.15797758102416990000e-001) (18, 1.41200022771954540000e-002) (19, 2.23915264010429380000e-001) (20, -4.35771718621253970000e-002) (21, 1.96164101362228390000e-001) (22, -4.48762997984886170000e-002) (23, -7.87021815776824950000e-002) (24, -1.21880196034908290000e-001) (25, 1.48947149515151980000e-001) (26, -9.99267771840095520000e-002) (27, 2.07418594509363170000e-002) (28, -1.50694614276289940000e-002) (29, 1.43570691347122190000e-001) (30, -6.82157725095748900000e-002) (31, 1.75526052713394170000e-001) (32, 1.41435056924819950000e-001) (33, 3.79819236695766450000e-002) (34, 2.30368480086326600000e-001) (35, 1.42274290323257450000e-001) (36, 9.34953987598419190000e-002) (37, -1.33983090519905090000e-001) (38, -5.28276525437831880000e-002) (39, -1.12329393625259400000e-001) (40, 1.26100480556488040000e-001) (41, -2.83976551145315170000e-002) (42, -6.85763284564018250000e-002) (43, 1.24009080231189730000e-001) 
