FANN_FLO_2.1
num_layers=12
learning_rate=0.700000
connection_rate=1.000000
network_type=1
learning_momentum=0.000000
training_algorithm=2
train_error_function=0
train_stop_function=0
cascade_output_change_fraction=0.010000
quickprop_decay=-0.000100
quickprop_mu=1.750000
rprop_increase_factor=1.200000
rprop_decrease_factor=0.500000
rprop_delta_min=0.000000
rprop_delta_max=50.000000
rprop_delta_zero=0.100000
cascade_output_stagnation_epochs=12
cascade_candidate_change_fraction=0.010000
cascade_candidate_stagnation_epochs=12
cascade_max_out_epochs=150
cascade_min_out_epochs=15
cascade_max_cand_epochs=150
cascade_min_cand_epochs=15
cascade_num_candidate_groups=2
bit_fail_limit=3.49999994039535520000e-001
cascade_candidate_limit=1.00000000000000000000e+003
cascade_weight_multiplier=4.00000005960464480000e-001
cascade_activation_functions_count=10
cascade_activation_functions=3 5 7 8 10 11 14 15 16 17 
cascade_activation_steepnesses_count=4
cascade_activation_steepnesses=2.50000000000000000000e-001 5.00000000000000000000e-001 7.50000000000000000000e-001 1.00000000000000000000e+000 
layer_sizes=34 1 1 1 1 1 1 1 1 1 1 33 
scale_included=0
neurons (num_inputs, activation_function, activation_steepness)=(0, 0, 0.00000000000000000000e+000) (0, 0, 0.00000000000000000000e+000) (0, 0, 0.00000000000000000000e+000) (0, 0, 0.00000000000000000000e+000) (0, 0, 0.00000000000000000000e+000) (0, 0, 0.00000000000000000000e+000) (0, 0, 0.00000000000000000000e+000) (0, 0, 0.00000000000000000000e+000) (0, 0, 0.00000000000000000000e+000) (0, 0, 0.00000000000000000000e+000) (0, 0, 0.00000000000000000000e+000) (0, 0, 0.00000000000000000000e+000) (0, 0, 0.00000000000000000000e+000) (0, 0, 0.00000000000000000000e+000) (0, 0, 0.00000000000000000000e+000) (0, 0, 0.00000000000000000000e+000) (0, 0, 0.00000000000000000000e+000) (0, 0, 0.00000000000000000000e+000) (0, 0, 0.00000000000000000000e+000) (0, 0, 0.00000000000000000000e+000) (0, 0, 0.00000000000000000000e+000) (0, 0, 0.00000000000000000000e+000) (0, 0, 0.00000000000000000000e+000) (0, 0, 0.00000000000000000000e+000) (0, 0, 0.00000000000000000000e+000) (0, 0, 0.00000000000000000000e+000) (0, 0, 0.00000000000000000000e+000) (0, 0, 0.00000000000000000000e+000) (0, 0, 0.00000000000000000000e+000) (0, 0, 0.00000000000000000000e+000) (0, 0, 0.00000000000000000000e+000) (0, 0, 0.00000000000000000000e+000) (0, 0, 0.00000000000000000000e+000) (0, 0, 0.00000000000000000000e+000) (34, 14, 7.50000000000000000000e-001) (35, 15, 1.00000000000000000000e+000) (36, 14, 1.00000000000000000000e+000) (37, 15, 1.00000000000000000000e+000) (38, 14, 1.00000000000000000000e+000) (39, 14, 1.00000000000000000000e+000) (40, 15, 1.00000000000000000000e+000) (41, 15, 1.00000000000000000000e+000) (42, 14, 7.50000000000000000000e-001) (43, 14, 7.50000000000000000000e-001) (44, 5, 5.00000000000000000000e-001) (44, 5, 5.00000000000000000000e-001) (44, 5, 5.00000000000000000000e-001) (44, 5, 5.00000000000000000000e-001) (44, 5, 5.00000000000000000000e-001) (44, 5, 5.00000000000000000000e-001) (44, 5, 5.00000000000000000000e-001) (44, 5, 5.00000000000000000000e-001) (44, 5, 5.00000000000000000000e-001) (44, 5, 5.00000000000000000000e-001) (44, 5, 5.00000000000000000000e-001) (44, 5, 5.00000000000000000000e-001) (44, 5, 5.00000000000000000000e-001) (44, 5, 5.00000000000000000000e-001) (44, 5, 5.00000000000000000000e-001) (44, 5, 5.00000000000000000000e-001) (44, 5, 5.00000000000000000000e-001) (44, 5, 5.00000000000000000000e-001) (44, 5, 5.00000000000000000000e-001) (44, 5, 5.00000000000000000000e-001) (44, 5, 5.00000000000000000000e-001) (44, 5, 5.00000000000000000000e-001) (44, 5, 5.00000000000000000000e-001) (44, 5, 5.00000000000000000000e-001) (44, 5, 5.00000000000000000000e-001) (44, 5, 5.00000000000000000000e-001) (44, 5, 5.00000000000000000000e-001) (44, 5, 5.00000000000000000000e-001) (44, 5, 5.00000000000000000000e-001) (44, 5, 5.00000000000000000000e-001) (44, 5, 5.00000000000000000000e-001) (44, 5, 5.00000000000000000000e-001) (44, 5, 5.00000000000000000000e-001) 
connections (connected_to_neuron, weight)=(0, 2.17026114463806150000e+000) (1, 2.06878995895385740000e+000) (2, 1.97824347019195560000e+000) (3, -1.66623878479003910000e+000) (4, 3.25032806396484370000e+000) (5, 7.97395467758178710000e-001) (6, 1.66217064857482910000e+000) (7, -4.57827031612396240000e-001) (8, 7.16160476207733150000e-001) (9, -7.71997869014739990000e-001) (10, -1.20874308049678800000e-001) (11, 4.81773763895034790000e-001) (12, 5.66022545099258420000e-002) (13, -1.53271794319152830000e-001) (14, -1.05789244174957280000e+000) (15, 1.19517417624592780000e-002) (16, 1.29922473430633540000e+000) (17, 7.13931679725646970000e-001) (18, 7.14844405651092530000e-001) (19, 1.68622925877571110000e-001) (20, 3.78260302543640140000e+000) (21, 3.72429633140563960000e+000) (22, 1.69205915927886960000e+000) (23, 6.99813306331634520000e-001) (24, -5.80703198909759520000e-001) (25, 1.78448772430419920000e+000) (26, 3.24687814712524410000e+000) (27, 3.42326235771179200000e+000) (28, 3.86723685264587400000e+000) (29, 2.67502641677856450000e+000) (30, 1.90237283706665040000e+000) (31, -9.01621282100677490000e-001) (32, -4.53266762197017670000e-002) (33, -1.49108588695526120000e-001) (0, -7.85519108176231380000e-002) (1, 1.55271124839782710000e+000) (2, 2.09049671888351440000e-001) (3, -5.76649367809295650000e-001) (4, -6.32777929306030270000e-001) (5, 2.70955562591552730000e+000) (6, 2.06484866142272950000e+000) (7, 3.75911265611648560000e-001) (8, 1.58029913902282710000e+000) (9, 8.37340414524078370000e-001) (10, 2.06184291839599610000e+000) (11, 1.86885702610015870000e+000) (12, 1.70888292789459230000e+000) (13, 2.30088424682617190000e+000) (14, 9.59077775478363040000e-002) (15, 2.60225892066955570000e+000) (16, 1.50587201118469240000e+000) (17, 9.56443369388580320000e-001) (18, 2.24832797050476070000e+000) (19, 2.00437188148498540000e+000) (20, -8.22639346122741700000e-001) (21, 4.36845362186431880000e-001) (22, 2.15006446838378910000e+000) (23, 4.94018822908401490000e-001) (24, 8.76772180199623110000e-002) (25, 1.80846142768859860000e+000) (26, -1.48132205009460450000e+000) (27, 2.15353295207023620000e-001) (28, 9.99561399221420290000e-002) (29, 3.93239974975585940000e-001) (30, 2.19868326187133790000e+000) (31, -3.23534049093723300000e-002) (32, 2.16029429435729980000e+000) (33, 4.16066646575927730000e-001) (34, 2.06438660621643070000e+000) (0, 2.45488762855529790000e+000) (1, 1.21472322940826420000e+000) (2, 1.51535284519195560000e+000) (3, 1.75385856628417970000e+000) (4, -4.48491185903549190000e-001) (5, 2.56531262397766110000e+000) (6, 1.65386497974395750000e+000) (7, 1.07689523696899410000e+000) (8, 1.48326265811920170000e+000) (9, -4.50082838535308840000e-001) (10, 9.40904259681701660000e-001) (11, 2.35395431518554690000e+000) (12, 6.33828878402709960000e-001) (13, 7.50687539577484130000e-001) (14, -1.80099141597747800000e+000) (15, -2.91601568460464480000e-001) (16, -2.91880786418914790000e-001) (17, 7.69609093666076660000e-001) (18, 1.82857930660247800000e+000) (19, 3.24112892150878910000e-001) (20, 1.91765892505645750000e+000) (21, -1.48526966571807860000e+000) (22, 6.81827247142791750000e-001) (23, 7.73514509201049800000e-001) (24, -7.26033151149749760000e-001) (25, 1.61076402664184570000e+000) (26, 8.75207841396331790000e-001) (27, 1.12188529968261720000e+000) (28, 2.50358271598815920000e+000) (29, 8.57547372579574580000e-002) (30, -6.69197261333465580000e-001) (31, 1.38129127025604250000e+000) (32, 1.63739383220672610000e+000) (33, 1.82117593288421630000e+000) (34, 5.26671335101127620000e-002) (35, 1.84809494018554690000e+000) (0, 3.47530066967010500000e-001) (1, -1.16913533210754390000e+000) (2, 2.43129587173461910000e+000) (3, 2.00347638130187990000e+000) (4, 4.16142404079437260000e-001) (5, 1.68921947479248050000e+000) (6, 9.45756018161773680000e-001) (7, 9.28472518920898440000e-001) (8, 1.24454653263092040000e+000) (9, -5.76096117496490480000e-001) (10, 3.39906178414821620000e-002) (11, 3.18166881799697880000e-001) (12, 2.41203022003173830000e+000) (13, 2.16801786422729490000e+000) (14, 1.47034239768981930000e+000) (15, 1.18564200401306150000e+000) (16, 1.87150382995605470000e+000) (17, 2.17607164382934570000e+000) (18, 3.97149467468261720000e+000) (19, 1.67132005095481870000e-001) (20, -6.74141526222229000000e-001) (21, 3.34383368492126460000e-001) (22, 1.53871548175811770000e+000) (23, 1.71481895446777340000e+000) (24, 7.57882177829742430000e-001) (25, 1.14118754863739010000e+000) (26, 1.73382103443145750000e+000) (27, 1.08704924583435060000e+000) (28, 1.59159767627716060000e+000) (29, 1.19685435295104980000e+000) (30, 2.17639160156250000000e+000) (31, 8.59632432460784910000e-001) (32, 1.57282650470733640000e+000) (33, -1.50090122222900390000e+000) (34, 2.92612266540527340000e+000) (35, 6.58436775207519530000e-001) (36, 1.32143831253051760000e+000) (0, 2.52662777900695800000e-001) (1, 5.31678378582000730000e-001) (2, 1.12837219238281250000e+000) (3, 1.27810990810394290000e+000) (4, -1.86791524291038510000e-001) (5, 8.19558501243591310000e-001) (6, 8.96913528442382810000e-001) (7, 3.53547334671020510000e-001) (8, 2.37346386909484860000e+000) (9, -6.79790228605270390000e-002) (10, 9.84668433666229250000e-001) (11, 9.98320341110229490000e-001) (12, 1.41740870475769040000e+000) (13, -5.87822720408439640000e-002) (14, 3.02203476428985600000e-001) (15, 7.82977461814880370000e-001) (16, 2.14189872145652770000e-001) (17, 1.45939958095550540000e+000) (18, 1.04053056240081790000e+000) (19, -5.94000518321990970000e-001) (20, 2.00165772438049320000e+000) (21, 3.47103810310363770000e+000) (22, -1.80700993537902830000e+000) (23, -1.15759241580963130000e+000) (24, 2.09333205223083500000e+000) (25, 1.49135500192642210000e-001) (26, 5.49194335937500000000e-001) (27, 1.18420332670211790000e-001) (28, 6.09717726707458500000e-001) (29, 1.15487766265869140000e+000) (30, -1.41987372189760210000e-002) (31, 1.50902354717254640000e+000) (32, 1.02789747714996340000e+000) (33, 1.12367737293243410000e+000) (34, 9.54762697219848630000e-001) (35, 2.15392804145812990000e+000) (36, 1.83996927738189700000e+000) (37, 2.63717222213745120000e+000) (0, 1.69377207756042480000e+000) (1, 1.66288137435913090000e+000) (2, -2.11223796010017400000e-001) (3, -6.90603479743003850000e-002) (4, 4.23976778984069820000e-001) (5, 4.81660604476928710000e-001) (6, 5.45618593692779540000e-001) (7, 2.50450086593627930000e+000) (8, 1.35598719120025630000e+000) (9, 1.95053243637084960000e+000) (10, 1.02648448944091800000e+000) (11, 1.63749456405639650000e+000) (12, 3.70271325111389160000e-001) (13, 2.08465862274169920000e+000) (14, 7.15099036693573000000e-001) (15, 7.96605467796325680000e-001) (16, 5.32149255275726320000e-001) (17, 1.17507433891296390000e+000) (18, -2.58806109428405760000e+000) (19, -8.79415988922119140000e-001) (20, 4.52260643243789670000e-001) (21, 6.96090579032897950000e-001) (22, 1.81273686885833740000e+000) (23, 1.70200443267822270000e+000) (24, 1.48517024517059330000e+000) (25, 1.66247141361236570000e+000) (26, 5.06819367408752440000e-001) (27, 3.53333640098571780000e+000) (28, 4.52157407999038700000e-001) (29, 1.18759512901306150000e+000) (30, 2.03233599662780760000e+000) (31, 2.05798816680908200000e+000) (32, 1.08851706981658940000e+000) (33, -7.29673206806182860000e-001) (34, 2.57477331161499020000e+000) (35, 7.59522318840026860000e-001) (36, 1.84984672069549560000e+000) (37, 2.23549678921699520000e-001) (38, 6.52060806751251220000e-001) (0, 2.73305678367614750000e+000) (1, 5.04701077938079830000e-001) (2, 3.68689119815826420000e-001) (3, 1.82050693035125730000e+000) (4, 3.61328864097595210000e+000) (5, 2.40551280975341800000e+000) (6, 2.02024626731872560000e+000) (7, 1.76359498500823970000e+000) (8, 2.30675935745239260000e+000) (9, 3.16849946975708010000e-001) (10, 1.67562246322631840000e+000) (11, 2.75066161155700680000e+000) (12, 1.50892364978790280000e+000) (13, 1.43874228000640870000e+000) (14, 1.69842928647995000000e-001) (15, 4.25445467233657840000e-001) (16, 2.61822533607482910000e+000) (17, -7.46130645275115970000e-001) (18, 6.77049696445465090000e-001) (19, 2.41939163208007810000e+000) (20, 2.95179557800292970000e+000) (21, 1.65080749988555910000e+000) (22, -4.74792420864105220000e-001) (23, -5.47702848911285400000e-001) (24, -8.67403626441955570000e-001) (25, 6.95893585681915280000e-001) (26, 3.28378939628601070000e+000) (27, 1.24745821952819820000e+000) (28, 1.03207230567932130000e+000) (29, -1.00721406936645510000e+000) (30, 2.11820572614669800000e-001) (31, 5.52530527114868160000e-001) (32, 1.76090490818023680000e+000) (33, -2.38813057541847230000e-001) (34, 1.91839826107025150000e+000) (35, 2.52283644676208500000e+000) (36, 5.07677376270294190000e-001) (37, 1.74754416942596440000e+000) (38, 1.19026017189025880000e+000) (39, 1.48374950885772710000e+000) (0, 1.23513400554656980000e+000) (1, 3.01284122467041020000e+000) (2, 6.95263385772705080000e-001) (3, 1.50245332717895510000e+000) (4, -3.15694421529769900000e-001) (5, 2.36227726936340330000e+000) (6, -6.46019577980041500000e-001) (7, 1.40480399131774900000e+000) (8, 1.57317364215850830000e+000) (9, 1.72872054576873780000e+000) (10, 2.80219697952270510000e+000) (11, -8.75837862491607670000e-001) (12, 8.45148921012878420000e-001) (13, 1.54014229774475100000e+000) (14, -8.67601573467254640000e-001) (15, 1.34791638702154160000e-002) (16, 2.53630900382995610000e+000) (17, 2.19652175903320310000e+000) (18, 9.58631277084350590000e-001) (19, 5.65973877906799320000e-001) (20, 7.14600980281829830000e-001) (21, 1.84104704856872560000e+000) (22, 2.46149158477783200000e+000) (23, 1.19205856323242190000e+000) (24, 1.98015284538269040000e+000) (25, -2.74350255727767940000e-001) (26, -4.97058719396591190000e-001) (27, 2.19217252731323240000e+000) (28, -2.04217386245727540000e+000) (29, 1.25541651248931880000e+000) (30, 2.69724154472351070000e+000) (31, -1.23630039393901820000e-001) (32, 1.11029267311096190000e+000) (33, 1.21770036220550540000e+000) (34, 8.72579336166381840000e-001) (35, 1.12015116214752200000e+000) (36, 2.31180834770202640000e+000) (37, 1.76741504669189450000e+000) (38, -5.11865615844726560000e-001) (39, 2.51377910375595090000e-001) (40, -1.29466786980628970000e-001) (0, 1.44012343883514400000e+000) (1, 3.58592391014099120000e+000) (2, 5.62235236167907710000e-001) (3, 2.58460664749145510000e+000) (4, 7.07533478736877440000e-001) (5, 8.38657736778259280000e-001) (6, 7.39455282688140870000e-001) (7, 1.98715078830718990000e+000) (8, 4.32818531990051270000e-001) (9, 1.58525124192237850000e-001) (10, 2.72727417945861820000e+000) (11, 1.65542280673980710000e+000) (12, 1.22299063205718990000e+000) (13, 5.47373056411743160000e-001) (14, 1.18718695640563960000e+000) (15, 2.27666467428207400000e-001) (16, 2.35523200035095210000e+000) (17, 2.50968694686889650000e+000) (18, 7.02128410339355470000e-001) (19, 1.73084378242492680000e+000) (20, -6.60232543945312500000e-001) (21, 4.90076303482055660000e-001) (22, 1.31326222419738770000e+000) (23, 3.84862899780273440000e+000) (24, 2.87373232841491700000e+000) (25, 1.37777376174926760000e+000) (26, 2.56100130081176760000e+000) (27, 7.57341086864471440000e-002) (28, 2.53672313690185550000e+000) (29, -3.86338067054748540000e+000) (30, 1.00883531570434570000e+000) (31, 3.09661179780960080000e-001) (32, 1.93685591220855710000e+000) (33, -1.39414381980896000000e+000) (34, 2.47950506210327150000e+000) (35, -6.98434114456176760000e-001) (36, 2.46596455574035640000e+000) (37, 1.89771962165832520000e+000) (38, 1.91796731948852540000e+000) (39, -4.14671143516898160000e-003) (40, 1.85943460464477540000e+000) (41, 1.30962395668029790000e+000) (0, 1.36039984226226810000e+000) (1, 6.71030282974243160000e-001) (2, 2.67132663726806640000e+000) (3, -3.24186116456985470000e-001) (4, -1.95485675334930420000e+000) (5, -1.39869678020477290000e+000) (6, -2.28323668241500850000e-001) (7, 7.69947826862335210000e-001) (8, 3.35278487205505370000e+000) (9, 9.78842556476593020000e-001) (10, 7.16225624084472660000e-001) (11, 1.67067265510559080000e+000) (12, -5.60522079467773440000e-001) (13, 1.06857740879058840000e+000) (14, 7.25057780742645260000e-001) (15, 2.13197159767150880000e+000) (16, 2.56658881902694700000e-001) (17, 2.64709305763244630000e+000) (18, 1.39045107364654540000e+000) (19, 5.57759284973144530000e-001) (20, 1.55341196060180660000e+000) (21, 2.05613994598388670000e+000) (22, 9.47634637355804440000e-001) (23, -6.30420818924903870000e-002) (24, 1.22025024890899660000e+000) (25, 7.04361796379089360000e-001) (26, 1.36341893672943120000e+000) (27, 1.06030273437500000000e+000) (28, 2.73002839088439940000e+000) (29, 2.61054372787475590000e+000) (30, 1.13841974735260010000e+000) (31, 1.68672168254852290000e+000) (32, 1.10808658599853520000e+000) (33, -2.61791169643402100000e-001) (34, 1.52278327941894530000e+000) (35, -1.36868476867675780000e+000) (36, 1.75787699222564700000e+000) (37, 1.11173546314239500000e+000) (38, 1.84242904186248780000e+000) (39, -1.28717029094696040000e+000) (40, 8.58352661132812500000e-001) (41, 1.12290668487548830000e+000) (42, 9.45664286613464360000e-001) (0, 9.28553789854049680000e-002) (1, 2.31800436973571780000e-001) (2, 2.58109956979751590000e-001) (3, 2.61793006211519240000e-002) (4, 2.57695138454437260000e-001) (5, 4.38933260738849640000e-002) (6, 2.34183654189109800000e-001) (7, 2.14377716183662410000e-001) (8, 1.91340625286102290000e-001) (9, 2.23255470395088200000e-001) (10, 8.36845040321350100000e-002) (11, 1.66704148054122920000e-001) (12, -4.68203751370310780000e-003) (13, 2.96744257211685180000e-002) (14, 5.24639897048473360000e-002) (15, 7.61711001396179200000e-002) (16, 1.69190034270286560000e-001) (17, 3.61934542655944820000e-001) (18, 1.26191914081573490000e-001) (19, 1.31087616086006160000e-001) (20, 1.92186832427978520000e-001) (21, 9.49810743331909180000e-002) (22, 6.15077950060367580000e-002) (23, 1.61739692091941830000e-001) (24, 1.48594468832015990000e-001) (25, 2.17889487743377690000e-001) (26, 5.44934570789337160000e-002) (27, 3.90278816223144530000e-001) (28, -3.91010940074920650000e-002) (29, 3.07546347379684450000e-001) (30, 2.46145769953727720000e-001) (31, 9.19222906231880190000e-002) (32, 2.35680833458900450000e-001) (33, -5.22962749004364010000e-001) (34, -1.35204404592514040000e-001) (35, -7.80890583992004390000e-002) (36, -3.96947674453258510000e-002) (37, 1.51227563619613650000e-001) (38, -9.77765917778015140000e-002) (39, 9.24912914633750920000e-002) (40, 1.58629685640335080000e-001) (41, -2.04848814755678180000e-002) (42, -1.20003223419189450000e-001) (43, -2.09959059953689580000e-001) (0, 4.68783751130104060000e-002) (1, 1.26229599118232730000e-001) (2, 1.48965194821357730000e-001) (3, 1.22723810374736790000e-001) (4, -1.78387071937322620000e-002) (5, 2.52358932048082350000e-002) (6, 4.07359227538108830000e-002) (7, 8.30607339739799500000e-002) (8, -4.30837757885456090000e-002) (9, 9.70917567610740660000e-002) (10, -2.83264126628637310000e-002) (11, 1.68509319424629210000e-001) (12, -1.56288426369428630000e-002) (13, 2.45482251048088070000e-001) (14, 1.23915396630764010000e-001) (15, 1.12460494041442870000e-001) (16, 2.75156319141387940000e-001) (17, 2.09479391574859620000e-001) (18, 1.38004515320062640000e-002) (19, 1.86608523130416870000e-001) (20, -5.79633191227912900000e-003) (21, 9.36926528811454770000e-002) (22, 8.92630219459533690000e-002) (23, -2.07898560911417010000e-002) (24, 1.73334300518035890000e-001) (25, -1.40696927905082700000e-001) (26, 7.96124786138534550000e-002) (27, -1.72095615416765210000e-002) (28, 1.57392293214797970000e-001) (29, 9.97479259967803960000e-002) (30, 2.52806305885314940000e-001) (31, -1.28620006144046780000e-002) (32, -8.06801691651344300000e-002) (33, -6.97877332568168640000e-002) (34, -2.28214934468269350000e-002) (35, 1.24127544462680820000e-001) (36, -2.18285113573074340000e-001) (37, 1.49263888597488400000e-001) (38, -1.22360631823539730000e-001) (39, 7.90021196007728580000e-002) (40, 8.92296284437179570000e-002) (41, -2.93196495622396470000e-002) (42, 2.03295007348060610000e-001) (43, 1.60630688071250920000e-001) (0, 1.49268895387649540000e-001) (1, 2.45695933699607850000e-001) (2, 1.88830301165580750000e-001) (3, 5.25722764432430270000e-002) (4, 2.46817573904991150000e-001) (5, 3.38709086179733280000e-001) (6, 1.61896899342536930000e-001) (7, 3.46652597188949580000e-001) (8, 2.33419671654701230000e-001) (9, 2.29621231555938720000e-001) (10, 2.46549800038337710000e-001) (11, 1.31658613681793210000e-001) (12, 2.86085039377212520000e-001) (13, 8.63402187824249270000e-002) (14, 2.15433478355407710000e-001) (15, 2.54991859197616580000e-001) (16, 2.46545508503913880000e-001) (17, 2.61208057403564450000e-001) (18, 2.71512597799301150000e-001) (19, 2.04911202192306520000e-001) (20, 1.81847691535949710000e-001) (21, 1.31885528564453130000e-001) (22, 1.02750897407531740000e-001) (23, 2.48125955462455750000e-001) (24, 2.71558433771133420000e-001) (25, 2.77702212333679200000e-001) (26, 2.94797301292419430000e-001) (27, 2.83416360616683960000e-001) (28, 3.07198375463485720000e-001) (29, 7.83605948090553280000e-002) (30, 7.89288431406021120000e-002) (31, 2.52687394618988040000e-001) (32, 2.09145218133926390000e-001) (33, -8.55175673961639400000e-001) (34, -1.54965803027153020000e-001) (35, -4.26903843879699710000e-001) (36, 3.24558466672897340000e-002) (37, -4.92174811661243440000e-002) (38, -1.31083533167839050000e-001) (39, 6.35579302906990050000e-002) (40, 2.29148454964160920000e-002) (41, -1.58358559012413020000e-001) (42, -3.05607654154300690000e-002) (43, -1.81556716561317440000e-001) (0, 7.48291239142417910000e-002) (1, -1.33948817849159240000e-001) (2, 5.80688985064625740000e-003) (3, 3.56147587299346920000e-002) (4, -2.37117451615631580000e-003) (5, -1.17954291403293610000e-001) (6, -4.12666909396648410000e-002) (7, 7.44437575340271000000e-002) (8, 2.81978375278413300000e-003) (9, -3.99729656055569650000e-003) (10, 1.07426397502422330000e-001) (11, -1.34085305035114290000e-002) (12, 2.39981636404991150000e-002) (13, 1.47726908326148990000e-001) (14, -3.33801917731761930000e-002) (15, 4.28552068769931790000e-002) (16, 9.64228995144367220000e-004) (17, 1.31326720118522640000e-001) (18, 5.09098917245864870000e-002) (19, 6.37301057577133180000e-002) (20, 1.57421699259430170000e-003) (21, 5.01527749001979830000e-002) (22, 1.77754126489162450000e-002) (23, 1.63864970207214360000e-001) (24, 1.36553183197975160000e-001) (25, 1.06014557182788850000e-001) (26, 1.19935758411884310000e-001) (27, 3.99301350116729740000e-002) (28, -1.05529502034187320000e-002) (29, 1.04735000059008600000e-002) (30, -5.08269555866718290000e-002) (31, -8.69284719228744510000e-002) (32, -4.86413054168224330000e-002) (33, 2.09424376487731930000e-001) (34, 9.99508947134017940000e-002) (35, -2.82552298158407210000e-002) (36, 6.62133917212486270000e-002) (37, -5.98487071692943570000e-002) (38, 8.26725810766220090000e-002) (39, -1.17758318781852720000e-001) (40, 2.59252041578292850000e-001) (41, 3.54436516761779790000e-001) (42, -1.32579088211059570000e-001) (43, 9.19799208641052250000e-002) (0, 4.81255292892456050000e-001) (1, 2.25678265094757080000e-001) (2, -7.23360758274793620000e-003) (3, 1.21662057936191560000e-001) (4, 2.53485649824142460000e-001) (5, 2.44966015219688420000e-001) (6, 2.05061554908752440000e-001) (7, 1.22405655682086940000e-001) (8, 2.29412212967872620000e-001) (9, 4.26449507474899290000e-001) (10, 1.76780059933662410000e-001) (11, 2.63546615839004520000e-001) (12, 2.46366500854492190000e-001) (13, 2.18499183654785160000e-001) (14, 1.99928745627403260000e-001) (15, 1.97407796978950500000e-001) (16, 3.50059330463409420000e-001) (17, 3.10081750154495240000e-001) (18, 1.99582904577255250000e-001) (19, 2.26644665002822880000e-001) (20, 2.69781917333602910000e-001) (21, 1.88066869974136350000e-001) (22, 1.52270004153251650000e-001) (23, 3.33153098821640010000e-001) (24, 3.14149796962738040000e-001) (25, 1.83421984314918520000e-001) (26, 4.01864677667617800000e-001) (27, 2.49772265553474430000e-001) (28, 2.10172981023788450000e-001) (29, 2.62595564126968380000e-001) (30, 9.74931642413139340000e-002) (31, 2.16658473014831540000e-001) (32, 2.50917524099349980000e-001) (33, -1.08407568931579590000e+000) (34, 9.75781828165054320000e-002) (35, 8.54025632143020630000e-002) (36, 1.71315640211105350000e-001) (37, -1.75861716270446780000e-001) (38, -1.54661536216735840000e-001) (39, 8.70845839381217960000e-002) (40, 2.37398445606231690000e-002) (41, 1.23173609375953670000e-001) (42, 1.41023145988583560000e-002) (43, -1.33071005344390870000e-001) (0, 6.52969554066658020000e-002) (1, 1.26899763941764830000e-001) (2, 2.64896780252456670000e-001) (3, 2.82367259263992310000e-001) (4, 1.31130173802375790000e-001) (5, 1.89744427800178530000e-001) (6, 1.13007396459579470000e-001) (7, 3.27042222023010250000e-001) (8, 2.66017854213714600000e-001) (9, 2.64423042535781860000e-001) (10, 2.51998960971832280000e-001) (11, 1.53337538242340090000e-001) (12, 1.17190003395080570000e-001) (13, 1.64238288998603820000e-001) (14, 1.67617127299308780000e-001) (15, 4.98500436544418330000e-001) (16, 1.15964323282241820000e-001) (17, 1.31914436817169190000e-001) (18, 1.57528609037399290000e-001) (19, 2.52488285303115840000e-001) (20, 2.99725532531738280000e-001) (21, 3.43614965677261350000e-001) (22, 1.18205510079860690000e-001) (23, 5.75703606009483340000e-002) (24, 3.34820806980133060000e-001) (25, 1.98885276913642880000e-001) (26, 2.13614463806152340000e-001) (27, 1.02954253554344180000e-001) (28, 2.20429360866546630000e-001) (29, 1.92674592137336730000e-001) (30, 2.64187932014465330000e-001) (31, 2.12621167302131650000e-001) (32, 1.29221215844154360000e-001) (33, -8.33371579647064210000e-001) (34, 1.20413318276405330000e-001) (35, 1.22604005038738250000e-001) (36, 5.76136521995067600000e-002) (37, -1.07623010873794560000e-001) (38, -2.72494286298751830000e-001) (39, -2.14468732476234440000e-001) (40, -1.50612620636820790000e-002) (41, -1.54951810836791990000e-001) (42, 2.53835823386907580000e-002) (43, -8.98422300815582280000e-002) (0, 1.11421294510364530000e-001) (1, 5.12406118214130400000e-002) (2, 1.93213015794754030000e-001) (3, 6.98536112904548650000e-002) (4, -5.85131756961345670000e-002) (5, 2.02420353889465330000e-001) (6, 5.68665713071823120000e-002) (7, 1.72278612852096560000e-001) (8, 7.65394344925880430000e-002) (9, 1.97250232100486760000e-001) (10, 1.86414763331413270000e-001) (11, 6.68148845434188840000e-002) (12, -8.35669934749603270000e-002) (13, 2.17193543910980220000e-001) (14, 3.80641549825668330000e-001) (15, 1.56003296375274660000e-001) (16, 1.11945904791355130000e-001) (17, 1.32688626646995540000e-001) (18, 2.92374879121780400000e-001) (19, 1.27991298213601110000e-002) (20, 2.32116520404815670000e-001) (21, 4.64146398007869720000e-002) (22, 4.34484984725713730000e-003) (23, 1.00760571658611300000e-001) (24, 2.75092720985412600000e-001) (25, 2.42101401090621950000e-001) (26, 3.09649586677551270000e-001) (27, 1.53846010565757750000e-001) (28, 6.52456432580947880000e-002) (29, -8.42891633510589600000e-002) (30, 2.90869921445846560000e-002) (31, 2.79386490583419800000e-001) (32, 1.40095930546522140000e-002) (33, -3.73937517404556270000e-001) (34, 3.72732728719711300000e-002) (35, 4.84921447932720180000e-002) (36, 9.29646715521812440000e-002) (37, 4.81139272451400760000e-002) (38, -2.54854187369346620000e-002) (39, 1.01908437907695770000e-001) (40, -1.12747743725776670000e-001) (41, -1.03137828409671780000e-001) (42, 9.01218503713607790000e-002) (43, -1.31221115589141850000e-001) (0, 4.20294612646102910000e-001) (1, 1.30870819091796880000e-001) (2, 1.83712378144264220000e-001) (3, 1.95849105715751650000e-001) (4, 2.63006716966629030000e-001) (5, 1.27191215753555300000e-001) (6, 3.01366150379180910000e-001) (7, 1.41271591186523440000e-001) (8, 1.44405081868171690000e-001) (9, 2.70847618579864500000e-001) (10, 2.89805591106414790000e-001) (11, 3.07255029678344730000e-001) (12, 2.20122352242469790000e-001) (13, 2.10993140935897830000e-001) (14, 2.09571301937103270000e-001) (15, 1.73093274235725400000e-001) (16, 1.73571109771728520000e-001) (17, 2.05793455243110660000e-001) (18, 1.68197706341743470000e-001) (19, 3.95483523607254030000e-001) (20, 2.62985140085220340000e-001) (21, 3.73570978641510010000e-001) (22, 1.93162858486175540000e-001) (23, 2.92424172163009640000e-001) (24, -1.88667364418506620000e-002) (25, 2.74405837059021000000e-001) (26, 1.37920826673507690000e-001) (27, 3.64016890525817870000e-001) (28, 1.91304117441177370000e-001) (29, 2.48391732573509220000e-001) (30, 1.92240744829177860000e-001) (31, 1.96740269660949710000e-001) (32, 2.03247427940368650000e-001) (33, -9.56690907478332520000e-001) (34, -5.02071380615234380000e-002) (35, 2.12855771183967590000e-001) (36, -3.27581018209457400000e-001) (37, 8.58232975006103520000e-002) (38, -3.47006730735301970000e-002) (39, -6.63177147507667540000e-002) (40, -1.88449639827013020000e-002) (41, -2.35264934599399570000e-002) (42, 2.01341528445482250000e-002) (43, -1.27311736345291140000e-001) (0, 1.81199058890342710000e-001) (1, 3.12595754861831670000e-001) (2, 3.70575726032257080000e-001) (3, 3.85273128747940060000e-001) (4, 4.09200698137283330000e-001) (5, 1.61878347396850590000e-001) (6, 2.07909092307090760000e-001) (7, 1.85905218124389650000e-001) (8, -1.56723782420158390000e-002) (9, 2.01370686292648320000e-001) (10, 3.76600831747055050000e-001) (11, 2.09041491150856020000e-001) (12, 2.77065664529800420000e-001) (13, 4.33636337518692020000e-001) (14, 2.23230749368667600000e-001) (15, 3.06435316801071170000e-001) (16, 2.39713832736015320000e-001) (17, 3.03899139165878300000e-001) (18, 2.76519834995269780000e-001) (19, 1.57391577959060670000e-001) (20, 3.30386966466903690000e-001) (21, 2.23921731114387510000e-001) (22, 2.49432757496833800000e-001) (23, 3.53604406118392940000e-001) (24, 1.28492102026939390000e-001) (25, 2.69496470689773560000e-001) (26, 2.15785935521125790000e-001) (27, 1.28607392311096190000e-001) (28, 3.48725527524948120000e-001) (29, 1.94163158535957340000e-001) (30, 1.46615847945213320000e-001) (31, 2.41013884544372560000e-001) (32, 1.43601119518280030000e-001) (33, -1.16595947742462160000e+000) (34, 1.16996802389621730000e-002) (35, -6.12215027213096620000e-002) (36, -1.56460374593734740000e-001) (37, 2.13342718780040740000e-002) (38, 1.31459355354309080000e-001) (39, 3.68719361722469330000e-002) (40, -3.74718680977821350000e-002) (41, 2.36488040536642070000e-002) (42, 1.43993394449353220000e-002) (43, 1.57087951898574830000e-001) (0, -1.03183118626475330000e-002) (1, -1.34883001446723940000e-001) (2, -1.46206066012382510000e-001) (3, 5.65419010818004610000e-002) (4, 1.67080789804458620000e-001) (5, -3.69294844567775730000e-002) (6, 1.80603750050067900000e-002) (7, 1.46151520311832430000e-002) (8, -8.17998722195625310000e-002) (9, -1.20026335120201110000e-001) (10, 1.06465823948383330000e-001) (11, -3.83683368563652040000e-002) (12, -2.59263953194022180000e-003) (13, 2.85106468945741650000e-002) (14, -5.88318258523941040000e-002) (15, 2.07599818706512450000e-001) (16, 4.50690388679504390000e-002) (17, -8.62014442682266240000e-002) (18, 1.30414158105850220000e-001) (19, 7.10074417293071750000e-003) (20, 2.64807105064392090000e-001) (21, 2.94251561164855960000e-001) (22, 2.05350875854492190000e-001) (23, 1.10895432531833650000e-001) (24, -1.07791274785995480000e-001) (25, -7.94190540909767150000e-002) (26, 1.65471717715263370000e-001) (27, 5.19088618457317350000e-002) (28, 2.09091603755950930000e-002) (29, 7.94511809945106510000e-002) (30, 1.82171091437339780000e-001) (31, 4.00223769247531890000e-002) (32, 1.46508783102035520000e-001) (33, 1.26653477549552920000e-001) (34, 2.42824956774711610000e-001) (35, 5.69387450814247130000e-002) (36, 8.18918645381927490000e-003) (37, -1.98114290833473210000e-001) (38, -6.07453249394893650000e-002) (39, -1.28020241856575010000e-001) (40, 1.38813391327857970000e-001) (41, 3.06728383293375370000e-004) (42, 2.25310757756233220000e-001) (43, 5.64102195203304290000e-002) (0, 1.16646811366081240000e-001) (1, 1.51479810476303100000e-001) (2, 1.18803627789020540000e-001) (3, 1.81229799985885620000e-001) (4, 1.51559486985206600000e-001) (5, 6.59465342760086060000e-002) (6, 2.64325942844152450000e-002) (7, 1.40149787068367000000e-001) (8, 6.24316483736038210000e-002) (9, 2.69722908735275270000e-001) (10, 2.26853027939796450000e-001) (11, 1.35595515370368960000e-001) (12, 4.02233488857746120000e-002) (13, 7.06504378467798230000e-003) (14, 9.18684154748916630000e-002) (15, 8.36882963776588440000e-002) (16, 3.05381547659635540000e-002) (17, 1.44459769129753110000e-001) (18, 1.36688023805618290000e-001) (19, 2.19072222709655760000e-001) (20, 1.50575399398803710000e-001) (21, 3.06063666939735410000e-002) (22, 1.17254592478275300000e-001) (23, -5.14173298142850400000e-004) (24, 6.23016767203807830000e-002) (25, 7.08627179265022280000e-002) (26, 5.20331338047981260000e-002) (27, 6.98755383491516110000e-002) (28, 2.95403718948364260000e-001) (29, 9.01440903544425960000e-002) (30, 4.60117533802986150000e-002) (31, 5.30194751918315890000e-002) (32, 5.35189099609851840000e-002) (33, -2.99693018198013310000e-001) (34, -7.26025477051734920000e-002) (35, -1.23834889382123950000e-002) (36, 1.96652710437774660000e-001) (37, -4.16559167206287380000e-002) (38, 8.03021416068077090000e-002) (39, 8.13897922635078430000e-002) (40, -2.18470960855484010000e-001) (41, -2.80464440584182740000e-002) (42, -2.46588382869958880000e-002) (43, -1.62451311945915220000e-001) (0, 1.63489505648612980000e-001) (1, 1.95161193609237670000e-001) (2, 1.44012570381164550000e-001) (3, 3.58239471912384030000e-001) (4, 1.73873230814933780000e-001) (5, 3.61081033945083620000e-001) (6, 1.88936114311218260000e-001) (7, 9.95171293616294860000e-002) (8, 3.15994054079055790000e-001) (9, -6.70395940542221070000e-002) (10, 2.56673425436019900000e-001) (11, 1.57272875308990480000e-001) (12, 1.76860004663467410000e-001) (13, -4.12803776562213900000e-002) (14, 2.88032174110412600000e-001) (15, 1.40864297747612000000e-001) (16, 6.31368383765220640000e-002) (17, 2.16983482241630550000e-001) (18, -2.57471459917724130000e-004) (19, 1.48129791021347050000e-001) (20, 1.60809308290481570000e-001) (21, -5.48284240067005160000e-002) (22, 3.28870452940464020000e-002) (23, 1.27059593796730040000e-001) (24, 1.61918386816978450000e-001) (25, 1.36224821209907530000e-001) (26, 8.55847224593162540000e-002) (27, 3.03057849407196040000e-001) (28, 1.88258245587348940000e-001) (29, 1.65620714426040650000e-001) (30, 1.67003288865089420000e-001) (31, 2.37359687685966490000e-001) (32, 2.32533887028694150000e-001) (33, -5.81206738948822020000e-001) (34, -2.18342542648315430000e-001) (35, 1.02818615734577180000e-001) (36, -1.03484250605106350000e-001) (37, 4.18712459504604340000e-002) (38, -8.25841501355171200000e-002) (39, -6.68216124176979060000e-002) (40, -9.40300524234771730000e-002) (41, -9.82635915279388430000e-002) (42, 1.26002073287963870000e-001) (43, -1.45527437329292300000e-001) (0, -3.51883620023727420000e-002) (1, -1.71276368200778960000e-002) (2, 1.31049947813153270000e-002) (3, -1.40040561556816100000e-001) (4, -2.60956864804029460000e-003) (5, 1.49007663130760190000e-001) (6, 8.43201950192451480000e-002) (7, 1.19196943938732150000e-001) (8, -4.22927131876349450000e-003) (9, 2.29900389909744260000e-001) (10, 7.51584768295288090000e-002) (11, 1.47358432412147520000e-001) (12, 1.57708942890167240000e-001) (13, 8.46210122108459470000e-002) (14, 1.48902945220470430000e-002) (15, -3.77842076122760770000e-002) (16, 1.47580191493034360000e-001) (17, -3.76603715121746060000e-002) (18, 4.92171086370944980000e-002) (19, 6.61709439009428020000e-003) (20, 5.28177581727504730000e-002) (21, 9.49461758136749270000e-002) (22, 6.99498727917671200000e-002) (23, 3.37819963693618770000e-001) (24, -9.89274606108665470000e-002) (25, 1.29146933555603030000e-001) (26, 1.83377191424369810000e-001) (27, -7.13655650615692140000e-002) (28, 1.38906925916671750000e-001) (29, 5.77876791357994080000e-002) (30, 9.44297984242439270000e-002) (31, -8.30327160656452180000e-003) (32, -1.11839942634105680000e-001) (33, 7.15312585234642030000e-002) (34, -1.85417495667934420000e-002) (35, -8.23842063546180730000e-002) (36, 6.03490732610225680000e-002) (37, -2.02096868306398390000e-002) (38, -2.49430373311042790000e-001) (39, 2.24295511841773990000e-001) (40, 4.66534821316599850000e-003) (41, 1.44636735320091250000e-001) (42, -5.71051314473152160000e-002) (43, 1.94922894239425660000e-001) (0, -4.57098186016082760000e-002) (1, 9.19475927948951720000e-002) (2, 2.43916466832160950000e-001) (3, 2.12123692035675050000e-001) (4, -7.32219070196151730000e-002) (5, -2.00343243777751920000e-002) (6, -7.09480280056595800000e-003) (7, 3.46472263336181640000e-002) (8, 1.43315270543098450000e-001) (9, 1.91484004259109500000e-001) (10, 7.02543780207633970000e-002) (11, 1.72652840614318850000e-001) (12, 1.42482876777648930000e-001) (13, 1.61513105034828190000e-001) (14, -4.41538309678435330000e-003) (15, 7.11002969183027740000e-004) (16, 8.23925137519836430000e-002) (17, 3.69017161428928380000e-002) (18, 1.31296291947364810000e-001) (19, -8.24194476008415220000e-002) (20, -8.05250629782676700000e-002) (21, 1.21685877442359920000e-001) (22, 1.56409651041030880000e-001) (23, 2.08018094301223750000e-001) (24, 1.08362697064876560000e-001) (25, -1.93898528814315800000e-002) (26, -7.47708603739738460000e-002) (27, 6.26089051365852360000e-002) (28, 9.29049551486968990000e-002) (29, 3.66140715777873990000e-002) (30, 6.31566196680068970000e-002) (31, -1.93867646157741550000e-002) (32, 8.56848210096359250000e-002) (33, -2.19553336501121520000e-002) (34, -2.21899121999740600000e-001) (35, 2.68362462520599370000e-001) (36, 4.20036464929580690000e-002) (37, -7.73152858018875120000e-002) (38, -8.67654234170913700000e-002) (39, 5.44474646449089050000e-002) (40, -1.04827262461185460000e-001) (41, 2.12481379508972170000e-001) (42, -3.59463728964328770000e-002) (43, -5.04033118486404420000e-002) (0, 1.23836629092693330000e-001) (1, 4.53424118459224700000e-002) (2, -1.37133762240409850000e-001) (3, 7.25036785006523130000e-002) (4, 2.72327423095703130000e-001) (5, 1.26628533005714420000e-001) (6, -1.42377242445945740000e-001) (7, 7.12037608027458190000e-002) (8, 1.17504268884658810000e-001) (9, 6.39462769031524660000e-002) (10, -1.05594724416732790000e-001) (11, -7.53831304609775540000e-003) (12, -7.48905306681990620000e-003) (13, -5.21955899894237520000e-002) (14, -5.02712838351726530000e-002) (15, 1.84990808367729190000e-001) (16, 4.41130995750427250000e-002) (17, 1.44147917628288270000e-001) (18, -1.18681676685810090000e-002) (19, 1.62461325526237490000e-002) (20, 9.46802496910095210000e-002) (21, 2.43107765913009640000e-001) (22, 4.71265763044357300000e-002) (23, 7.92452991008758540000e-002) (24, 4.22532521188259120000e-002) (25, 9.98559743165969850000e-002) (26, -9.07098799943923950000e-002) (27, 9.33769643306732180000e-002) (28, 5.61407692730426790000e-002) (29, 7.36986622214317320000e-002) (30, -6.96634426712989810000e-002) (31, 2.44390338659286500000e-001) (32, 8.76348912715911870000e-002) (33, 7.82489776611328130000e-002) (34, -1.86391979455947880000e-001) (35, 8.11782628297805790000e-002) (36, 2.31060273945331570000e-002) (37, 8.65384861826896670000e-002) (38, -3.06170076131820680000e-001) (39, -3.14368337392807010000e-001) (40, 2.13854406028985980000e-002) (41, 1.03228561580181120000e-001) (42, 1.16053052246570590000e-001) (43, 1.41734093427658080000e-001) (0, -1.47117406129837040000e-001) (1, -8.95161554217338560000e-003) (2, 5.82116581499576570000e-002) (3, -1.58137664198875430000e-001) (4, -3.38134169578552250000e-002) (5, 7.08301588892936710000e-002) (6, -2.47294530272483830000e-002) (7, -1.60878181457519530000e-001) (8, -1.90339013934135440000e-001) (9, -1.81645274162292480000e-001) (10, -1.21912382543087010000e-001) (11, -2.59892288595438000000e-002) (12, -6.82234466075897220000e-002) (13, -2.88759432733058930000e-002) (14, 8.10684636235237120000e-002) (15, -2.90944557636976240000e-002) (16, -2.10115030407905580000e-001) (17, -4.13031950592994690000e-002) (18, -5.33950850367546080000e-002) (19, -1.94979012012481690000e-001) (20, -1.13491117954254150000e-001) (21, 1.22367694973945620000e-001) (22, -1.82790264487266540000e-001) (23, -1.13644115626811980000e-001) (24, -3.76827009022235870000e-002) (25, 7.67088755965232850000e-002) (26, -7.22525268793106080000e-002) (27, -1.27942189574241640000e-001) (28, -8.78465846180915830000e-002) (29, -1.55760332942008970000e-001) (30, -7.52531588077545170000e-002) (31, -2.96397730708122250000e-002) (32, -1.74812540411949160000e-001) (33, 8.06938588619232180000e-001) (34, 2.47879981994628910000e-001) (35, -9.76770967245101930000e-002) (36, -2.61183883994817730000e-002) (37, -2.50806789845228200000e-002) (38, 1.13520249724388120000e-001) (39, 2.40858681499958040000e-002) (40, -8.28626472502946850000e-003) (41, 1.18265517055988310000e-001) (42, -3.34917334839701650000e-003) (43, 2.26785819977521900000e-002) (0, 1.22057683765888210000e-001) (1, 1.99252188205718990000e-001) (2, 2.07072526216506960000e-001) (3, 1.22299492359161380000e-001) (4, 1.37494042515754700000e-001) (5, 1.72285020351409910000e-001) (6, 1.83652535080909730000e-001) (7, 2.09974452853202820000e-001) (8, 2.29811340570449830000e-001) (9, -2.08554398268461230000e-002) (10, 2.24388897418975830000e-001) (11, 1.51991054415702820000e-001) (12, 2.27041319012641910000e-001) (13, 2.35870003700256350000e-001) (14, 1.05472914874553680000e-001) (15, 2.47178301215171810000e-001) (16, -5.53037598729133610000e-002) (17, 1.65465563535690310000e-001) (18, 1.58898770809173580000e-001) (19, 1.81439325213432310000e-001) (20, 7.77694508433341980000e-002) (21, -4.43061068654060360000e-002) (22, 1.45241498947143550000e-001) (23, 2.37533301115036010000e-001) (24, 1.16188913583755490000e-001) (25, 1.37301445007324220000e-001) (26, 1.56153395771980290000e-001) (27, 1.59163162112236020000e-001) (28, 1.19001694023609160000e-001) (29, 1.51729345321655270000e-001) (30, 2.53362834453582760000e-001) (31, 1.43432289361953740000e-001) (32, 2.09627598524093630000e-001) (33, -5.23010313510894780000e-001) (34, 8.24664905667304990000e-002) (35, -1.15085691213607790000e-001) (36, 5.05707450211048130000e-002) (37, 1.51696324348449710000e-001) (38, 9.55806970596313480000e-002) (39, 2.41388887166976930000e-001) (40, -4.89109605550765990000e-002) (41, 2.43257641792297360000e-001) (42, -2.45220065116882320000e-001) (43, -7.58783668279647830000e-002) (0, 3.26635986566543580000e-001) (1, 1.56176388263702390000e-001) (2, -1.90427541383542120000e-004) (3, 3.15652340650558470000e-001) (4, 8.42196773737668990000e-003) (5, 1.92626714706420900000e-001) (6, 1.84206202626228330000e-001) (7, 1.42808571457862850000e-001) (8, 1.53421968221664430000e-001) (9, 9.21210572123527530000e-002) (10, 1.38381078839302060000e-001) (11, 1.10187925398349760000e-001) (12, 8.19841176271438600000e-002) (13, -1.55642477329820390000e-003) (14, 1.32903158664703370000e-001) (15, 7.14999809861183170000e-002) (16, 2.17214375734329220000e-001) (17, 1.33076250553131100000e-001) (18, 2.41138115525245670000e-002) (19, 2.60149419307708740000e-001) (20, 1.09468437731266020000e-001) (21, 1.23056583106517790000e-001) (22, 3.67829680442810060000e-001) (23, 2.51164704561233520000e-001) (24, 2.23753929138183590000e-001) (25, 1.53846070170402530000e-001) (26, 2.14409351348876950000e-001) (27, 1.54564037919044490000e-001) (28, 2.80471801757812500000e-001) (29, 1.48807153105735780000e-001) (30, -2.69169779494404790000e-003) (31, -1.03963613510131840000e-001) (32, -5.72079494595527650000e-002) (33, -4.25657898187637330000e-001) (34, -7.86481723189353940000e-002) (35, -1.54518142342567440000e-001) (36, -1.96309313178062440000e-001) (37, 6.25165775418281560000e-002) (38, 8.12104046344757080000e-002) (39, 2.16748341917991640000e-001) (40, 2.49972537159919740000e-001) (41, -1.56642213463783260000e-001) (42, 1.83220863342285160000e-001) (43, 4.53400574624538420000e-002) (0, 2.69171804189682010000e-001) (1, 1.75214726477861400000e-002) (2, 1.98562964797019960000e-002) (3, 2.01610982418060300000e-001) (4, 1.23200327157974240000e-001) (5, 2.03052550554275510000e-001) (6, 2.26840019226074220000e-001) (7, 1.23835779726505280000e-001) (8, 7.35105946660041810000e-002) (9, 1.56696170568466190000e-001) (10, 1.84332728385925290000e-001) (11, 1.38290911912918090000e-001) (12, 3.17157179117202760000e-001) (13, 3.58371026813983920000e-002) (14, 1.37950837612152100000e-001) (15, 1.24666035175323490000e-001) (16, 2.07959517836570740000e-001) (17, 5.79964481294155120000e-002) (18, 2.65785306692123410000e-001) (19, 7.15158507227897640000e-002) (20, 9.35309529304504390000e-002) (21, 2.06170424818992610000e-001) (22, 9.14457365870475770000e-002) (23, -6.40131067484617230000e-003) (24, 1.96665138006210330000e-001) (25, 3.56576731428503990000e-003) (26, 3.57019037008285520000e-001) (27, 5.56058017536997800000e-003) (28, 3.25839892029762270000e-002) (29, 2.30052322149276730000e-001) (30, 2.12048217654228210000e-001) (31, 2.64494836330413820000e-001) (32, 1.44408985972404480000e-001) (33, -5.38975954055786130000e-001) (34, 2.41598673164844510000e-003) (35, -1.53263658285140990000e-001) (36, 1.29074260592460630000e-001) (37, 4.34209182858467100000e-002) (38, -5.50012886524200440000e-002) (39, -8.63526295870542530000e-003) (40, 2.40061506628990170000e-002) (41, 8.37722867727279660000e-002) (42, 1.60168528556823730000e-001) (43, -1.06453932821750640000e-001) (0, -4.48394054546952250000e-003) (1, -1.16103902459144590000e-001) (2, -8.97541567683219910000e-002) (3, 3.45782190561294560000e-002) (4, -1.14744007587432860000e-001) (5, -2.10912283509969710000e-002) (6, -2.23272308707237240000e-001) (7, 2.74763535708189010000e-002) (8, -2.48325601220130920000e-001) (9, -1.06803834438323970000e-001) (10, -1.55203446745872500000e-001) (11, -1.45245447754859920000e-001) (12, -1.21514843776822090000e-002) (13, 9.68889147043228150000e-002) (14, -1.17950573563575740000e-001) (15, -8.61695483326911930000e-002) (16, -1.28363847732543950000e-001) (17, -1.62347719073295590000e-001) (18, -3.11753265559673310000e-002) (19, -4.59727421402931210000e-002) (20, -6.85120970010757450000e-002) (21, -2.00508758425712590000e-001) (22, 8.09241235256195070000e-002) (23, -1.84719786047935490000e-001) (24, -1.88194587826728820000e-001) (25, -1.18466228246688840000e-001) (26, -1.45337015390396120000e-001) (27, -6.28672242164611820000e-002) (28, -6.46616667509078980000e-002) (29, -8.41961354017257690000e-002) (30, 7.30826482176780700000e-002) (31, -1.51408202946186070000e-002) (32, -1.48874178528785710000e-001) (33, 8.48428368568420410000e-001) (34, -6.59675225615501400000e-002) (35, 1.38466823846101760000e-002) (36, -1.42369857057929040000e-002) (37, -1.17322057485580440000e-001) (38, 1.12228475511074070000e-001) (39, 1.44689390435814860000e-002) (40, 8.17728564143180850000e-002) (41, 1.03798033669590950000e-002) (42, 4.54385317862033840000e-002) (43, 1.17756471037864690000e-001) (0, 6.44071847200393680000e-002) (1, 2.46336832642555240000e-002) (2, -1.55482394620776180000e-002) (3, 7.09162056446075440000e-002) (4, 1.47607237100601200000e-001) (5, 5.23612461984157560000e-002) (6, 1.06559418141841890000e-001) (7, -3.08671295642852780000e-002) (8, 1.96585431694984440000e-002) (9, 4.67095673084259030000e-002) (10, 1.26425296068191530000e-001) (11, 1.97438508272171020000e-001) (12, 3.55465799570083620000e-001) (13, 6.96928203105926510000e-002) (14, -1.46165803074836730000e-001) (15, 1.67148828506469730000e-001) (16, -6.33824057877063750000e-003) (17, 3.46700102090835570000e-002) (18, 1.52614623308181760000e-001) (19, -1.13770201802253720000e-001) (20, 2.40833297371864320000e-001) (21, 4.15898999199271200000e-003) (22, -1.05961170047521590000e-002) (23, -1.81840769946575160000e-002) (24, 9.34496074914932250000e-002) (25, 7.06787928938865660000e-002) (26, 9.24457386136054990000e-002) (27, 7.52780511975288390000e-002) (28, -2.84916311502456670000e-002) (29, 1.36700868606567380000e-001) (30, 5.94063401222229000000e-002) (31, 1.73163205385208130000e-001) (32, 1.27580299973487850000e-001) (33, -5.57928234338760380000e-002) (34, 2.96705421060323720000e-002) (35, -1.76008388400077820000e-001) (36, -1.39902383089065550000e-001) (37, -1.33465938270092010000e-002) (38, 1.00545762106776240000e-002) (39, -1.15804359316825870000e-001) (40, -2.29503944516181950000e-001) (41, -7.61272460222244260000e-002) (42, -5.69699592888355260000e-002) (43, 7.66450911760330200000e-002) (0, 3.22727113962173460000e-001) (1, 1.90133750438690190000e-002) (2, 2.94530302286148070000e-001) (3, 5.82476295530796050000e-002) (4, 2.16007735580205920000e-002) (5, 1.65936753153800960000e-001) (6, 1.03077307343482970000e-001) (7, 1.99082493782043460000e-001) (8, 1.39978185296058650000e-001) (9, 6.89178407192230220000e-002) (10, 1.41353890299797060000e-001) (11, 1.03744283318519590000e-001) (12, 1.23589657247066500000e-001) (13, 8.97688269615173340000e-002) (14, 5.65610863268375400000e-002) (15, -1.60764411091804500000e-001) (16, 2.72224873304367070000e-001) (17, -7.34257977455854420000e-003) (18, -9.87695250660181050000e-003) (19, 1.43992751836776730000e-001) (20, 4.83542419970035550000e-002) (21, 1.03246964514255520000e-001) (22, 1.07312068343162540000e-001) (23, -3.10971327126026150000e-002) (24, -7.72523880004882810000e-003) (25, 3.26722145080566410000e-001) (26, 1.06741137802600860000e-001) (27, 1.19498841464519500000e-001) (28, 2.65193521976470950000e-001) (29, 1.21794536709785460000e-001) (30, 5.96770085394382480000e-002) (31, 8.89757052063941960000e-002) (32, 6.63286298513412480000e-002) (33, -3.40986400842666630000e-001) (34, -8.69956761598587040000e-002) (35, 1.42873793840408330000e-001) (36, -6.02079853415489200000e-002) (37, 1.12380348145961760000e-001) (38, 2.10779890418052670000e-001) (39, -1.78189963102340700000e-001) (40, 2.15867115184664730000e-003) (41, 2.26659700274467470000e-002) (42, -4.85731251537799840000e-002) (43, 9.75423753261566160000e-002) (0, -1.24048821628093720000e-001) (1, 1.32603943347930910000e-001) (2, 8.44094529747962950000e-003) (3, -1.72886952757835390000e-001) (4, -1.61815062165260310000e-001) (5, 4.28864397108554840000e-002) (6, 9.06155407428741460000e-002) (7, 6.89152404665946960000e-002) (8, -1.38308674097061160000e-001) (9, 1.03838324546813960000e-001) (10, 4.86687496304512020000e-002) (11, -1.99070684611797330000e-002) (12, 5.36005571484565730000e-002) (13, 7.05255568027496340000e-002) (14, -5.34360669553279880000e-002) (15, -1.28288835287094120000e-001) (16, 2.13390752673149110000e-001) (17, -1.28964155912399290000e-001) (18, -6.32908344268798830000e-002) (19, 1.70233219861984250000e-001) (20, -1.57386600971221920000e-001) (21, 7.24344998598098750000e-002) (22, -1.03571824729442600000e-001) (23, -2.26712226867675780000e-001) (24, -2.04088678583502770000e-003) (25, 1.34041339159011840000e-001) (26, 1.98303144425153730000e-002) (27, -6.50334805250167850000e-002) (28, -1.24420881271362300000e-001) (29, 3.88730019330978390000e-002) (30, -7.15723186731338500000e-002) (31, -1.23521387577056880000e-002) (32, -8.72506722807884220000e-002) (33, 4.88274812698364260000e-001) (34, 1.13075748085975650000e-001) (35, 8.64303763955831530000e-003) (36, 6.08087182044982910000e-002) (37, -4.41529750823974610000e-001) (38, 1.09302289783954620000e-001) (39, -4.02742996811866760000e-002) (40, -1.44582251086831090000e-002) (41, -1.19785390794277190000e-001) (42, 1.04139052331447600000e-001) (43, -6.35158196091651920000e-002) (0, -6.01791888475418090000e-002) (1, -1.42943561077117920000e-001) (2, -1.59392077475786210000e-002) (3, -1.56286627054214480000e-001) (4, -5.54687110707163810000e-003) (5, -2.19636157155036930000e-001) (6, -9.46402028203010560000e-002) (7, -3.61340902745723720000e-002) (8, -2.20391973853111270000e-002) (9, 1.59783307462930680000e-002) (10, -1.76428705453872680000e-001) (11, -2.98412442207336430000e-002) (12, -6.88774213194847110000e-002) (13, -1.53064832091331480000e-001) (14, 8.82878005504608150000e-002) (15, -1.50976702570915220000e-001) (16, -4.09468309953808780000e-003) (17, -3.95440012216567990000e-002) (18, 5.25617972016334530000e-002) (19, -3.70778590440750120000e-002) (20, -2.71203190088272090000e-001) (21, -9.95560884475708010000e-002) (22, -9.43677127361297610000e-002) (23, -1.37888714671134950000e-001) (24, -9.90531640127301220000e-004) (25, -2.10510507225990300000e-001) (26, -1.26924768090248110000e-001) (27, -1.97924599051475520000e-001) (28, 3.42317670583724980000e-002) (29, -1.12465135753154750000e-001) (30, 2.23754778504371640000e-001) (31, -3.92056629061698910000e-003) (32, 1.23785465955734250000e-001) (33, 7.27160990238189700000e-001) (34, 6.38266419991850850000e-003) (35, -4.80109527707099910000e-002) (36, -4.95878718793392180000e-002) (37, 1.10524855554103850000e-001) (38, 4.69839423894882200000e-002) (39, -5.54076395928859710000e-002) (40, -9.97330099344253540000e-002) (41, -1.20052993297576900000e-001) (42, 9.55324470996856690000e-002) (43, -1.88235104084014890000e-001) (0, -1.70333422720432280000e-002) (1, 7.36003890633583070000e-002) (2, -1.00618146359920500000e-001) (3, 4.03342023491859440000e-002) (4, 9.54253971576690670000e-002) (5, -3.68539942428469660000e-003) (6, 2.05159232020378110000e-001) (7, 1.07650704681873320000e-001) (8, -3.41875515878200530000e-002) (9, 2.31826435774564740000e-002) (10, -9.00107175111770630000e-002) (11, -5.48633327707648280000e-003) (12, 7.43435695767402650000e-002) (13, -9.32649672031402590000e-002) (14, -4.27809357643127440000e-002) (15, 2.29667916893959050000e-001) (16, 2.38490421324968340000e-002) (17, -4.01898324489593510000e-002) (18, -4.23533245921134950000e-002) (19, 1.10175251960754390000e-001) (20, 1.63209691643714900000e-001) (21, -2.05976858735084530000e-001) (22, -7.60313570499420170000e-002) (23, 1.85495540499687190000e-001) (24, 4.53708544373512270000e-002) (25, -1.09627485275268550000e-001) (26, -8.49452093243598940000e-002) (27, 3.67541089653968810000e-002) (28, 4.57522971555590630000e-003) (29, 1.74249798059463500000e-001) (30, 9.80928018689155580000e-002) (31, 7.42626562714576720000e-003) (32, 3.79046387970447540000e-002) (33, 2.32322409749031070000e-001) (34, 1.99600622057914730000e-001) (35, 3.57608636841177940000e-003) (36, -1.14168569445610050000e-001) (37, 6.57820403575897220000e-002) (38, 2.86590158939361570000e-002) (39, 1.63387432694435120000e-001) (40, -1.24445706605911250000e-001) (41, 2.01185017824172970000e-001) (42, -2.33650773763656620000e-001) (43, -1.28128051757812500000e-001) (0, 2.21732333302497860000e-001) (1, 1.89090237021446230000e-001) (2, 1.63075074553489690000e-001) (3, 9.21670347452163700000e-002) (4, 8.02694708108901980000e-002) (5, 3.49646573886275290000e-003) (6, 2.05144137144088750000e-001) (7, -9.68908146023750310000e-002) (8, 1.24807327985763550000e-001) (9, 2.24870011210441590000e-001) (10, -7.11385980248451230000e-002) (11, 6.68170973658561710000e-002) (12, 1.22135214507579800000e-001) (13, 1.49719253182411190000e-001) (14, 8.24129804968833920000e-002) (15, 1.02860651910305020000e-001) (16, 1.47348120808601380000e-001) (17, 5.42382476851344110000e-003) (18, 1.72887951135635380000e-001) (19, -1.67170986533164980000e-001) (20, 2.04474344849586490000e-001) (21, 3.45183908939361570000e-001) (22, 3.32735151052474980000e-001) (23, -3.95050644874572750000e-002) (24, -1.90178468823432920000e-001) (25, 7.99808502197265630000e-002) (26, 1.51195362210273740000e-001) (27, -6.62665292620658870000e-002) (28, -7.08118304610252380000e-002) (29, 1.09822429716587070000e-001) (30, 2.39340648055076600000e-001) (31, 9.09629613161087040000e-002) (32, 3.27704489231109620000e-001) (33, -1.69020771980285640000e-001) (34, 2.99786031246185300000e-001) (35, 1.94533750414848330000e-001) (36, 1.59860789775848390000e-001) (37, 3.49225103855133060000e-001) (38, 2.72777199745178220000e-001) (39, -2.06925258040428160000e-001) (40, -1.42790526151657100000e-001) (41, -3.38438957929611210000e-001) (42, -4.06471081078052520000e-002) (43, 1.70962348580360410000e-001) (0, -3.81976477801799770000e-002) (1, -3.19028235971927640000e-002) (2, 3.79216521978378300000e-002) (3, -1.01218990981578830000e-001) (4, 3.93784008920192720000e-002) (5, 2.74633895605802540000e-002) (6, 1.47278066724538800000e-002) (7, 7.10195973515510560000e-002) (8, 1.39628767967224120000e-001) (9, 2.88374908268451690000e-002) (10, -1.18648834526538850000e-001) (11, -1.38470500707626340000e-001) (12, -1.41189219430089000000e-002) (13, 1.15293160080909730000e-001) (14, -1.57639738172292710000e-002) (15, -2.11836948990821840000e-001) (16, -1.07052817940711980000e-001) (17, 1.33318118751049040000e-002) (18, 9.63044445961713790000e-003) (19, -6.51276409626007080000e-002) (20, -2.34788820147514340000e-001) (21, -2.26886831223964690000e-002) (22, 9.32492539286613460000e-002) (23, -1.30477949976921080000e-001) (24, -5.54369902238249780000e-003) (25, 5.85051579400897030000e-003) (26, -4.21129316091537480000e-002) (27, 6.89978152513504030000e-002) (28, 1.58368647098541260000e-001) (29, 1.28792196512222290000e-001) (30, -1.13106351345777510000e-002) (31, 6.81789889931678770000e-002) (32, 1.63426801562309270000e-001) (33, 3.53789925575256350000e-001) (34, 9.97077673673629760000e-002) (35, -3.90084050595760350000e-002) (36, 5.95895685255527500000e-002) (37, -1.28763271495699880000e-002) (38, 1.39131441712379460000e-001) (39, 5.13772517442703250000e-002) (40, -2.14793570339679720000e-002) (41, -1.54592953622341160000e-002) (42, 2.29081213474273680000e-001) (43, -2.44380421936511990000e-002) (0, 1.63564994931221010000e-001) (1, 1.57331705093383790000e-001) (2, 1.48905619978904720000e-001) (3, -5.15046678483486180000e-002) (4, 6.57845241948962210000e-003) (5, 1.96346491575241090000e-001) (6, 1.97855994105339050000e-001) (7, -4.46059219539165500000e-002) (8, 2.33486413955688480000e-001) (9, 7.35361129045486450000e-002) (10, 2.65329390764236450000e-001) (11, -2.36792247742414470000e-002) (12, 3.30729857087135310000e-002) (13, 6.81530907750129700000e-002) (14, 1.68554604053497310000e-001) (15, 8.47488492727279660000e-002) (16, -1.71288102865219120000e-002) (17, 2.10101187229156490000e-001) (18, 2.23190840333700180000e-002) (19, 2.19767645001411440000e-001) (20, 1.20020836591720580000e-001) (21, 1.30882707890123130000e-003) (22, 1.46659137681126590000e-002) (23, 1.07897385954856870000e-001) (24, 2.18437209725379940000e-001) (25, 8.77683535218238830000e-002) (26, 1.54295429587364200000e-001) (27, 2.10443809628486630000e-001) (28, 1.59660223871469500000e-002) (29, 6.62260130047798160000e-002) (30, -6.80637210607528690000e-002) (31, 5.07452972233295440000e-002) (32, 1.34759217500686650000e-001) (33, -2.62094229459762570000e-001) (34, -9.06447414308786390000e-003) (35, -6.96614012122154240000e-002) (36, 6.34004399180412290000e-002) (37, -1.58166855573654170000e-001) (38, 1.22284166514873500000e-001) (39, -1.74451932311058040000e-001) (40, 6.00582659244537350000e-002) (41, -6.79898587986826900000e-003) (42, -1.75061106681823730000e-001) (43, -2.39650681614875790000e-002) (0, -1.08206374570727350000e-002) (1, 1.40523731708526610000e-001) (2, 1.06327481567859650000e-001) (3, 3.04967194795608520000e-001) (4, 1.93574532866477970000e-001) (5, 1.22722677886486050000e-001) (6, 1.80869013071060180000e-001) (7, 1.34076163172721860000e-001) (8, 2.65075385570526120000e-001) (9, -1.27740383148193360000e-001) (10, 2.71014600992202760000e-001) (11, 1.51258885860443120000e-001) (12, 4.59114462137222290000e-002) (13, -8.92877504229545590000e-002) (14, -1.89428217709064480000e-002) (15, 2.96176541596651080000e-002) (16, 3.91741022467613220000e-002) (17, 2.16748327016830440000e-001) (18, 6.97974711656570430000e-002) (19, 7.61809423565864560000e-002) (20, 1.14491544663906100000e-001) (21, 1.07675381004810330000e-001) (22, 2.33490243554115300000e-001) (23, 2.11291879415512080000e-001) (24, 1.76079139113426210000e-001) (25, 8.63942280411720280000e-002) (26, 9.63234156370162960000e-002) (27, -1.20917536318302150000e-001) (28, 1.80582836270332340000e-001) (29, 1.03347964584827420000e-001) (30, 7.55241140723228450000e-002) (31, 1.77274093031883240000e-001) (32, -8.58040899038314820000e-003) (33, -3.04166078567504880000e-001) (34, -5.56036494672298430000e-002) (35, -1.03467680513858800000e-001) (36, -4.23471294343471530000e-002) (37, 1.27603054046630860000e-001) (38, 8.82339701056480410000e-002) (39, -2.77724722400307660000e-003) (40, 2.74455338716506960000e-001) (41, 4.38809953629970550000e-003) (42, 2.45871134102344510000e-002) (43, 7.23621696233749390000e-002) (0, 1.18796542286872860000e-001) (1, 1.07978738844394680000e-001) (2, -1.65906742215156560000e-001) (3, 8.81912857294082640000e-002) (4, 8.05595293641090390000e-002) (5, 1.65977880358695980000e-001) (6, 1.20750643312931060000e-001) (7, 7.26781338453292850000e-002) (8, -5.77365271747112270000e-002) (9, 8.67019966244697570000e-002) (10, 4.87451255321502690000e-003) (11, 2.37609334290027620000e-002) (12, -5.55884465575218200000e-002) (13, 2.34649181365966800000e-002) (14, 8.62603560090065000000e-002) (15, 9.45702940225601200000e-002) (16, 9.34736654162406920000e-002) (17, -1.32003296166658400000e-002) (18, 8.36063474416732790000e-002) (19, 2.15192466974258420000e-001) (20, 7.33240470290184020000e-002) (21, -8.31999778747558590000e-002) (22, 9.22530218958854680000e-002) (23, 6.08365237712860110000e-002) (24, 1.41137987375259400000e-001) (25, 6.93100765347480770000e-002) (26, -1.42277283594012260000e-002) (27, 2.18860819935798650000e-001) (28, 2.31344765052199360000e-003) (29, -6.75123184919357300000e-002) (30, -1.32563516497612000000e-001) (31, 1.06218352913856510000e-001) (32, 8.89781937003135680000e-002) (33, 1.35595560073852540000e-001) (34, -1.84469431638717650000e-001) (35, 2.01332107186317440000e-001) (36, -3.21079879999160770000e-001) (37, -1.39275595545768740000e-001) (38, -1.66453227400779720000e-001) (39, -2.18703243881464000000e-002) (40, 1.23825006186962130000e-001) (41, 1.55806735157966610000e-001) (42, -8.95396620035171510000e-002) (43, 1.22629486024379730000e-001) (0, 3.21062393486499790000e-002) (1, 2.30382040143013000000e-001) (2, 9.08857509493827820000e-002) (3, 5.86656630039215090000e-002) (4, 3.51867556571960450000e-001) (5, 5.96438683569431300000e-002) (6, 1.55484555289149280000e-002) (7, 1.18559136986732480000e-001) (8, 2.35565960407257080000e-001) (9, 1.01184800267219540000e-001) (10, -1.53058357536792760000e-002) (11, 2.08613589406013490000e-001) (12, 2.47691959142684940000e-001) (13, 2.50310599803924560000e-001) (14, 1.60685017704963680000e-001) (15, 7.85929709672927860000e-002) (16, 2.30177432298660280000e-001) (17, 2.24936362355947490000e-002) (18, 2.37082451581954960000e-001) (19, -4.02757376432418820000e-002) (20, 1.13921977579593660000e-001) (21, 4.16293561458587650000e-001) (22, 1.39771401882171630000e-001) (23, 2.03965038061141970000e-001) (24, 2.52176642417907710000e-001) (25, 1.54836550354957580000e-001) (26, 1.19019024074077610000e-001) (27, 5.39398416876792910000e-002) (28, 5.59049658477306370000e-002) (29, -1.85882057994604110000e-002) (30, 2.46662467718124390000e-001) (31, 1.09832532703876500000e-001) (32, 1.87726020812988280000e-001) (33, -4.92931962013244630000e-001) (34, -1.41633152961730960000e-001) (35, -3.92488241195678710000e-002) (36, 5.22149652242660520000e-002) (37, -3.36656235158443450000e-002) (38, 4.43239733576774600000e-002) (39, 1.29438117146492000000e-001) (40, -1.73422560095787050000e-001) (41, -1.76081314682960510000e-001) (42, 7.10579603910446170000e-002) (43, 1.08402445912361150000e-001) (0, -1.66982188820838930000e-001) (1, 1.97435587644577030000e-001) (2, 2.42658481001853940000e-001) (3, 1.04834683239459990000e-001) (4, -7.22696036100387570000e-002) (5, -4.26313206553459170000e-002) (6, 2.07319110631942750000e-002) (7, -2.55029164254665370000e-002) (8, 2.62964665889739990000e-001) (9, 6.20298134163022040000e-003) (10, 2.10603475570678710000e-001) (11, 2.53781169652938840000e-001) (12, 1.08066468965262170000e-003) (13, 1.75353452563285830000e-001) (14, 2.22766786813735960000e-001) (15, 9.04430299997329710000e-002) (16, -9.53797474503517150000e-002) (17, 7.13475942611694340000e-002) (18, 7.55309537053108220000e-002) (19, 1.46621510386466980000e-001) (20, 9.39245745539665220000e-002) (21, -1.06647580862045290000e-001) (22, 1.55187919735908510000e-001) (23, -3.22033241391181950000e-002) (24, 1.92372784018516540000e-001) (25, 6.19107410311698910000e-002) (26, -2.95568350702524190000e-002) (27, 2.55634486675262450000e-001) (28, -2.67425142228603360000e-002) (29, 1.39183685183525090000e-001) (30, 6.38123229146003720000e-002) (31, -3.21065559983253480000e-002) (32, 1.00262582302093510000e-001) (33, -4.94700670242309570000e-002) (34, -2.51237805932760240000e-002) (35, -1.34052276611328130000e-001) (36, 3.42360615730285640000e-001) (37, 2.46312003582715990000e-002) (38, 1.15320496261119840000e-001) (39, -5.48367872834205630000e-002) (40, -2.02723369002342220000e-001) (41, -9.06051769852638240000e-002) (42, -4.28240448236465450000e-002) (43, 1.41140550374984740000e-001) (0, 1.08616918325424190000e-001) (1, 9.18316692113876340000e-002) (2, 2.43852108716964720000e-001) (3, 2.17088758945465090000e-001) (4, -2.90960911661386490000e-003) (5, 1.03912286460399630000e-001) (6, 1.50480717420578000000e-001) (7, 4.45313081145286560000e-002) (8, 1.77697688341140750000e-001) (9, 2.96960882842540740000e-002) (10, -7.77563601732254030000e-002) (11, 8.57542268931865690000e-003) (12, 1.24489413574337960000e-002) (13, 7.32526704668998720000e-002) (14, 3.20622354745864870000e-001) (15, 1.40280589461326600000e-001) (16, 1.26480981707572940000e-001) (17, 1.56047552824020390000e-001) (18, -5.35687282681465150000e-002) (19, 2.29513064026832580000e-001) (20, 9.69693362712860110000e-002) (21, 6.44688084721565250000e-002) (22, 3.96451130509376530000e-002) (23, 1.30321010947227480000e-001) (24, -2.18362677842378620000e-002) (25, 1.87290638685226440000e-001) (26, -8.90006646513938900000e-002) (27, 1.81104138493537900000e-001) (28, 1.13429211080074310000e-001) (29, 1.49597749114036560000e-001) (30, 1.32674291729927060000e-001) (31, 4.96488437056541440000e-002) (32, 2.88310259580612180000e-001) (33, -3.19636762142181400000e-001) (34, 1.88250448554754260000e-002) (35, 1.16261228919029240000e-001) (36, 1.10950767993927000000e-001) (37, 6.08210787177085880000e-002) (38, -3.14913317561149600000e-002) (39, 1.06363542377948760000e-001) (40, 1.47361963987350460000e-001) (41, -9.58132967352867130000e-002) (42, -3.85681897401809690000e-001) (43, 5.10661117732524870000e-002) 
