FANN_FLO_2.1
num_layers=12
learning_rate=0.700000
connection_rate=1.000000
network_type=1
learning_momentum=0.000000
training_algorithm=2
train_error_function=0
train_stop_function=0
cascade_output_change_fraction=0.010000
quickprop_decay=-0.000100
quickprop_mu=1.750000
rprop_increase_factor=1.200000
rprop_decrease_factor=0.500000
rprop_delta_min=0.000000
rprop_delta_max=50.000000
rprop_delta_zero=0.100000
cascade_output_stagnation_epochs=12
cascade_candidate_change_fraction=0.010000
cascade_candidate_stagnation_epochs=12
cascade_max_out_epochs=150
cascade_min_out_epochs=15
cascade_max_cand_epochs=150
cascade_min_cand_epochs=15
cascade_num_candidate_groups=2
bit_fail_limit=3.49999994039535520000e-001
cascade_candidate_limit=1.00000000000000000000e+003
cascade_weight_multiplier=4.00000005960464480000e-001
cascade_activation_functions_count=10
cascade_activation_functions=3 5 7 8 10 11 14 15 16 17 
cascade_activation_steepnesses_count=4
cascade_activation_steepnesses=2.50000000000000000000e-001 5.00000000000000000000e-001 7.50000000000000000000e-001 1.00000000000000000000e+000 
layer_sizes=34 1 1 1 1 1 1 1 1 1 1 33 
scale_included=0
neurons (num_inputs, activation_function, activation_steepness)=(0, 0, 0.00000000000000000000e+000) (0, 0, 0.00000000000000000000e+000) (0, 0, 0.00000000000000000000e+000) (0, 0, 0.00000000000000000000e+000) (0, 0, 0.00000000000000000000e+000) (0, 0, 0.00000000000000000000e+000) (0, 0, 0.00000000000000000000e+000) (0, 0, 0.00000000000000000000e+000) (0, 0, 0.00000000000000000000e+000) (0, 0, 0.00000000000000000000e+000) (0, 0, 0.00000000000000000000e+000) (0, 0, 0.00000000000000000000e+000) (0, 0, 0.00000000000000000000e+000) (0, 0, 0.00000000000000000000e+000) (0, 0, 0.00000000000000000000e+000) (0, 0, 0.00000000000000000000e+000) (0, 0, 0.00000000000000000000e+000) (0, 0, 0.00000000000000000000e+000) (0, 0, 0.00000000000000000000e+000) (0, 0, 0.00000000000000000000e+000) (0, 0, 0.00000000000000000000e+000) (0, 0, 0.00000000000000000000e+000) (0, 0, 0.00000000000000000000e+000) (0, 0, 0.00000000000000000000e+000) (0, 0, 0.00000000000000000000e+000) (0, 0, 0.00000000000000000000e+000) (0, 0, 0.00000000000000000000e+000) (0, 0, 0.00000000000000000000e+000) (0, 0, 0.00000000000000000000e+000) (0, 0, 0.00000000000000000000e+000) (0, 0, 0.00000000000000000000e+000) (0, 0, 0.00000000000000000000e+000) (0, 0, 0.00000000000000000000e+000) (0, 0, 0.00000000000000000000e+000) (34, 15, 1.00000000000000000000e+000) (35, 15, 1.00000000000000000000e+000) (36, 14, 7.50000000000000000000e-001) (37, 14, 1.00000000000000000000e+000) (38, 14, 1.00000000000000000000e+000) (39, 14, 1.00000000000000000000e+000) (40, 15, 5.00000000000000000000e-001) (41, 14, 5.00000000000000000000e-001) (42, 15, 5.00000000000000000000e-001) (43, 14, 7.50000000000000000000e-001) (44, 5, 5.00000000000000000000e-001) (44, 5, 5.00000000000000000000e-001) (44, 5, 5.00000000000000000000e-001) (44, 5, 5.00000000000000000000e-001) (44, 5, 5.00000000000000000000e-001) (44, 5, 5.00000000000000000000e-001) (44, 5, 5.00000000000000000000e-001) (44, 5, 5.00000000000000000000e-001) (44, 5, 5.00000000000000000000e-001) (44, 5, 5.00000000000000000000e-001) (44, 5, 5.00000000000000000000e-001) (44, 5, 5.00000000000000000000e-001) (44, 5, 5.00000000000000000000e-001) (44, 5, 5.00000000000000000000e-001) (44, 5, 5.00000000000000000000e-001) (44, 5, 5.00000000000000000000e-001) (44, 5, 5.00000000000000000000e-001) (44, 5, 5.00000000000000000000e-001) (44, 5, 5.00000000000000000000e-001) (44, 5, 5.00000000000000000000e-001) (44, 5, 5.00000000000000000000e-001) (44, 5, 5.00000000000000000000e-001) (44, 5, 5.00000000000000000000e-001) (44, 5, 5.00000000000000000000e-001) (44, 5, 5.00000000000000000000e-001) (44, 5, 5.00000000000000000000e-001) (44, 5, 5.00000000000000000000e-001) (44, 5, 5.00000000000000000000e-001) (44, 5, 5.00000000000000000000e-001) (44, 5, 5.00000000000000000000e-001) (44, 5, 5.00000000000000000000e-001) (44, 5, 5.00000000000000000000e-001) (44, 5, 5.00000000000000000000e-001) 
connections (connected_to_neuron, weight)=(0, -7.21473336219787600000e-001) (1, 1.28338074684143070000e+000) (2, -9.76775944232940670000e-001) (3, 2.88774013519287110000e-001) (4, 6.42878592014312740000e-001) (5, 1.81505155563354490000e+000) (6, 6.63775324821472170000e-001) (7, 1.43625080585479740000e+000) (8, 1.23612952232360840000e+000) (9, 4.01368647813797000000e-001) (10, 6.31349861621856690000e-001) (11, -7.63886272907257080000e-001) (12, 1.85534977912902830000e+000) (13, 2.13685250282287600000e+000) (14, 3.85802268981933590000e+000) (15, 1.17236208915710450000e+000) (16, 3.13209223747253420000e+000) (17, 1.72847521305084230000e+000) (18, 1.81834554672241210000e+000) (19, 1.95293235778808590000e+000) (20, 1.86055731773376460000e+000) (21, 1.20776164531707760000e+000) (22, 2.51780533790588380000e+000) (23, 1.86008512973785400000e+000) (24, 6.11956477165222170000e-001) (25, -6.97373986244201660000e-001) (26, 2.75090789794921870000e+000) (27, 1.79957425594329830000e+000) (28, 1.08323693275451660000e+000) (29, 5.83129702135920520000e-003) (30, 2.01572585105896000000e+000) (31, 6.59066319465637210000e-001) (32, -9.44104790687561040000e-001) (33, 1.70899057388305660000e+000) (0, -2.45719715952873230000e-001) (1, 2.01796770095825200000e+000) (2, -3.66072595119476320000e-001) (3, -8.38081777095794680000e-001) (4, 2.53780627250671390000e+000) (5, 1.65732181072235110000e+000) (6, 1.43345248699188230000e+000) (7, 2.40676736831665040000e+000) (8, 7.15242326259613040000e-001) (9, 1.68608233332633970000e-001) (10, 9.08579289913177490000e-001) (11, 2.54105401039123540000e+000) (12, 4.18860882520675660000e-001) (13, 2.90333557128906250000e+000) (14, 1.62426221370697020000e+000) (15, 1.57233381271362300000e+000) (16, 8.59448194503784180000e-001) (17, 3.13119077682495120000e+000) (18, 1.05682647228240970000e+000) (19, -6.08179450035095210000e-001) (20, 1.09276080131530760000e+000) (21, 1.56847476959228520000e+000) (22, -4.83232378959655760000e-001) (23, 1.16949975490570070000e+000) (24, 8.02000224590301510000e-001) (25, -1.04312896728515630000e+000) (26, 2.96895456314086910000e+000) (27, 1.66753458976745610000e+000) (28, 1.98477530479431150000e+000) (29, 6.10330164432525630000e-001) (30, 1.96065008640289310000e+000) (31, 1.37392520904541020000e+000) (32, 9.02136743068695070000e-001) (33, -1.08998179435729980000e+000) (34, 1.90714740753173830000e+000) (0, -1.88364338874816890000e+000) (1, 4.91198539733886720000e+000) (2, -4.93969023227691650000e-001) (3, 3.26969456672668460000e+000) (4, -4.77077066898345950000e-003) (5, 9.29916799068450930000e-001) (6, 2.33574295043945310000e+000) (7, -1.93200683593750000000e+000) (8, 2.38862657546997070000e+000) (9, -1.70393347740173340000e+000) (10, 3.24399566650390620000e+000) (11, -3.74364763498306270000e-001) (12, 4.18778228759765620000e+000) (13, 2.91624236106872560000e+000) (14, 2.27170562744140620000e+000) (15, -1.08046352863311770000e+000) (16, 1.15789234638214110000e+000) (17, 8.61348688602447510000e-001) (18, 3.74213367700576780000e-001) (19, 2.72906661033630370000e+000) (20, -8.65587055683135990000e-001) (21, 7.77169242501258850000e-002) (22, 1.83760952949523930000e+000) (23, 2.01745271682739260000e+000) (24, 8.87293934822082520000e-001) (25, 2.09874749183654790000e+000) (26, 4.48272973299026490000e-001) (27, 1.46201288700103760000e+000) (28, 1.98324477672576900000e+000) (29, 2.49324655532836910000e+000) (30, 9.30884897708892820000e-001) (31, -9.21382904052734380000e-001) (32, 9.30259823799133300000e-001) (33, -1.00754964351654050000e+000) (34, 2.70214390754699710000e+000) (35, 2.16995263099670410000e+000) (0, 1.32865393161773680000e+000) (1, -1.79228842258453370000e+000) (2, 2.29880619049072270000e+000) (3, 1.46091794967651370000e+000) (4, 3.18933081626892090000e+000) (5, -3.18733930587768550000e-001) (6, 4.57614707946777340000e+000) (7, 1.42921864986419680000e+000) (8, 6.21723413467407230000e-001) (9, 2.42619585990905760000e+000) (10, 2.37224078178405760000e+000) (11, 1.40465855598449710000e+000) (12, 1.75642597675323490000e+000) (13, 1.10484969615936280000e+000) (14, 1.44114745780825610000e-002) (15, 1.09220886230468750000e+000) (16, 2.43876129388809200000e-001) (17, 2.78692722320556640000e+000) (18, 1.50526964664459230000e+000) (19, 3.68083029985427860000e-001) (20, 4.71747219562530520000e-001) (21, 6.01972103118896480000e-001) (22, 3.27396124601364140000e-001) (23, 2.47891092300415040000e+000) (24, 3.26629018783569340000e+000) (25, 7.04674065113067630000e-001) (26, 8.53390321135520940000e-002) (27, 4.26643133163452150000e+000) (28, 2.07555934786796570000e-001) (29, 8.06054830551147460000e-001) (30, 1.42190825939178470000e+000) (31, 5.09924590587615970000e-001) (32, 1.53050673007965090000e+000) (33, -8.75467419624328610000e-001) (34, -7.29034602642059330000e-001) (35, -4.09911483526229860000e-001) (36, 1.51910817623138430000e+000) (0, 8.73657286167144780000e-001) (1, 1.97778269648551940000e-001) (2, 7.31617569923400880000e-001) (3, -1.30092069506645200000e-001) (4, 1.59847843647003170000e+000) (5, 2.71975064277648930000e+000) (6, 6.43173456192016600000e-001) (7, -2.04747572541236880000e-001) (8, 1.69740426540374760000e+000) (9, 4.85552281141281130000e-001) (10, 2.28309965133666990000e+000) (11, 1.33943486213684080000e+000) (12, 1.09807205200195310000e+000) (13, 1.26429080963134770000e+000) (14, 3.64125347137451170000e+000) (15, -2.98331737518310550000e-001) (16, 1.26961481571197510000e+000) (17, 2.09501791000366210000e+000) (18, 2.15376806259155270000e+000) (19, 4.23080801963806150000e-001) (20, 2.14826130867004390000e+000) (21, 3.36321294307708740000e-002) (22, 3.20029568672180180000e+000) (23, 6.82160973548889160000e-001) (24, -1.82897174358367920000e+000) (25, 4.09696102142333980000e+000) (26, 2.60097116231918330000e-001) (27, 1.69439709186553960000e+000) (28, 1.47032558917999270000e+000) (29, 2.81669851392507550000e-002) (30, 1.98405516147613530000e+000) (31, 1.36922705173492430000e+000) (32, 1.06491374969482420000e+000) (33, -5.65821111202239990000e-001) (34, 2.38947104662656780000e-002) (35, 1.22488808631896970000e+000) (36, 6.74608767032623290000e-001) (37, 1.26850008964538570000e+000) (0, 1.06819450855255130000e+000) (1, 1.72047829627990720000e+000) (2, 1.22380018234252930000e+000) (3, 5.79700946807861330000e-001) (4, 8.92304420471191410000e-001) (5, 7.39868655800819400000e-002) (6, 4.71322417259216310000e-001) (7, 8.47686171531677250000e-001) (8, 3.73852878808975220000e-001) (9, 7.50821650028228760000e-001) (10, -1.07488310337066650000e+000) (11, 2.59305405616760250000e+000) (12, -1.07003152370452880000e+000) (13, 5.29407978057861330000e-001) (14, 1.58626365661621090000e+000) (15, 8.91817867755889890000e-001) (16, 2.05222606658935550000e+000) (17, 1.20255053043365480000e+000) (18, 1.05078065395355220000e+000) (19, 2.06931257247924800000e+000) (20, 2.05302047729492190000e+000) (21, -6.55452191829681400000e-001) (22, 2.16759347915649410000e+000) (23, 9.04870107769966130000e-002) (24, 1.26026940345764160000e+000) (25, 9.45201665163040160000e-002) (26, 1.17672789096832280000e+000) (27, 9.68646764755249020000e-001) (28, -1.55388429760932920000e-001) (29, 5.23997962474823000000e-001) (30, 2.02146792411804200000e+000) (31, 2.74031686782836910000e+000) (32, 1.33584189414978030000e+000) (33, -3.31007152795791630000e-001) (34, -2.33096778392791750000e-001) (35, 1.57559287548065190000e+000) (36, 1.90224266052246090000e+000) (37, 2.35586214065551760000e+000) (38, 2.21386027336120610000e+000) (0, -2.62658417224884030000e-001) (1, 1.49821877479553220000e+000) (2, 4.51139163970947270000e+000) (3, 2.12262734770774840000e-001) (4, -2.50105589628219600000e-001) (5, 2.99104070663452150000e+000) (6, 3.42599279247224330000e-003) (7, 3.18775868415832520000e+000) (8, 2.29920196533203120000e+000) (9, 1.90932679176330570000e+000) (10, -5.81981778144836430000e-001) (11, -4.03366029262542720000e-001) (12, 2.59513831138610840000e+000) (13, 2.02053380012512210000e+000) (14, -4.52012987807393070000e-003) (15, 2.51905107498168950000e+000) (16, 2.36948251724243160000e+000) (17, 2.11457347869873050000e+000) (18, 3.06011247634887700000e+000) (19, -1.26898527145385740000e-001) (20, -4.67189520597457890000e-001) (21, 2.44703316688537600000e+000) (22, 3.38599586486816410000e+000) (23, -1.49964737892150880000e+000) (24, -1.20027229189872740000e-001) (25, 1.52100372314453120000e+000) (26, -2.97301793098449710000e+000) (27, -5.81794083118438720000e-001) (28, 1.96577250957489010000e-001) (29, -4.95529413223266600000e+000) (30, -4.42910045385360720000e-001) (31, 1.50481319427490230000e+000) (32, 1.14909696578979490000e+000) (33, 8.13663244247436520000e-001) (34, 1.17299652099609370000e+000) (35, 7.30390608310699460000e-001) (36, 6.31790935993194580000e-001) (37, 3.09304094314575200000e+000) (38, 1.60320031642913820000e+000) (39, 1.51787602901458740000e+000) (0, 2.06671905517578130000e+000) (1, 6.10781133174896240000e-001) (2, 9.76026356220245360000e-001) (3, 6.80354177951812740000e-001) (4, 1.47854018211364750000e+000) (5, 4.39655637741088870000e+000) (6, 2.32441997528076170000e+000) (7, 1.21098673343658450000e+000) (8, 1.69770312309265140000e+000) (9, -4.80162888765335080000e-001) (10, 2.26743721961975100000e+000) (11, -9.07264411449432370000e-001) (12, -1.61708414554595950000e+000) (13, 9.72883105278015140000e-002) (14, 1.46365654468536380000e+000) (15, 4.85543727874755860000e+000) (16, -2.68812274932861330000e+000) (17, -5.01515865325927730000e-001) (18, 1.34333264827728270000e+000) (19, -1.10872089862823490000e+000) (20, 1.57381808757781980000e+000) (21, 1.73656487464904790000e+000) (22, 1.90742278099060060000e+000) (23, -1.15001879632472990000e-001) (24, 3.93664598464965820000e+000) (25, -7.71891593933105470000e-001) (26, 1.79334962368011470000e+000) (27, 1.53115010261535640000e+000) (28, 2.59334087371826170000e+000) (29, 4.92271757125854490000e+000) (30, 2.70682573318481450000e+000) (31, 1.74654018878936770000e+000) (32, -1.48794639110565190000e+000) (33, 1.18473267555236820000e+000) (34, 7.12772727012634280000e-001) (35, 1.23426628112792970000e+000) (36, 2.56006455421447750000e+000) (37, 2.62565946578979490000e+000) (38, 3.62528395652771000000e+000) (39, 5.30453681945800780000e-001) (40, -8.16599428653717040000e-002) (0, -4.00605201721191410000e-001) (1, 1.13777208328247070000e+000) (2, -5.26088535785675050000e-001) (3, 7.26106986403465270000e-002) (4, 1.33739745616912840000e+000) (5, 6.01187348365783690000e-001) (6, 2.22760033607482910000e+000) (7, -2.78099954128265380000e-001) (8, 2.84821212291717530000e-001) (9, 6.11443400382995610000e-001) (10, 1.46822834014892580000e+000) (11, 8.85111927986145020000e-001) (12, -2.25492334365844730000e+000) (13, -1.78163862228393550000e+000) (14, 8.95601809024810790000e-001) (15, 1.82131636142730710000e+000) (16, -2.82952394336462020000e-002) (17, 2.01153874397277830000e+000) (18, -2.18570375442504880000e+000) (19, -7.53266394138336180000e-001) (20, 4.59096384048461910000e+000) (21, 2.31265592575073240000e+000) (22, 1.49557578563690190000e+000) (23, 4.67256402969360350000e+000) (24, -3.50198686122894290000e-001) (25, 1.72622501850128170000e+000) (26, 4.76956987380981450000e+000) (27, -5.83771765232086180000e-001) (28, 1.16331768035888670000e+000) (29, -1.55583381652832030000e+000) (30, 2.84295105934143070000e+000) (31, 2.19925975799560550000e+000) (32, -6.42031252384185790000e-001) (33, 9.31162655353546140000e-001) (34, 2.24918723106384280000e+000) (35, 6.14706337451934810000e-001) (36, 2.33494067192077640000e+000) (37, 3.15271973609924320000e+000) (38, 1.25858461856842040000e+000) (39, 1.65049326419830320000e+000) (40, 1.31050443649291990000e+000) (41, -1.10612869262695310000e+000) (0, 2.08856725692749020000e+000) (1, 6.59114718437194820000e-001) (2, -1.39248764514923100000e+000) (3, -3.76861423254013060000e-001) (4, 4.18670320510864260000e+000) (5, -1.40526890754699710000e+000) (6, 3.77368664741516110000e+000) (7, -6.71648383140563960000e-001) (8, 1.21300542354583740000e+000) (9, -7.32717812061309810000e-002) (10, 2.55691480636596680000e+000) (11, 1.36567068099975590000e+000) (12, 2.08117055892944340000e+000) (13, 9.14847612380981450000e-001) (14, 2.33595418930053710000e+000) (15, 8.77347409725189210000e-001) (16, 1.30084037780761720000e+000) (17, 2.02453708648681640000e+000) (18, 2.35191300511360170000e-001) (19, 1.54632723331451420000e+000) (20, 9.42349791526794430000e-001) (21, -1.15695476531982420000e+000) (22, 4.09121227264404300000e+000) (23, 6.11644923686981200000e-001) (24, 1.40251600742340090000e+000) (25, 1.12399065494537350000e+000) (26, 4.08742278814315800000e-001) (27, 1.03379869461059570000e+000) (28, 3.61669361591339110000e-001) (29, 2.16857576370239260000e+000) (30, -7.54556477069854740000e-001) (31, 4.29812461137771610000e-001) (32, 2.12865400314331050000e+000) (33, 1.93215155601501460000e+000) (34, 2.00977057218551640000e-001) (35, 1.75994193553924560000e+000) (36, -2.47455716133117680000e-001) (37, 2.86451649665832520000e+000) (38, 1.88043832778930660000e+000) (39, 1.91295003890991210000e+000) (40, 1.30752503871917720000e+000) (41, 2.30096793174743650000e+000) (42, 3.84311884641647340000e-001) (0, 1.10283292829990390000e-001) (1, 8.49635899066925050000e-002) (2, 2.62966334819793700000e-001) (3, 1.43001124262809750000e-001) (4, 1.87105417251586910000e-001) (5, 8.68677869439125060000e-002) (6, 1.35741755366325380000e-001) (7, 9.78278666734695430000e-002) (8, 2.25906386971473690000e-001) (9, 2.35074356198310850000e-001) (10, 5.85567094385623930000e-002) (11, 1.30756780505180360000e-001) (12, 1.38820484280586240000e-001) (13, 1.61732941865921020000e-001) (14, 1.40821292996406560000e-001) (15, 7.79798924922943120000e-002) (16, 1.22136630117893220000e-001) (17, 2.22162157297134400000e-001) (18, 2.49832004308700560000e-001) (19, 1.44468277692794800000e-001) (20, 5.91315589845180510000e-002) (21, 1.09941527247428890000e-001) (22, 6.69499486684799190000e-002) (23, 1.50629043579101560000e-001) (24, 1.63317129015922550000e-001) (25, 2.34288617968559270000e-001) (26, 1.47992685437202450000e-001) (27, 1.18143677711486820000e-001) (28, 7.58879929780960080000e-002) (29, 2.63426721096038820000e-001) (30, 1.03821732103824620000e-001) (31, 1.59724503755569460000e-001) (32, 1.92846938967704770000e-001) (33, -4.91439640522003170000e-001) (34, -8.44567343592643740000e-002) (35, 3.19933518767356870000e-002) (36, -3.69319729506969450000e-002) (37, -1.26423284411430360000e-001) (38, 1.42795801162719730000e-001) (39, 8.40232744812965390000e-002) (40, -2.71776784211397170000e-002) (41, -8.44874829053878780000e-002) (42, -1.29181683063507080000e-001) (43, 6.37007057666778560000e-002) (0, 1.43046081066131590000e-001) (1, 9.03683751821517940000e-002) (2, 6.96194320917129520000e-002) (3, 1.45476549863815310000e-001) (4, 1.25721260905265810000e-001) (5, 1.47209182381629940000e-001) (6, 9.81265529990196230000e-002) (7, 9.03583914041519170000e-002) (8, 8.54194760322570800000e-002) (9, 4.49839560315012930000e-003) (10, 5.40606640279293060000e-002) (11, 1.65463864803314210000e-001) (12, 2.22049187868833540000e-002) (13, 1.67187049984931950000e-001) (14, 6.90495595335960390000e-002) (15, 1.58889874815940860000e-001) (16, 4.06741537153720860000e-002) (17, 1.31792649626731870000e-001) (18, 9.22881811857223510000e-003) (19, 1.74291849136352540000e-001) (20, 1.05754971504211430000e-001) (21, 7.78172463178634640000e-002) (22, 6.98690414428710940000e-002) (23, 6.64531067013740540000e-002) (24, 1.23505331575870510000e-001) (25, -7.79723701998591420000e-003) (26, 2.10549514740705490000e-002) (27, -1.00824171677231790000e-002) (28, 4.75347451865673070000e-002) (29, 1.19427390396595000000e-001) (30, 4.95015569031238560000e-002) (31, 5.93413300812244420000e-002) (32, -2.47206669300794600000e-002) (33, -1.43314272165298460000e-001) (34, -7.88936242461204530000e-002) (35, 1.15917906165122990000e-001) (36, 9.99129563570022580000e-002) (37, -2.84885987639427190000e-002) (38, 7.97553807497024540000e-002) (39, 3.38940881192684170000e-002) (40, 6.59641018137335780000e-003) (41, 1.71811357140541080000e-002) (42, 1.64713915437459950000e-002) (43, -6.51140436530113220000e-002) (0, 4.04466539621353150000e-002) (1, 1.14735476672649380000e-001) (2, 5.36324232816696170000e-002) (3, 4.03144434094429020000e-002) (4, 1.24337233603000640000e-001) (5, 1.22209377586841580000e-001) (6, 1.27087816596031190000e-001) (7, 2.27365270256996150000e-001) (8, 1.59324541687965390000e-001) (9, 8.64306762814521790000e-002) (10, 9.21471342444419860000e-002) (11, 1.35962337255477910000e-001) (12, 1.18323989212512970000e-001) (13, 6.45598545670509340000e-002) (14, 1.90388292074203490000e-001) (15, 2.62977302074432370000e-001) (16, 1.59961506724357600000e-001) (17, 1.55984878540039060000e-001) (18, 5.80252856016159060000e-002) (19, 2.94378008693456650000e-002) (20, 8.77837389707565310000e-002) (21, 4.70552705228328700000e-002) (22, 6.23762495815753940000e-002) (23, 1.80451184511184690000e-001) (24, 9.79700312018394470000e-002) (25, 1.36823341250419620000e-001) (26, 1.71471759676933290000e-001) (27, 9.87073928117752080000e-002) (28, 7.57344067096710210000e-002) (29, 9.02777314186096190000e-002) (30, 7.42909833788871770000e-002) (31, 1.19336247444152830000e-001) (32, 1.46315932273864750000e-001) (33, -2.67901927232742310000e-001) (34, 5.49197532236576080000e-002) (35, 1.39167532324790950000e-001) (36, -1.92119821906089780000e-001) (37, 1.04557618498802190000e-001) (38, -8.35255533456802370000e-002) (39, 5.25075793266296390000e-002) (40, -7.61354565620422360000e-002) (41, 1.16914048790931700000e-001) (42, -1.69133186340332030000e-001) (43, -2.23621949553489690000e-002) (0, 1.36138394474983220000e-001) (1, 1.13185107707977290000e-001) (2, 4.87241186201572420000e-002) (3, 7.86744728684425350000e-002) (4, 9.99529063701629640000e-002) (5, 1.05416737496852870000e-001) (6, 1.58896297216415410000e-001) (7, 9.02743116021156310000e-002) (8, 8.37649628520011900000e-002) (9, 1.16230607032775880000e-001) (10, 1.06645680963993070000e-001) (11, 1.10926784574985500000e-001) (12, 1.62650942802429200000e-001) (13, 2.01895877718925480000e-001) (14, -7.32654556632041930000e-002) (15, 1.43437758088111880000e-001) (16, 6.90683126449584960000e-002) (17, 6.98972493410110470000e-002) (18, 1.70160196721553800000e-002) (19, 3.89774627983570100000e-002) (20, 1.02362342178821560000e-001) (21, 1.14986829459667210000e-001) (22, 5.56159988045692440000e-002) (23, 9.13883969187736510000e-002) (24, 7.73466378450393680000e-002) (25, 1.59762427210807800000e-001) (26, 5.76312169432640080000e-002) (27, 1.11011609435081480000e-001) (28, -4.89849559962749480000e-002) (29, 9.57643687725067140000e-002) (30, -9.96906193904578690000e-004) (31, -3.29342596232891080000e-002) (32, 6.98828995227813720000e-002) (33, -1.21168926358222960000e-001) (34, 4.69447337090969090000e-002) (35, -5.24592250585556030000e-002) (36, 1.53688356280326840000e-001) (37, -1.10342472791671750000e-001) (38, 1.49576693773269650000e-001) (39, 1.47722125053405760000e-001) (40, -1.56952872872352600000e-001) (41, -5.69089129567146300000e-002) (42, 1.72421425580978390000e-001) (43, -8.83999615907669070000e-002) (0, 3.20503786206245420000e-002) (1, -5.94627931714057920000e-002) (2, -5.58440051972866060000e-002) (3, 3.32572311162948610000e-002) (4, 6.75565078854560850000e-002) (5, -7.47245177626609800000e-002) (6, -1.27150276675820350000e-002) (7, 2.77173761278390880000e-002) (8, 9.46371757891029120000e-004) (9, 4.68984954059123990000e-002) (10, -9.74899008870124820000e-002) (11, 9.20461267232894900000e-002) (12, 1.74761004745960240000e-002) (13, -1.63528956472873690000e-002) (14, -3.67786064743995670000e-002) (15, -3.84505577385425570000e-002) (16, 8.89231339097023010000e-002) (17, 2.43885088711977010000e-002) (18, 1.93123128265142440000e-002) (19, 3.38262394070625310000e-002) (20, 7.56564885377883910000e-002) (21, -5.63382208347320560000e-002) (22, 2.60673998855054380000e-003) (23, 4.45096939802169800000e-002) (24, -6.01338073611259460000e-002) (25, -1.05862468481063840000e-002) (26, 8.29690769314765930000e-002) (27, 8.12423590105026960000e-004) (28, 3.34680750966072080000e-002) (29, -1.43141644075512890000e-002) (30, 1.98267828673124310000e-002) (31, -4.26539927721023560000e-002) (32, 1.01581141352653500000e-001) (33, 3.23977708816528320000e-001) (34, 4.50042784214019780000e-002) (35, 9.46868509054183960000e-002) (36, -1.26061484217643740000e-001) (37, 1.66370064020156860000e-001) (38, -2.60111242532730100000e-002) (39, 6.20705634355545040000e-002) (40, 8.52012261748313900000e-002) (41, -1.81620102375745770000e-002) (42, 2.89735849946737290000e-002) (43, -1.11664710566401480000e-002) (0, -2.85980459302663800000e-002) (1, -6.16658944636583330000e-003) (2, 2.58266441524028780000e-002) (3, -7.88901299238204960000e-002) (4, 5.48270763829350470000e-004) (5, 1.04471750557422640000e-001) (6, -7.41635188460350040000e-002) (7, 7.98641145229339600000e-002) (8, 5.33288531005382540000e-002) (9, 4.00807522237300870000e-002) (10, -2.16491241008043290000e-002) (11, 2.26778071373701100000e-002) (12, -4.02665622532367710000e-002) (13, -1.27562787383794780000e-003) (14, -2.81513854861259460000e-002) (15, 1.14476434886455540000e-001) (16, -6.81089684367179870000e-002) (17, -4.94519248604774480000e-002) (18, -3.64300534129142760000e-002) (19, -7.73902377113699910000e-003) (20, -8.28497670590877530000e-003) (21, 5.85481114685535430000e-002) (22, -9.87580120563507080000e-002) (23, -1.09966143965721130000e-001) (24, 1.15368284285068510000e-001) (25, -1.02196820080280300000e-003) (26, -2.91410777717828750000e-002) (27, -3.58387790620327000000e-002) (28, 2.31328178197145460000e-002) (29, 1.77445877343416210000e-002) (30, 4.75183390080928800000e-002) (31, -5.48598542809486390000e-002) (32, -2.73178182542324070000e-002) (33, 3.70721399784088130000e-001) (34, 1.40825239941477780000e-002) (35, -7.83939585089683530000e-002) (36, 1.15530394017696380000e-001) (37, 5.17267026007175450000e-002) (38, 8.64436551928520200000e-002) (39, -1.06255427002906800000e-001) (40, 1.26677118241786960000e-002) (41, -2.35696304589509960000e-002) (42, -1.30342142656445500000e-002) (43, 7.77715370059013370000e-002) (0, 1.85118719935417180000e-001) (1, 9.66875404119491580000e-002) (2, 1.82113915681838990000e-001) (3, 1.12195320427417760000e-001) (4, 6.13479241728782650000e-002) (5, 1.21913917362689970000e-001) (6, 4.41362075507640840000e-002) (7, 1.92908808588981630000e-001) (8, 2.43594795465469360000e-001) (9, 1.67065545916557310000e-001) (10, 1.64386868476867680000e-001) (11, 1.09236679971218110000e-001) (12, 2.78266929090023040000e-002) (13, 1.82333782315254210000e-001) (14, 3.21850985288620000000e-001) (15, 1.98065340518951420000e-001) (16, 5.65324984490871430000e-002) (17, 1.49447873234748840000e-001) (18, 9.88136604428291320000e-002) (19, 8.03535282611846920000e-002) (20, 2.27067351341247560000e-001) (21, 4.05866354703903200000e-002) (22, 4.23828065395355220000e-002) (23, 8.70385840535163880000e-002) (24, 2.07213625311851500000e-001) (25, 1.45338505506515500000e-001) (26, 2.36701950430870060000e-001) (27, 9.46255326271057130000e-002) (28, 1.10170014202594760000e-001) (29, 4.91961697116494180000e-003) (30, 7.35918432474136350000e-002) (31, 1.52399227023124690000e-001) (32, 4.86348383128643040000e-002) (33, -3.75532686710357670000e-001) (34, 1.03853352367877960000e-001) (35, 1.11099027097225190000e-001) (36, -1.32890433073043820000e-001) (37, 1.04788683354854580000e-001) (38, -5.74390701949596410000e-002) (39, 5.65466098487377170000e-002) (40, -1.93122494965791700000e-002) (41, 1.72572314739227290000e-001) (42, 5.65517172217369080000e-002) (43, -1.30461100488901140000e-002) (0, 6.48824796080589290000e-002) (1, -7.14853778481483460000e-002) (2, 3.46727035939693450000e-002) (3, -1.14392219111323360000e-002) (4, -5.64070045948028560000e-002) (5, -2.08328049629926680000e-002) (6, 1.48570677265524860000e-002) (7, -5.53422868251800540000e-002) (8, -3.76284979283809660000e-002) (9, -9.43871289491653440000e-002) (10, 1.07382554560899730000e-002) (11, 5.26627525687217710000e-002) (12, 2.19848332926630970000e-003) (13, 8.35217759013175960000e-002) (14, 8.11725184321403500000e-002) (15, 8.75587854534387590000e-003) (16, -6.78526312112808230000e-002) (17, -3.95267605781555180000e-002) (18, -4.33345884084701540000e-003) (19, 1.08680009841918950000e-001) (20, 4.71663326025009160000e-002) (21, 4.30502695962786670000e-003) (22, 1.52087435126304630000e-002) (23, 3.96298849955201150000e-003) (24, -1.22874163091182710000e-001) (25, -4.44826707243919370000e-002) (26, 1.40385946724563840000e-003) (27, -3.93499911297112700000e-004) (28, -1.03314919397234920000e-002) (29, -3.64745259284973140000e-002) (30, 3.31060588359832760000e-002) (31, 9.69871133565902710000e-003) (32, 5.92824444174766540000e-002) (33, 3.97415339946746830000e-001) (34, -4.43657487630844120000e-002) (35, 6.56266286969184880000e-002) (36, -1.88843253999948500000e-002) (37, 1.20399445295333860000e-001) (38, 4.48225699365139010000e-002) (39, 5.90297169983386990000e-002) (40, -6.29638358950614930000e-002) (41, -3.16396765410900120000e-002) (42, 8.61378461122512820000e-002) (43, 8.41923430562019350000e-002) (0, 9.69352275133132930000e-002) (1, 3.71605493128299710000e-002) (2, 2.97529548406600950000e-002) (3, 4.45708446204662320000e-002) (4, 8.55500400066375730000e-002) (5, 2.79491022229194640000e-002) (6, 2.72465143352746960000e-002) (7, 2.00214292854070660000e-002) (8, -6.79316893219947810000e-002) (9, 1.35326310992240910000e-001) (10, 7.10295438766479490000e-002) (11, -4.66623269021511080000e-002) (12, 2.22855750471353530000e-002) (13, 2.03766569495201110000e-001) (14, 6.73123225569725040000e-002) (15, 1.41626708209514620000e-002) (16, 6.55080378055572510000e-002) (17, 1.14468671381473540000e-001) (18, 6.23602718114852910000e-002) (19, 4.64712493121623990000e-002) (20, 8.59404876828193660000e-002) (21, 6.79706037044525150000e-002) (22, 9.68657135963439940000e-002) (23, 1.35624855756759640000e-001) (24, -4.67697829008102420000e-002) (25, 5.58378584682941440000e-002) (26, 7.46617540717124940000e-002) (27, 3.87498028576374050000e-002) (28, -1.04877771809697150000e-002) (29, -7.02574402093887330000e-002) (30, 5.75091354548931120000e-002) (31, 5.08433170616626740000e-002) (32, 7.32940882444381710000e-002) (33, 3.55966463685035710000e-002) (34, -4.18321043252944950000e-003) (35, -1.21317438781261440000e-001) (36, -8.12603998929262160000e-003) (37, -1.68854117393493650000e-001) (38, -2.04301401972770690000e-001) (39, -2.26241201162338260000e-002) (40, 7.10645988583564760000e-002) (41, -4.86895628273487090000e-002) (42, 2.57718767970800400000e-002) (43, -6.49396032094955440000e-002) (0, 9.15246233344078060000e-002) (1, -6.55709439888596530000e-003) (2, 9.74321290850639340000e-002) (3, 1.82726196944713590000e-002) (4, 1.43601924180984500000e-001) (5, 4.59488071501255040000e-002) (6, 1.52950003743171690000e-001) (7, 6.83050751686096190000e-002) (8, 4.04201969504356380000e-002) (9, 9.43547673523426060000e-003) (10, 1.77016034722328190000e-001) (11, 9.65223461389541630000e-002) (12, 6.59200847148895260000e-002) (13, 4.44488525390625000000e-002) (14, 7.23624452948570250000e-002) (15, 1.25581413507461550000e-001) (16, 1.40237525105476380000e-001) (17, 3.54412607848644260000e-002) (18, 2.46443059295415880000e-002) (19, 7.46398270130157470000e-002) (20, 1.81202530860900880000e-001) (21, 1.74311593174934390000e-001) (22, 9.38236042857170100000e-002) (23, 1.62296190857887270000e-001) (24, 1.34374991059303280000e-001) (25, 9.00932252407073970000e-002) (26, 1.52653247117996220000e-001) (27, 8.34253653883934020000e-002) (28, 1.29731193184852600000e-001) (29, 1.51536855846643450000e-002) (30, 9.63162183761596680000e-002) (31, 4.10326234996318820000e-002) (32, 1.75481393933296200000e-001) (33, -1.81490227580070500000e-001) (34, -4.62232679128646850000e-002) (35, 4.78539317846298220000e-002) (36, 1.00142642855644230000e-001) (37, -7.74121098220348360000e-003) (38, -3.59277985990047450000e-002) (39, -1.10427075996994970000e-002) (40, 7.81324803829193120000e-002) (41, 5.35867325961589810000e-002) (42, 1.52648732066154480000e-001) (43, -9.01170372962951660000e-002) (0, 4.32229116559028630000e-002) (1, 1.18212245404720310000e-001) (2, 4.96184490621089940000e-002) (3, 5.56758642196655270000e-002) (4, 1.63738857954740520000e-002) (5, -9.43453982472419740000e-003) (6, -5.09391445666551590000e-003) (7, 2.02478632330894470000e-001) (8, 7.05615282058715820000e-002) (9, 2.77400738559663300000e-003) (10, 1.22767478227615360000e-001) (11, 2.34832782298326490000e-002) (12, 1.17055796086788180000e-001) (13, 4.02966812252998350000e-002) (14, 2.64882594347000120000e-002) (15, 4.43884022533893590000e-002) (16, 6.31430223584175110000e-002) (17, 6.37083351612091060000e-002) (18, 2.96704396605491640000e-002) (19, 7.90917426347732540000e-002) (20, 8.37595760822296140000e-002) (21, 1.14668741822242740000e-001) (22, 1.77933335304260250000e-001) (23, 2.56348047405481340000e-002) (24, 9.83499139547348020000e-002) (25, -6.14113844931125640000e-002) (26, -3.91943641006946560000e-002) (27, 2.53415349870920180000e-002) (28, 8.20914953947067260000e-002) (29, 6.90894275903701780000e-002) (30, 1.21346220374107360000e-001) (31, 3.03778867237269880000e-003) (32, -9.90476179867982860000e-003) (33, 2.98201404511928560000e-002) (34, 1.32008895277976990000e-001) (35, -5.98613619804382320000e-002) (36, -8.40115025639534000000e-002) (37, 1.01683046668767930000e-002) (38, -8.82093384861946110000e-002) (39, -1.29162371158599850000e-001) (40, 5.23695126175880430000e-002) (41, 3.75255011022090910000e-002) (42, 1.19751147925853730000e-001) (43, 2.86171957850456240000e-002) (0, 3.74344885349273680000e-002) (1, 2.08386197686195370000e-001) (2, 1.20143905282020570000e-001) (3, 2.08262607455253600000e-001) (4, 1.25204592943191530000e-001) (5, 1.51385575532913210000e-001) (6, 1.30491420626640320000e-001) (7, 5.83014115691185000000e-002) (8, 2.25559309124946590000e-001) (9, 6.68163150548934940000e-002) (10, 1.53624057769775390000e-001) (11, 6.40088543295860290000e-002) (12, 9.96575579047203060000e-002) (13, 6.30860179662704470000e-002) (14, 1.95117518305778500000e-001) (15, 6.51459917426109310000e-002) (16, 7.36239403486251830000e-002) (17, 1.62998214364051820000e-001) (18, 3.41331362724304200000e-002) (19, 2.22409173846244810000e-001) (20, 1.43196597695350650000e-001) (21, -4.15934659540653230000e-002) (22, 1.47995039820671080000e-001) (23, 1.04114450514316560000e-001) (24, 1.73972010612487790000e-001) (25, 9.88956987857818600000e-002) (26, 8.15019160509109500000e-002) (27, 2.52316355705261230000e-001) (28, 1.29677936434745790000e-001) (29, 1.31629273295402530000e-001) (30, 1.80607922375202180000e-002) (31, 2.16771513223648070000e-001) (32, -8.02344456315040590000e-003) (33, -3.47961485385894780000e-001) (34, -7.57635235786437990000e-002) (35, -2.68019549548625950000e-003) (36, 1.21207281947135930000e-001) (37, 1.43804633989930150000e-002) (38, -5.17124868929386140000e-002) (39, -1.34408727288246150000e-001) (40, 1.37554127722978590000e-002) (41, -1.07462637126445770000e-001) (42, 1.80996526032686230000e-002) (43, -4.62361462414264680000e-002) (0, 9.23797115683555600000e-002) (1, 6.13485760986804960000e-002) (2, 1.30702909082174300000e-002) (3, -5.71150705218315120000e-002) (4, 4.25407430157065390000e-003) (5, -7.41254314780235290000e-002) (6, 1.13639697432518010000e-001) (7, 2.75102760642766950000e-002) (8, 2.00917087495327000000e-002) (9, 1.09858319163322450000e-001) (10, 4.55966629087924960000e-002) (11, -1.36448955163359640000e-002) (12, 1.42731294035911560000e-002) (13, 9.84758883714675900000e-002) (14, 1.16190664470195770000e-001) (15, -3.45242172479629520000e-002) (16, -1.87438596040010450000e-002) (17, 5.61082661151885990000e-002) (18, 7.53068998456001280000e-002) (19, 9.74725931882858280000e-002) (20, -4.00810763239860530000e-002) (21, 7.77640938758850100000e-002) (22, 2.37937700003385540000e-002) (23, 1.42223402857780460000e-001) (24, -6.19731284677982330000e-002) (25, 7.61621817946434020000e-002) (26, 9.69009622931480410000e-002) (27, 1.34749915450811390000e-002) (28, 1.55222177505493160000e-001) (29, 1.12254582345485690000e-002) (30, 1.55688405036926270000e-001) (31, 1.15035638213157650000e-001) (32, 8.28828569501638410000e-003) (33, 9.25678610801696780000e-002) (34, -7.41923376917839050000e-002) (35, 4.91395359858870510000e-003) (36, -7.83774554729461670000e-002) (37, 5.05461394786834720000e-002) (38, -4.46552298963069920000e-002) (39, 3.34449186921119690000e-002) (40, 1.34710937738418580000e-001) (41, -5.11920377612113950000e-002) (42, -6.31902217864990230000e-002) (43, 3.24075967073440550000e-002) (0, 1.69311478734016420000e-001) (1, 1.99511975049972530000e-001) (2, 1.96376621723175050000e-001) (3, 2.17549264430999760000e-001) (4, 4.91574853658676150000e-002) (5, 6.67042955756187440000e-002) (6, 3.82302515208721160000e-002) (7, 4.40718084573745730000e-002) (8, 1.19385331869125370000e-001) (9, 1.31462529301643370000e-001) (10, 1.23765453696250920000e-001) (11, 3.73807474970817570000e-002) (12, 8.35896059870719910000e-002) (13, 3.87609899044036870000e-002) (14, 1.70213222503662110000e-001) (15, 1.09714575111866000000e-001) (16, 9.70270782709121700000e-002) (17, 6.82607963681221010000e-002) (18, 2.14698687195777890000e-001) (19, 8.20198208093643190000e-002) (20, 4.26236316561698910000e-002) (21, 1.06922790408134460000e-001) (22, 6.86622411012649540000e-002) (23, 2.15164884924888610000e-001) (24, 1.30954772233963010000e-001) (25, 5.09861074388027190000e-002) (26, 4.24649082124233250000e-002) (27, 4.40931618213653560000e-002) (28, 9.55429971218109130000e-002) (29, 7.61454328894615170000e-002) (30, 1.34420365095138550000e-001) (31, 1.46932989358901980000e-001) (32, 1.69171005487442020000e-001) (33, -2.54674762487411500000e-001) (34, 1.45737994462251660000e-002) (35, -7.04163312911987300000e-003) (36, -7.57040679454803470000e-002) (37, 1.23293198645114900000e-001) (38, 5.52546279504895210000e-003) (39, 1.12558551132678990000e-001) (40, -1.33957922458648680000e-001) (41, 9.25835408270359040000e-003) (42, -6.36514499783515930000e-002) (43, 1.34155321866273880000e-002) (0, 2.47055999934673310000e-002) (1, 3.94561886787414550000e-002) (2, -1.18115589022636410000e-001) (3, 7.44278281927108760000e-002) (4, 7.38995224237442020000e-002) (5, 3.11807822436094280000e-002) (6, -2.51124463975429530000e-002) (7, 3.34653183817863460000e-002) (8, 4.67779934406280520000e-002) (9, 5.55257201194763180000e-002) (10, -8.69852975010871890000e-002) (11, 8.29703360795974730000e-003) (12, 1.39536755159497260000e-002) (13, -4.91028241813182830000e-002) (14, -7.81696215271949770000e-002) (15, 8.52172225713729860000e-002) (16, -1.22156683355569840000e-002) (17, 6.56293332576751710000e-002) (18, 6.33674189448356630000e-002) (19, -2.75671891868114470000e-002) (20, -5.61515949666500090000e-002) (21, 9.49531421065330510000e-002) (22, 2.27162032388150690000e-003) (23, -6.29760231822729110000e-003) (24, -6.33478239178657530000e-002) (25, 4.45873439311981200000e-002) (26, 5.38281630724668500000e-003) (27, 8.17615538835525510000e-002) (28, 9.55049917101860050000e-002) (29, 6.34116027504205700000e-003) (30, -3.40856052935123440000e-002) (31, 9.11798775196075440000e-002) (32, 1.76683086901903150000e-002) (33, 2.41599559783935550000e-001) (34, -3.83527837693691250000e-002) (35, -5.90054243803024290000e-002) (36, 2.67421305179595950000e-002) (37, 3.76106500625610350000e-002) (38, 1.10048845410346980000e-001) (39, 3.85300256311893460000e-002) (40, 3.85868251323699950000e-002) (41, 3.45595786347985270000e-003) (42, 7.04757357016205790000e-003) (43, -3.53561975061893460000e-002) (0, 2.98874103464186190000e-003) (1, 1.50059694424271580000e-002) (2, 1.19542509317398070000e-001) (3, -7.28749930858612060000e-002) (4, -6.07811808586120610000e-002) (5, 3.05280666798353200000e-002) (6, 2.03246455639600750000e-002) (7, -1.77282914519310000000e-002) (8, -3.66962794214487080000e-003) (9, -4.21339571475982670000e-002) (10, 1.01986229419708250000e-002) (11, 3.43420691788196560000e-002) (12, -2.62824650853872300000e-002) (13, -1.20125837624073030000e-001) (14, 1.55805721879005430000e-001) (15, 3.12516391277313230000e-002) (16, -5.99898621439933780000e-002) (17, 1.07972305268049240000e-002) (18, 9.14453156292438510000e-003) (19, -5.88269568979740140000e-002) (20, -7.70561723038554190000e-003) (21, 9.95258018374443050000e-002) (22, -6.93393275141716000000e-002) (23, -4.39285337924957280000e-002) (24, 7.95857906341552730000e-002) (25, 4.34568077325820920000e-002) (26, 7.11517333984375000000e-002) (27, 1.66023522615432740000e-002) (28, -2.70538572221994400000e-002) (29, -5.48499524593353270000e-002) (30, 7.03522516414523120000e-003) (31, 1.54210645705461500000e-002) (32, -6.44208416342735290000e-002) (33, 3.70149672031402590000e-001) (34, -1.61465376615524290000e-001) (35, -5.74183315038681030000e-002) (36, -4.34508584439754490000e-002) (37, 1.33548667654395100000e-002) (38, 2.38640103489160540000e-002) (39, -3.13887745141983030000e-002) (40, -9.41549539566040040000e-002) (41, -3.99081930518150330000e-002) (42, 7.95737802982330320000e-002) (43, -3.34218181669712070000e-002) (0, -5.32199069857597350000e-002) (1, 2.04038649797439580000e-001) (2, 8.58246684074401860000e-002) (3, 6.72004073858261110000e-002) (4, 3.92336174845695500000e-002) (5, 1.34986415505409240000e-001) (6, 7.83335715532302860000e-002) (7, 1.34715348482131960000e-001) (8, 6.30484893918037410000e-002) (9, 3.18789817392826080000e-002) (10, 7.68361315131187440000e-002) (11, 9.58712548017501830000e-002) (12, 1.32843121886253360000e-001) (13, 1.45811751484870910000e-001) (14, 5.20819127559661870000e-002) (15, 2.98343226313591000000e-002) (16, -3.12489289790391920000e-002) (17, 3.52435186505317690000e-002) (18, 1.09099999070167540000e-001) (19, 2.53837984055280690000e-002) (20, 4.96530905365943910000e-002) (21, 1.19144864380359650000e-001) (22, 1.44029527902603150000e-001) (23, 1.10058687627315520000e-001) (24, 1.43703557550907140000e-002) (25, 4.79989349842071530000e-002) (26, 1.21921524405479430000e-001) (27, 6.75550252199172970000e-002) (28, 1.14300757646560670000e-001) (29, 6.59120455384254460000e-002) (30, 1.00966103374958040000e-001) (31, 1.30040168762207030000e-001) (32, 1.01335503160953520000e-001) (33, -8.25730487704277040000e-002) (34, 1.45912803709506990000e-002) (35, -4.39848750829696660000e-002) (36, 4.10963818430900570000e-002) (37, -5.47537170350551610000e-002) (38, 5.86626790463924410000e-002) (39, -6.83107674121856690000e-002) (40, 3.56697887182235720000e-002) (41, 1.14251580089330670000e-002) (42, 1.48515850305557250000e-002) (43, -3.59297133982181550000e-002) (0, 3.16947139799594880000e-002) (1, -5.71993924677371980000e-003) (2, -6.27570273354649540000e-003) (3, 1.11639454960823060000e-001) (4, -2.72889025509357450000e-002) (5, -3.20668594213202600000e-004) (6, 6.33741989731788640000e-002) (7, -2.47185472398996350000e-002) (8, 2.05996762961149220000e-002) (9, 5.08766882121562960000e-002) (10, 1.20496593415737150000e-001) (11, 4.62778517976403240000e-003) (12, -7.16092139482498170000e-002) (13, 4.72604818642139430000e-002) (14, 5.29530271887779240000e-002) (15, 1.65143385529518130000e-002) (16, 1.03561788797378540000e-001) (17, 4.42666448652744290000e-002) (18, -5.65997101366519930000e-002) (19, 1.21442601084709170000e-001) (20, 1.20902851223945620000e-001) (21, -2.11344156414270400000e-002) (22, 8.38856399059295650000e-002) (23, 7.93318748474121090000e-002) (24, 1.13719329237937930000e-001) (25, 3.63018214702606200000e-002) (26, 5.81576023250818250000e-003) (27, -3.56090366840362550000e-002) (28, 1.74992516636848450000e-001) (29, 2.10356153547763820000e-002) (30, -4.66877855360507970000e-002) (31, 1.99286267161369320000e-002) (32, -6.29775896668434140000e-002) (33, 2.03186675906181340000e-001) (34, -3.92052792012691500000e-002) (35, -1.11118555068969730000e-002) (36, -2.99217557767406110000e-004) (37, -1.40463700518012050000e-002) (38, -9.56912934780120850000e-002) (39, 1.05105087161064150000e-001) (40, 1.50300323963165280000e-001) (41, -2.44771480560302730000e-001) (42, -1.13769091665744780000e-001) (43, 1.53336718678474430000e-001) (0, -8.02038460969924930000e-002) (1, -4.09870333969593050000e-002) (2, -1.28226249944418670000e-003) (3, -5.35005144774913790000e-002) (4, -1.21120782569050790000e-002) (5, -2.68199499696493150000e-002) (6, -2.01278664171695710000e-002) (7, -1.38602983206510540000e-002) (8, -8.19975584745407100000e-002) (9, 1.47075308486819270000e-002) (10, 4.60638664662837980000e-003) (11, 2.91639417409896850000e-002) (12, 5.01981228590011600000e-002) (13, -6.21313713490962980000e-002) (14, -8.69466513395309450000e-002) (15, 2.71165650337934490000e-002) (16, 6.29472136497497560000e-002) (17, -1.30081534385681150000e-001) (18, -1.88435167074203490000e-002) (19, 6.13512191921472550000e-003) (20, -4.17066253721714020000e-002) (21, -1.35635342448949810000e-002) (22, -2.05594245344400410000e-002) (23, -9.97370406985282900000e-002) (24, -1.75223145633935930000e-002) (25, -1.17312453687191010000e-001) (26, 8.11512023210525510000e-002) (27, 3.22171002626419070000e-002) (28, -2.62513048946857450000e-002) (29, 1.45973591133952140000e-002) (30, -1.34262079373002050000e-002) (31, -2.76752072386443610000e-003) (32, -5.88386617600917820000e-002) (33, 4.85680907964706420000e-001) (34, 1.11421249806880950000e-001) (35, 5.64783252775669100000e-002) (36, 1.27522066235542300000e-001) (37, 5.20521402359008790000e-002) (38, -1.08834750950336460000e-001) (39, 2.74274945259094240000e-002) (40, 3.07087339460849760000e-002) (41, 1.62548854947090150000e-001) (42, 3.98078300058841710000e-002) (43, 1.48443318903446200000e-003) (0, 2.06316709518432620000e-001) (1, 1.36469587683677670000e-001) (2, 1.26112416386604310000e-001) (3, 1.27549856901168820000e-001) (4, 1.72687605023384090000e-001) (5, 1.41685172915458680000e-001) (6, 8.14902856945991520000e-002) (7, 2.36943334341049190000e-001) (8, 1.81620851159095760000e-001) (9, 1.73063203692436220000e-001) (10, 8.15942585468292240000e-002) (11, 9.95215475559234620000e-002) (12, 1.88804134726524350000e-001) (13, 1.85293883085250850000e-001) (14, 1.04586906731128690000e-001) (15, 1.54128685593605040000e-001) (16, 1.26946225762367250000e-001) (17, 1.08797945082187650000e-001) (18, 1.02487251162528990000e-001) (19, 1.72234788537025450000e-001) (20, 8.12498331069946290000e-002) (21, 1.84127941727638240000e-001) (22, 1.61255210638046260000e-001) (23, 7.08063915371894840000e-002) (24, 1.03049278259277340000e-002) (25, 8.16024541854858400000e-002) (26, 1.01940713822841640000e-001) (27, 1.88640132546424870000e-001) (28, 1.65567532181739810000e-001) (29, 2.20052510499954220000e-001) (30, 2.21978604793548580000e-001) (31, 2.22121223807334900000e-001) (32, 1.01178810000419620000e-001) (33, -4.68493878841400150000e-001) (34, 5.27185723185539250000e-002) (35, -6.98653981089591980000e-002) (36, -4.06071655452251430000e-002) (37, 6.60826265811920170000e-002) (38, 3.80685320124030110000e-003) (39, -4.85104098916053770000e-002) (40, 3.09416167438030240000e-002) (41, -2.05985400825738910000e-002) (42, 2.48390492051839830000e-002) (43, -1.49534806609153750000e-001) (0, -5.67630976438522340000e-002) (1, 1.38982385396957400000e-002) (2, -6.56258538365364070000e-002) (3, 6.52244035154581070000e-003) (4, 2.86489631980657580000e-002) (5, 8.30186754465103150000e-002) (6, -3.91726940870285030000e-002) (7, 2.39812992513179780000e-002) (8, 8.96951034665107730000e-002) (9, 1.52701139450073240000e-001) (10, 1.13595925271511080000e-001) (11, 1.11353673040866850000e-001) (12, 1.15484967827796940000e-001) (13, -1.60504747182130810000e-002) (14, 1.26907125115394590000e-001) (15, 9.27375182509422300000e-002) (16, 3.68114933371543880000e-002) (17, 7.83701539039611820000e-002) (18, 3.52907069027423860000e-002) (19, -1.83717533946037290000e-002) (20, 2.38162755966186520000e-001) (21, -3.14929150044918060000e-002) (22, 1.09370462596416470000e-001) (23, 4.32142354547977450000e-002) (24, 9.47732776403427120000e-002) (25, 1.14930547773838040000e-001) (26, -1.15393893793225290000e-002) (27, 1.36592566967010500000e-001) (28, 1.28454968333244320000e-001) (29, 1.40034258365631100000e-001) (30, 1.26860558986663820000e-001) (31, 3.10099013149738310000e-002) (32, 7.27996155619621280000e-002) (33, 2.80393450520932670000e-003) (34, 1.24696597456932070000e-001) (35, 2.99276672303676610000e-002) (36, -4.23983782529830930000e-002) (37, 4.58867996931076050000e-002) (38, -5.61703853309154510000e-002) (39, -1.54586091637611390000e-001) (40, -1.10392803326249120000e-002) (41, -2.62101762928068640000e-003) (42, -4.34628166258335110000e-002) (43, -2.95992325991392140000e-002) (0, 2.21442908048629760000e-001) (1, 1.13495178520679470000e-001) (2, 2.18820258975028990000e-001) (3, 7.91762247681617740000e-002) (4, 6.77028894424438480000e-002) (5, 1.40723511576652530000e-001) (6, 4.87246178090572360000e-002) (7, 1.01971745491027830000e-001) (8, 1.69882982969284060000e-001) (9, 1.39742210507392880000e-001) (10, 1.64987504482269290000e-001) (11, 1.05726860463619230000e-001) (12, 1.14907689392566680000e-001) (13, 1.00842528045177460000e-001) (14, 9.61064919829368590000e-002) (15, -3.01042404025793080000e-002) (16, 1.59226357936859130000e-001) (17, 9.98676791787147520000e-002) (18, 1.28393813967704770000e-001) (19, 6.79665729403495790000e-002) (20, -1.74634892027825120000e-003) (21, 2.34334930777549740000e-001) (22, 1.07327118515968320000e-001) (23, 1.58109830226749180000e-003) (24, 1.17136821150779720000e-001) (25, 1.97207793593406680000e-001) (26, 9.33053269982337950000e-002) (27, 5.66583983600139620000e-002) (28, 1.69790640473365780000e-001) (29, 1.18575833737850190000e-001) (30, 8.65893512964248660000e-002) (31, 8.00912231206893920000e-002) (32, 6.57613426446914670000e-002) (33, -2.93676763772964480000e-001) (34, 1.21639072895050050000e-002) (35, -1.96781128644943240000e-001) (36, 8.11239778995513920000e-002) (37, -6.05884641408920290000e-002) (38, 1.07854619622230530000e-001) (39, -2.43804119527339940000e-002) (40, -5.85282146930694580000e-002) (41, -8.93177092075347900000e-002) (42, -1.44242808222770690000e-001) (43, -7.21849501132965090000e-002) (0, -4.32380661368370060000e-002) (1, 5.57631850242614750000e-002) (2, 7.96913448721170430000e-003) (3, -1.41615923494100570000e-002) (4, -4.45249080657958980000e-002) (5, 6.39961212873458860000e-002) (6, 1.54225125908851620000e-001) (7, -3.17729003727436070000e-002) (8, -1.15628853440284730000e-001) (9, -2.79026404023170470000e-002) (10, 9.04731675982475280000e-002) (11, -6.54433444142341610000e-002) (12, 4.99845482409000400000e-002) (13, 4.89515289664268490000e-002) (14, -4.28737979382276540000e-003) (15, -1.48152848705649380000e-002) (16, 1.65607869625091550000e-001) (17, 5.88672682642936710000e-002) (18, 1.84680111706256870000e-002) (19, -1.95978488773107530000e-002) (20, 1.75395645201206210000e-002) (21, 2.16675680130720140000e-002) (22, 2.02172044664621350000e-002) (23, 6.29454553127288820000e-002) (24, 4.21389713883399960000e-002) (25, 1.63728669285774230000e-001) (26, 9.00037139654159550000e-002) (27, -5.55798523128032680000e-002) (28, -5.08567690849304200000e-002) (29, 3.62232886254787450000e-002) (30, 3.41780437156558040000e-003) (31, -5.31385503709316250000e-002) (32, -4.49476903304457660000e-003) (33, 2.30462327599525450000e-001) (34, 9.34558175504207610000e-003) (35, -9.67027395963668820000e-002) (36, 5.47297894954681400000e-002) (37, 1.60585474222898480000e-002) (38, 4.37304452061653140000e-002) (39, -1.16188056766986850000e-001) (40, 1.60359703004360200000e-002) (41, 1.72955784946680070000e-002) (42, 2.40494832396507260000e-002) (43, 1.59326836466789250000e-001) (0, 1.15284800529479980000e-001) (1, 5.05107454955577850000e-002) (2, 6.50881826877593990000e-002) (3, 9.15754511952400210000e-002) (4, 1.13201662898063660000e-001) (5, 4.90121282637119290000e-002) (6, 8.39405953884124760000e-002) (7, 1.27661973237991330000e-001) (8, 1.48056879639625550000e-001) (9, 1.37223809957504270000e-001) (10, 8.76597873866558070000e-003) (11, 1.27417460083961490000e-001) (12, 1.03024393320083620000e-001) (13, 7.40114040672779080000e-003) (14, 1.00628606975078580000e-001) (15, 4.97846864163875580000e-002) (16, 1.10228165984153750000e-001) (17, 8.84297937154769900000e-002) (18, 1.18723794817924500000e-001) (19, 9.87521708011627200000e-002) (20, 4.75031584501266480000e-002) (21, 7.57816359400749210000e-002) (22, 5.59769161045551300000e-002) (23, 4.86557744443416600000e-002) (24, 1.04780070483684540000e-001) (25, 5.81115782260894780000e-002) (26, 4.48350720107555390000e-002) (27, -1.32214266341179610000e-003) (28, 1.11389659345149990000e-001) (29, 1.01389497518539430000e-001) (30, 1.67598247528076170000e-001) (31, 5.32662170007824900000e-003) (32, 1.45569413900375370000e-001) (33, -1.75100803375244140000e-001) (34, -4.49386611580848690000e-002) (35, 3.52056697010993960000e-002) (36, 2.34684683382511140000e-002) (37, -1.23710781335830690000e-002) (38, -3.52136678993701930000e-002) (39, 1.11618407070636750000e-001) (40, 4.34352904558181760000e-002) (41, -3.92095297574996950000e-002) (42, 1.48516045883297920000e-002) (43, -1.20676986873149870000e-001) (0, 2.58098170161247250000e-002) (1, -7.59824067354202270000e-002) (2, 1.14868488162755970000e-003) (3, 1.23240664601325990000e-001) (4, 1.00522994995117190000e-001) (5, 6.75103068351745610000e-002) (6, 9.78358834981918330000e-002) (7, 3.88540141284465790000e-002) (8, -6.89485371112823490000e-002) (9, 5.46663142740726470000e-002) (10, 8.89650136232376100000e-002) (11, 3.16081047058105470000e-002) (12, 2.73378435522317890000e-002) (13, 7.74514079093933110000e-002) (14, -6.59304708242416380000e-002) (15, 1.02768257260322570000e-001) (16, 1.41022250056266780000e-001) (17, 3.86807136237621310000e-002) (18, 7.89137482643127440000e-002) (19, 7.85285308957099910000e-002) (20, 4.83951158821582790000e-002) (21, -5.38689605891704560000e-002) (22, 4.85460758209228520000e-002) (23, -1.84999108314514160000e-002) (24, 4.27886247634887700000e-002) (25, 3.01988180726766590000e-002) (26, -5.38403652608394620000e-002) (27, 8.13069865107536320000e-002) (28, 1.02054744958877560000e-001) (29, 9.86515916883945470000e-003) (30, 1.16767518222332000000e-001) (31, 1.59716352820396420000e-001) (32, 1.01864524185657500000e-001) (33, 6.25222772359848020000e-002) (34, -1.28381296992301940000e-001) (35, 1.17890074849128720000e-001) (36, -1.20972068980336190000e-002) (37, -1.38773515820503230000e-001) (38, -1.45446911454200740000e-001) (39, -4.77572120726108550000e-002) (40, -2.49003432691097260000e-002) (41, 1.39409378170967100000e-001) (42, 1.33758902549743650000e-001) (43, 6.22415654361248020000e-002) (0, 1.84945777058601380000e-001) (1, 9.97196882963180540000e-002) (2, 1.15479454398155210000e-001) (3, 6.33810237050056460000e-002) (4, 7.02349916100502010000e-002) (5, 1.14666491746902470000e-001) (6, 2.23354429006576540000e-001) (7, 6.42189830541610720000e-002) (8, 1.23340085148811340000e-001) (9, 1.85998558998107910000e-001) (10, -2.23192907869815830000e-002) (11, 2.25671514868736270000e-001) (12, 2.05166280269622800000e-001) (13, 5.78964501619338990000e-002) (14, 3.13689410686492920000e-002) (15, 1.06255479156970980000e-001) (16, 1.77071183919906620000e-001) (17, 1.23024404048919680000e-001) (18, 7.55412727594375610000e-002) (19, -8.89681186527013780000e-003) (20, 1.31370604038238530000e-001) (21, 1.86825200915336610000e-001) (22, 9.55503359436988830000e-002) (23, 1.70944854617118840000e-001) (24, 1.84420347213745120000e-001) (25, 7.70474448800086980000e-002) (26, 2.90371745824813840000e-001) (27, 1.15656077861785890000e-001) (28, 6.68609980493783950000e-003) (29, 2.43621140718460080000e-001) (30, 1.59864947199821470000e-001) (31, 1.49225294589996340000e-001) (32, 1.43394112586975100000e-001) (33, -3.41357529163360600000e-001) (34, 1.32771983742713930000e-001) (35, -5.34687675535678860000e-002) (36, -1.51870951056480410000e-001) (37, -9.95136499404907230000e-002) (38, 2.64515187591314320000e-002) (39, -1.44346356391906740000e-001) (40, 8.52913260459899900000e-002) (41, -1.16179371252655980000e-002) (42, -2.63013411313295360000e-003) (43, -6.58881291747093200000e-002) (0, -5.73183875530958180000e-003) (1, 3.76169905066490170000e-002) (2, 7.23689645528793330000e-002) (3, 5.60637675225734710000e-002) (4, 1.82872638106346130000e-001) (5, 1.28698736429214480000e-001) (6, 3.29762361943721770000e-002) (7, 7.49840661883354190000e-002) (8, 3.58620053157210350000e-003) (9, -7.78086557984352110000e-002) (10, 7.33945891261100770000e-002) (11, 1.37881971895694730000e-002) (12, 2.17398516833782200000e-002) (13, 3.41932065784931180000e-002) (14, 6.89076706767082210000e-002) (15, -1.22822329401969910000e-001) (16, 1.89785705879330640000e-003) (17, 3.91981713473796840000e-002) (18, 1.42049957066774370000e-002) (19, 4.97439913451671600000e-002) (20, -9.53645929694175720000e-002) (21, 1.05828501284122470000e-001) (22, 1.09142154455184940000e-001) (23, 6.56144767999649050000e-002) (24, 4.89782951772212980000e-002) (25, 3.70654240250587460000e-002) (26, -5.21193146705627440000e-002) (27, 4.20509241521358490000e-002) (28, 9.75184217095375060000e-002) (29, 1.11301623284816740000e-001) (30, 3.49417962133884430000e-002) (31, 3.97223457694053650000e-002) (32, 1.17332659661769870000e-001) (33, 1.28708720207214360000e-001) (34, 1.58063564449548720000e-002) (35, 9.06691178679466250000e-002) (36, -9.00799036026000980000e-002) (37, 1.05928219854831700000e-002) (38, -6.13238010555505750000e-003) (39, 6.67841453105211260000e-003) (40, 1.00398384034633640000e-001) (41, 1.62680566310882570000e-001) (42, -1.22816078364849090000e-002) (43, 1.42273172736167910000e-001) (0, 7.72902145981788640000e-002) (1, 6.50454685091972350000e-002) (2, 1.35641679167747500000e-001) (3, 9.40540954470634460000e-002) (4, 6.17569871246814730000e-002) (5, 7.02470317482948300000e-002) (6, 8.44671577215194700000e-002) (7, 5.46872317790985110000e-002) (8, 9.00110527873039250000e-002) (9, 5.48287369310855870000e-002) (10, 1.00979983806610110000e-001) (11, 4.07338812947273250000e-002) (12, 8.06486532092094420000e-002) (13, 7.56502896547317500000e-002) (14, 1.07187092304229740000e-001) (15, 1.05144992470741270000e-001) (16, 3.17386351525783540000e-003) (17, 1.57925888895988460000e-001) (18, 9.65752527117729190000e-002) (19, 3.08785587549209590000e-002) (20, 1.66348349303007130000e-002) (21, -2.13110979530029000000e-004) (22, 9.86402183771133420000e-002) (23, 1.26839384436607360000e-001) (24, 4.40820269286632540000e-002) (25, 7.50043168663978580000e-002) (26, 9.91387479007244110000e-003) (27, 1.90480351448059080000e-001) (28, 3.21599282324314120000e-002) (29, 4.67046461999416350000e-002) (30, 8.41035246849060060000e-002) (31, 1.06342108920216560000e-002) (32, 4.43419180810451510000e-002) (33, -8.87082442641258240000e-002) (34, 6.65690824389457700000e-002) (35, -3.92955467104911800000e-002) (36, 3.54722701013088230000e-002) (37, -6.84252679347991940000e-002) (38, 6.48990273475646970000e-002) (39, 9.07846167683601380000e-002) (40, -4.99869231134653090000e-003) (41, -7.90302604436874390000e-002) (42, -7.96952843666076660000e-002) (43, -1.06270397081971170000e-002) (0, 4.84289787709712980000e-002) (1, 8.92939940094947810000e-002) (2, 8.25779214501380920000e-002) (3, 1.36429533362388610000e-001) (4, 1.08102872967720030000e-001) (5, 1.24191038310527800000e-001) (6, 8.00828412175178530000e-002) (7, 2.34167501330375670000e-002) (8, 1.26026242971420290000e-001) (9, 6.02451935410499570000e-002) (10, 1.51345372200012210000e-001) (11, 7.73078724741935730000e-002) (12, 4.78500984609127040000e-002) (13, 3.68962772190570830000e-002) (14, -2.44434606283903120000e-002) (15, 1.65742263197898860000e-001) (16, 5.29480874538421630000e-002) (17, 4.91103902459144590000e-002) (18, 1.40326634049415590000e-001) (19, 1.39623969793319700000e-001) (20, 1.40399202704429630000e-001) (21, 2.47054938226938250000e-002) (22, 1.40753671526908870000e-001) (23, 5.81147521734237670000e-002) (24, 7.35102370381355290000e-002) (25, 6.23870566487312320000e-002) (26, 1.37968391180038450000e-001) (27, 1.87857635319232940000e-002) (28, 1.12394630908966060000e-001) (29, 6.60692304372787480000e-002) (30, -7.69793521612882610000e-004) (31, 8.64345133304595950000e-002) (32, 1.23783245682716370000e-001) (33, -1.49279817938804630000e-001) (34, -7.33429705724120140000e-003) (35, -1.51821989566087720000e-002) (36, 8.83033722639083860000e-002) (37, -1.16849578917026520000e-002) (38, -3.52393314242362980000e-002) (39, -9.22087766230106350000e-003) (40, -6.36260360479354860000e-002) (41, 1.10415711998939510000e-001) (42, -5.30743598937988280000e-002) (43, -1.70166820287704470000e-001) (0, 1.69819951057434080000e-001) (1, 1.66774541139602660000e-001) (2, 3.12482919543981550000e-002) (3, 1.44118010997772220000e-001) (4, 8.77688676118850710000e-002) (5, 1.50472432374954220000e-001) (6, 1.25695809721946720000e-001) (7, 1.58407896757125850000e-001) (8, 1.13420881330966950000e-001) (9, 8.76923650503158570000e-002) (10, 1.55456528067588810000e-001) (11, 5.75355440378189090000e-002) (12, 1.23640997335314750000e-002) (13, 1.17867492139339450000e-001) (14, 8.80537033081054690000e-002) (15, 6.42992332577705380000e-002) (16, 1.14119678735733030000e-001) (17, 3.64655838347971440000e-003) (18, 1.72060832381248470000e-001) (19, 1.10201835632324220000e-001) (20, -1.50758149102330210000e-002) (21, -7.77491135522723200000e-003) (22, 1.23510062694549560000e-001) (23, 9.66343730688095090000e-002) (24, 1.48104235529899600000e-001) (25, 1.18932910263538360000e-001) (26, 1.72455295920372010000e-001) (27, 8.51588696241378780000e-002) (28, 6.54954686760902400000e-002) (29, 5.57459071278572080000e-002) (30, 6.71531492844223980000e-003) (31, 1.96347251534461980000e-001) (32, 8.33629965782165530000e-002) (33, -1.73448711633682250000e-001) (34, -2.84923072904348370000e-002) (35, -7.99542069435119630000e-002) (36, 3.10511346906423570000e-002) (37, 6.20042234659194950000e-002) (38, 1.05340220034122470000e-001) (39, 4.00119163095951080000e-002) (40, -1.64491951465606690000e-001) (41, -4.78582270443439480000e-002) (42, -1.69869437813758850000e-002) (43, 5.00207692384719850000e-002) (0, 1.10857225954532620000e-001) (1, 1.82268202304840090000e-001) (2, 8.83263126015663150000e-002) (3, 1.07789494097232820000e-001) (4, 2.14001804590225220000e-001) (5, 1.72376781702041630000e-001) (6, 1.52464956045150760000e-001) (7, 9.39121618866920470000e-002) (8, 1.00685097277164460000e-001) (9, 1.55414357781410220000e-001) (10, 9.58398729562759400000e-002) (11, 2.12430551648139950000e-001) (12, 3.23872059583663940000e-001) (13, 2.01315134763717650000e-001) (14, 1.59291267395019530000e-001) (15, 1.99608951807022090000e-001) (16, 1.94437205791473390000e-001) (17, 8.25211852788925170000e-002) (18, 2.11718142032623290000e-001) (19, 1.26618787646293640000e-001) (20, 2.60239005088806150000e-001) (21, 3.04586708545684810000e-001) (22, 1.50500953197479250000e-001) (23, 1.69646158814430240000e-001) (24, 1.82001054286956790000e-001) (25, 1.86524137854576110000e-001) (26, 9.32126864790916440000e-002) (27, 2.34985888004302980000e-001) (28, 1.09290599822998050000e-001) (29, 1.55502080917358400000e-001) (30, 1.84792399406433110000e-001) (31, 1.61978662014007570000e-001) (32, 2.06582367420196530000e-001) (33, -6.62149071693420410000e-001) (34, -1.73955839127302170000e-002) (35, 9.56950485706329350000e-002) (36, -2.59331222623586650000e-002) (37, -6.45089000463485720000e-002) (38, -1.82383563369512560000e-002) (39, -1.91397254820913080000e-003) (40, 1.24060194939374920000e-002) (41, 2.65470668673515320000e-002) (42, -5.19324000924825670000e-003) (43, 1.90749838948249820000e-001) (0, -6.80117085576057430000e-002) (1, 1.06307521462440490000e-001) (2, 5.85733503103256230000e-002) (3, 1.53445629402995110000e-002) (4, -5.94386458396911620000e-002) (5, 2.74208337068557740000e-002) (6, 2.99829151481390000000e-002) (7, 4.26536565646529200000e-003) (8, 5.62871247529983520000e-002) (9, 1.20688183233141900000e-002) (10, -5.39031662046909330000e-002) (11, 1.44933136180043220000e-002) (12, 3.00252400338649750000e-002) (13, 5.46165369451045990000e-002) (14, -1.03756943717598920000e-002) (15, -9.72999036312103270000e-002) (16, 2.55340989679098130000e-002) (17, 6.31732344627380370000e-002) (18, 6.61566555500030520000e-002) (19, 1.14522330462932590000e-001) (20, 8.80936607718467710000e-002) (21, -5.11849299073219300000e-002) (22, 1.27687593922019000000e-002) (23, 5.18085695803165440000e-002) (24, 3.73636297881603240000e-002) (25, 6.50384128093719480000e-002) (26, 4.74981404840946200000e-002) (27, 1.32833436131477360000e-001) (28, -5.06482943892478940000e-002) (29, 2.39011999219655990000e-002) (30, -8.67924466729164120000e-003) (31, -5.23075647652149200000e-003) (32, 4.67635840177536010000e-002) (33, 2.55484402179718020000e-001) (34, 3.33932638168334960000e-002) (35, 6.03642910718917850000e-002) (36, 2.72361859679222110000e-002) (37, -9.16203781962394710000e-002) (38, -1.46257067099213600000e-002) (39, -9.37873199582099910000e-002) (40, -1.01091571152210240000e-001) (41, 9.39765712246298790000e-004) (42, -5.62058649957180020000e-002) (43, 2.63741780072450640000e-002) (0, 1.07185468077659610000e-001) (1, 7.22015369683504100000e-003) (2, 7.68091008067131040000e-002) (3, 1.34358406066894530000e-001) (4, 7.71686881780624390000e-002) (5, -7.46831521391868590000e-002) (6, 2.66538765281438830000e-002) (7, -4.40147379413247110000e-003) (8, -5.73182515799999240000e-002) (9, -4.40826080739498140000e-002) (10, 1.14294011145830150000e-002) (11, 2.85955518484115600000e-002) (12, -4.71459813416004180000e-002) (13, -4.10972200334072110000e-002) (14, 5.64007684588432310000e-002) (15, -2.61528859846293930000e-003) (16, 3.59062142670154570000e-002) (17, 5.71710653603076930000e-002) (18, -1.66646894067525860000e-002) (19, 4.57989573478698730000e-002) (20, 2.17515695840120320000e-002) (21, 7.69811123609542850000e-002) (22, 1.77787039428949360000e-002) (23, -5.33997640013694760000e-002) (24, -4.00963202118873600000e-002) (25, 1.11928535625338550000e-003) (26, -1.12341016530990600000e-001) (27, 1.79110448807477950000e-002) (28, 1.82017460465431210000e-002) (29, 7.03409835696220400000e-002) (30, 5.63912540674209590000e-002) (31, -4.12412397563457490000e-002) (32, 6.98604136705398560000e-002) (33, 2.21041381359100340000e-001) (34, -1.09239622950553890000e-001) (35, -5.88610284030437470000e-002) (36, 2.13108230382204060000e-002) (37, 1.61087661981582640000e-002) (38, 4.86064851284027100000e-002) (39, 8.19251462817192080000e-002) (40, -6.16897782310843470000e-003) (41, -3.55682373046875000000e-002) (42, -5.43497130274772640000e-002) (43, 4.73596043884754180000e-002) 
