FANN_FLO_2.1
num_layers=12
learning_rate=0.700000
connection_rate=1.000000
network_type=1
learning_momentum=0.000000
training_algorithm=2
train_error_function=0
train_stop_function=0
cascade_output_change_fraction=0.010000
quickprop_decay=-0.000100
quickprop_mu=1.750000
rprop_increase_factor=1.200000
rprop_decrease_factor=0.500000
rprop_delta_min=0.000000
rprop_delta_max=50.000000
rprop_delta_zero=0.100000
cascade_output_stagnation_epochs=12
cascade_candidate_change_fraction=0.010000
cascade_candidate_stagnation_epochs=12
cascade_max_out_epochs=150
cascade_min_out_epochs=15
cascade_max_cand_epochs=150
cascade_min_cand_epochs=15
cascade_num_candidate_groups=2
bit_fail_limit=3.49999994039535520000e-001
cascade_candidate_limit=1.00000000000000000000e+003
cascade_weight_multiplier=4.00000005960464480000e-001
cascade_activation_functions_count=10
cascade_activation_functions=3 5 7 8 10 11 14 15 16 17 
cascade_activation_steepnesses_count=4
cascade_activation_steepnesses=2.50000000000000000000e-001 5.00000000000000000000e-001 7.50000000000000000000e-001 1.00000000000000000000e+000 
layer_sizes=34 1 1 1 1 1 1 1 1 1 1 33 
scale_included=0
neurons (num_inputs, activation_function, activation_steepness)=(0, 0, 0.00000000000000000000e+000) (0, 0, 0.00000000000000000000e+000) (0, 0, 0.00000000000000000000e+000) (0, 0, 0.00000000000000000000e+000) (0, 0, 0.00000000000000000000e+000) (0, 0, 0.00000000000000000000e+000) (0, 0, 0.00000000000000000000e+000) (0, 0, 0.00000000000000000000e+000) (0, 0, 0.00000000000000000000e+000) (0, 0, 0.00000000000000000000e+000) (0, 0, 0.00000000000000000000e+000) (0, 0, 0.00000000000000000000e+000) (0, 0, 0.00000000000000000000e+000) (0, 0, 0.00000000000000000000e+000) (0, 0, 0.00000000000000000000e+000) (0, 0, 0.00000000000000000000e+000) (0, 0, 0.00000000000000000000e+000) (0, 0, 0.00000000000000000000e+000) (0, 0, 0.00000000000000000000e+000) (0, 0, 0.00000000000000000000e+000) (0, 0, 0.00000000000000000000e+000) (0, 0, 0.00000000000000000000e+000) (0, 0, 0.00000000000000000000e+000) (0, 0, 0.00000000000000000000e+000) (0, 0, 0.00000000000000000000e+000) (0, 0, 0.00000000000000000000e+000) (0, 0, 0.00000000000000000000e+000) (0, 0, 0.00000000000000000000e+000) (0, 0, 0.00000000000000000000e+000) (0, 0, 0.00000000000000000000e+000) (0, 0, 0.00000000000000000000e+000) (0, 0, 0.00000000000000000000e+000) (0, 0, 0.00000000000000000000e+000) (0, 0, 0.00000000000000000000e+000) (34, 15, 1.00000000000000000000e+000) (35, 15, 1.00000000000000000000e+000) (36, 15, 7.50000000000000000000e-001) (37, 15, 1.00000000000000000000e+000) (38, 14, 7.50000000000000000000e-001) (39, 14, 5.00000000000000000000e-001) (40, 14, 1.00000000000000000000e+000) (41, 14, 7.50000000000000000000e-001) (42, 15, 7.50000000000000000000e-001) (43, 14, 5.00000000000000000000e-001) (44, 5, 5.00000000000000000000e-001) (44, 5, 5.00000000000000000000e-001) (44, 5, 5.00000000000000000000e-001) (44, 5, 5.00000000000000000000e-001) (44, 5, 5.00000000000000000000e-001) (44, 5, 5.00000000000000000000e-001) (44, 5, 5.00000000000000000000e-001) (44, 5, 5.00000000000000000000e-001) (44, 5, 5.00000000000000000000e-001) (44, 5, 5.00000000000000000000e-001) (44, 5, 5.00000000000000000000e-001) (44, 5, 5.00000000000000000000e-001) (44, 5, 5.00000000000000000000e-001) (44, 5, 5.00000000000000000000e-001) (44, 5, 5.00000000000000000000e-001) (44, 5, 5.00000000000000000000e-001) (44, 5, 5.00000000000000000000e-001) (44, 5, 5.00000000000000000000e-001) (44, 5, 5.00000000000000000000e-001) (44, 5, 5.00000000000000000000e-001) (44, 5, 5.00000000000000000000e-001) (44, 5, 5.00000000000000000000e-001) (44, 5, 5.00000000000000000000e-001) (44, 5, 5.00000000000000000000e-001) (44, 5, 5.00000000000000000000e-001) (44, 5, 5.00000000000000000000e-001) (44, 5, 5.00000000000000000000e-001) (44, 5, 5.00000000000000000000e-001) (44, 5, 5.00000000000000000000e-001) (44, 5, 5.00000000000000000000e-001) (44, 5, 5.00000000000000000000e-001) (44, 5, 5.00000000000000000000e-001) (44, 5, 5.00000000000000000000e-001) 
connections (connected_to_neuron, weight)=(0, -1.17634236812591550000e+000) (1, -4.31624293327331540000e-001) (2, 1.70254409313201900000e+000) (3, 1.99753928184509280000e+000) (4, 6.16141796112060550000e-001) (5, 1.79874062538146970000e+000) (6, 7.71961033344268800000e-001) (7, 1.15237340331077580000e-001) (8, 3.24103093147277830000e+000) (9, -4.34256112203001980000e-003) (10, -1.99883371591567990000e-001) (11, 1.19937014579772950000e+000) (12, 8.58472228050231930000e-001) (13, 2.68672084808349610000e+000) (14, 1.13277506828308110000e+000) (15, 3.08428096771240230000e+000) (16, 5.17868399620056150000e-001) (17, 2.06239938735961910000e+000) (18, -6.03904724121093750000e-001) (19, 3.83034920692443850000e+000) (20, 9.27765309810638430000e-001) (21, 2.43419861793518070000e+000) (22, 3.64635014533996580000e+000) (23, 9.86818075180053710000e-001) (24, -1.38175094127655030000e+000) (25, 1.38892388343811040000e+000) (26, 1.45105195045471190000e+000) (27, 2.81968832015991210000e-001) (28, 4.47387427091598510000e-001) (29, -3.13605934381484990000e-001) (30, 8.63944709300994870000e-001) (31, 1.80926740169525150000e+000) (32, 1.54749250411987300000e+000) (33, -1.23233127593994140000e+000) (0, 2.23311209678649900000e+000) (1, 2.22445964813232420000e+000) (2, -5.41872680187225340000e-001) (3, -1.27803087234497070000e-001) (4, 2.60155200958251950000e+000) (5, 2.52953648567199710000e+000) (6, -2.92570799589157100000e-001) (7, 9.92857813835144040000e-001) (8, 2.89414715766906740000e+000) (9, -1.71053305268287660000e-001) (10, 1.40939891338348390000e+000) (11, 1.17779326438903810000e+000) (12, 2.91343855857849120000e+000) (13, -1.99299752712249760000e-001) (14, 3.10269999504089360000e+000) (15, 8.91275107860565190000e-001) (16, -9.96070623397827150000e-001) (17, 1.11667025089263920000e+000) (18, 2.17188954353332520000e+000) (19, 9.55670773983001710000e-001) (20, 2.59499382972717290000e+000) (21, -9.12886857986450200000e-001) (22, 2.92980641126632690000e-001) (23, 2.94161295890808110000e+000) (24, 2.49996972084045410000e+000) (25, 7.67724692821502690000e-001) (26, 6.97922855615615840000e-002) (27, 8.80667269229888920000e-001) (28, 1.38325583934783940000e+000) (29, 1.70850074291229250000e+000) (30, 1.15410697460174560000e+000) (31, 8.34540307521820070000e-001) (32, -1.34862840175628660000e+000) (33, -7.42767035961151120000e-001) (34, 1.78354322910308840000e+000) (0, 1.62529754638671870000e+000) (1, 1.51117515563964840000e+000) (2, 2.63773751258850100000e+000) (3, 1.57199788093566890000e+000) (4, 2.77087092399597170000e+000) (5, -9.05675590038299560000e-001) (6, 2.93761730194091800000e-001) (7, 2.57485620677471160000e-002) (8, 2.52439975738525390000e-001) (9, -4.90868717432022090000e-001) (10, 1.45409750938415530000e+000) (11, 1.36557161808013920000e+000) (12, -1.08883798122406010000e+000) (13, 3.10282659530639650000e+000) (14, 1.46326053142547610000e+000) (15, 2.31476330757141110000e+000) (16, -5.74531197547912600000e-001) (17, 1.45534634590148930000e+000) (18, -9.15875256061553960000e-001) (19, 9.73186969757080080000e-001) (20, 1.29271913319826130000e-002) (21, 1.63807189464569090000e+000) (22, 3.52911448478698730000e+000) (23, 5.83996438980102540000e+000) (24, 1.53047883510589600000e+000) (25, -7.20382094383239750000e-001) (26, -4.15609955787658690000e-001) (27, -9.75545167922973630000e-001) (28, 1.37154102325439450000e+000) (29, 3.03663682937622070000e+000) (30, 3.04938173294067380000e+000) (31, -3.52127099037170410000e+000) (32, 4.40040789544582370000e-002) (33, -8.59554886817932130000e-001) (34, 2.22512269020080570000e+000) (35, 3.32515507936477660000e-001) (0, 2.24165368080139160000e+000) (1, 2.66020298004150390000e-001) (2, 1.06330823898315430000e+000) (3, 2.67807388305664060000e+000) (4, 2.59741735458374020000e+000) (5, 1.35289037227630620000e+000) (6, 1.27951955795288090000e+000) (7, 5.92204272747039790000e-001) (8, 2.34753775596618650000e+000) (9, 4.87242043018341060000e-001) (10, 9.65735256671905520000e-001) (11, 1.64873003959655760000e+000) (12, 2.14268755912780760000e+000) (13, 1.21379935741424560000e+000) (14, 1.14957273006439210000e+000) (15, 3.20688533782958980000e+000) (16, 1.19253003597259520000e+000) (17, 8.56511533260345460000e-001) (18, -5.87729275226593020000e-001) (19, 2.57430529594421390000e+000) (20, 2.57255625724792480000e+000) (21, -3.81903439760208130000e-001) (22, -1.32094189524650570000e-001) (23, 2.47940707206726070000e+000) (24, -4.01674389839172360000e-001) (25, 6.61607682704925540000e-001) (26, 2.55858325958251950000e+000) (27, 7.28437423706054690000e-001) (28, 8.74577939510345460000e-001) (29, 8.17407488822937010000e-001) (30, 3.46500754356384280000e-001) (31, 2.32093244791030880000e-001) (32, 1.51466763019561770000e+000) (33, 1.25776624679565430000e+000) (34, 1.98988711833953860000e+000) (35, 1.00773632526397710000e+000) (36, -2.96977132558822630000e-001) (0, 1.65092468261718750000e+000) (1, 6.41013801097869870000e-001) (2, 1.42738449573516850000e+000) (3, -4.58417236804962160000e-002) (4, 1.37576246261596680000e+000) (5, 1.00765192508697510000e+000) (6, -6.18062019348144530000e-001) (7, 1.24953985214233400000e+000) (8, -1.39808747917413710000e-002) (9, 1.87684750556945800000e+000) (10, 1.79065573215484620000e+000) (11, 1.36062657833099370000e+000) (12, 3.00632214546203610000e+000) (13, -1.85663008689880370000e+000) (14, 6.58923864364624020000e-001) (15, 2.39829349517822270000e+000) (16, 3.61079192161560060000e+000) (17, 8.95110487937927250000e-001) (18, -1.63010716438293460000e-001) (19, -1.04701316356658940000e+000) (20, 9.78924512863159180000e-001) (21, -1.77985131740570070000e+000) (22, 2.10842633247375490000e+000) (23, 7.13676512241363530000e-001) (24, 2.16337752342224120000e+000) (25, -1.90547204017639160000e+000) (26, 1.35972356796264650000e+000) (27, 2.04190778732299800000e+000) (28, 2.06086754798889160000e+000) (29, 2.82266020774841310000e+000) (30, 1.34027743339538570000e+000) (31, -7.24179625511169430000e-001) (32, 1.34180033206939700000e+000) (33, -1.12176291644573210000e-001) (34, 9.55827951431274410000e-001) (35, 1.82889926433563230000e+000) (36, 1.23989701271057130000e+000) (37, 1.36915194988250730000e+000) (0, 1.61893510818481450000e+000) (1, 9.40481245517730710000e-001) (2, -1.87558218836784360000e-001) (3, 1.16481232643127440000e+000) (4, 4.77935934066772460000e+000) (5, -1.25431799888610840000e+000) (6, -5.06165683269500730000e-001) (7, 4.46667146682739260000e+000) (8, -2.95222830772399900000e+000) (9, 9.55274224281311040000e-001) (10, 2.24430370330810550000e+000) (11, 2.68833541870117190000e+000) (12, 4.38597631454467770000e+000) (13, 3.77619218826293950000e+000) (14, 4.74338340759277340000e+000) (15, -2.08993837237358090000e-001) (16, 1.80466786026954650000e-001) (17, -2.67188787460327150000e+000) (18, -1.15086980164051060000e-001) (19, -8.91742348670959470000e-001) (20, 2.65300303697586060000e-001) (21, 6.85744464397430420000e-001) (22, 1.84671771526336670000e+000) (23, 3.33385825157165530000e+000) (24, 2.81409430503845210000e+000) (25, 3.69490218162536620000e+000) (26, 1.34237006306648250000e-001) (27, 1.14565169811248780000e+000) (28, -1.46522009372711180000e+000) (29, 6.20423257350921630000e-001) (30, -1.22492873668670650000e+000) (31, 7.14166939258575440000e-001) (32, 1.96433830261230470000e+000) (33, -2.14746809005737300000e+000) (34, 1.50769925117492680000e+000) (35, 1.72430121898651120000e+000) (36, 1.01253724098205570000e+000) (37, 7.48121459037065510000e-003) (38, 2.11217451095581050000e+000) (0, 1.57829582691192630000e+000) (1, 1.36131989955902100000e+000) (2, 1.41459226608276370000e+000) (3, 5.97793579101562500000e-001) (4, -1.76515385508537290000e-001) (5, 4.43997472524642940000e-001) (6, -8.41848969459533690000e-001) (7, 2.19834733009338380000e+000) (8, 1.80895853042602540000e+000) (9, 2.77782845497131350000e+000) (10, 1.63232326507568360000e+000) (11, 2.08064222335815430000e+000) (12, 1.14068889617919920000e+000) (13, 9.74210262298583980000e-001) (14, 1.48457670211791990000e+000) (15, -8.35187792778015140000e-001) (16, 1.95171809196472170000e+000) (17, 7.57170200347900390000e-001) (18, 1.28472283482551570000e-001) (19, 5.62408030033111570000e-001) (20, 1.67004048824310300000e+000) (21, 6.75919294357299800000e-001) (22, 2.22500586509704590000e+000) (23, 8.19292485713958740000e-001) (24, 2.52339869737625120000e-001) (25, 1.10191631317138670000e+000) (26, 9.17080342769622800000e-001) (27, 4.62988615036010740000e-001) (28, 8.23817551136016850000e-001) (29, 1.75169777870178220000e+000) (30, 7.19465553760528560000e-001) (31, 1.90636646747589110000e+000) (32, 8.27934443950653080000e-001) (33, 1.58400130271911620000e+000) (34, 1.49675369262695310000e+000) (35, 1.42360389232635500000e+000) (36, 2.63864111900329590000e+000) (37, 1.84367072582244870000e+000) (38, 8.61759185791015630000e-001) (39, 9.02071595191955570000e-001) (0, -7.35901668667793270000e-002) (1, -1.64896833896636960000e+000) (2, 1.20660394430160520000e-001) (3, 4.18053340911865230000e+000) (4, -5.26819348335266110000e-001) (5, -1.10627226531505580000e-001) (6, 2.18538713455200200000e+000) (7, 9.46968555450439450000e-001) (8, -1.15170300006866460000e-001) (9, 1.17718982696533200000e+000) (10, -1.29304379224777220000e-001) (11, -5.25269329547882080000e-001) (12, -8.59560966491699220000e-002) (13, 8.23912322521209720000e-001) (14, 1.97929370403289790000e+000) (15, -2.25407943129539490000e-001) (16, 5.18684796988964080000e-002) (17, 1.78879690170288090000e+000) (18, 1.28300058841705320000e+000) (19, 1.42702209949493410000e+000) (20, 2.10940456390380860000e+000) (21, 1.36701512336730960000e+000) (22, 1.32483339309692380000e+000) (23, 2.65168857574462890000e+000) (24, 3.94602179527282710000e-001) (25, 6.61545634269714360000e-001) (26, 7.52331078052520750000e-001) (27, 1.32666265964508060000e+000) (28, 9.67048168182373050000e-001) (29, 2.40291029214859010000e-001) (30, 1.63562297821044920000e+000) (31, 1.73301970958709720000e+000) (32, 1.90765178203582760000e+000) (33, 1.67119657993316650000e+000) (34, 1.67891716957092290000e+000) (35, 1.15583360195159910000e+000) (36, -9.68392372131347660000e-001) (37, 2.25221347808837890000e+000) (38, 7.66754984855651860000e-001) (39, 2.36182928085327150000e+000) (40, 1.99910759925842290000e+000) (0, -6.20091617107391360000e-001) (1, 1.77313756942749020000e+000) (2, 1.60168230533599850000e+000) (3, 7.50394761562347410000e-001) (4, 1.36640727519989010000e+000) (5, -1.38835287094116210000e+000) (6, 1.78948390483856200000e+000) (7, 1.30218636989593510000e+000) (8, 5.14959514141082760000e-001) (9, 1.54148983955383300000e+000) (10, 1.63348960876464840000e+000) (11, 1.31990146636962890000e+000) (12, -8.88857468962669370000e-002) (13, 9.39060151576995850000e-001) (14, 2.27151870727539060000e+000) (15, 2.11199975013732910000e+000) (16, -1.19806444644927980000e+000) (17, 3.08077812194824220000e+000) (18, 3.00630640983581540000e+000) (19, 1.79509150981903080000e+000) (20, 2.30413460731506350000e+000) (21, 3.76581501960754390000e+000) (22, 1.25785350799560550000e+000) (23, 1.52440977096557620000e+000) (24, 3.07734704017639160000e+000) (25, 3.04891896247863770000e+000) (26, -7.95920118689537050000e-002) (27, 4.64633345603942870000e-001) (28, 6.22085154056549070000e-001) (29, 9.11042988300323490000e-001) (30, 1.22016763687133790000e+000) (31, -9.45159271359443660000e-002) (32, -5.44541217386722560000e-002) (33, 3.21944594383239750000e-001) (34, 1.83623880147933960000e-001) (35, 1.10965836048126220000e+000) (36, 2.38856673240661620000e+000) (37, 6.07682347297668460000e-001) (38, 6.49437129497528080000e-001) (39, 8.95583689212799070000e-001) (40, 3.02566528320312500000e+000) (41, -3.70281413197517400000e-002) (0, 5.76078510284423830000e+000) (1, 2.63352417945861820000e+000) (2, 5.53935229778289790000e-001) (3, 8.75131368637084960000e-001) (4, -3.85692924261093140000e-001) (5, 1.26563274860382080000e+000) (6, 1.87997889518737790000e+000) (7, 2.49367535114288330000e-001) (8, 7.20551073551177980000e-001) (9, 3.46039199829101560000e+000) (10, 3.16145062446594240000e+000) (11, 6.77712727338075640000e-003) (12, 6.56859755516052250000e-001) (13, -3.26125669479370120000e+000) (14, -2.01568841934204100000e+000) (15, 8.90307605266571040000e-001) (16, 2.12554645538330080000e+000) (17, -2.52691888809204100000e+000) (18, 1.57086062431335450000e+000) (19, 2.36936807632446290000e+000) (20, 9.24107730388641360000e-001) (21, -1.11749613285064700000e+000) (22, 3.19457840919494630000e+000) (23, -1.50467562675476070000e+000) (24, 2.54200506210327150000e+000) (25, 3.72626876831054690000e+000) (26, 1.16057384014129640000e+000) (27, 2.52215290069580080000e+000) (28, 2.17486834526062010000e+000) (29, 8.06820571422576900000e-001) (30, 8.97681176662445070000e-001) (31, 2.97371578216552730000e+000) (32, 1.26102387905120850000e+000) (33, 1.95759439468383790000e+000) (34, 5.57142138481140140000e-001) (35, 3.46092677116394040000e+000) (36, -1.78980067372322080000e-001) (37, 3.24637234210968020000e-001) (38, 1.70660829544067380000e+000) (39, 2.34353446960449220000e+000) (40, 8.54329168796539310000e-001) (41, -7.47221291065216060000e-001) (42, 3.14950895309448240000e+000) (0, 4.96907010674476620000e-002) (1, -9.93033498525619510000e-002) (2, 1.23380251228809360000e-001) (3, -8.57939794659614560000e-002) (4, 1.32144883275032040000e-001) (5, -7.68849328160285950000e-002) (6, 3.95723432302474980000e-003) (7, -1.78474765270948410000e-002) (8, 2.97601036727428440000e-002) (9, 8.64380821585655210000e-002) (10, -8.93995240330696110000e-002) (11, 1.61892641335725780000e-002) (12, -5.44880181550979610000e-002) (13, -2.87347435951232910000e-002) (14, -1.29384687170386310000e-003) (15, -6.55738413333892820000e-002) (16, -4.16950732469558720000e-002) (17, 2.63977833092212680000e-002) (18, 3.51991616189479830000e-002) (19, -4.19165492057800290000e-002) (20, -9.38006192445755000000e-002) (21, -5.51619417965412140000e-002) (22, -6.72649592161178590000e-002) (23, 4.91690151393413540000e-002) (24, 1.36021776124835010000e-002) (25, 6.84860721230506900000e-002) (26, -7.73740559816360470000e-002) (27, 2.81671676784753800000e-002) (28, -1.82757467031478880000e-001) (29, 9.24206972122192380000e-002) (30, -9.69971194863319400000e-002) (31, -5.69300055503845210000e-002) (32, 4.74467733874917030000e-003) (33, 4.90473330020904540000e-001) (34, 3.96290160715579990000e-002) (35, -1.11948430538177490000e-001) (36, -1.40035480260849000000e-001) (37, 2.58615761995315550000e-002) (38, 1.00709117949008940000e-001) (39, 2.85785466432571410000e-001) (40, -2.50685364007949830000e-002) (41, 5.10671408846974370000e-003) (42, -1.43756149336695670000e-002) (43, 1.34278744459152220000e-001) (0, 1.79149642586708070000e-001) (1, 1.19943179190158840000e-001) (2, 1.19364179670810700000e-001) (3, 1.61380484700202940000e-001) (4, 5.88788464665412900000e-002) (5, 1.01156584918498990000e-001) (6, 1.51401147246360780000e-001) (7, 6.81989938020706180000e-002) (8, 2.44617927819490430000e-002) (9, 2.22119018435478210000e-002) (10, 7.67463594675064090000e-002) (11, 1.72897711396217350000e-001) (12, -7.20207300037145610000e-003) (13, 2.53306657075881960000e-001) (14, 8.25288817286491390000e-002) (15, 1.47043436765670780000e-001) (16, 2.19837367534637450000e-001) (17, 2.38371491432189940000e-001) (18, 2.45156530290842060000e-002) (19, 1.82611495256423950000e-001) (20, 8.22170302271842960000e-002) (21, 6.11128769814968110000e-002) (22, 7.09770098328590390000e-002) (23, 2.89904400706291200000e-002) (24, 1.99554860591888430000e-001) (25, 1.70031562447547910000e-002) (26, 1.59139946103096010000e-001) (27, -6.76953420042991640000e-003) (28, 9.85553041100502010000e-002) (29, 1.47128403186798100000e-001) (30, 1.41471669077873230000e-001) (31, 2.32044830918312070000e-002) (32, 3.76327186822891240000e-002) (33, -2.75505900382995610000e-001) (34, -1.33384987711906430000e-001) (35, -5.13015873730182650000e-002) (36, 1.09900139272212980000e-001) (37, -1.21933437883853910000e-001) (38, -8.20721611380577090000e-002) (39, -2.13457033038139340000e-001) (40, 2.43239700794219970000e-002) (41, 1.01763382554054260000e-001) (42, 1.91737100481987000000e-001) (43, -5.55535592138767240000e-003) (0, -1.69741883873939510000e-002) (1, 7.46441632509231570000e-002) (2, -1.74179822206497190000e-002) (3, 2.78020575642585750000e-002) (4, -5.09922280907630920000e-002) (5, 1.86201706528663640000e-002) (6, -7.54691287875175480000e-002) (7, 1.74750149250030520000e-001) (8, -3.08890752494335170000e-002) (9, -5.75095750391483310000e-002) (10, 2.99729462713003160000e-002) (11, -7.30942934751510620000e-002) (12, 4.85581047832965850000e-002) (13, -1.25920586287975310000e-002) (14, -8.85798875242471690000e-003) (15, 9.11200791597366330000e-002) (16, -2.33101621270179750000e-002) (17, 3.75951901078224180000e-002) (18, -3.58963310718536380000e-002) (19, -3.80543917417526250000e-002) (20, -4.69443202018737790000e-002) (21, -1.97249557822942730000e-002) (22, -1.16964019834995270000e-001) (23, 7.10468813776969910000e-002) (24, -8.68899598717689510000e-002) (25, 2.55825417116284370000e-003) (26, 8.59983339905738830000e-002) (27, 2.35573798418045040000e-002) (28, -4.11028936505317690000e-002) (29, -8.92758443951606750000e-002) (30, -1.87506899237632750000e-002) (31, -3.15258726477622990000e-002) (32, 6.95265503600239750000e-003) (33, 4.71958845853805540000e-001) (34, 1.32159560918807980000e-001) (35, 2.66936719417572020000e-001) (36, 6.85701966285705570000e-002) (37, 1.38407573103904720000e-001) (38, -2.34902530908584590000e-001) (39, 1.67824968695640560000e-001) (40, 6.61097690463066100000e-002) (41, 1.51635846123099330000e-002) (42, -1.83661505579948430000e-001) (43, 6.94848001003265380000e-002) (0, 2.15084120631217960000e-001) (1, 1.43800899386405940000e-001) (2, 1.57994642853736880000e-001) (3, 2.44815319776535030000e-001) (4, 1.62128776311874390000e-001) (5, 1.79145380854606630000e-001) (6, 2.02760100364685060000e-001) (7, 1.66622892022132870000e-001) (8, 1.83778136968612670000e-001) (9, 2.45096296072006230000e-001) (10, 2.85627335309982300000e-001) (11, 2.55414068698883060000e-001) (12, 2.33350560069084170000e-001) (13, 2.75041341781616210000e-001) (14, 6.87227770686149600000e-002) (15, 2.12467357516288760000e-001) (16, 1.64624705910682680000e-001) (17, 1.74272462725639340000e-001) (18, 1.83774620294570920000e-001) (19, 1.99379712343215940000e-001) (20, 1.12156577408313750000e-001) (21, 2.70064383745193480000e-001) (22, 1.45166069269180300000e-001) (23, 1.06150060892105100000e-001) (24, 2.24253118038177490000e-001) (25, 2.88946479558944700000e-001) (26, 2.18655109405517580000e-001) (27, 2.02322140336036680000e-001) (28, 1.13685294985771180000e-001) (29, 1.96740493178367610000e-001) (30, 1.09206616878509520000e-001) (31, 9.07646939158439640000e-002) (32, 9.52843800187110900000e-002) (33, -7.40108311176300050000e-001) (34, 2.25902032107114790000e-002) (35, -8.22834894061088560000e-002) (36, -4.00587692856788640000e-002) (37, -2.68845558166503910000e-002) (38, -1.13283783197402950000e-001) (39, -6.26953169703483580000e-002) (40, 9.06367599964141850000e-002) (41, 5.94369731843471530000e-002) (42, 8.59457328915596010000e-002) (43, -2.53292262554168700000e-001) (0, 2.35724925994873050000e-001) (1, 1.13507524132728580000e-001) (2, 1.01722609251737590000e-002) (3, 9.38118696212768550000e-002) (4, 1.76297947764396670000e-001) (5, 9.83791500329971310000e-002) (6, 1.54426813125610350000e-001) (7, 7.84859061241149900000e-002) (8, 2.86655928939580920000e-002) (9, 2.38075315952301030000e-001) (10, -2.91079953312873840000e-002) (11, 1.51875406503677370000e-001) (12, 5.20237721502780910000e-002) (13, 1.46136537194252010000e-001) (14, 1.19433760643005370000e-001) (15, 4.33798804879188540000e-002) (16, 2.94250220060348510000e-001) (17, 1.39293193817138670000e-001) (18, 1.85843318700790410000e-001) (19, 1.45628184080123900000e-001) (20, 2.62557208538055420000e-001) (21, 1.51059329509735110000e-001) (22, 6.72569265589118000000e-003) (23, 1.83588445186614990000e-001) (24, 1.34537562727928160000e-001) (25, 7.26210325956344600000e-002) (26, 2.40110456943511960000e-001) (27, 8.35974663496017460000e-002) (28, 1.03254728019237520000e-001) (29, 1.26730844378471370000e-001) (30, 1.28121405839920040000e-001) (31, 6.41015768051147460000e-002) (32, 2.72914677858352660000e-001) (33, -4.13689374923706050000e-001) (34, 1.15884713828563690000e-001) (35, -1.53966224752366540000e-003) (36, -6.54251966625452040000e-003) (37, 9.12137925624847410000e-002) (38, -4.42521236836910250000e-002) (39, -6.14777877926826480000e-002) (40, -1.69925764203071590000e-001) (41, 6.47142454981803890000e-002) (42, -8.16822797060012820000e-002) (43, 4.45969589054584500000e-002) (0, 3.36758866906166080000e-002) (1, 5.49538508057594300000e-002) (2, 1.68811291456222530000e-001) (3, 5.10677099227905270000e-002) (4, 3.68717946112155910000e-002) (5, 1.21252931654453280000e-001) (6, -1.44719807431101800000e-002) (7, 1.84309095144271850000e-001) (8, 6.36504292488098140000e-002) (9, 1.98857635259628300000e-001) (10, 9.69172790646553040000e-002) (11, 8.04534181952476500000e-002) (12, 5.09114190936088560000e-002) (13, 4.88928817212581630000e-002) (14, 5.05562685430049900000e-002) (15, 3.24425041675567630000e-001) (16, 5.15171550214290620000e-002) (17, 5.82684464752674100000e-002) (18, 1.32754608988761900000e-001) (19, 1.45360141992568970000e-001) (20, 1.68558031320571900000e-001) (21, 1.70490413904190060000e-001) (22, 3.64750660955905910000e-002) (23, -3.33703868091106410000e-003) (24, 2.37281128764152530000e-001) (25, 1.30165562033653260000e-001) (26, 7.11817294359207150000e-002) (27, 2.62780431658029560000e-002) (28, 2.31288284063339230000e-001) (29, 8.97558853030204770000e-002) (30, 1.45434588193893430000e-001) (31, 6.34515509009361270000e-002) (32, -5.35264723002910610000e-002) (33, -2.48745664954185490000e-001) (34, 1.12161852419376370000e-001) (35, -8.94297286868095400000e-002) (36, 1.06393821537494660000e-001) (37, -9.83512252569198610000e-002) (38, -9.02428254485130310000e-002) (39, -1.50511274114251140000e-002) (40, 6.34065568447113040000e-002) (41, -1.52384296059608460000e-001) (42, -4.56796959042549130000e-002) (43, 1.01693071424961090000e-001) (0, 1.45816236734390260000e-001) (1, 9.70781221985816960000e-002) (2, 2.09754496812820430000e-001) (3, 1.07080832123756410000e-001) (4, 7.09325307980179790000e-004) (5, 1.27349808812141420000e-001) (6, 4.81759272515773770000e-002) (7, 1.94103941321372990000e-001) (8, 2.42727503180503850000e-001) (9, 2.53783643245697020000e-001) (10, 1.76268145442008970000e-001) (11, 3.71712036430835720000e-002) (12, -2.16478332877159120000e-002) (13, 1.74825742840766910000e-001) (14, 2.67702579498291020000e-001) (15, 1.19461312890052800000e-001) (16, 8.91541987657547000000e-002) (17, 1.02044709026813510000e-001) (18, 1.65745005011558530000e-001) (19, -1.59620698541402820000e-002) (20, 2.71373808383941650000e-001) (21, 5.53786307573318480000e-002) (22, 1.22457267716526990000e-002) (23, 4.70233559608459470000e-002) (24, 1.92281290888786320000e-001) (25, 1.59979239106178280000e-001) (26, 2.72905498743057250000e-001) (27, 8.10957252979278560000e-002) (28, 1.14129565656185150000e-001) (29, -5.00867478549480440000e-002) (30, 1.08406193248811180000e-005) (31, 8.30357074737548830000e-002) (32, 9.50247421860694890000e-002) (33, -3.07514518499374390000e-001) (34, 9.31539237499237060000e-002) (35, -6.45298957824707030000e-002) (36, 4.97188717126846310000e-002) (37, -1.49508804082870480000e-001) (38, 1.85600854456424710000e-002) (39, 1.21391944587230680000e-001) (40, 7.16772899031639100000e-002) (41, 1.12891450524330140000e-001) (42, -2.23307330161333080000e-002) (43, 4.90164346992969510000e-002) (0, 1.65425196290016170000e-001) (1, -3.68984136730432510000e-003) (2, 8.00100788474082950000e-002) (3, 9.05457660555839540000e-002) (4, -1.43372351303696630000e-002) (5, -4.82185110449790950000e-002) (6, 7.92522877454757690000e-002) (7, -9.32822842150926590000e-003) (8, -1.71300396323204040000e-002) (9, 1.53695214539766310000e-002) (10, 1.22956767678260800000e-001) (11, 1.74973949790000920000e-001) (12, 4.37460988759994510000e-002) (13, 1.46418571472167970000e-001) (14, 7.48799741268157960000e-002) (15, 4.90404404699802400000e-002) (16, -5.28567917644977570000e-002) (17, 1.45478677004575730000e-002) (18, 7.96175226569175720000e-002) (19, 2.19628259539604190000e-001) (20, 5.59054948389530180000e-002) (21, 1.40402644872665410000e-001) (22, 1.08334600925445560000e-001) (23, 1.19292676448822020000e-001) (24, -5.83216268569231030000e-003) (25, 6.55063912272453310000e-002) (26, 7.31392726302146910000e-002) (27, 7.09399580955505370000e-002) (28, 1.00432790815830230000e-001) (29, 3.12315262854099270000e-002) (30, 1.18996404111385350000e-001) (31, 1.21049523353576660000e-001) (32, 2.60333828628063200000e-002) (33, -1.59270614385604860000e-002) (34, 5.76317980885505680000e-002) (35, -8.68689492344856260000e-002) (36, 1.32432490587234500000e-001) (37, -7.86725580692291260000e-002) (38, 2.78808991424739360000e-004) (39, -1.48989269509911540000e-002) (40, 7.88484606891870500000e-003) (41, -2.59362161159515380000e-002) (42, -4.59409952163696290000e-002) (43, -7.40838274359703060000e-002) (0, -9.39895138144493100000e-002) (1, 1.27796910237520930000e-003) (2, 9.68182925134897230000e-003) (3, 5.57916145771741870000e-003) (4, 1.13521143794059750000e-001) (5, -3.93625572323799130000e-002) (6, -3.91144603490829470000e-002) (7, -8.75971652567386630000e-003) (8, -2.14191094040870670000e-001) (9, -5.75606562197208400000e-002) (10, -5.84760010242462160000e-002) (11, -4.28088493645191190000e-002) (12, -1.84095818549394610000e-002) (13, 1.31753787398338320000e-001) (14, 4.39332462847232820000e-002) (15, 2.09238585084676740000e-002) (16, 1.08889378607273100000e-002) (17, 7.51995593309402470000e-002) (18, -8.49778279662132260000e-002) (19, -3.84346954524517060000e-002) (20, 3.18513400852680210000e-002) (21, -1.06462482362985610000e-002) (22, -3.90457808971405030000e-002) (23, 1.07610359787940980000e-001) (24, -1.90094739198684690000e-001) (25, -3.78110408782958980000e-002) (26, -2.36417632550001140000e-002) (27, -2.58281026035547260000e-002) (28, -4.87926825881004330000e-002) (29, -1.09879627823829650000e-001) (30, -1.01538062095642090000e-001) (31, -3.43852415680885310000e-002) (32, 4.80369105935096740000e-003) (33, 4.77889180183410640000e-001) (34, -1.27846837043762210000e-001) (35, 1.27230629324913020000e-001) (36, 4.18558083474636080000e-002) (37, 5.35017773509025570000e-002) (38, -1.05691418051719670000e-001) (39, -1.01355135440826420000e-001) (40, -1.59830465912818910000e-001) (41, 1.39276370406150820000e-001) (42, 2.04674582928419110000e-002) (43, 8.29543247818946840000e-002) (0, -2.88325157016515730000e-002) (1, -2.18278728425502780000e-002) (2, 2.09171455353498460000e-002) (3, 3.76697294414043430000e-002) (4, 8.45054164528846740000e-002) (5, 1.20061272755265240000e-002) (6, 1.26293525099754330000e-001) (7, 1.87760144472122190000e-002) (8, -7.76828592643141750000e-003) (9, -1.36977136135101320000e-001) (10, 1.88424602150917050000e-001) (11, 4.85195182263851170000e-002) (12, 5.01237660646438600000e-002) (13, -5.98261170089244840000e-002) (14, -2.04376839101314540000e-002) (15, 1.29943057894706730000e-001) (16, -2.72265058010816570000e-002) (17, -2.90966480970382690000e-002) (18, 8.22688192129135130000e-002) (19, -1.19223399087786670000e-002) (20, 2.04926162958145140000e-001) (21, 1.14334471523761750000e-001) (22, 3.36096920073032380000e-002) (23, 2.21453845500946040000e-001) (24, -4.51451726257801060000e-002) (25, 3.30839096568524840000e-003) (26, 1.56050309538841250000e-001) (27, -1.28219621255993840000e-002) (28, 4.82169017195701600000e-002) (29, 2.59892400354146960000e-002) (30, 2.36929636448621750000e-002) (31, 2.96394508332014080000e-002) (32, 1.39438033103942870000e-001) (33, 1.19494430720806120000e-001) (34, -4.79556508362293240000e-002) (35, -1.56828993931412700000e-003) (36, -2.09112595766782760000e-002) (37, 8.60167071223258970000e-002) (38, -1.82418182492256160000e-001) (39, -5.04851117730140690000e-002) (40, -2.12402313947677610000e-001) (41, -9.50272604823112490000e-002) (42, 1.04406118392944340000e-001) (43, -9.78076830506324770000e-002) (0, 1.55223861336708070000e-001) (1, 1.33996635675430300000e-001) (2, 1.06990993022918700000e-001) (3, 1.35782569646835330000e-001) (4, 1.59784659743309020000e-001) (5, 9.54420939087867740000e-002) (6, -3.89313325285911560000e-002) (7, 1.65848180651664730000e-001) (8, 1.02253690361976620000e-001) (9, 1.87561184167861940000e-001) (10, 1.67682632803916930000e-001) (11, 4.45416569709777830000e-002) (12, 1.82785987854003910000e-001) (13, -4.59701865911483760000e-002) (14, 3.02617084234952930000e-002) (15, 1.17364749312400820000e-001) (16, 9.75944995880126950000e-002) (17, 1.28587082028388980000e-001) (18, 1.04612804949283600000e-001) (19, 2.18051508069038390000e-001) (20, 1.91484481096267700000e-001) (21, 1.35772362351417540000e-001) (22, 1.68246611952781680000e-001) (23, 4.58872430026531220000e-002) (24, 1.08456961810588840000e-001) (25, -1.62118766456842420000e-002) (26, -2.10116673260927200000e-002) (27, 1.71672925353050230000e-001) (28, 1.95243149995803830000e-001) (29, 8.63648355007171630000e-002) (30, 1.70667275786399840000e-001) (31, 7.43981599807739260000e-002) (32, -8.95204674452543260000e-003) (33, -2.77635037899017330000e-001) (34, 2.28781655430793760000e-001) (35, 2.80752275139093400000e-002) (36, 4.59566339850425720000e-003) (37, 1.49855792522430420000e-001) (38, 1.28213390707969670000e-001) (39, -1.20671898126602170000e-001) (40, 2.31346599757671360000e-002) (41, 2.47810687869787220000e-002) (42, 2.70155258476734160000e-002) (43, 1.97838440537452700000e-001) (0, -9.08307731151580810000e-002) (1, 1.24489888548851010000e-001) (2, -3.24458554387092590000e-002) (3, 7.73051530122756960000e-002) (4, 1.36895636096596720000e-002) (5, 1.02841526269912720000e-001) (6, -2.37909215502440930000e-003) (7, -4.09346111118793490000e-002) (8, 1.05765268206596370000e-001) (9, -1.31176397204399110000e-001) (10, 7.08778053522109990000e-002) (11, -4.33781519532203670000e-002) (12, 5.16371615231037140000e-002) (13, -2.89794132113456730000e-002) (14, 1.37438714504241940000e-001) (15, -4.01498414576053620000e-002) (16, -3.62582691013813020000e-002) (17, 7.95295983552932740000e-002) (18, -1.54823347926139830000e-001) (19, 6.33684992790222170000e-002) (20, 8.33484902977943420000e-002) (21, -1.49838134646415710000e-001) (22, -1.88660193234682080000e-002) (23, -7.80371902510523800000e-003) (24, 7.14525952935218810000e-002) (25, -2.24084202200174330000e-002) (26, -6.28371164202690120000e-002) (27, 2.26515248417854310000e-001) (28, -2.14829277247190480000e-002) (29, 6.60445168614387510000e-002) (30, -4.14140112698078160000e-002) (31, 1.02796167135238650000e-001) (32, -7.88945928215980530000e-002) (33, 2.94798642396926880000e-001) (34, 3.41556407511234280000e-003) (35, 6.61531910300254820000e-002) (36, 3.42926345765590670000e-002) (37, 1.08711160719394680000e-001) (38, 2.04746611416339870000e-002) (39, -2.33409143984317780000e-002) (40, -9.12255793809890750000e-002) (41, -1.12863136455416680000e-002) (42, -2.15655192732810970000e-002) (43, 4.33818772435188290000e-002) (0, 5.72292739525437360000e-003) (1, 9.50415208935737610000e-002) (2, 1.76986493170261380000e-003) (3, -7.87447616457939150000e-002) (4, 3.47336679697036740000e-002) (5, 1.62037685513496400000e-002) (6, 1.92658096551895140000e-001) (7, 6.29611164331436160000e-002) (8, 1.20427787303924560000e-001) (9, 1.98816791176795960000e-001) (10, 1.25031113624572750000e-001) (11, 6.04456216096878050000e-002) (12, 8.93940404057502750000e-002) (13, 9.86194014549255370000e-002) (14, 9.87298861145973210000e-002) (15, -6.56254962086677550000e-002) (16, -7.07218796014785770000e-003) (17, 1.51837348937988280000e-001) (18, 1.39204934239387510000e-001) (19, -2.14600674808025360000e-002) (20, 3.14915855415165420000e-003) (21, 1.02331906557083130000e-001) (22, 6.25863224267959590000e-002) (23, 2.96524852514266970000e-001) (24, 8.79282969981431960000e-003) (25, 1.19025841355323790000e-001) (26, 1.60610407590866090000e-001) (27, -4.44958060979843140000e-002) (28, 1.74709960818290710000e-001) (29, 5.94559498131275180000e-002) (30, 2.13392361998558040000e-001) (31, 1.05166614055633540000e-001) (32, 2.48885434120893480000e-002) (33, -9.63895246386528020000e-002) (34, 1.05786770582199100000e-001) (35, 1.21612556278705600000e-001) (36, 1.11755751073360440000e-001) (37, -3.50269041955471040000e-002) (38, 3.51195223629474640000e-002) (39, -1.14537194371223450000e-001) (40, -9.51051935553550720000e-002) (41, -1.60020902752876280000e-001) (42, 1.42503112554550170000e-001) (43, -3.59663590788841250000e-002) (0, 2.17570811510086060000e-002) (1, 7.09696486592292790000e-002) (2, 1.77633270621299740000e-001) (3, 1.56218633055686950000e-001) (4, 1.36927710846066470000e-002) (5, 2.77419742196798320000e-002) (6, -5.81052526831626890000e-002) (7, 2.08151619881391530000e-002) (8, 2.98178233206272130000e-002) (9, 4.38435077667236330000e-002) (10, 1.29422813653945920000e-001) (11, 6.67927563190460210000e-002) (12, 4.00249846279621120000e-002) (13, -2.02041584998369220000e-002) (14, 8.64086598157882690000e-002) (15, 2.92925816029310230000e-002) (16, 1.29199087619781490000e-001) (17, 2.27557867765426640000e-002) (18, 1.93892493844032290000e-001) (19, -2.33807619661092760000e-002) (20, -8.32114815711975100000e-002) (21, 1.21533051133155820000e-001) (22, 1.66390031576156620000e-001) (23, 1.87504544854164120000e-001) (24, 1.17713339626789090000e-001) (25, -1.76664125174283980000e-002) (26, -7.69327655434608460000e-002) (27, 8.07608962059021000000e-002) (28, 8.23326632380485530000e-002) (29, -4.74981218576431270000e-002) (30, 8.05328711867332460000e-002) (31, 4.92538474500179290000e-002) (32, 5.62313497066497800000e-002) (33, 5.07566258311271670000e-002) (34, -5.34028597176074980000e-002) (35, 7.27292373776435850000e-002) (36, 3.45202498137950900000e-002) (37, -5.04617393016815190000e-002) (38, 6.55492395162582400000e-002) (39, 8.20178315043449400000e-002) (40, 9.59416404366493230000e-002) (41, 9.76417586207389830000e-002) (42, 7.42361247539520260000e-002) (43, -3.01590282469987870000e-002) (0, 1.33736625313758850000e-001) (1, 8.04384052753448490000e-002) (2, -7.32888057827949520000e-002) (3, 1.45782679319381710000e-001) (4, 1.99764087796211240000e-001) (5, 1.41575604677200320000e-001) (6, 2.17017401009798050000e-002) (7, 1.40276461839675900000e-001) (8, 2.06522420048713680000e-001) (9, 8.94016698002815250000e-002) (10, 9.74084716290235520000e-003) (11, 5.69620206952095030000e-002) (12, 5.16544170677661900000e-002) (13, -1.34492218494415280000e-002) (14, -1.64352059364318850000e-002) (15, 1.69915869832038880000e-001) (16, 5.71663938462734220000e-002) (17, 1.40303358435630800000e-001) (18, 1.22736208140850070000e-001) (19, 2.34901588410139080000e-002) (20, 4.32872697710990910000e-002) (21, 1.49064302444458010000e-001) (22, 7.91266933083534240000e-002) (23, 5.10897263884544370000e-002) (24, 2.98311468213796620000e-002) (25, 1.47506609559059140000e-001) (26, 2.51406822353601460000e-002) (27, 1.86680868268013000000e-001) (28, 1.54707595705986020000e-001) (29, 5.61185702681541440000e-002) (30, 1.67974047362804410000e-002) (31, 2.95012056827545170000e-001) (32, 1.10434196889400480000e-001) (33, -2.14158445596694950000e-001) (34, -1.11049860715866090000e-001) (35, -6.49743201211094860000e-003) (36, -5.32000996172428130000e-002) (37, 1.10607296228408810000e-002) (38, 7.37580051645636560000e-003) (39, -2.08810102194547650000e-002) (40, 8.46628844738006590000e-002) (41, -5.38374520838260650000e-002) (42, 1.80444657802581790000e-001) (43, 1.84427604079246520000e-001) (0, 1.03133618831634520000e-001) (1, 1.52543902397155760000e-001) (2, 3.29638719558715820000e-001) (3, 1.14453725516796110000e-001) (4, 6.69031888246536250000e-002) (5, 2.72891551256179810000e-001) (6, 1.73623561859130860000e-001) (7, 6.60840496420860290000e-002) (8, 1.30857557058334350000e-001) (9, 1.34177222847938540000e-001) (10, 6.66837617754936220000e-002) (11, 2.20127210021018980000e-001) (12, 1.92069366574287410000e-001) (13, 9.73066687583923340000e-002) (14, 3.53924781084060670000e-001) (15, 1.67608633637428280000e-001) (16, 1.04940526187419890000e-001) (17, 1.14132016897201540000e-001) (18, 1.20637103915214540000e-001) (19, 2.38455515354871750000e-002) (20, 6.31734281778335570000e-002) (21, 1.77271232008934020000e-001) (22, 7.00388401746749880000e-002) (23, 7.16263428330421450000e-002) (24, 2.17638388276100160000e-001) (25, 3.41499537229537960000e-001) (26, 1.80198714137077330000e-001) (27, 7.68982693552970890000e-002) (28, 7.29322209954261780000e-002) (29, 9.19875726103782650000e-002) (30, 1.38445600867271420000e-001) (31, 2.00507074594497680000e-001) (32, -5.13052903115749360000e-002) (33, -4.81767326593399050000e-001) (34, 9.88794490694999690000e-002) (35, -1.56866893172264100000e-001) (36, -3.68239916861057280000e-002) (37, 1.04171991348266600000e-001) (38, -5.51501996815204620000e-002) (39, 1.74248114228248600000e-001) (40, -6.60305246710777280000e-002) (41, -1.32538899779319760000e-001) (42, 2.08458378911018370000e-001) (43, -4.06017787754535680000e-002) (0, 1.92909538745880130000e-001) (1, 3.42778086662292480000e-001) (2, 2.70849019289016720000e-001) (3, 1.57591730356216430000e-001) (4, 2.85238862037658690000e-001) (5, 3.28234642744064330000e-001) (6, 2.43742182850837710000e-001) (7, 3.21837574243545530000e-001) (8, 1.80723085999488830000e-001) (9, 1.56711772084236150000e-001) (10, 2.32065469026565550000e-001) (11, 2.04831466078758240000e-001) (12, 2.61665284633636470000e-001) (13, 3.45483541488647460000e-001) (14, 1.98130071163177490000e-001) (15, 2.69854515790939330000e-001) (16, 1.41094818711280820000e-001) (17, 1.65621951222419740000e-001) (18, 1.66405364871025090000e-001) (19, 3.10135692358016970000e-001) (20, 1.88605025410652160000e-001) (21, 2.62092173099517820000e-001) (22, 2.88292527198791500000e-001) (23, 2.99239277839660640000e-001) (24, 1.71507805585861210000e-001) (25, 2.05713629722595210000e-001) (26, 2.79619514942169190000e-001) (27, 2.70147532224655150000e-001) (28, 3.03253233432769780000e-001) (29, 1.82467877864837650000e-001) (30, 3.27273368835449220000e-001) (31, 2.56501823663711550000e-001) (32, 2.93004006147384640000e-001) (33, -1.06859898567199710000e+000) (34, 5.23868314921855930000e-002) (35, -1.99044987559318540000e-001) (36, 1.16884402930736540000e-001) (37, -1.43575564026832580000e-001) (38, 1.15591056644916530000e-001) (39, -1.15285716950893400000e-001) (40, -1.28170803189277650000e-001) (41, 1.22721150517463680000e-001) (42, -1.59743592143058780000e-001) (43, -1.89272314310073850000e-002) (0, 1.55161917209625240000e-001) (1, 2.10175067186355590000e-002) (2, 7.51926749944686890000e-002) (3, 1.86455354094505310000e-001) (4, 3.84632945060729980000e-002) (5, -1.61185755860060450000e-003) (6, 6.42340928316116330000e-002) (7, 2.94363703578710560000e-002) (8, 1.62381350994110110000e-001) (9, 1.44574362784624100000e-002) (10, 1.43514484167099000000e-001) (11, 5.19027784466743470000e-002) (12, 5.65001703798770900000e-002) (13, 1.76665350794792180000e-001) (14, 1.22425138950347900000e-001) (15, 5.30658997595310210000e-002) (16, 1.59266293048858640000e-001) (17, 7.96547830104827880000e-002) (18, -4.28659990429878230000e-002) (19, 2.06952288746833800000e-001) (20, 1.36200398206710820000e-001) (21, 1.31671996787190440000e-002) (22, 1.66308552026748660000e-001) (23, 2.35734000802040100000e-001) (24, 2.13809370994567870000e-001) (25, 1.17615252733230590000e-001) (26, 1.00853085517883300000e-001) (27, -2.37510669976472850000e-002) (28, 1.95457145571708680000e-001) (29, 1.77747562527656560000e-001) (30, -9.94147174060344700000e-003) (31, 1.19612202048301700000e-001) (32, -1.62972267717123030000e-002) (33, -1.57541647553443910000e-001) (34, -7.49185308814048770000e-002) (35, 5.36903832107782360000e-003) (36, 1.33749074302613740000e-003) (37, 1.14510215818881990000e-001) (38, 4.88419868052005770000e-002) (39, -5.85799030959606170000e-002) (40, 1.08537971973419190000e-001) (41, -9.54240113496780400000e-002) (42, -9.96388196945190430000e-002) (43, -1.33887350559234620000e-001) (0, 5.72076402604579930000e-002) (1, -1.03690382093191150000e-002) (2, 3.01316417753696440000e-002) (3, 4.00899238884449010000e-002) (4, -6.21409229934215550000e-002) (5, 9.91387516260147090000e-002) (6, 6.24278485774993900000e-002) (7, -3.95048260688781740000e-002) (8, -4.29710447788238530000e-002) (9, 4.62396629154682160000e-002) (10, 4.99756932258605960000e-002) (11, 6.48858845233917240000e-002) (12, 1.86846241354942320000e-001) (13, -4.40604202449321750000e-002) (14, 6.09987229108810420000e-003) (15, 2.83827017992734910000e-002) (16, 1.64592191576957700000e-001) (17, -2.37846467643976210000e-002) (18, 1.89593464136123660000e-001) (19, 3.53035070002079010000e-002) (20, 1.03066787123680110000e-001) (21, 1.75263985991477970000e-001) (22, 9.07686166465282440000e-003) (23, -4.59801442921161650000e-002) (24, 7.74384513497352600000e-002) (25, -1.68717011809349060000e-001) (26, 1.53354555368423460000e-001) (27, 1.45054206252098080000e-001) (28, 4.07930389046669010000e-002) (29, 1.19147166609764100000e-001) (30, 7.61387050151824950000e-002) (31, 1.10664583742618560000e-001) (32, 9.17946323752403260000e-002) (33, 7.68616795539855960000e-002) (34, -4.87747527658939360000e-002) (35, 9.23060625791549680000e-002) (36, -1.53378605842590330000e-001) (37, -1.58199474215507510000e-001) (38, -3.68178002536296840000e-002) (39, -1.85136675834655760000e-001) (40, -6.57776445150375370000e-002) (41, 1.62991032004356380000e-001) (42, 4.47680726647377010000e-002) (43, 5.68972676992416380000e-002) (0, 5.42528517544269560000e-002) (1, 6.93880990147590640000e-002) (2, 2.91810445487499240000e-002) (3, 7.07437023520469670000e-002) (4, 3.33725884556770320000e-002) (5, 7.21758604049682620000e-002) (6, -3.75353470444679260000e-002) (7, 1.20360828936100010000e-001) (8, 3.92707064747810360000e-002) (9, 5.56499958038330080000e-002) (10, -4.38461489975452420000e-002) (11, 4.07992862164974210000e-003) (12, 1.33559316396713260000e-001) (13, 1.18742682039737700000e-001) (14, 5.45017272233963010000e-002) (15, 8.53078663349151610000e-002) (16, -9.02597326785326000000e-003) (17, 3.89596298336982730000e-002) (18, 6.31692782044410710000e-002) (19, 6.37156218290328980000e-002) (20, 8.92897471785545350000e-002) (21, -1.74650270491838460000e-002) (22, 1.60251259803771970000e-001) (23, 1.02562289685010910000e-002) (24, -1.96981220506131650000e-003) (25, 2.40045674145221710000e-002) (26, 6.47820234298706050000e-002) (27, 2.39687841385602950000e-002) (28, 1.43858894705772400000e-001) (29, 1.61792919039726260000e-001) (30, 1.32949739694595340000e-001) (31, 1.70650228857994080000e-001) (32, 6.48030564188957210000e-002) (33, -4.14386168122291560000e-002) (34, 3.41149568557739260000e-002) (35, 6.96130245923995970000e-002) (36, -3.39770666323602200000e-003) (37, -1.49133011698722840000e-001) (38, 4.31406497955322270000e-002) (39, -5.09796217083930970000e-002) (40, -1.49425286799669270000e-002) (41, -1.03692896664142610000e-001) (42, -1.75495482981204990000e-002) (43, -5.29488436877727510000e-002) (0, -1.36717155575752260000e-001) (1, -3.35660018026828770000e-002) (2, -1.90715730190277100000e-001) (3, -1.03455588221549990000e-001) (4, -1.07170846604276450000e-004) (5, 3.44627313315868380000e-002) (6, -5.12963607907295230000e-002) (7, -8.18360224366188050000e-003) (8, -2.17185299843549730000e-002) (9, 4.51050288975238800000e-002) (10, -6.62561412900686260000e-003) (11, 5.90343959629535680000e-002) (12, 8.65114927291870120000e-002) (13, -4.55875918269157410000e-002) (14, 3.93608622252941130000e-002) (15, 1.09680891036987300000e-001) (16, -4.21293228864669800000e-002) (17, -6.00866116583347320000e-002) (18, -8.48567783832550050000e-002) (19, -1.14467643201351170000e-001) (20, 1.61469563841819760000e-001) (21, -8.83178263902664180000e-002) (22, -4.62236767634749410000e-003) (23, -6.21441975235939030000e-002) (24, 7.03397556208074090000e-004) (25, -5.62931299209594730000e-002) (26, -1.37078404426574710000e-001) (27, 5.16870431602001190000e-002) (28, -4.73788753151893620000e-002) (29, 7.11247399449348450000e-002) (30, 7.02512785792350770000e-002) (31, 2.24014930427074430000e-002) (32, 1.94969863514415920000e-004) (33, 4.82005536556243900000e-001) (34, -1.84503853321075440000e-001) (35, 6.26725405454635620000e-002) (36, -4.07663593068718910000e-003) (37, -3.70363821275532250000e-003) (38, 3.94548363983631130000e-002) (39, 1.99318286031484600000e-002) (40, -1.01291425526142120000e-001) (41, 7.41907954216003420000e-002) (42, -2.01977074146270750000e-001) (43, -2.51091606914997100000e-002) (0, 2.25978955626487730000e-001) (1, -2.11342647671699520000e-002) (2, 1.38792455196380620000e-001) (3, 7.03682601451873780000e-002) (4, 9.08293109387159350000e-003) (5, 1.28113150596618650000e-001) (6, 7.96666089445352550000e-003) (7, 1.51624336838722230000e-001) (8, 9.78984907269477840000e-002) (9, 4.89189289510250090000e-002) (10, 1.74849584698677060000e-001) (11, 3.96978966891765590000e-002) (12, 1.24099217355251310000e-001) (13, 1.00755661725997920000e-001) (14, 7.31950476765632630000e-002) (15, -2.66696400940418240000e-002) (16, 1.78771242499351500000e-001) (17, 3.71176190674304960000e-002) (18, -3.98405231535434720000e-002) (19, 5.60388937592506410000e-002) (20, 1.30534940399229530000e-003) (21, 6.24252334237098690000e-002) (22, 2.96789538115262990000e-002) (23, -3.76075059175491330000e-002) (24, 3.33810341544449330000e-003) (25, 1.94362342357635500000e-001) (26, 1.09478563070297240000e-001) (27, 2.71541960537433620000e-002) (28, 1.73430636525154110000e-001) (29, 1.11097909510135650000e-001) (30, 2.77976915240287780000e-002) (31, 3.02935168147087100000e-002) (32, 3.56038026511669160000e-002) (33, -8.33284705877304080000e-002) (34, -1.41066581010818480000e-001) (35, 9.23293828964233400000e-002) (36, -2.46917270123958590000e-003) (37, 1.94778725504875180000e-001) (38, 3.58472205698490140000e-002) (39, 1.05642549693584440000e-001) (40, 1.12007834017276760000e-001) (41, -2.52182751893997190000e-001) (42, -1.37961491942405700000e-001) (43, -2.47212350368499760000e-001) (0, 1.31411015987396240000e-001) (1, 1.81077137589454650000e-001) (2, 9.91079583764076230000e-002) (3, 8.36959630250930790000e-002) (4, -1.31988460198044780000e-002) (5, 1.70993879437446590000e-001) (6, 3.36317241191864010000e-001) (7, 1.03386051952838900000e-001) (8, -3.34570221602916720000e-002) (9, 1.94195911288261410000e-001) (10, 2.93290466070175170000e-001) (11, 8.37633237242698670000e-002) (12, 2.22187280654907230000e-001) (13, 1.66974231600761410000e-001) (14, 6.09253384172916410000e-002) (15, 1.36282593011856080000e-001) (16, 3.40686947107315060000e-001) (17, 1.38826623558998110000e-001) (18, 1.36626392602920530000e-001) (19, 2.22546294331550600000e-001) (20, 6.02038949728012080000e-002) (21, 2.00703874230384830000e-001) (22, 1.14259675145149230000e-001) (23, 1.36181771755218510000e-001) (24, 1.78511679172515870000e-001) (25, 3.32121223211288450000e-001) (26, 2.17029988765716550000e-001) (27, 1.48178949952125550000e-001) (28, 5.52187077701091770000e-002) (29, 1.43245235085487370000e-001) (30, 1.27156004309654240000e-001) (31, 1.39035597443580630000e-001) (32, 1.14646129310131070000e-001) (33, -5.73436200618743900000e-001) (34, 5.36638870835304260000e-003) (35, -5.50472028553485870000e-002) (36, -3.98463197052478790000e-002) (37, 4.06031403690576550000e-003) (38, -1.33621886372566220000e-001) (39, -9.00012161582708360000e-003) (40, 2.76000201702117920000e-001) (41, -8.44901949167251590000e-002) (42, -5.72124775499105450000e-003) (43, 7.32611343264579770000e-002) (0, 3.36424410343170170000e-001) (1, 1.51290237903594970000e-001) (2, 2.62204796075820920000e-001) (3, 2.59947001934051510000e-001) (4, 2.79283046722412110000e-001) (5, 1.72686800360679630000e-001) (6, 2.64823585748672490000e-001) (7, 2.40215033292770390000e-001) (8, 3.45407813787460330000e-001) (9, 3.74050080776214600000e-001) (10, 2.12577491998672490000e-001) (11, 3.46305608749389650000e-001) (12, 3.13245058059692380000e-001) (13, 2.09122359752655030000e-001) (14, 3.46270829439163210000e-001) (15, 1.91264912486076350000e-001) (16, 3.13547670841217040000e-001) (17, 3.00913453102111820000e-001) (18, 4.02400285005569460000e-001) (19, 3.18195879459381100000e-001) (20, 1.35068506002426150000e-001) (21, 3.13462167978286740000e-001) (22, 2.62356132268905640000e-001) (23, 1.94425106048583980000e-001) (24, 3.21236759424209590000e-001) (25, 1.98212236166000370000e-001) (26, 2.74657100439071660000e-001) (27, 2.09096193313598630000e-001) (28, 4.01083499193191530000e-001) (29, 2.67840325832366940000e-001) (30, 4.17572140693664550000e-001) (31, 1.76066353917121890000e-001) (32, 3.94077390432357790000e-001) (33, -1.32547414302825930000e+000) (34, -1.56006598845124240000e-002) (35, 3.91710624098777770000e-002) (36, -2.01499104499816890000e-001) (37, -6.52952715754508970000e-002) (38, 3.88701941119506960000e-004) (39, 8.53884816169738770000e-002) (40, 1.51065498590469360000e-001) (41, 8.66110622882843020000e-002) (42, 8.72284695506095890000e-002) (43, 6.17933422327041630000e-002) (0, 1.43068498000502590000e-002) (1, 5.84146566689014430000e-002) (2, -3.46317626535892490000e-002) (3, 1.23477250337600710000e-001) (4, 1.06381207704544070000e-001) (5, 5.14838658273220060000e-002) (6, 1.85668781399726870000e-001) (7, 6.08448423445224760000e-002) (8, 3.91208305954933170000e-002) (9, 9.36098098754882810000e-002) (10, 7.08817765116691590000e-002) (11, -1.16007700562477110000e-002) (12, 1.54495863243937490000e-002) (13, 3.50551865994930270000e-002) (14, -6.39661177992820740000e-002) (15, 9.89324375987052920000e-002) (16, 1.12419106066226960000e-001) (17, -9.76326642557978630000e-004) (18, 7.42890983819961550000e-002) (19, 1.17437846958637240000e-001) (20, 5.62787726521492000000e-002) (21, 9.79512277990579610000e-003) (22, 5.62178939580917360000e-002) (23, 1.06867522001266480000e-001) (24, 6.01440705358982090000e-002) (25, -6.38220310211181640000e-002) (26, -7.54353627562522890000e-002) (27, 8.73310714960098270000e-002) (28, 5.78138642013072970000e-002) (29, 3.35239842534065250000e-002) (30, 9.17666107416152950000e-002) (31, 1.60375356674194340000e-001) (32, 8.06406438350677490000e-002) (33, 3.66451069712638850000e-002) (34, 6.60187751054763790000e-002) (35, 1.43464421853423120000e-002) (36, 5.62591552734375000000e-002) (37, -4.20627295970916750000e-002) (38, 6.97635412216186520000e-002) (39, 1.48075707256793980000e-002) (40, -3.37645262479782100000e-002) (41, 1.37773845344781880000e-002) (42, 1.09242096543312070000e-001) (43, 7.90333524346351620000e-002) (0, 2.45110601186752320000e-001) (1, 2.66860097646713260000e-001) (2, 1.91060677170753480000e-001) (3, 1.36667340993881230000e-001) (4, 2.42835000157356260000e-001) (5, 8.40338766574859620000e-002) (6, 2.97279328107833860000e-001) (7, 1.02156423032283780000e-001) (8, 1.22643716633319850000e-001) (9, 3.08846980333328250000e-001) (10, -6.26252293586730960000e-002) (11, 2.58497685194015500000e-001) (12, 2.14771062135696410000e-001) (13, 1.42521589994430540000e-001) (14, 2.17096582055091860000e-001) (15, 1.92923516035079960000e-001) (16, 2.81721740961074830000e-001) (17, 1.94514989852905270000e-001) (18, 1.49852514266967770000e-001) (19, 6.65615350008010860000e-002) (20, 2.67754942178726200000e-001) (21, 2.90845632553100590000e-001) (22, 3.31031531095504760000e-001) (23, 2.24468082189559940000e-001) (24, 2.18334272503852840000e-001) (25, 7.75581002235412600000e-002) (26, 3.50432574748992920000e-001) (27, 3.51552627980709080000e-002) (28, -2.03669979237020020000e-003) (29, 3.60482752323150630000e-001) (30, 1.72887831926345830000e-001) (31, 2.06826820969581600000e-001) (32, 3.44705641269683840000e-001) (33, -7.58124709129333500000e-001) (34, -7.61862546205520630000e-002) (35, -1.22202612459659580000e-001) (36, -2.84787386655807500000e-001) (37, 1.02986569982022050000e-003) (38, 1.05681857094168660000e-002) (39, 1.58523134887218480000e-002) (40, -8.71725827455520630000e-002) (41, -1.61248728632926940000e-001) (42, -2.58720427751541140000e-001) (43, -8.70388001203536990000e-002) (0, -1.30642059957608580000e-004) (1, -3.24504487216472630000e-002) (2, 1.24110482633113860000e-001) (3, -2.25947108119726180000e-002) (4, 1.75949260592460630000e-001) (5, 1.59260079264640810000e-001) (6, 2.23860442638397220000e-002) (7, 6.06384649872779850000e-002) (8, 6.66675791144371030000e-002) (9, -4.40048985183238980000e-002) (10, -4.88714547827839850000e-003) (11, -3.84835749864578250000e-002) (12, 2.40425318479537960000e-002) (13, 1.16512976586818700000e-001) (14, -2.03379634767770770000e-002) (15, -1.55568167567253110000e-001) (16, 1.96059625595808030000e-002) (17, 6.46459013223648070000e-002) (18, 1.20907656848430630000e-001) (19, 2.83768307417631150000e-002) (20, -1.10804684460163120000e-001) (21, 4.98479381203651430000e-002) (22, 6.08056262135505680000e-002) (23, -4.82270978391170500000e-002) (24, 2.38657519221305850000e-002) (25, 9.16348248720169070000e-002) (26, -6.97034820914268490000e-002) (27, 7.45483413338661190000e-002) (28, 8.08739736676216130000e-002) (29, 1.70494452118873600000e-001) (30, 9.66555625200271610000e-002) (31, -4.51224856078624730000e-002) (32, 1.75883069634437560000e-001) (33, 1.47487610578536990000e-001) (34, 5.25078438222408290000e-002) (35, -7.38584399223327640000e-002) (36, 3.38750481605529790000e-002) (37, 1.38664260506629940000e-001) (38, -2.69667431712150570000e-002) (39, 9.96041577309370040000e-003) (40, 1.03703774511814120000e-001) (41, 1.84723556041717530000e-001) (42, -3.35573479533195500000e-002) (43, -1.32040992379188540000e-001) (0, 1.74565687775611880000e-001) (1, 6.49163201451301570000e-002) (2, 1.92455396056175230000e-001) (3, 4.42214794456958770000e-002) (4, 1.87725247815251350000e-003) (5, 1.32323503494262700000e-001) (6, 1.10744766891002660000e-001) (7, 3.30138467252254490000e-002) (8, 2.02284455299377440000e-001) (9, 1.28739595413208010000e-001) (10, 1.57850489020347600000e-001) (11, 2.77887769043445590000e-002) (12, 1.00923985242843630000e-001) (13, 6.81854337453842160000e-002) (14, 1.47897675633430480000e-001) (15, 1.61666184663772580000e-001) (16, 5.79679086804389950000e-002) (17, 1.87675014138221740000e-001) (18, -1.43304029479622840000e-002) (19, 1.39680266380310060000e-001) (20, 2.84375175833702090000e-002) (21, -1.87060609459877010000e-002) (22, 1.42123162746429440000e-001) (23, 1.58374816179275510000e-001) (24, 1.15367375314235690000e-001) (25, 8.84938165545463560000e-002) (26, 3.69644798338413240000e-002) (27, 2.89442777633666990000e-001) (28, 5.05633875727653500000e-002) (29, 6.37381076812744140000e-002) (30, 2.86195501685142520000e-002) (31, 6.29968643188476560000e-002) (32, 4.87484000623226170000e-002) (33, -2.59400308132171630000e-001) (34, 4.50529763475060460000e-003) (35, -7.42602720856666560000e-002) (36, -7.60759934782981870000e-002) (37, 1.07697181403636930000e-001) (38, -5.57750351727008820000e-002) (39, 2.75750551372766490000e-002) (40, 3.11524961143732070000e-002) (41, -3.01279146224260330000e-002) (42, -8.55145789682865140000e-003) (43, 1.17367699742317200000e-001) (0, -6.82713463902473450000e-002) (1, 2.51663606613874440000e-002) (2, 1.51301352307200430000e-002) (3, 1.25117152929306030000e-001) (4, 4.01524081826210020000e-002) (5, -5.91537132859230040000e-002) (6, -1.53983919881284240000e-003) (7, 1.57945305109024050000e-002) (8, 1.11707113683223720000e-001) (9, -1.15136660635471340000e-001) (10, 3.15449461340904240000e-002) (11, 4.26576472818851470000e-002) (12, -1.09204232692718510000e-001) (13, -8.42853337526321410000e-002) (14, -9.07714962959289550000e-002) (15, -4.77471351623535160000e-002) (16, -7.23605751991271970000e-002) (17, -1.96673087775707240000e-002) (18, -7.60173844173550610000e-003) (19, -4.69909515231847760000e-003) (20, -1.86156835407018660000e-002) (21, -1.34228944778442380000e-001) (22, 7.16083943843841550000e-002) (23, -1.15097753703594210000e-001) (24, -1.03600837290287020000e-001) (25, 4.06295657157897950000e-002) (26, -1.82192511856555940000e-002) (27, -2.31306239962577820000e-001) (28, 3.35186310112476350000e-002) (29, -7.50272944569587710000e-002) (30, -9.29380655288696290000e-002) (31, -8.93885791301727290000e-002) (32, -1.68698299676179890000e-002) (33, 5.54670989513397220000e-001) (34, 3.35050350986421110000e-003) (35, -1.13445490598678590000e-001) (36, 3.89220528304576870000e-002) (37, 7.12746381759643550000e-002) (38, 1.67192190885543820000e-001) (39, 1.62066355347633360000e-001) (40, -1.20745398104190830000e-001) (41, 8.17405059933662410000e-002) (42, 1.08714606612920760000e-002) (43, -1.29789546132087710000e-001) (0, 1.31153568625450130000e-001) (1, 1.24108470976352690000e-001) (2, -6.52038678526878360000e-002) (3, 1.00985564291477200000e-001) (4, 7.28437975049018860000e-002) (5, 1.96558222174644470000e-001) (6, 1.04746192693710330000e-001) (7, 2.05887988209724430000e-001) (8, 1.21637232601642610000e-001) (9, 8.09690207242965700000e-002) (10, 1.20398581027984620000e-001) (11, 9.11754071712493900000e-002) (12, 3.42556945979595180000e-002) (13, 1.21893189847469330000e-001) (14, 1.22327446937561040000e-001) (15, 1.17882758378982540000e-001) (16, 4.49605509638786320000e-002) (17, -3.19619141519069670000e-002) (18, 1.48866951465606690000e-001) (19, 1.06930240988731380000e-001) (20, -3.29164676368236540000e-002) (21, -4.87435087561607360000e-002) (22, 2.08687707781791690000e-001) (23, -3.69642153382301330000e-002) (24, 1.06203489005565640000e-001) (25, 1.52310281991958620000e-001) (26, 1.74945965409278870000e-001) (27, 5.93857467174530030000e-002) (28, 6.29922747611999510000e-003) (29, -4.62936051189899440000e-002) (30, -1.91321913152933120000e-002) (31, 2.14294627308845520000e-001) (32, 1.04805670678615570000e-001) (33, -9.39291492104530330000e-002) (34, -1.96041405200958250000e-001) (35, -8.55606049299240110000e-002) (36, 1.92789942026138310000e-001) (37, -1.82510599493980410000e-001) (38, 5.11857643723487850000e-002) (39, 4.94735352694988250000e-002) (40, 7.53259658813476560000e-002) (41, -1.08314998447895050000e-001) (42, 7.58344233036041260000e-002) (43, -1.05720102787017820000e-001) (0, -7.14676678180694580000e-002) (1, 2.02350467443466190000e-001) (2, -7.24224224686622620000e-002) (3, -6.30744993686676030000e-002) (4, 2.12347447872161870000e-001) (5, -1.24518387019634250000e-003) (6, -1.04322806000709530000e-002) (7, 4.17213886976242070000e-004) (8, 4.78867813944816590000e-002) (9, -3.39687652885913850000e-002) (10, -1.32515817880630490000e-001) (11, 8.14558342099189760000e-002) (12, 3.85763049125671390000e-002) (13, 1.08491495251655580000e-001) (14, 1.98190771043300630000e-002) (15, 8.25154483318328860000e-002) (16, 3.90213802456855770000e-002) (17, -4.59876768290996550000e-002) (18, 4.95139546692371370000e-002) (19, -3.90800498425960540000e-002) (20, 1.84733852744102480000e-001) (21, 2.19696357846260070000e-001) (22, 5.00842854380607600000e-002) (23, 3.04673649370670320000e-002) (24, 1.10226124525070190000e-001) (25, -6.22781645506620410000e-003) (26, -8.35728570818901060000e-002) (27, 1.19508631527423860000e-001) (28, -4.76511940360069270000e-002) (29, -5.35234138369560240000e-002) (30, 9.72631126642227170000e-002) (31, -5.03552444279193880000e-002) (32, 7.52099752426147460000e-002) (33, 1.78606584668159480000e-001) (34, -1.69191285967826840000e-002) (35, -6.62038614973425870000e-003) (36, -7.73685276508331300000e-002) (37, -1.05763174593448640000e-001) (38, -1.33780471514910460000e-003) (39, -1.26479357481002810000e-001) (40, -6.70790821313858030000e-002) (41, 1.73755541443824770000e-001) (42, -8.38152095675468440000e-002) (43, 1.75444856286048890000e-001) (0, -7.29776397347450260000e-002) (1, 7.08137080073356630000e-002) (2, 8.94368216395378110000e-002) (3, 5.32473735511302950000e-002) (4, -6.65811449289321900000e-002) (5, 5.61264203861355780000e-003) (6, 6.63410872220993040000e-002) (7, -1.35508067905902860000e-002) (8, 1.67996391654014590000e-001) (9, 1.83257590979337690000e-002) (10, 4.39216494560241700000e-002) (11, 1.09864898025989530000e-001) (12, 3.29816713929176330000e-002) (13, 5.74181564152240750000e-002) (14, 6.72288835048675540000e-002) (15, -8.08828175067901610000e-002) (16, -8.41705128550529480000e-002) (17, 1.00325569510459900000e-001) (18, 8.71619656682014470000e-002) (19, 9.98723506927490230000e-002) (20, 4.46153953671455380000e-002) (21, -1.21783442795276640000e-001) (22, 3.98443676531314850000e-002) (23, 6.53091743588447570000e-002) (24, 7.36658414825797080000e-003) (25, 1.10664740204811100000e-001) (26, 2.61911060661077500000e-002) (27, 2.07067772746086120000e-001) (28, 4.49946299195289610000e-002) (29, 7.47645720839500430000e-002) (30, 6.56788721680641170000e-002) (31, 1.24984206631779670000e-002) (32, 1.54703974723815920000e-001) (33, 1.37441366910934450000e-001) (34, -9.32874456048011780000e-002) (35, 1.86413347721099850000e-001) (36, 4.71035130321979520000e-002) (37, -2.90110465139150620000e-002) (38, 3.11435699462890630000e-001) (39, -1.87593307346105580000e-002) (40, 6.85384050011634830000e-002) (41, 2.52746287733316420000e-002) (42, -8.85323993861675260000e-003) (43, 2.24539265036582950000e-002) (0, 1.72614857554435730000e-001) (1, 1.49410858750343320000e-001) (2, 2.14908033609390260000e-001) (3, 2.12165877223014830000e-001) (4, 1.79675549268722530000e-001) (5, 5.59808872640132900000e-002) (6, 1.87557816505432130000e-001) (7, 1.06527604162693020000e-001) (8, 1.40763938426971440000e-001) (9, 6.44926875829696660000e-002) (10, 7.02727735042572020000e-002) (11, 1.06981381773948670000e-001) (12, 4.93242777884006500000e-002) (13, 5.15854619443416600000e-002) (14, 1.79457738995552060000e-001) (15, 8.19442644715309140000e-002) (16, 1.11090436577796940000e-001) (17, 1.61219209432601930000e-001) (18, 4.37229312956333160000e-002) (19, 1.09414473176002500000e-001) (20, 1.21559038758277890000e-001) (21, 1.67667359113693240000e-001) (22, 6.12686648964881900000e-002) (23, 6.76612630486488340000e-002) (24, -3.51483793929219250000e-003) (25, 1.41911774873733520000e-001) (26, -4.67339903116226200000e-002) (27, 8.43241363763809200000e-002) (28, 5.86054287850856780000e-002) (29, 1.91207349300384520000e-001) (30, 1.47816464304924010000e-001) (31, 1.05184279382228850000e-001) (32, 1.29752889275550840000e-001) (33, -3.71370017528533940000e-001) (34, 1.01495169103145600000e-001) (35, 1.39177903532981870000e-001) (36, -1.98811180889606480000e-002) (37, 5.41381761431694030000e-002) (38, -8.59867855906486510000e-002) (39, 4.38935756683349610000e-002) (40, -2.34468206763267520000e-002) (41, -7.73228257894515990000e-002) (42, 4.83272224664688110000e-002) (43, -3.05699761956930160000e-002) 
